import { utils } from '@andypai/neuroflow'

const startingWeights =
  '[[{"weights":[-0.010869252079048054,0.03532504681422029,0.018581825690824196,-0.00013447657341759421,0.02692234565176998,0.039125642523140054,0.002549469159797528,0.013958672310557089,0.043390549115896716,0.003462647083915176,-0.0323160212705726,-0.0006021023496350431,0.009886003102545091,0.0001257289132123406,0.01919349361188096,0.043855571540559385,0.016764426967861793,0.023865173066148705,0.02012740765086354,-0.11222621298874841,-0.03473950761134249,-0.09304838617072392,-0.0075086417945021515,-0.00294024421085422,0.038342672123623925,-0.030603883731357074,0.021973653632826846,-0.04517493215439008,0.037287914039387346,0.0334137877919062,-0.017260825739710092,0.04125599358938065,-0.09588175173862906,-0.07115925025545429,0.16078739577036477,0.27811798695342027,0.024598357547080514,-0.0885049026110375,-0.0790824858645173,0.04088514590288207,-0.03882146746476746,0.04080706681892713,-0.049594874495476275,-0.02533550334408585,-0.0030791693084902187,-0.018551607670237565,0.024820021116832618,-0.0942261749190741,0.14826629528973656,0.054654405633977984,-0.0970566198041777,0.22100316253916086,0.16656356257360708,-0.02408236596208891,-0.08159215113394111,-0.04143271578584194,-0.013723054033055956,0.0007521092616382477,-0.008111924130593308,-0.07184340246191555,-0.16872017400071823,-0.32838316645144394,-0.21350957851002678,0.012416347270805199,0.06986172115347533,0.0456717929981114,-0.0067601144302258265,0.025490606281369763,-0.035932699121857994,-0.0011349216345201538,-0.050087426614741554,0.013679355338918637,-0.025690030105704104,-0.11359753678489208,-0.1582643308579561,-0.31303724327820365,-0.053333440313095476,0.6726348082814559,0.1562348494612171,0.06281588316165299,-0.10389954110279301,-0.183183012074833,0.03795984836436925,-0.015058862641959015,0.00895895061132881,-0.020256356419134522,-0.00996567713491753,-0.18661410012845392,-0.1871316204521228,-0.3738863186274839,0.17550742706803324,0.8989666173705891,-0.03331389982823812,0.02297846498156347,-0.2092159977188729,-0.2434384808007859,-0.04591046066574334,0.014945063263074463,-0.04736079988036532,0.023653703118587024,-0.036753724887512655,-0.2412769795473456,-0.19322758166619797,-0.43416010182905646,0.1765498165543849,0.4188369768331648,-0.35747140999422955,-0.060780896139740394,-0.14835484663832968,-0.21220956677837935,-0.09522158681721542,0.043899000631247694,-0.017459452011307722,-0.024854587297780565,0.00015627867150693918,-0.20363521117568958,-0.38206780632388804,-0.2782797184835762,0.26262388783314017,0.07152052230028849,-0.40377738547094777,-0.12739672424298898,-0.05673311427738172,-0.06803841986398487,-0.06762897973180652,-0.031982193799934694,0.016416884522557747,0.0842126241495744,0.10878884337438119,-0.19093698835693093,-0.2717465993274277,-0.15980240427221193,0.11679828994146405,-0.039611801471520575,-0.19024048421317286,0.060010972574534936,0.021655300098081774,-0.15069953074949585,0.03200451354647421,-0.007250174487722389,-0.02614661671012483,-0.019045093110253892,0.18945215029128604,-0.013571942224232476,-0.08836275729414425,0.08286072466112868,-0.24638322919364744,-0.054922617378785135,-0.10822294041218353,0.025869405490287094,0.027448812266451333,-0.06324084260977643,0.0031339861562276897,0.0018535164853378165,0.025504416761829435,-0.039926056744480964,-0.007030322830194653,0.08196034127096899,0.22713952582359617,0.13588330007954186,0.2249691268817851,0.41512535903521214,0.25823322455306624,-0.009002919737273766,-0.016339790420220646,0.004065226371047868,-0.04055839188554376,-0.042926583991099235,-0.006729045348516369,-0.010042264042996064,-0.04576597445350691,-0.023306266720791405,-0.07970822590156984,-0.1705886012632274,-0.05124546048041952,-0.12630997633547184,-0.0480242167627517,-0.01767923888442303,0.030197571006632777,0.005746295098364909,-0.029416286619591822,0.03775072211904934,-0.04307622184560237,-0.013161538033905698,0.022533882917990224,-0.008916758361992178,0.046745089770133426,-0.04982771920113491,-0.047080881602753734,-0.008978840388377006,-0.055048336340976396,0.03816441562761596,-0.0013317992151969259,-0.030616780794806776,-0.0325334659598252,-0.011401981593189892],"bias":0.31583431275583934},{"weights":[0.04295481190259395,-0.044342637669958156,0.04679507463080844,-0.016468622394262018,0.017323778494646537,-0.018982233129386933,-0.012150470101516271,0.04413641432361421,0.020752492237605856,0.0004970207073746703,0.011713914976997076,0.04977257069451457,-0.04323978413983923,0.0027772973316882933,-0.008091715358711053,-0.04207664456835141,-0.03646430736799853,0.0011699920715574077,0.012395772944062971,0.012982634254467324,-0.008480408955270689,-0.051014819874180155,-0.03797514706651199,-0.07490505186800947,-0.04554002976726683,0.0414958877065604,-0.01036230671727859,0.04692909237598265,0.0051951925054339295,0.027236882387131955,0.031720278059398095,-0.0023961302662521286,-0.012041298019145616,0.058621353485253706,0.13515320815974696,0.017205683537797115,0.0367730658055579,-0.015443205519354707,-0.012610779794200526,0.004477510866392184,0.04014730562993766,0.003925235723982507,0.039603480540332844,0.012851800591016484,0.06743064556040669,0.07112570854603761,0.1856453606855037,0.20259228246184166,0.24323766191892462,0.060690192758852124,0.05701636998404501,0.19268199959592835,0.1823306333765374,0.06922268135973346,0.011926876136106556,0.04408767803403697,0.0061087822928313695,0.02703198856055458,-0.015541812356406847,-0.0008345438992379854,-0.02004213125563484,-0.08615580967058806,-0.20071555777416974,-0.2866312225047257,0.02449677243183042,0.008853820777166397,0.11211161406945824,0.16554765357716544,0.05179184307262111,-0.014647084242582167,0.04394138239659787,0.02863989708964936,-0.03211264936475801,0.013831363581551794,-0.08010487337090294,-0.12305189268587167,0.010297915831190534,0.18662646888296205,0.04022736016537187,0.08783030874791767,-0.04625835475788935,-0.06657165912331196,-0.043361636595138454,-0.028739475062502573,-0.03776701052168923,0.04273954221907841,0.052365142968997185,-0.10866580489230292,-0.07683047392430294,0.09973435218618709,0.4704387503465048,0.20545124775018803,0.07169823767910344,0.11405187862572577,-0.19545911869183896,-0.19647424654521806,-0.03144976948092649,0.0034756638416892434,0.005944618619301125,0.03180667204778893,-0.06193661255570334,-0.24607456364892566,-0.19568863338116235,-0.01570389331546939,0.2076881672488783,-0.041788167663518234,0.14009150736108414,-0.01187731536475456,-0.2314385763269687,-0.12069258522446444,-0.049403985230441504,-0.04667501124894914,-0.006516268737913779,-0.0035557070225847092,-0.05816851348239001,-0.2779209219587318,-0.30647540828413516,-0.15592588632500623,-0.060802719093382654,-0.07918961053815554,0.028908691168675338,0.0294665168306478,-0.04499677782402344,-0.0831169802233857,0.03716553910515896,0.003944725949799002,-0.037795986522711184,0.015606910371940364,0.07620152806648073,-0.16053587265123523,-0.015117502640041452,-0.052442298567959636,-0.1692685311638613,-0.1654591381126109,0.10850726007132687,0.14596581632537908,0.023176642415341384,0.02289226377276643,0.04934448716319866,0.03778717901534376,-0.045170284024794116,0.030643660221342982,0.13085097249883434,0.17821904523198973,0.08540783075790176,0.018697201800377393,-0.10353803420876184,-0.03975742731007483,0.04940370591379209,0.20399114002542404,0.0917959421648527,-0.028532025782040768,-0.009641616369566697,-0.018671087733215092,-0.009936703623438268,-0.032826637258289035,0.06362473421019813,0.15967263360873984,0.22489280696120453,0.26182495478404194,0.28958162969179657,0.211897807944544,0.1654099778119022,0.08157833490810523,0.041472810365668765,-0.07053044913507951,-0.022715588876894535,0.02042791115352472,-0.01704988795693152,-0.03577346165137814,-0.05164175440301534,-0.021611128927910478,0.05268418831600001,-0.06518169627496105,0.05093759254169983,-0.09799586778826437,-0.016501113762618837,-0.0293902040831543,-0.03918802828397927,0.0016839266140774396,0.049986065471063365,0.012489444428101614,0.02206073125379818,-0.0024922851963349044,0.0014209411971035622,-0.0011861907034540228,-0.026307968704753045,0.02112064810440878,-0.028052794787615062,-0.012110944686768679,-0.0023971087205457687,0.008084921108475543,-0.031631969956729074,0.01855829578156059,0.03825562270277767,-0.03729789854094432],"bias":-0.15674086118377026},{"weights":[0.005331594162568303,-0.029908589375681343,-0.03314945285108589,-0.028791831354882724,-0.033296607048358545,0.045964814949890694,-0.008607238813726248,0.04919842694414446,0.009345842565765965,0.032999585582461105,-0.036025916930505796,-0.0054016153423184525,-0.019038409665619514,-0.008279954632820004,-0.0459625307832008,-0.0439478857882214,0.010014834093663758,0.011452532496177606,0.04404502945057496,-0.008669095761396054,-0.07548904367092585,-0.05058174760595741,-0.08559909478794019,-0.03454950760781406,0.022720357885768643,0.04518614352277168,0.03408972159061685,0.010349170265180164,-0.02732220449134603,0.014725304483550928,-0.009921371858953197,-0.0007723944486377357,-0.0025948820695752975,-0.06560470245073571,-0.287228822263814,-0.3246708011418571,-0.24983012207716995,-0.15384986979448556,-0.12669476351760967,-0.05115103178895372,-0.010082652058024775,-0.007293922763275682,0.045675433971698175,-0.007632701475903393,-0.02418950790991637,0.03393361282431759,-0.04649494530948192,-0.014389572428855694,-0.14100162559798457,-0.16764180505763132,-0.2515279270777963,-0.2769086006983191,-0.31811008351365083,-0.1630108683645043,-0.10916308530810112,0.02685363113506073,0.0029795393820321457,0.018802522276539255,0.10216079938638128,0.11375599267472357,0.39666068847763175,0.26039097209897305,0.32298991319267234,0.30762883337686464,0.35526185192616444,0.2353967991157283,0.020777876619594834,-0.1363723380856336,-0.07139951895939047,0.032399458189178,0.04826940947110326,0.02430306639724254,0.1634520378496199,0.1356832194884255,0.1949285904844042,0.19185351955295069,-0.013434114496354907,-0.20259355012041644,0.29311907574549756,0.4411237997587881,0.17194574266299265,-0.01790585964605103,-0.0038508300005112316,-0.042531572771659726,-0.0025985139092037208,0.055516801584414396,0.08524177138195957,0.20120023017634997,0.04554847957478349,0.07471358963476829,-0.29335749718541376,-0.2554186209557058,0.4898004644467586,0.3286130330709238,0.09192581857662363,-0.11788308336330998,-0.003568669318984267,-0.011255186478890327,0.003507213270684928,-0.03585669907944292,0.03570972947416876,0.07358073979899345,-0.21181214682435195,-0.18903664812390888,-0.2785117155801497,-0.13539301225516162,0.3672952739834357,0.10971567185735162,0.06214131064708166,-0.07360394329038286,-0.041869412960085756,0.042013824997116866,-0.032996144370635826,-0.02555820216081318,0.05359360096727261,-0.059552276194874576,-0.07771426298536503,-0.17877626768369287,-0.18820723925980554,0.18267180525646481,0.28220896426972086,0.05415141057606869,-0.17833678079445742,-0.14838776947250445,-0.06985714200106952,-0.020082982034302498,0.007693981093392355,-0.02373507564401809,-0.09404293087131418,-0.24151038923596022,-0.21786164288494425,-0.44964896603870447,-0.1602561183996417,0.15382995997896745,-0.05415336687196146,-0.2479967385409513,-0.20919272043238601,-0.11351393522459437,-0.02422910256231187,0.030598327919801396,0.020308097134841146,-0.03511049644504887,-0.11361563401283314,-0.23882006786021956,-0.49141677874862466,-0.35835077164060386,-0.16516702430142624,-0.2535329628212766,-0.24358615193337024,-0.035944332729648386,-0.04570359904994756,0.033348081165649295,-0.03228509930611079,-0.0203267495003871,-0.017142840574323484,-0.04407613825677234,-0.05611733286157729,-0.11461158706479815,-0.07388278657317095,-0.03452521893230049,-0.03386169596271889,-0.04723133918215696,-0.012937206227275833,0.05848688306291683,0.08438985658504489,0.0043694379541240605,0.047310090628090155,0.038298652812384815,0.04081252288521247,0.009118173986307676,-0.027653012336577708,0.06652482117128136,0.22332675503202296,0.22875671135697773,0.1280732189725097,0.26918477225668086,0.20083555277470513,0.03505826158952394,0.0836049833727644,0.050895782904376324,0.0014340876237290167,-0.006921444000396796,0.04309725812310847,0.008322715430197324,-0.005933726435784438,0.007447175938223799,-0.026844571872044812,0.0069860106869609325,0.002825334065252426,0.014022858810745779,-0.007064831421225144,0.015281659123492908,0.007176424257205389,0.008516320999848385,0.03613305332533435,-0.0357383313671787],"bias":0.09174916808965067},{"weights":[-0.005895523997259785,-0.038486662672372045,0.0434907831380205,-0.03451458656945698,-0.02901304641535261,0.04203076174401369,0.024350832787236276,-0.03963029206898934,-0.043434536780098724,-0.022700138334525184,-0.038619174263964724,0.03334973137931998,0.020035433463950807,0.010315316720440572,0.035281647647113105,-0.023076846296864753,0.017291820110042613,0.023031581893202903,0.009701984495789354,0.05842371518691214,0.10161265129938993,0.04451113706477733,0.09530176015736251,0.10038560668073435,-0.014288969425918127,-0.04814628390944575,-0.02072870299063945,-0.0070834901665251335,-0.04430075463095941,-0.007640258290809117,0.024353044833948234,-0.04878328371747915,-0.0758212555419328,0.07479579949446288,-0.04305084535911875,0.005659766157144653,0.06822792897851149,0.00017689941069226047,0.02459826353643807,-0.041200953133777,-0.015142612855161759,0.02743980416502897,-0.04772677525162072,-0.027592194988992343,-0.056793383638367854,0.02920891461031303,-0.12102311467177278,-0.28639458177133376,-0.36352334416594856,-0.41295012296945593,-0.4428357013589534,-0.27666234249222843,-0.14957137401176984,-0.01246294892917574,-0.01235984307039212,0.002906936259496363,-0.011299952156200674,-0.004441437446835747,-0.0606110321086587,-0.18404838793648678,-0.23630462316017653,-0.1756158671015706,-0.1852580293030986,-0.24509636171109242,-0.6542683894272329,-0.44046076186206945,-0.20166232689213065,-0.11268651688747762,0.01947463934202804,-0.007072408466994874,-0.021792775559665994,0.018682585808250912,-0.03181059827616888,-0.09507552055721288,-0.30747954802262983,-0.056471245822672815,-0.03407225566352421,-0.37982150461799313,-0.49332541001405095,-0.2577634863360949,-0.2011376851302329,-0.05354038092255848,-0.04884629699287105,0.012663270510652299,-0.03132761546359516,0.005087463353567283,-0.05242196698830287,-0.1305336271357998,-0.011200679596713087,-0.17295511367979907,-0.23964326537770658,-0.3756831472564687,-0.28537115163219423,-0.08715214416965014,-0.12388602109949694,-0.0896853041746411,-0.018800804378064397,-0.014646036917244027,0.01150379159058444,0.038246924915207536,0.0050099969629796,-0.2170781642543573,-0.027206232622869878,-0.10096552004367026,-0.2439702429920033,-0.197014075554042,-0.09758995814029174,-0.12542025050905123,-0.11324663565724723,-0.11741388181627328,0.005021759547278522,0.013036806573396363,0.042429603181832726,-0.04405625902440165,-0.04003434113884153,-0.010916065225604404,0.05952772556059976,0.0458224733100212,-0.039891075425431376,0.024409263982208468,-0.1887586192703361,-0.2316881343613183,-0.06378352770475801,-0.050912499019821214,0.022564575046934217,-0.026187961124663907,0.03447873811931138,-0.03785574759296264,-0.07223517138418978,-0.04786708651620457,0.08632591602041223,0.31463464664012014,0.24010013017790552,0.002340354464983867,-0.17541015996742304,-0.09140719555897896,0.03492810669324524,-0.003122936922074153,-0.030085554799055694,-0.03758112523595936,-0.045428414809801844,-0.03777508866305258,0.0004207662394650447,-0.08757169267008749,-0.22520083422404852,-0.1123405722078299,0.03732521271869742,-0.17790813737772437,-0.3304243102465595,-0.13021449975245916,-0.058992660863891294,-0.07885382214061087,0.02486535157328017,0.018832236191910753,-0.02543338815484926,-0.0166958919926391,0.0003231851307157014,-0.12702112467780083,-0.40380478613028664,-0.596748665700777,-0.47334037952040475,-0.5457122309469878,-0.38897890877462243,-0.2240352438632131,-0.04164647450908428,0.05922913930437648,0.01349135393008309,0.021543821339525808,0.02554384606717877,0.02963053946019486,-0.0022528319769559596,-0.0396376960109315,-0.019966200872721756,-0.036287056079922414,-0.09140888859193538,-0.06343137272484373,-0.07310385409387693,0.006602216278899488,0.0020951990782906433,0.05019146093166378,-0.01672294290994429,-0.03448631875985417,0.00535279003250692,-0.027286914614714112,-0.041066035464205314,0.04441534199747935,-0.04541265683924114,0.01439820764842424,0.040144397556947396,-0.012567094643181615,-0.026760642227825697,-0.03324713243097664,-0.03291956392615744,-0.018728541008907536,-0.04924621490314489,-0.014702602460030788],"bias":-0.5679921665466079},{"weights":[0.011979795969507044,0.04626238501477475,-0.029975827662390153,-0.04577715419834944,-0.008812295140407664,0.04316191300731657,0.00547312272659606,-0.010179064681211646,0.001244751151646776,-0.050296971478586416,0.04169223627114471,-0.02410306553581269,-0.022618925735447454,0.031219022787820266,-0.03309593951357029,-0.007334788400517334,0.006891390750455602,0.005095796343580628,0.02936720896659794,0.019321543899172445,-0.01860319006843676,0.07299926356165816,0.01350220618185369,0.018867426561693317,-0.018000346781790164,-0.033062993650790407,0.019082417278875587,0.027480550107946266,0.04097103806877221,0.030131549978381512,0.044634739640325424,0.028237401483839075,0.03703739970765262,0.011898698678545415,0.016570250104738626,0.08173022473617485,0.0862346078538269,-0.012756764871392831,0.0342028464730933,0.017215414945533754,-0.04634162265750053,0.02193336651815292,0.03905274700490202,0.04410438653077681,-0.05291465736088679,0.041663074343260116,-0.003424017502956683,-0.07222396521286066,-0.05084586386999324,-0.10925416875116385,-0.09676765485612537,-0.10169121386757494,-0.05593447561348914,-0.03406887686001825,-0.027890946947201154,0.00866494145259442,0.008132281760141797,-0.023735155106313494,0.03265346276096378,0.008160069240330602,-0.03808067264865446,-0.0663866194471673,-0.05466948241659543,-0.0704633211027131,-0.09933567082549766,-0.10743249694673716,-0.07222321986856642,-0.0391001061822187,0.0028634860457782355,-0.04822322741095467,0.04021451009165971,0.023572262415850205,-0.02391366250864606,0.008818771521021406,-0.11606506989057327,0.009187357639791265,-0.011728576530212679,-0.09264310083470625,-0.07655012947587252,-0.049902006460319843,0.016205588185993887,-0.05605815609330306,-0.007324592183473207,0.0357911265387482,-0.034568718327648476,-0.0008335052087102656,-0.023896143013642814,-0.007695753024897443,-0.022425422481694376,-0.09227326810237786,-0.08624203952653069,-0.08936623317592658,-0.07107557420552009,-0.058327759739376914,-0.03271415782504514,-0.022509673674848966,-0.04960823882262977,-0.0062144694735690054,0.008413573396913017,0.047563033415897245,0.04047789725648936,0.006320746100695277,0.04356290708752769,-0.009607192810320419,-0.043200552488639715,-0.11005306242347732,-0.0027807860018027744,-0.018143103651383472,0.00849759105012944,-0.029030696389850084,-0.023526365024102547,0.00043849018276300713,-0.026589515633835086,-0.04612851688750598,0.04323138897737146,0.07653768947808402,0.04494726343730822,0.0543866039505268,-0.03874038340969519,0.03596108114231478,-0.026393969395762308,0.016560488239579414,-0.049993599322064715,-0.038194375007586906,0.017155041817872092,-0.045534055025575865,0.048922042774671944,-0.008892669879214884,-0.01898724505468177,0.07430209810837056,0.04423291121758657,0.09332755347197141,0.037394193531414724,0.00732254278361193,0.012051364808827134,-0.029254076391931436,0.029360606283927438,0.035246364039197786,0.03201580704685568,-0.01996517289555196,0.011396585374066697,-0.03783102130369584,0.020451353975096356,0.006908201187027943,-0.006909900019353831,-0.04841522978136609,0.05941384724796063,-0.10073196362233651,-0.08885704164932424,0.016514494445403725,0.04140627008809405,-0.00870342102073506,-0.005803801510499605,-0.0007812947277278396,0.01633080435428938,0.023966484337191764,-0.03327977902828213,-0.03534580336359389,-0.06211671567514068,-0.13655781760294838,-0.09762302590224253,-0.14852985579032935,-0.06597792961923761,-0.06772016682527075,0.01015847218647129,0.04472380114222395,-0.03859997329943215,0.001203955336094339,-0.04436349440597777,0.01666264689404833,0.006108669665362483,0.04558000765636975,0.036164727919317956,-0.023197558348214548,-0.04210241722006351,-0.04014163429537292,-0.04133338794368017,0.0018481967596456446,-0.0347333832538758,0.013375950466941216,-0.022446236748978173,0.0012066185348113315,0.03211965275693427,0.014999903212685052,0.02295637395939719,-0.010764340003747186,0.011201764248074335,-0.03190461484526983,0.004711784539753337,0.031162297529599946,0.01934825037439938,0.03201250939491632,-0.016321365632046055,-0.042463217337923576,-0.02099462388125755,0.013171851694854658],"bias":-0.1272450510304062},{"weights":[-0.004567495519440072,0.002034803514106899,-0.001811583573703965,0.016538394210836402,0.0385464200638084,0.0016833710032611716,-0.03338749493865531,0.00022468619587633334,0.002813295399739327,0.03955420637680502,-0.04610883714567588,0.041033787818317555,-0.024870884677523082,0.010045765101983578,0.044148782737131326,-0.027215247638004016,0.04530736394976651,-0.021219150484701407,-0.0413716743957819,-0.0017840764990933904,-0.02046849590078615,0.012942173774305383,0.030672525586984772,0.06091300896330872,0.026169344657975616,-0.023830292145125012,-0.04254790107240775,-0.030987982818225845,-0.03403743511992592,-0.006099443227859789,0.003601462576590792,-0.008492725330015672,-0.058629880371247875,-0.03827532375183109,-0.005342357578800891,0.06829233755594037,0.07977376840048128,0.05089919705141844,0.028684703792499693,0.023310775787756765,0.02284114822314738,0.023028729178472356,-0.0018471028644575682,0.05009350872934478,-0.04559600013005343,0.00045225595007173665,-0.013542107198364973,-0.1074105779515877,-0.08214206183387972,-0.08602790432263854,-0.10128214695184501,0.030312025329397887,-0.03819362718848758,-0.0069099424144110685,-0.02143729303820605,0.019730731612240322,-0.0400352877899858,0.018187123681722622,0.02394635717057712,-0.04691908606543066,-0.16893239000975957,-0.17844347597773375,-0.17842688031889156,0.08547988078039341,-0.13290044046041805,-0.08837087123293054,-0.08470953561182765,-0.03163245699050661,-0.00950228512390714,-0.010349529348153249,-0.02966278710608264,-0.04162532714382789,0.014691890687756946,-0.015228922966864917,-0.11526831447184024,-0.15364468104181536,-0.08493660755692152,0.10188277229606636,-0.06511885037739226,-0.06558170422801124,-0.08680779404011596,-0.015850934282371998,-0.05831711430505211,0.027813190609867595,-0.02475210800965059,-0.04564801399689287,-0.06766402324111563,-0.04089621817686164,-0.03443192638683153,-0.1629426828518597,-0.038669923729479125,0.10036112567757267,-0.1534846819792011,-0.1017791760321866,-0.07108337707279332,-0.03330421498277105,0.04387884917936305,0.040161365811644215,-0.015695845912617724,0.02820780284822592,-0.003962826181681221,-0.05699919103825801,-0.1065020116551069,-0.1424202488990784,-0.04429358308335293,0.0946583464933288,-0.19893334547270938,-0.053311670566076955,0.015582941358379116,-0.06557408188187219,-0.03319328252469537,-0.025053318776900573,0.021178274872932702,0.026572415738322575,-0.013091793780761857,-0.044409283463862616,-0.029467173074936164,-0.08802372632596497,0.11478762670376055,-0.009785204356200875,-0.19176419743403642,-0.10403169602184642,-0.014972984747325476,-0.016625814047749637,0.0009178771927071913,0.007418464707771468,0.04481577935962317,0.043410035785530064,0.012498099138632108,-0.03921320248663622,-0.01829796176515288,0.031644084383083394,0.24359488638825363,0.049348099904647266,-0.14104501123059984,-0.062146337564717324,-0.02551911501763981,-0.06359015608156499,-0.0005979909325308776,-0.029136780423158985,-0.04308341347959094,0.017608445844694783,0.018788990314727434,0.0031432359430919707,-0.0207131268853816,0.06585198617481702,0.062199319890994025,-0.0841113805063552,-0.1256877401432248,-0.07184518287055894,0.019393296098819197,0.02096435228549581,-0.03557451915206653,-0.049290890809711954,0.01181321139358009,0.00019735599181430947,0.034654708718552446,0.011418589815317801,0.041769837077133665,-0.05936025092514844,-0.05438873495756457,-0.16760791354126214,-0.1715329652029184,-0.04764657389827942,-0.008006086855842103,-0.048436625527918865,0.04890224333851754,-0.04762180332915763,0.0016239527457438448,-0.02906022592820422,0.0009809149371779438,0.043519809455956994,-0.023841743233424296,-0.013801808563436655,-0.06798241979103951,-0.03793965601033169,-0.03752375023063165,-0.04060751237076125,-0.014564387675898878,0.01754195132437231,-0.02899075334744071,-0.011302655253025796,-0.018789016566290038,0.004779055237745007,-0.008882356218265927,0.04800528399535057,0.037316820218720084,0.024143211286638627,0.04291372682575766,0.0017235722421296267,-0.032499901676369444,-0.028410056332811903,0.029254030988395855,0.020055332645375526,0.0022735637676224727,0.013825173240788437],"bias":-0.002434058721382092},{"weights":[-0.0316913764898499,-0.016768825734281973,-0.0009571456392656075,-0.02742284746907808,0.04303941584086187,0.03659952205641632,-0.042054531041926,-0.007209239028791534,0.007636807104456763,-0.02481164596149228,-0.030320487469382554,0.04319968654117893,-0.04957701011756565,-0.02846542493235509,0.02270396855290467,0.016518704494479317,-0.015706817892350667,-0.04460400020172357,0.024138963617607274,-0.058795729764430565,-0.0036286557287662736,-0.04322172719370181,-0.052382410344924774,0.010232434866775237,0.029567758776361287,0.021746234416544306,-0.03296991136454706,0.015650601458009956,0.0032058628600565107,0.020510839371251612,0.015920885034165284,0.03196298708801351,-0.0829158667554127,-0.0530124416031727,0.020787142969569263,-0.06462390394712776,-0.07021431791466212,-0.12482056887310504,-0.05475610942122981,0.015746862439111393,0.01917909212686412,-0.008265910498761844,0.00575588061884068,0.03664208002729422,0.04468940545608678,0.01488744580234558,0.029181357776716203,0.06095216976928483,0.08009053425656389,0.15002976047479644,0.19757206909887867,0.061536927228753424,0.03772793801325741,0.04198659764331983,0.005503366394791427,-0.044096501909322856,-0.019262700828802586,0.0458149877123718,0.026822191846032583,0.07905948240592259,0.1440545433692069,0.16633581308251846,0.1591572450716476,0.06023134330549296,0.10449623830649556,0.12591632528590627,0.2287956125631245,0.17560623091652589,-0.009231868504753488,-0.01466062965028882,-0.006405661207678819,-0.020599260596171884,0.035280115240494424,0.09877333675434052,0.0887988415210811,0.12973890170566132,0.056813846447720855,-0.10735396622588905,0.005096808554665067,0.17132090245848158,0.11181617664854834,-0.007752465648437008,-0.047505159642931616,0.017555776018835793,0.05030093136581733,0.03772421741648831,-0.005126055820409788,0.02226509269406561,-0.018778647923023153,0.23270172114454643,0.16582055434071263,-0.0362413943128127,0.2586663342377935,0.161891247129574,-0.04612099278565712,-0.011322199094053537,-0.03923469094896717,-0.0001224971664546413,-0.022954947602031903,-0.015265405173167889,0.046925482760402676,-0.12834632122273362,-0.24609925381803682,-0.04287423279497381,0.0239581713133053,-0.09794297345950954,0.14080350647482123,-0.0847499136685027,-0.1459612924643256,-0.11067449552711407,0.011281628442911276,-0.04456202739198157,-0.026247888083059768,0.014947164047064556,-0.03598823160319623,-0.19475079456359193,-0.23474946290149046,-0.07812676262295302,-0.19185511352527915,-0.09707013760907325,0.19509470756870181,-0.040491244565499296,-0.1107226500490367,-0.0587528355815697,0.03131551943859105,-0.018054651988238045,-0.013272345054681271,-0.037970595588848605,0.006931594565026956,-0.21421316432514798,-0.0206801876990764,-0.2500369325740129,-0.25253393978047434,-0.08144579371613006,0.08668425555135495,-0.07765240647720471,-0.08208058733546053,-0.06260586474063179,0.010648076998497284,0.012178029719699984,-0.013159922160526858,0.008422520819797552,0.007419992369504873,0.004087723542943364,0.012224646871907201,-0.09374559928606158,-0.06132037885407011,0.02220770723296531,0.01309698513864201,0.07534608781201194,-0.008813375129908235,-0.04908413379385187,-0.04745887701770352,-0.026665910536357345,-0.007882868711758249,-0.00007869901826619338,-0.010441229419057613,0.07071824534591714,0.13034922311030211,0.2761265893269786,0.43568113048305684,0.19569610042361513,0.05640690174380143,0.04158934369302315,-0.04574704523224083,0.021319392267313844,0.024540348800805085,0.005205216905099015,0.002807859282508014,-0.004897632415076889,0.04726009976328884,0.012929869260218224,0.07792912427699662,0.12910896319254614,0.19953575467665113,0.14985435329957883,0.09584557059658975,-0.0023803822450942065,0.034280446197982824,-0.023904051836455838,0.018139216028397846,-0.004766198072403426,-0.04505607569030134,0.010541369426520003,0.0089704412664673,-0.01838561951817941,0.023172066875209243,0.04372463440315499,0.009333108322687753,0.04767548958843795,0.027520482018823685,0.033043160304007335,0.04914208937145004,0.04530533912077943,-0.03469062699700831,-0.04958241631121587],"bias":-0.03044439843599989},{"weights":[0.04564271752303998,0.03579359024692455,0.0011153316634333597,0.02611794991944079,0.03530958629732394,0.008943689584973004,0.027191009537321283,0.00561507022075908,-0.03474449941749697,-0.034804476248528005,0.049659479507049194,0.04050256445775721,0.03284968839025525,-0.010569926497406705,-0.02551046132520959,0.01928062110548746,-0.03726211991248792,0.02912637699146676,-0.02315011901584735,0.02712334985410548,0.005738601161092834,0.07343071760543142,0.09131415984909894,0.06891865537862658,0.0641431555026768,0.04546300646954165,-0.015143735892456735,0.02632146019443257,0.018964249057151942,0.04398991844512557,-0.027910419973913,-0.07290190439362433,0.015150616754706895,0.08399444809330624,-0.036373157557968626,0.1219129621442752,0.1663024707886116,0.15203454230612892,0.11494765083704118,0.04236192096641364,-0.013543114327382508,0.00031965366772835203,-0.04738382108875045,-0.003477070250000464,-0.03725650170537933,0.01142686434997952,-0.1965767789910676,-0.3283707852550926,-0.44005953882464194,-0.5280708119774312,-0.44733551168973096,-0.19215291184341396,-0.050192412687066826,-0.06601920608869923,-0.01868943084530409,0.03388907400488266,0.021814190869199248,0.02354467156362283,-0.056450493068656134,-0.2218017840072867,-0.3458643104372391,-0.3512649421030579,-0.3864540881158764,-0.17490017157292248,-0.5831080630008119,-0.478455434899939,-0.275959561496696,-0.10719393927034042,-0.005767034554020862,0.012631641285440375,-0.008089860096683454,-0.008317083034001365,-0.07379736541854752,-0.10204480327300038,-0.41436046979235275,-0.3377251462273395,-0.0705969047283608,-0.033879102881162915,-0.522158069257965,-0.40039422552046827,-0.27929595156439757,-0.06513539629595957,0.0057524754856312635,-0.03156653530954321,-0.0422880546687509,0.044463962870744674,-0.06208795146525338,-0.2164713316057418,-0.22628321030424003,-0.39686071582738525,-0.20394720254859186,-0.15520362992692352,-0.542709508836601,-0.231396036243143,-0.058421334295042364,-0.025407147192849453,-0.03597532655720294,0.019909784346954697,0.03172935948877986,-0.008538145264989873,-0.00470616971328359,-0.3193060039715333,-0.16608820143094688,-0.2176372985777938,-0.18087663074548746,-0.10016595436777438,-0.4271831268001377,-0.24372473225466065,-0.05177278527458669,-0.10453638260340857,0.011839966207442178,0.035860429552552156,-0.023754695204765145,0.04328253292638329,-0.030174836979468548,-0.05718766186034378,0.05482084681672938,-0.03694823832174218,0.03558397389133161,0.00986804716102458,-0.5078272398105721,-0.2522076775765797,-0.04875929840409803,0.02605151062945745,-0.0015512155473916263,0.008179281731506848,0.042201824882577114,-0.0012459301821425707,-0.03275556650891031,0.028742622567298468,-0.02080952974652412,0.3880526778792092,0.4641872865196808,0.03639621694077593,-0.28160229417042804,-0.07444514260684426,0.07142011348302334,-0.019279850589837937,-0.02609729225822732,0.028597677186245018,-0.0145598969018135,-0.015230072576183945,0.04748911904990328,-0.028300502449300227,-0.13301776013858063,0.14435400169943455,0.12030054797360468,-0.20449600262975068,-0.3730551772416985,-0.17813433268232307,-0.06286070557300329,-0.06447542279313086,0.059979210655474624,-0.030099003096682814,0.014521614667072606,-0.021673679706928538,-0.02055360238624982,-0.116473407255959,-0.18239578657384845,-0.4841358611983292,-0.5208893104916196,-0.5212877257224946,-0.4449702629746432,-0.23557107130956612,-0.04380212564388763,-0.040059689903977416,0.04569565305339858,0.020194726660618886,0.04701972092857668,-0.014892557352788889,0.003913266291546586,-0.039268043663851254,-0.017898039808113535,-0.08165343438216714,-0.14976456481075,-0.20942749611832892,-0.24365983313219924,-0.08530260745467427,0.00041170867892808627,-0.005182175747659863,-0.028360512857054224,-0.016415777350057423,0.021217943566930783,-0.043352396550007256,0.02029931955105478,-0.03885216924085703,0.03355842840836731,0.018144069710158424,-0.007990710227490016,-0.0041289143064690646,-0.0077595254430713806,-0.025802405756848782,-0.03475114245249891,0.034376618911578886,0.026932808930624354,-0.017405489820075754],"bias":-0.4276721889296233},{"weights":[-0.002819549428187099,-0.016902344753104724,-0.036906518049343674,-0.004159357822429161,0.032464372411088835,0.035825778045650146,-0.04317161822211662,0.03300662759854426,0.0006907060732419631,-0.05026550184580698,-0.03836891338078367,0.01534430368197468,0.016355032480445095,0.022363597792535144,-0.007457884038593775,0.03732537836291181,-0.006483751779796187,-0.047892541916331216,0.008710704582607772,-0.0400381405047164,-0.01001075451210851,-0.022357323815033324,-0.015645644118076087,0.005140013421904325,-0.008960875695045587,0.012779064794942828,-0.03505112635292429,0.0479426738891837,0.02050491450219582,0.030537144170999803,-0.035335918482835245,0.045583767642042194,0.011606277240800595,-0.037530530288523135,-0.04513935778056698,-0.0006494215803420437,-0.0454997471004063,-0.024858374640004007,0.012762698288050612,-0.016781034555366618,0.03281645326619152,0.03940828902088411,-0.030691490002261,-0.02391546463143366,0.025373162526490252,0.03833063820288228,0.02913077288909758,-0.044200832013770675,0.036252274964104055,0.009264358882599332,-0.036358527800065765,0.03634396016956573,-0.038855413862010975,-0.004967569166839768,-0.01636846816835441,0.03313292240365765,-0.04281122858599804,-0.007623860168371906,-0.008473459144438488,-0.04658516531882962,-0.017620940158856086,-0.006481814143729518,-0.032658951650593834,-0.005017051459336948,-0.028685620744933922,-0.046258628361371984,-0.020247965598479814,0.009438136396764399,-0.004576764511190542,0.046600032729265106,-0.04414925153990173,0.041497773612561496,0.039006960410704304,0.047145430026718026,0.024443442682812663,0.03219085504425894,-0.04649103142498126,-0.027002622807912508,-0.0466585749120379,-0.0007426527976311813,0.013516516109267199,0.039874817515584464,0.0018262062303298534,-0.01551174606722621,0.04348179608916656,-0.027631514574544342,-0.030185166696559688,0.0017747482371287102,-0.04913613439002162,-0.006573928484080485,-0.019785009373445208,-0.03604460424539422,0.010550177147045295,0.02551155039380033,-0.04875218986985284,-0.0023129814085682786,-0.03586654393762154,-0.0066134405802394085,0.04674372576565838,0.01251967721952934,-0.007195982900314535,-0.006064426337250058,-0.0473073291043604,0.02560712583982607,-0.04822587756481905,-0.008242795265872307,0.00480200353929041,0.008916733517235183,-0.036473560547951145,-0.006597809924245095,0.023103069284096583,0.012346978258533037,0.046063363276946434,0.017659052271703748,-0.008826982069541833,0.04210357809124762,0.029837821784725844,-0.013562836524447832,0.01731564751951949,-0.016725846954534107,0.02398288346864649,-0.016642892049356053,0.006129839235688441,-0.032999029713693576,-0.011128275557431806,-0.04378521122689017,0.009412183145042068,0.02682467508309283,0.03308278869056456,-0.016180809821408914,-0.015336632411392534,-0.013805864494642151,-0.04266199593213592,-0.008718698441130796,-0.05267945192502083,-0.03391362545491171,0.03165582610400418,-0.04023510725863323,0.0318110060065766,0.014403157184065093,-0.040042988124852935,-0.04066536868793985,-0.00761327161704641,0.003145546962843448,-0.0348094571222534,0.019674244155576337,-0.02993351526203655,-0.00438412115177472,-0.010555874607764573,-0.038555236532854864,0.035287824516256006,-0.05038242567448498,0.049739056283694016,-0.024638298656239024,0.033669843875291684,0.04791112446018794,-0.03646717005725614,-0.02531407061637986,-0.03719141598015425,0.03463725242956863,0.02106313474562818,0.012513554861737523,-0.0541505954154089,0.027132419327927072,0.00466146052012802,-0.03026548564183852,0.029664552597366927,-0.02857969311401004,0.03653662268896554,0.026643886780675256,0.026704122949409027,0.02669800897690533,-0.0021200776726622204,-0.024587159878756964,-0.0024997457219892317,0.02754405122885065,0.00765758045022819,0.04679192664657075,0.020347969590535236,0.036293164433218894,-0.04365974165138065,0.011063346400523576,0.013467247312846212,0.02727686029146795,-0.029470079243864283,0.04626796077538444,-0.02833638447616882,-0.043682536178097635,0.006454468244059743,0.03353640027732708,-0.01382794615930276,0.04093505713394387,0.0006541394571502187,0.01380374795672813,0.0070308545873881655,0.03795004309268851],"bias":-0.02735729335061948},{"weights":[0.010210554263045148,0.027575627299595604,-0.044015203871146456,0.008861948335962691,-0.03236376933146489,0.049901710895971146,0.03832346943563526,0.043563058560879483,-0.048834606070727524,-0.039084964727208696,-0.017239284276175944,-0.016333557323749658,-0.0340132568664054,-0.008186014537252054,0.04042183063597694,0.033540414412551234,-0.02902978367170887,0.023389567668307316,-0.013737932732894267,-0.014800922298254957,0.008504117625682156,-0.020442533128988093,0.010166426551215333,0.0263254067774373,-0.018016888320414905,0.029371361349848992,-0.018107157898523612,-0.0473221785117054,0.04096661935329794,0.03665430215886475,-0.04808538533212944,0.007690139217978686,-0.040032222035098014,-0.016090147265045703,-0.06746747750858724,-0.06261671137874625,-0.09516213508888921,-0.07347657992436898,-0.0018558139856344473,0.043355423322739485,0.016614591016254156,-0.0418918864041759,-0.033146181206220086,-0.040014790136939295,-0.0038780030915184093,-0.019068396008901565,-0.15121155680571716,-0.2443731571049341,-0.33577786230125667,-0.26968316196151393,-0.2627481631694504,-0.11199808693855184,-0.141338853278842,0.004944576980656757,0.029444202179159135,-0.03032471666884324,0.036728220796087924,0.028614431809059652,0.029818850574394335,-0.07033756088800089,-0.13281023186925248,0.047732759328091,0.010476084727159137,-0.06315881865096933,-0.3365207067391514,-0.19981347631575078,-0.06705373078016488,-0.06448348743682736,-0.034409824022155526,0.035586698607269644,-0.037024925659716074,0.014564123055854259,-0.03619938202943398,-0.002374299444497255,-0.037700621330315785,0.03672550408549583,-0.014078548916899488,-0.3388577989713775,-0.2839922692423558,-0.047961269877421296,-0.0480041041975174,-0.062319893719279186,-0.04533731297927993,0.019962519671361974,0.04879419926172926,0.04584333279528358,-0.039099399114332814,-0.023042231141940338,0.04987541588620728,0.0005520255648895026,-0.213751862539383,-0.3450851561146872,-0.1179537028782267,0.047019398559401446,-0.05426778254762517,-0.005278492226658459,0.025491716464045685,-0.008660582584282338,0.008478607313148192,-0.0001705344886308122,-0.04061973332229249,-0.10219876095805047,-0.03262229033077339,0.011123299786880673,-0.21436291323984996,-0.17616803497990186,-0.05094906491205245,-0.07622794542731354,-0.06028923413127843,-0.08587017588466374,-0.04083373040918961,-0.02035843857276122,0.03512793021105476,-0.03775993520232379,0.024607956020558153,-0.038147723218067704,0.08171347438646344,0.08868899693754005,-0.005646712426496763,0.02406698495330739,-0.10154676461967602,-0.2149261169235703,-0.07622067235121599,-0.014365415548054617,-0.027429355587712364,0.025500786033990547,0.027743149481063382,0.0468923716809556,-0.030701367176179675,-0.06467908201394387,0.05947623345114545,0.12997948023063252,0.10823442193881691,0.08059962732581352,-0.09524261954249014,-0.1674187965340228,-0.11590571020677602,-0.00011202254100696647,0.029585269063101053,0.031127157393874557,0.015266821556006123,-0.009361376244011238,-0.05375135111881133,-0.06561978875474114,-0.19204339942450485,-0.1703293214799141,-0.016339800297093428,-0.1421751537380904,-0.22485633546772116,-0.165235003828092,-0.1160416606572552,-0.032047800121713585,0.01331136718048895,0.0004375625517492229,-0.03566338277107577,0.03854719807691677,0.004564192566748683,-0.18118964598030646,-0.3017981287265162,-0.32762488430037423,-0.23468918896666577,-0.2873855862696627,-0.19630296701508473,-0.06529490561673486,-0.02624551973873127,0.01104967570859674,-0.039267085512392365,-0.012075980333656713,-0.004414057370138573,0.007050344813204653,-0.039692677767025154,0.03276542435964824,-0.023724594499012677,0.08433335213624062,-0.008674517694755846,0.08158706709976227,-0.0682412821524664,0.04613728670986797,0.046920922110737166,-0.032214011782637456,-0.0031349339983466357,-0.03996243384455917,-0.03608971400538928,0.0012308566354940751,0.003588745054627625,-0.05032481965517617,-0.039146456650724776,0.01272367670807244,0.012556564652510779,0.02585285813523836,-0.029906571149383943,0.04649097694229079,0.0027052972864165243,0.008389724302784436,-0.03839613386504839,0.017448001254277333],"bias":-0.3669359545460715},{"weights":[-0.011966380230651774,-0.0499981446232966,0.008971219279575633,0.018164481505364642,-0.03400200559991559,-0.02832914296954509,-0.0261246129034968,-0.022550091524413864,0.05037636871374472,0.03673185410652253,0.001858822933717742,-0.04689154825624199,-0.03732672492406083,-0.029965643670292585,0.006113477387390912,-0.04388247283995909,0.046881942786712164,-0.00886876093792413,0.012024221055336135,0.016202406482133697,-0.018119156969944518,-0.034918355891172974,0.011061731521819525,0.010468330738332959,-0.02795583284293965,-0.021269192686810576,0.041724254502910785,-0.03450565936776515,-0.03228942918151077,0.0033188243786705326,0.02997256161605276,0.04192384801320717,0.0166968370619221,0.03970170062783173,-0.0069474224564841985,0.04758636285818888,0.027748098881846043,-0.007843441992153519,0.018618800489416946,-0.04480334580606884,0.0027496937403816224,-0.01402476352665744,-0.0029699553212715,-0.011511622358424239,0.026165698066340965,0.017723956353932396,-0.05101936548572909,-0.13732225390682887,-0.11250158295391909,-0.1213120143937775,-0.11088501942602565,-0.021657033101042212,-0.014119995688317205,-0.05212911123336583,-0.0312848987423492,-0.03657543357363905,0.004848477945873359,-0.012080538692509399,-0.020883875015901544,-0.029121810904254617,-0.13736937092308932,-0.19883869614536653,-0.13806067040114214,0.05734838897477657,-0.1778266095429035,-0.09751995887547363,-0.10576579773794267,-0.05362488472855762,-0.04422149354249484,0.003910253984383544,0.023952071145633507,0.04341145874692485,-0.025061616662895574,-0.06488376790491955,-0.1798631864696757,-0.1714389964675267,-0.13346183015298668,0.08462057630756588,-0.118506717284485,-0.03308499879820926,-0.08910212533311775,-0.0052659127615876525,-0.03393647236712968,0.007644188254458912,-0.03026315388801448,-0.020420995409206926,0.0009146742025313577,-0.1366030214001501,-0.06772742811099058,-0.15419932539245987,-0.06659701061121544,0.10813611998621422,-0.14663478430933535,-0.06593899597223617,-0.0331511775393646,-0.07501649755380305,-0.025984103054556836,-0.0020763075210784633,-0.023713330841171994,0.009813398520294203,-0.009376515489722976,-0.16431672732247593,-0.18390855603445286,-0.2045742380813103,0.044528315330109036,0.14144884498443436,-0.2069160184419027,-0.09340445325635682,-0.057438650363523185,-0.0007095844240711052,-0.0222301628486241,-0.03486507150023484,-0.04642360329515958,-0.028586971909978838,-0.04671171368173007,-0.05221225933599242,-0.08016394581074612,-0.0383136176828152,0.10489024544704131,0.04176823228466283,-0.1419149440365745,-0.11493471874430164,-0.11213902809800125,0.02654880959014999,0.04083695887058442,-0.04358003520588443,-0.020845664294592482,0.04078860905054767,-0.04446057059534909,-0.0010515163228024388,-0.023101252934484073,0.07258416631290784,0.17343799818072894,0.014703475591037737,-0.1499569346390614,-0.044888382668537556,0.024138363893117742,-0.050163331340128355,-0.018183901102279937,0.0484024297635745,-0.03919716818176847,0.02014205449828332,-0.04002137509863766,-0.009093055942984644,-0.04078663403200699,0.004470607920409281,0.06416549192962541,-0.05529895451053568,-0.1298124300509877,-0.04109696021774463,0.019039419144388017,-0.0583901318791065,-0.0076326598679526845,-0.02344347998690411,-0.02035057864546163,0.04492466129668195,0.04940229905320412,0.008971114097540188,0.03334930192115829,-0.049035256136440324,-0.05996005794415855,-0.10977991427323133,-0.13371710070021256,-0.08846345092293634,-0.017084784725255247,-0.04904173303592699,0.04704692146378732,-0.02291349346769552,-0.011100651131615536,0.010391761495597993,0.020971473004021076,0.011673510258593905,-0.007856833640561141,-0.0723866023671592,-0.10150083110614326,-0.08945928108872214,-0.024796566085204873,0.025231499095254965,-0.011625038401196238,-0.023284436153411768,0.019932456446893745,-0.0226176090978795,-0.013251458395080584,-0.0040239735670518405,0.03608237275349525,-0.04089414443989844,-0.048340067818284066,-0.037147386388455404,-0.03136664165023765,0.00901209706000305,-0.007816451331505582,0.016051526891823913,0.01853509868436321,0.015943264055595287,-0.022572514261177158,-0.021612406187383647],"bias":-0.06109915785477759},{"weights":[0.03540648882741978,-0.027113926392433946,-0.04973582453693629,-0.03659698852655074,0.04758654337610683,-0.049379165373926885,-0.047880732076327766,-0.045051158248475574,-0.03932772476606328,-0.019293448347247937,0.048766539898275285,-0.02429764860911265,0.043887849110028194,-0.0040123532430619705,0.041771992589276066,-0.01758534051695253,0.011602689026086261,0.0376735691524728,0.04088744155773436,0.0009111142121682063,-0.031011097062341807,-0.0058502792144047066,-0.030761560382441044,-0.08395669120208572,-0.007394772154852471,0.04193174461418747,0.012945689268977906,-0.028137891388273096,0.035187647704383,0.0010729099999750426,-0.017391791056231457,0.037793940109083664,-0.03500970655540501,-0.06888647970998782,-0.020789582262226797,-0.1234743690030456,-0.03350496388760615,-0.03223798438445757,-0.07368134001751872,-0.022193507331029386,0.030019123123917694,-0.01770818679185321,-0.03826220589061741,-0.028830226120623,0.04921926199334819,0.0023484378228363877,0.046222765554178105,0.08300506480518895,0.0589018759970096,0.07863175919231141,0.17784159921940346,0.019637835193269167,0.10113776073956261,0.026988714354036342,0.039930934664397545,0.04938080398994154,-0.03929288807195753,0.039339820274006114,-0.025310737137739018,0.04763008413637428,0.09567041779419855,0.03033393740448231,-0.1349827670420791,-0.2531806757876035,-0.1440302451500685,-0.16967551527852967,0.1036296304362798,0.18558792721136058,-0.027917584612635448,-0.010407940178440555,-0.012956621350602713,-0.038087512117220425,-0.004347738530630451,0.032510943411750835,0.16076983396796868,0.2178945909369607,0.051087666389518296,-0.2354879322140826,-0.06731577225804591,0.0568550145718823,0.001008421152002694,-0.06835528343913305,-0.008367916621063431,0.02000710580718578,0.0003927470018037215,-0.04182456810310436,0.02344258004037935,0.056132000955261066,0.16302252826054184,0.28978835633305927,0.32544255953145934,0.007856708018503689,0.2976148379841054,0.11633536115912124,-0.14873570625088262,-0.1594596815414303,-0.01427849410050225,-0.04841568590999728,-0.02286035916220702,-0.049378826240007896,-0.02608400688702864,0.1019131432173971,-0.04378540166033699,0.14489403137727344,0.2851478703599444,0.11776142738933479,0.3511525096321693,0.02368229728467193,-0.18340062619299166,-0.08233015105575146,-0.0413500770130307,0.037578053081634144,-0.04068277423760707,-0.03011597327289792,-0.03204216494828055,-0.1788446397496961,-0.08331301308322096,0.09769821855597721,0.07618446260038558,0.0688848835424315,0.2021663509546119,-0.08984266748251074,-0.18070451902287482,-0.07366502501312501,-0.017858029834854718,-0.029475764724271367,0.04371083117882797,-0.019467825092983622,-0.07961357357027715,-0.2166673361975219,-0.11932192026288292,-0.22826400494905852,-0.31606999932115354,-0.2363206605494785,0.10291062978557927,-0.10918247391368878,-0.183828558270609,-0.08752492243498686,0.040899970437331575,0.0014789131482015488,0.048033561779480406,-0.01778300283442696,-0.03544937475414251,-0.144023884683613,-0.18705497464780038,-0.2219476946862976,-0.08888499776343588,-0.15565151565813462,0.04767359828790024,0.06574102666457331,-0.022414089481385714,-0.016753317249794463,-0.03487794918976359,-0.0123231092153504,0.01694727999737455,-0.0005993094820666611,0.0008752935992060967,-0.026453676466055443,-0.007329349573306549,0.09659055650028293,0.24414627644749076,0.23424373263580806,0.16704061431831216,0.23338750398343397,0.013450737478549496,-0.056624598587328136,-0.029273207020677476,-0.03546384235784189,0.005134347890551326,-0.032002232624737836,0.029621013901190516,0.02098995851285861,0.07570088043987465,0.06843809165974273,0.08070923383348035,-0.015194446576694023,0.04362634676475353,0.08967126937861727,0.023297952429864672,-0.007108981464033395,0.018864384092528212,-0.0020646472989804664,-0.01806340962297033,0.03453613154784164,0.03189069746348908,-0.010741171965575554,-0.004435950995653339,0.028531245509945704,-0.018636587214872845,0.015151212041945434,-0.033450572239054566,0.0022453255079563318,0.006460597194356408,-0.006016614755403203,0.010830660633969232,0.013958612463394917],"bias":-0.13631257324764923},{"weights":[0.03340095057561868,-0.02608341810686318,-0.017156256313178762,-0.038514122545285474,-0.016696001712436428,-0.009999533169199836,-0.016756487244345947,-0.023937927266305066,-0.0017038287581995703,-0.023811121104173466,0.022992761034002416,0.016968036988123866,0.04734166873752189,0.03114116162982458,0.013210303496555071,-0.027600044941764906,-0.03358222762986078,0.046181332008129454,0.03540870034203585,-0.020009467816324324,-0.06408200523688884,0.005972959261687377,-0.03770723433320015,-0.015204056810779524,0.04228607950290651,-0.01316775216424536,-0.0022834983965442884,-0.037725047686474264,-0.00022495550810614162,-0.024445321481790867,-0.04667400083198585,0.02697756808832407,-0.07322421127527971,-0.0556913292540867,-0.10550641264352857,-0.1759239428679325,-0.11200148459820573,0.013503485445498793,0.014828356820000822,-0.013668304655194015,-0.013336851216316618,0.015776470014600707,0.04153093819454364,-0.017401729423385467,-0.027770836498230846,-0.0650631868018995,-0.06863570263686102,-0.06486085313839438,-0.11884010486264313,-0.09858261289352355,-0.012325827979874845,0.0009196001625002993,-0.007521597413275249,0.10325615486663095,-0.006744067504501356,-0.010515266803453216,0.030332482256982242,-0.04963267094491329,0.0006198535904435778,-0.012418989472473876,-0.028981666390639094,-0.0175986052906282,-0.067764357192299,-0.22122308276657202,-0.20527624196464447,-0.22069173451470506,0.0813606217007358,0.07188579770648583,0.02274868568404937,-0.02478248044445676,-0.027671662045839842,0.03980820901931628,-0.00538823882183673,0.06666808369429991,0.1326340802555622,0.1844648404544575,-0.056103395891210564,-0.3365958480154498,-0.08109816975065261,0.07481680075055494,0.052956354804777436,0.005009898341515501,-0.006280227515140544,-0.04626736230376271,-0.0372860687518868,-0.023722551870676387,0.03635256257969551,0.22599995265237857,0.3640308061143991,0.3243011286217947,0.09377921503616451,0.03286462857018365,0.30000364733392104,0.09394151048780701,-0.03234872919937224,-0.05141396604086991,0.0013169027678903067,0.014838016638989187,-0.03046825011280402,0.02935064425720782,-0.026746955973471986,0.3033508982667392,0.28346170509526536,0.2736829938356462,0.36544079913404603,0.2117959640475699,0.215407537385224,0.16539913594403455,-0.01789468752464426,-0.07293708763412847,0.03155893819278427,0.05032748355677104,-0.0025000453783641944,0.021322087125734912,-0.0506137555062981,0.03153348136680851,0.21733252771757838,0.3040771270634516,0.3146792108319089,0.303965511397452,0.18260954557346212,-0.05382492512801338,-0.12485298506060866,-0.0614384489842003,-0.06808659473096429,-0.011792953129182285,0.04674842376788947,0.011872278383802478,-0.1981438058644906,-0.262450773929821,-0.106346755914158,-0.14539541363773487,-0.1041131213162351,-0.028083744031195918,0.002934615633283397,-0.11941803145832565,-0.16523304347056011,-0.08438614838792276,-0.03579018391846992,-0.03429657333216367,-0.03798343780918474,-0.01814474917543454,-0.16160441051229424,-0.22250252791574957,-0.23882783532690954,-0.29389182290053173,-0.10203365717609846,-0.1014736792757768,-0.048566294581263915,-0.022966561516849195,-0.015069627069158239,-0.026659453205623882,-0.027663645359170607,-0.04690583177894888,0.03844244559404836,-0.008312920444653938,-0.0879627158718358,-0.10765986160148738,-0.14299199436667628,-0.03565546106161373,0.10674619411369383,-0.020196561223565248,0.07053271519074214,0.13036220444586455,0.0837869152046665,0.043501999365841246,0.02609772157862407,0.014721972991522924,-0.02392462124724711,0.01066474435135328,-0.03394314142466843,-0.05985684632249661,-0.0894973546009571,-0.07691432250524287,-0.11945737255757087,0.04949828301442354,-0.00969012671426038,0.09102656968226974,0.02796590473918388,0.02142800458729388,-0.03753003570851199,-0.03189506630632823,-0.04543885813960218,-0.03524357487743986,-0.016436215155941753,0.03265707446374764,0.0061205802442740095,0.0035470130456532363,-0.02005653213205413,0.0231112111988741,0.016595331754455992,-0.019868109619341663,0.01795475564057666,0.0016069362026307728,-0.014116598997022063,0.005192938262325168],"bias":0.07077999204213824},{"weights":[-0.03439887208138266,-0.04993444729368341,0.04824436343373109,0.009275063321961534,0.019575587818816714,0.009503253871174663,0.003225851812224501,-0.03375630307558715,-0.043731787660117885,-0.03165711398950204,-0.0034105301801837604,-0.02279965419070284,0.019905724714453524,0.03632912260316182,-0.026704611701233484,0.0098503840665212,0.00440138972081055,0.05007973625440147,-0.0454294050278744,-0.05086197277492717,0.015780069390842213,-0.07177042355063269,-0.07961148648255413,-0.0020183843438370645,-0.004180731875438574,0.04738261417097982,-0.03320715548995407,-0.002856874108333117,0.019864759331941567,0.007474920530760907,-0.014184449953946101,0.04908941255161907,-0.011387038896381504,0.0244177824109318,0.0994702714414239,0.15921269334950303,-0.002007468679333657,-0.11080125636964332,-0.0007283270538425216,0.010135533727229428,-0.0017426650241638823,0.041534289635625644,0.045023359241643156,0.034805274425695615,0.017543052853690965,-0.022713640319554078,0.03331254322436146,-0.044917574329459246,0.08725123340153133,0.1843142254361762,0.1390482389215906,0.2064560329177841,0.05721376240448532,0.030768112914591993,-0.02115259365834133,-0.013141769423876615,0.04323266257740363,0.018197888952323587,0.0382745480234029,-0.05361592396876328,0.010504501395124734,0.046151776272041915,0.011265575753930359,-0.10652142288917849,-0.006546177081883729,0.16124179932240898,0.1676547322630057,0.03372547868479754,0.029075467132211767,-0.007519476743003625,-0.049978594550317904,0.018008814707621865,-0.05384068543220583,-0.08384129466658911,0.03678764589119718,0.006931471450953023,-0.1303676215250692,-0.09181870491416953,0.09336158147238516,0.34989800104014057,0.15028013842678695,-0.03447599895834497,0.03226628714444715,0.03506283644765739,-0.041862371778694306,-0.02158318030768199,0.037188078355257774,-0.08870525238010743,-0.12859521096353924,-0.3115789535316631,-0.0492477558191568,0.2560721208914594,0.23510509081665523,0.1264011789570475,-0.10685232645793223,-0.12290574121847636,-0.008469562703611747,-0.02778285807316955,-0.04039651528637495,-0.03470381332174187,-0.051647842406581296,-0.14111832394042695,-0.17082380335996833,-0.2871076637816163,0.1859575745898025,0.20079776621411047,0.018291973419564823,-0.20842911831872873,-0.23763903243230253,-0.09413089778962998,-0.04118878493734033,-0.0009804960070426865,0.01597667872114558,0.00855990185577322,0.05591429280336825,-0.028068589023052364,-0.09363920019836355,0.1616630520484733,0.4023374403674377,0.2924612228194265,-0.07045909708122926,-0.30516482915887677,-0.1478284959988777,-0.022095584187005586,0.04098594161645556,-0.019692050396418224,0.03723116895511407,0.013762491828306416,0.05561765778842444,0.04204636616855346,0.13424184848809942,0.08869550430853615,0.053323236977724016,0.09707712251864274,-0.10483123088830062,-0.13429522659158785,-0.020883206807351142,0.03222260718496897,-0.009339437025080412,0.027980373657416315,-0.007279180412325446,-0.031176925127334793,0.1193490193866856,0.027420816000349513,0.08707206303321863,-0.00783620432197999,-0.1472381458204425,-0.24204653046823688,-0.16789305295859783,-0.01788883173605084,0.06439386916065634,0.08272416614359737,0.05011016945890044,-0.014743408250110258,-0.003955608158788659,-0.038695619039122185,0.026293483718056034,-0.0643473193494093,0.04497517370249073,0.07656942208607183,0.06066760622617979,0.024638729920785196,0.03455305134468424,0.08923337943001704,0.0027477767870079254,0.050470943049445084,-0.03688396534959183,-0.023350098464849856,0.0003867622855857598,0.025303679405351973,-0.05249946061949765,-0.01148866802603657,-0.027588532635562445,-0.04092016765507774,0.035507752685307356,-0.02411076716424029,-0.007056023758979993,-0.013204719650982953,0.03197068124367148,-0.020405720352783315,0.007239521692854416,0.00851084498450894,-0.0268939681223698,0.015314150686763181,-0.009177891479635896,0.0025678244738588252,0.03605856024507413,0.008662563130326149,0.033970177380249426,-0.04712825917211469,0.03865230767103677,-0.03908707932693904,0.03804832509788033,-0.04894342816062413,-0.04934683793182288,0.04297442182273482],"bias":0.03963617440404903},{"weights":[-0.014431913745492395,0.027608293875618646,-0.015228329856197612,0.0017346300976680122,-0.009067273974873915,-0.04864483071945595,0.05015989155361403,0.0018538556192568341,-0.03438883770719056,0.0204176074671028,0.024668960352329055,-0.006986278426091379,-0.00015881441937063754,-0.009831272872731847,-0.0047295416855684105,0.005483685750720763,0.007550816706931686,-0.034683744573357635,-0.0035960433620078553,0.035534109409826375,0.04813586089118396,0.010930106133018654,0.015192792470906737,0.024804403163593083,0.04537752751457181,0.009850882792872698,0.0398141625002592,-0.006247794368376028,0.04280895439383519,-0.03652846352585505,0.020027412129051035,-0.0431080686242503,0.005040603898043099,-0.004912205409947105,-0.07107008871933052,0.023455742253073644,0.03483532593757196,-0.033275466280213405,0.01212943332913616,-0.0255115920346327,-0.04116099296153034,-0.020420719519536126,0.03095045864753924,0.008876221884142521,-0.04234695420758283,-0.01619648949560837,-0.06305225686424495,-0.13588069159405794,-0.09516868143791246,-0.18972787041886238,-0.12603736554660647,-0.12915382976686027,-0.043672791831644395,-0.007969494517300021,-0.04611062015167967,0.031669292887005616,-0.008378373291024368,-0.04869094295791533,-0.037740387432066896,-0.01746044463618964,-0.0639650623396373,-0.06447313148623807,-0.0526972201714481,-0.07211257502317259,-0.21774664149387216,-0.1592290490034142,-0.009560235335179908,-0.03116794715244797,-0.00749040506885822,0.041287430066161784,0.02551921895994187,0.04707524058307803,-0.03289914322633033,-0.05852022289842972,-0.07590468845460045,0.0022805538137658935,0.07912199118415116,-0.12897429063188895,-0.19175789491382395,-0.12882205824178702,0.0015837921919496277,-0.005508423714083459,-0.037237830226104884,0.008102378128106037,-0.027656630433605722,0.01234702968783118,-0.029280156480045255,-0.020884853002335176,0.053154759025010066,-0.04847888686327363,-0.03227399360232933,-0.22537304509153547,-0.1906996553591393,-0.04290151274340561,0.08249381947183863,0.048822883594585156,0.011747631619217266,-0.019107862297328925,0.012508286309661158,0.020193828953186176,-0.011929318048241207,-0.007437479604663148,0.012893149106764236,-0.06876542637060103,-0.18241977725672065,-0.17532396514976673,-0.1408253119294105,-0.030732886881595353,0.0377885007998479,0.029760622962797537,0.0030519182275355566,0.015733798987966636,-0.009330491768666885,-0.04396220006281953,-0.01885869095224075,0.05833516847823311,0.07983622577836863,-0.01005102837142069,-0.0832360318609643,-0.06436548533404672,-0.08977517539922722,-0.01849675725274893,0.014339670255482101,0.05531988572630271,0.04943695185832411,-0.022727937341357606,-0.0019999624911913334,-0.01272493386506154,-0.05084868893178486,0.07413853909865192,0.00509783653940749,0.09077235324242341,0.07084073403764511,-0.009263134794130188,-0.10820852618977458,-0.011415707277992643,-0.015651960637021477,0.02259556745262027,-0.033546847195803524,-0.040183798522934536,0.001843920990335018,0.007021786642263565,-0.06505709810089019,-0.004809858724269931,-0.021466105938948897,-0.002990658386357249,0.01967963194344022,-0.06723222791481294,-0.1344354332588774,-0.08544025475537223,-0.0017403532313126355,-0.030070501149162703,-0.03426331860446911,0.0211295792319726,0.014725075069429239,0.015255281028232506,0.00014004938178038156,-0.042059533161038304,-0.10192532645091539,-0.20561746445206106,-0.14724170508332532,-0.14330516663690646,-0.13394622015935378,-0.12724218602167942,0.00024777362579010725,-0.027540774716653484,-0.04587140350425531,0.009770238741835666,-0.04102902996892426,-0.02859919331435357,0.025791104617723874,0.0049148514131058686,-0.006701857446720581,-0.035616242602230924,-0.07581136783873178,-0.019292548825541836,-0.0038537270842430773,0.026694331882760994,0.011492463703095078,0.05030932991757652,-0.03172951908121238,-0.04953653348687819,-0.006610926999427864,0.024624035082586225,0.002808737040886648,0.04772491276641585,-0.007167049501070394,0.022825179701286405,0.03335595746118159,-0.00005756586297245286,-0.0011916948321872272,-0.032927794837292156,-0.008134495884222274,-0.025170689036461847,0.022296349531299327,-0.012183585531255666],"bias":-0.2056265059316072},{"weights":[0.019908727047089514,0.013076664783407983,0.04763152849301186,-0.020240659357591742,0.00477929462639373,0.02462072353961229,0.019896548149585986,0.013125071163084258,0.0041912364108168355,0.039751392801659804,0.03582804226328594,-0.002312185136282383,0.025673973746811324,-0.04541827071581238,0.02528777003473924,-0.018491466450460025,-0.01961247361977342,0.019315412255767845,-0.0007538447957370301,0.0280146279478308,0.005117958817432702,-0.03199460234492555,0.011219697042136594,0.023113549336898173,0.037529977643318384,-0.00392184195125695,0.029677599278722096,-0.0058766122940110245,0.024503183713091525,-0.04603886583856092,0.003134019325935353,-0.021281903417310875,-0.010242493172344644,-0.1072411529994145,-0.10705561656741525,-0.11801661610754369,-0.07322413409940676,-0.04649472767782668,0.0352242568226451,-0.015579271875861852,-0.048291036343491675,0.02860894840178884,0.0267637207484129,0.03591748384716338,0.03207102785957648,-0.0330018789865624,-0.05484029341076043,-0.0849686227176818,-0.07763457696469174,-0.06610108078439009,-0.07623388803753296,-0.02217495145632903,-0.1412760978340389,-0.11771480165965414,-0.012891542801560405,0.04182877670103162,-0.03382239400277045,-0.0013474370406564879,0.00825466010736359,-0.011402798230885787,0.12843375265328047,0.19895865846280697,0.14055774437799762,0.12027029775236091,0.09410455898718165,0.10110253578496557,0.09286035958137791,-0.029359359999001845,-0.04689633447892897,-0.00439971400026952,0.031131366644281167,0.037822459553233156,0.06661500094936541,0.030597503294226114,0.10111776409137942,0.20011646442863784,0.14348076327179227,-0.1859701697356647,0.09402487893866568,0.17765258824087063,0.15007587936955621,0.057270013680890075,-0.019475604838053887,0.01258802267873847,0.04741268736997502,-0.04128145036231259,-0.01614260738207325,0.1276554909911372,0.19066925926108813,0.07011988273641696,-0.18142364544323022,-0.1698804720594027,0.07917450986410816,0.0332415618175407,0.1445373383522564,0.060959235375016387,-0.013291444362425497,0.0007535256444764987,0.001087991484844305,-0.04916158104129587,0.00037365895749551307,0.13809280118181377,0.06442315561440999,-0.001929921939429226,-0.2150294255226458,-0.13365349526054987,-0.0063359987173369665,-0.003111787560204116,0.10280969548906495,0.041382602574754956,-0.03545787039577768,-0.0077008435679889525,-0.023964599151583117,0.04219141084930376,-0.006195263224379245,0.10637217132813911,0.08152247426021249,-0.032508256005966435,-0.1948632196958328,-0.03932451923901653,0.032427650047279516,0.003301104777188814,-0.012095337786390159,-0.009693026210948103,-0.016607665186952045,0.011851533526429089,-0.009212223801672942,-0.03612241508354969,-0.01705175686755828,-0.05492721257624129,0.00598122120020028,-0.1108985573817439,-0.059708587737339294,0.04070261907457346,-0.08118355221950119,0.01122252975021248,-0.056321679143560274,-0.042054489976244294,0.01855392343683896,-0.010453443970751122,0.0297207490826536,-0.010510806018863172,-0.09967363348668327,-0.13099851116310565,-0.1797772668332441,-0.12292088959504066,0.011741854397990695,-0.11337496252938573,-0.0414116430428363,0.029707222188159837,-0.06991685526273969,0.029173535675953783,-0.020919289510634848,-0.03521258402195784,-0.008994080895528249,-0.02973505255441453,-0.02377025406324616,-0.023969087539694393,-0.03161989098190398,0.05526455381846649,0.0685395137295397,-0.028463055684952717,-0.07888776649842485,-0.00099157689719473,0.034915271974039715,-0.015024118749562262,-0.004808510016064408,-0.04504641037360933,0.009245857906817881,-0.02741106755265576,-0.02077934417394527,-0.021303361696996776,0.05877603271855125,0.10510736534516577,-0.02488263911310593,0.08665010565794691,0.06630055489039319,0.029811116374745313,0.0143929374702038,-0.017497571029004875,-0.005755282147218883,0.03700981425126575,0.033100368203571574,0.014998546677008987,0.046558897779793613,0.020698133316921274,-0.005366857471122529,0.023154952854492303,-0.040224319440943165,-0.029605651535304273,-0.014722451556891291,0.02355540313696278,-0.006561108541669091,0.012997088006763163,0.031667427650451024,0.014476290416248587],"bias":0.03763323312621695},{"weights":[-0.009595804213136145,-0.024675503642060687,0.007861962103103505,0.009395396016050687,0.032144918233901074,0.024160722760402997,0.039307396679976264,0.034875953709224534,0.015072906776017157,-0.030702811090440003,-0.015590125900627444,0.013265642172517151,0.04899308135617917,0.012375954259555006,0.047509430307638385,-0.0038334900243611587,-0.013187870785264746,0.024842138090622794,-0.029189329354078725,-0.010039388101192127,0.013869555342988074,-0.01870022042655377,-0.08258986601544654,0.021298909980357276,-0.015573129306568435,0.03430038745531502,-0.04685813359069172,-0.006739428831154531,0.004659081626628941,-0.04319214579874426,-0.04340897035340588,-0.018443859656210138,-0.007737240923827427,0.018037466603221856,0.000964488462637928,-0.004092191690384069,0.042023113190264715,0.041643548867569394,-0.017743012418209525,0.020018427747469425,0.0262505122725913,0.009243853026884866,-0.04719932226227768,0.021686256169003795,-0.006928339092045469,0.02537261232046372,0.12201148894114867,0.17025142438305174,0.22385221683697165,0.1478847340738431,0.21017649544906708,0.23930479168704877,0.1658954746021896,0.04171889331176845,-0.028149665046824958,-0.024275774471336026,-0.0476961985628103,-0.027889293353842232,0.003207699369636184,0.009744059048434946,0.04316653212116767,0.06221642044089093,0.06775767939079971,0.11840517672516285,0.19292341015134384,0.38394329858701276,0.1828493996176695,0.09176123945219412,-0.010115150049381617,-0.01791146765272332,-0.026906107121765232,-0.0209373157151438,0.014093756139681588,0.025202190582311577,-0.028204494710626297,-0.07320999775690093,0.047045644372082404,0.1242461615383942,0.17127417420513028,0.12127411793792708,0.11501050896346272,0.062493616692155605,0.029043578345553656,0.02922893507838854,0.03564481020174602,-0.04991349557856643,-0.03849684754226826,-0.034645065225390764,-0.07069163737664695,0.06765575773472665,-0.051424973328185256,-0.1818340190396314,-0.1535117186476195,-0.1816787660794561,0.04512632318483095,0.16508212362481453,0.07017558718946211,0.01441006953129683,0.046394547497921365,-0.0385095342628517,0.023236018413807322,0.019257216452952124,0.00739545194503329,-0.09754249513271523,-0.34489333706081665,-0.5226706755014257,-0.18818861292444838,-0.15686403639741459,0.12712172080961714,0.17200791563640178,-0.021035251847624708,-0.000010612896759851672,0.002727644136133269,0.016783154723076246,0.10143074633337935,0.10610362561432007,-0.011585996723419511,-0.38699580003819306,-0.5384081290109548,-0.419996625078415,-0.07134579419680759,0.12222945702023898,0.1942837297339685,0.03803613773522558,0.028998275018415263,0.00008645920029548336,-0.0032751160012253516,0.03254104316235218,0.1328237981539243,0.21222652233445263,-0.002625361017828412,-0.32936343432848103,-0.2507014163621753,-0.1199268186866694,0.014541800426298403,0.12320058788872681,0.013708418870640162,0.0039974392412711855,0.01949145392325001,0.009657197427005404,-0.026383910708167025,-0.010108057038927918,0.07449856711429433,0.19900610195258675,0.2723412849821091,0.046210318646820785,0.036845538474125805,0.1519750034254844,0.18835203132953093,0.11535072126195196,0.038442216618412496,0.004461578659638857,-0.02838271823466984,0.03196718213675466,-0.00034761226699326215,0.045291005725437435,0.026869124926032186,0.21279575273425277,0.3050835904869809,0.42173376066651747,0.4109612128834813,0.21817946791701856,0.09338116172967509,0.02002309900916938,-0.07217501056936873,-0.028302238729704658,0.014728102352507915,-0.016883393151747854,0.04004608022823224,-0.003408146268223606,0.0461340730491309,0.017217424950560823,0.07935539695277607,0.1482080253161864,0.07166984347241809,0.02476010445062205,-0.07243897212488953,-0.05487381703662107,-0.024298856532480602,-0.0027744823262620157,0.0020417158613386436,-0.0324675243616303,0.02699961831267088,-0.003801691232189724,0.044362786214558636,-0.0032596051905890828,0.034238855573269215,0.039786786896346245,-0.027949096361313607,0.03296638408499054,0.018729812215782866,-0.027905087744918042,-0.024343930964453964,-0.032094237662061986,0.010832466023361643,-0.00228327895694963],"bias":-0.0009830620078701818},{"weights":[0.03851553892812371,0.04637287285068534,-0.007730517785903009,0.045190302900543176,0.020156454400405015,-0.025506281998384058,0.014411964691432523,-0.0026752379711179842,0.03322254618516131,-0.04552490838428941,-0.0067531338312936595,-0.02569367343769545,-0.036417965715417416,0.029378064232013126,0.013012867708524513,0.04987930810826193,-0.034139015703198806,0.010574754168489195,-0.0034952375451089003,-0.021179966691029575,-0.022078080063667075,0.05864034662776965,0.05642488548876556,-0.015168292250360302,0.03398326819338859,0.009268131025675728,0.02974328153921422,0.0003755808407852021,-0.009242356847830377,-0.034080525076695255,-0.045508105815524426,0.017093375553701162,0.034515742052692554,-0.007786442245200711,-0.07417526797406111,-0.01988135608799989,0.057983041096874445,-0.004991290902140347,-0.024561717926493292,0.025556851362988527,-0.019052978053570962,-0.04028727426634311,-0.04943698770711943,0.02219712293640553,-0.024726507027274386,-0.030387587387701198,-0.10663208221177047,-0.10299831908111912,-0.19356405150559147,-0.1856615600286887,-0.13525113055773155,-0.0716653647850823,-0.044503648464258715,0.005340943114158622,-0.012334261585132456,-0.013915881589598661,-0.029072923501113325,0.0452316672641363,-0.023720865081157283,-0.08300245824466022,-0.14471914876618075,-0.08628785307413098,-0.037747842859300176,-0.02328556126577904,-0.23075363201002083,-0.1996614243423869,-0.06635825264433771,-0.0901393553094855,0.00815770289898229,0.027209562157596973,-0.048838306620255664,0.0484113994426991,-0.0007312499700190452,-0.022163541105824545,-0.1547219945325121,-0.0002951198170905901,-0.005518456778342343,-0.11100403930139165,-0.19294373794239714,-0.13236814081042556,-0.03553057877883404,-0.0009019531632798767,-0.02059955994025539,-0.019562241901650644,-0.027825080246087278,-0.029738872798266987,-0.07267302092955602,-0.07854756099668124,-0.006272586685405832,-0.09754216105082705,-0.09004345728861946,-0.16072436169973597,-0.15734446298300842,0.015404085531723323,-0.03639437606319894,-0.02309543210116282,0.003928735174901162,-0.0416668510998535,0.0011393403499944151,0.043787884400134196,-0.008173826679437007,-0.12713183526953029,-0.040730128336117215,-0.0371513298223175,-0.10911268647522632,-0.09197046019074182,-0.047577179144923126,-0.0860287128226411,-0.038880220343832435,-0.0312522476010784,0.04087592685266243,0.032068333815365224,0.03687007112757629,0.04553175090983195,-0.04401814237189252,0.0016816128268024005,0.03422322514984937,0.0633370372910642,-0.04389025506537649,-0.03415456119020303,-0.13590586040708502,-0.10606302679146916,0.01568260326822141,0.04608979929111274,-0.014408064810644347,0.0322718839884651,-0.019076113377792667,-0.01693507117628991,0.01922112727997455,0.029486492496925587,0.011083569128495084,0.17789825985852603,0.08364987003276156,0.024721251785599165,-0.10882190868254407,-0.05062801771659276,-0.02262318436359619,0.03561228302268435,-0.024688424328082888,-0.018387801191037882,0.01382678911416728,0.052844745979449236,-0.02593025664806239,-0.051608549140102,-0.09883589668022343,-0.046744599654760945,0.07278961635391533,-0.09429631098690157,-0.09718371784691057,-0.0415343961834676,-0.05764599907092425,-0.07399016253938528,0.014243704394964524,0.010724721182384277,-0.008334026543849286,0.018914456218218495,-0.015644656876114636,-0.07473578732812534,-0.16352556760113862,-0.18881464063019185,-0.15797344046450562,-0.19746219290416306,-0.1792570661977269,-0.09298331758438347,-0.0033217619759944427,-0.03580275968273681,0.00722999601954083,-0.012375475482257555,-0.03854100389563115,-0.018666429629092117,-0.007944910269884451,0.00490481396735187,0.016283120499411444,0.026267714908995363,-0.04689301840297412,-0.025340204943496956,-0.03547928769894594,0.029403750731830526,0.03360635832768736,-0.02439776293691212,0.03649802126935973,-0.05014193740496017,-0.04716174821895592,0.0021101411167640037,0.03257063104753869,0.022723079746694033,-0.02767055141140163,-0.045849043717411206,-0.0030204563516240636,0.015778258018963785,-0.006264372032299777,-0.006691950082492036,-0.03354346661782241,-0.03379095458248915,0.049992558888159844,-0.009490363487902696],"bias":-0.19628618098550196},{"weights":[0.010118150244639832,0.04912101463986514,0.02013261528080347,0.01175497013025229,-0.02043441454514823,0.007073794228094992,0.04195346913405871,0.004765589626254595,-0.002056019333099573,0.03105594924540783,0.001369672128169692,-0.017320895856334874,-0.021826050581837838,0.036890598704203914,-0.022268121619804616,0.023018315772253096,-0.002708393298965495,-0.014078576099983968,-0.015517181071301078,0.02005081133254597,0.02697367243792123,-0.033768244713034856,0.02999464388770041,-0.04306695855090755,-0.038243234340206496,0.012286588778926348,-0.04278400810173336,0.01579601011305236,0.037825062269003444,0.019967826119741905,0.003859643234233651,-0.024663406989894797,0.07349456636410041,0.16109907810942833,0.19715461486211547,0.13884400022810495,0.11169717109873023,0.012567339795096217,-0.04289026503179231,-0.03194852470772236,0.028935019764136077,0.04193567457783732,0.014102475066747673,-0.03834963280233082,0.010854181384989253,0.10228039670721775,0.10944993396630358,0.10111356443921171,0.09010148168221344,0.13946014972563278,0.12146056434896985,0.13932253678945877,0.08125810382135863,-0.02601274697368001,-0.0022396742469143463,0.023890749146649626,0.04986193248217578,0.04759754546768422,-0.013519840933792333,0.0288415124108245,-0.10532179133838324,-0.08033985217109374,-0.02316076059869969,-0.018289202496422376,0.13167622148253894,0.19673574539377545,0.04226485773694862,-0.011180466925134025,-0.046499623122861974,-0.04671599658051514,-0.02811875027090266,-0.011848451209313491,-0.028222798345183236,-0.06816310299524041,-0.2235508835031528,-0.2700206089074002,-0.18949826006251375,0.08911520134274672,0.1717265306044406,0.15953691667586115,0.09848363686472486,-0.0028193170731565416,-0.0002959624341266395,0.038525383786302256,0.011972035787477749,0.018771072392163173,-0.029398836227602886,-0.1270828626199785,-0.13985732262476486,-0.2171594312510906,-0.14884881671702693,0.040824418802304946,0.044505925891703976,0.009550511935415817,-0.0166879079139354,-0.04609480536781753,-0.0019692767284764257,0.00692782769769596,-0.0012027883164318356,-0.0007313323218348912,-0.0040183827662759325,-0.0606744052470173,-0.07411062587745255,-0.02125065153731436,-0.04355313487934053,-0.040960976949404336,0.03186028431851646,0.010144439514830322,0.03932423751640462,-0.024567084835308416,0.009153575074323442,-0.01393503268149614,-0.019258298113994463,0.04993079377655094,0.0581572580382909,0.11639429784610486,0.00912152523981003,-0.08174977084138416,-0.09041186450278964,-0.010814014290747062,0.04979918368484114,0.04406505442978599,0.03950404415224194,0.01655133508163615,0.003974126240176921,0.005837781460283483,0.005867365907454275,0.030792188438639446,0.1477257094830533,0.20437396315531756,0.11997857131924172,-0.003746689911345996,-0.012877486444748192,0.010504827011964868,0.05105296390165906,0.12431299581631328,0.11333324623862724,0.06012579193084227,0.03433836207900814,-0.034561406999335506,-0.04484787738760548,0.010650134519763165,0.13402120627103614,0.21323746236757682,0.1752541021743309,0.11257175491156929,-0.014675515819279197,-0.004364031164410864,-0.013818845244423884,0.036738980723133204,0.08493210010346428,-0.009951283982514774,0.045074379838837025,0.024655105734284463,0.012843570061245417,-0.01004721140840292,0.0697398380607211,0.11660157463393966,0.10541313833631923,0.08657567319090007,-0.025909975283488033,-0.06087095173368379,-0.046964266429040474,-0.03059893974007274,0.021247788304922518,-0.03589592614729357,-0.030579396267498577,0.004525562607806223,0.03598147043806046,0.018510318306546588,-0.03070788812439613,-0.00480092250995444,-0.003601398147790738,-0.035043573011190675,0.036950974116271566,-0.09121775402629177,-0.054567954822493304,0.03463148877668631,-0.053395125026225614,-0.04122199701659371,0.011280731242613988,0.0025324127185763347,-0.012834114209621038,0.03030845818978444,0.04123779681966082,-0.026180410407702245,-0.019298358803235636,-0.0387990318436668,-0.03954248605015451,-0.02869065951502913,0.01336171667316682,0.03023771042020339,-0.013103855598872014,0.014232014249285456,-0.008403219837855934,0.03481604669988274],"bias":0.041702748210776436},{"weights":[-0.005432416681786897,0.03844226605256183,-0.03063285973237905,0.03057302254472646,-0.04964001920481379,-0.0451917392324355,-0.0015619211621446735,0.030886561827385455,0.04772179796263275,-0.025305764081501255,-0.025232122148439215,-0.01845674512186881,-0.016490097550957455,-0.026193028184395128,0.042282897838276386,-0.031978323683447066,-0.03454083952459975,-0.030952712890647972,-0.012715066916367451,0.026077100128211638,0.03158751880546721,-0.004249598519477624,-0.012135941460015827,0.010942900684180941,0.001291292294768456,0.046620620153054855,0.02954467873152116,0.03208885141746581,-0.03081301963959375,0.01987996051113521,0.04098874285425036,0.017658785182225977,-0.030392527936873855,-0.006875909309333464,0.005832765564415691,0.015679931085476117,-0.017904660911850934,-0.06657483267239218,-0.03249053345989849,-0.00169177389459973,-0.010801136033960624,-0.01778022282606341,-0.005128752180887527,0.047538456181295534,-0.04251947917421341,0.008523851415153768,0.06134146731062064,0.023391753096177453,0.01357557007185664,-0.007060081164157453,-0.015884604908302152,-0.03795522282985562,-0.087292954689315,-0.02861947851509383,-0.02522367816098429,-0.03991582453004154,0.007171506334140563,0.03960692659766497,0.012161316600783446,0.051355881084370614,0.060224240474009365,0.06901489326796292,0.0738425885339025,0.12422117948876822,0.04606842798032041,0.10947580893845606,-0.017306218152395254,-0.019119606896612865,-0.029634861108605866,0.03134025318934209,-0.02623436262440718,-0.0349443986481294,-0.018417755072957797,0.01471741779141858,0.01998414087830426,0.00471064935187132,-0.039534341469141795,0.040760535192722484,0.05279980549195934,0.02566152622240541,0.03028996338785168,-0.04956516291520356,-0.043880643030965685,-0.015868854083951976,-0.04355943780756761,-0.03542797839915368,0.00791180525076458,-0.05457651700230325,-0.07629854581684863,-0.10932663438197913,-0.11489443261776743,-0.06774953226000932,0.06162131990390186,0.0017865351407693863,-0.0675557545277089,-0.0024923083866069465,0.008378669761700958,-0.029586920853492942,0.045964655357458147,0.03867158042898003,0.003046346679470028,-0.042556464250436805,-0.11044195188022027,-0.06813911922139557,-0.1289340636101308,-0.05766969573162057,0.05417246933453518,-0.003508428797695432,-0.06270755479973684,-0.0031172396380723453,-0.023507834060741455,0.04986223171798668,-0.0440759986133939,0.04268914601115303,-0.015491453569734168,-0.05007968404718788,-0.019019926266260662,-0.04835149024314216,-0.02440765409115338,0.07033752138876331,0.059564131815774295,-0.04307233511382151,0.052187414739191265,-0.03614065530299429,0.01603836367276273,0.02992090791656333,-0.04544522188784727,0.038220260572231254,0.0461461772988237,0.06910402449121081,0.021081253376473364,-0.0004938680348149898,0.07817059932787142,0.08415841965659725,0.02765290902343422,-0.06019185512868039,0.011518403682071562,-0.0069276755075650285,0.03301626088769819,-0.006240473065536056,-0.02235145879313972,-0.03570135781749663,-0.03198957042583761,-0.011485998122378945,0.001595590205122967,0.04888990813288575,0.0024629025483756534,0.004125472163065592,0.03552907729462556,0.015458289594658978,0.064459232002469,0.011361885954941966,0.002520456914558083,-0.037963129672151825,0.028919804536676787,0.0419645807571701,-0.03132381859266973,0.023431103966233085,-0.0064249372503659904,0.014734393583391854,-0.011255169766302055,-0.04636341294424873,-0.05610524499776733,0.013865312875939817,0.024515033408592395,-0.009605620876800829,-0.015334408951160982,-0.041371375685645716,-0.011831883708180129,-0.04549378785995603,-0.04684125019703465,0.004898454284641072,0.05872384104858232,0.003994071507648441,0.025154274465693332,-0.00846477681859294,0.036520068011106466,0.0312328185414426,0.04126151263097573,-0.04518069349818788,0.030691729390909736,0.02803301921108033,-0.00435176644883662,0.03970034317232059,0.029643117338779605,0.003191323842806597,-0.04108113709898967,0.050479162917687025,0.04850269834282431,0.05030737110192638,-0.02180876951003453,-0.037661898954134986,-0.003660853161358832,0.015940411340864716,0.03009101350053185,0.03833462095685477],"bias":0.018539781846854425}],[{"weights":[-0.29092515847562284,0.17992190464262775,0.5390262456606655,0.09591695007887789,-0.10579684718562722,-0.20762354367969854,0.40150560035415983,-0.3125907045822286,-0.0798276154186222,0.4726116788879144,-0.021297096962192896,0.3929042593536296,0.40285196383375715,0.04890984195564452,0.0815639424823466,0.17016338217562904,-0.15124536504899203,-0.004881257352764497,-0.3450071827457393,-0.13160741873471607],"bias":-0.23869631211999703},{"weights":[0.8018769639539842,-0.12562258384575872,-0.41874606847538104,-0.5037202776607544,-0.35178384267088675,0.15623430052989876,-0.37379507254048894,0.17289368450189338,-0.06281728033160594,-0.2575066261811556,0.30142547628330896,-0.3967372150767162,-0.12836792665132182,0.26013097046565314,-0.11924615782200246,-0.02801899796385477,-0.5901936345181893,-0.18942875439959267,-0.04008007370831762,-0.011230621061631748],"bias":-0.007041395195621079},{"weights":[-0.11539858204870942,-0.12730373473945789,0.05873798563961805,-0.056525898950193124,-0.055262260127701406,-0.008725577608735003,-0.07652701526453054,-0.09756149942991854,0.04932526225798907,-0.08043727715439405,0.05524020554005428,-0.15449941931942526,-0.15900865602451938,0.13134362162214058,0.09035540593657611,0.07350578373813858,-0.07497014117207097,-0.10214575482075951,-0.146303839293142,-0.09460396756546982],"bias":-0.045008638579472904},{"weights":[0.2476076542757326,-0.1434618409940512,-0.15298489143591318,0.10549870984431739,-0.1930036451908212,-0.08808262547092466,-0.13453394997441867,-0.10299818838363779,-0.15720456037753983,-0.10232846055033099,-0.12615575083162903,0.1835168615803741,0.48295995062134817,0.01977842462642797,0.08624415688615604,0.13413869828155686,-0.3190590553890674,0.08823733808254,-0.1392551372047772,-0.10166723555376316],"bias":0.25358934016535695},{"weights":[0.40664903103564864,-0.09206784784495067,-0.028236093388825677,-0.11144768154210562,-0.0865600826919162,-0.04554931228744704,0.1688588836295834,-0.01242810166257125,0.1529323831334091,-0.10437478332453917,0.024674933513265555,0.12263757916092675,0.09433954642752165,0.49882790191322146,-0.3053502983816083,0.051328652662939823,-0.5295277023260321,0.03214786033899743,-0.24653313997494053,-0.10069028773305572],"bias":-0.10251491408588416},{"weights":[-0.14296031758084254,-0.043808967203789066,-0.18999460534586304,-0.03983337425622599,-0.08500447004022198,0.11183510998491801,-0.11716141510020557,0.0879822184514976,-0.06007942385483766,-0.0366249876943582,-0.1410830160934996,-0.1335130189353786,-0.015681984471309297,0.10495849471894296,-0.1008714222366859,0.016495258011142776,-0.10989850750079094,-0.12028004230053482,-0.02419458626615586,0.13879974672203294],"bias":-0.040984762742857575},{"weights":[0.17038024611749886,0.24124089119570047,0.19373200366056362,0.027520140101905295,0.10215579994840736,0.01224532493935658,0.07658646145770062,0.03944233588166165,-0.11556096574407271,-0.04091703162152736,0.18334084264747075,0.08127738346235289,-0.02890564459917693,0.7661379832221243,-0.22505666773861724,-0.13327432744812942,-0.04419024854142531,-0.13401421000814487,0.5041386444506046,0.18714631434046816],"bias":-0.03064248126435353},{"weights":[-0.3175378575447317,-0.1848344735085986,-0.06658919388801957,-0.08368332705357599,-0.053276940216485116,-0.1671680687593314,-0.10698103589283511,-0.25379982026993314,0.04081413526224212,0.10958269673894434,0.007538698383401512,-0.05888421096133595,-0.023663551281468506,-0.10020451842466696,0.023340268695310567,-0.018686045187736717,-0.19934666826428105,0.057383668061543054,-0.027023055449235025,0.08725188697037885],"bias":-0.3107064501418786},{"weights":[0.4207969422223786,-0.08745009514101643,0.02243406015212403,-0.10702397074104764,-0.048077776618086474,0.1980152011679367,-0.1102441823197413,0.04794704608137774,0.11772348048972152,-0.045017371122736474,-0.014263054011146825,-0.05040150100704306,0.12381749630065962,0.043968283291550087,-0.03212447656050885,-0.10955080160708651,-0.31350714653656275,0.16161209206061028,-0.14003220556801993,-0.07169211149476627],"bias":0.06501347951755233},{"weights":[-0.0793656519683418,-0.01933941624149261,-0.17353663980534514,-0.11728434895994547,0.06846430985707497,-0.10537806832163486,0.0392850386341596,0.04954372876924245,0.06046806830876215,-0.15315899922633097,-0.10880592601663988,0.151504480251594,0.011411091559662323,0.1782721344363666,-0.03342817538924909,-0.0961045124207807,0.0017659266181884986,-0.007964969043741653,-0.03762662508588789,0.016307069342932842],"bias":-0.016233256832401424},{"weights":[-0.11629492630095833,0.08554058268731099,-0.14340180194885038,0.01168795793412417,0.07564604750774008,-0.0214933103346462,-0.07959211328747788,-0.08092485377694555,0.008881020857756656,-0.09422233491713905,-0.10803459477602156,-0.13248361832918906,0.19136132948551166,-0.02310808390705691,0.11835057154156355,-0.05304558159014897,0.007070259392000171,-0.14136122019725783,-0.08230145081158236,0.1548937595591919],"bias":-0.0020605193319068295},{"weights":[-0.0720971513994971,-0.13143492567328968,0.06966341253865513,0.013302889603093834,-0.08055119987354938,-0.11326415596127666,-0.1355096241280354,-0.1343675904089111,0.03393127322963843,-0.14516599421835805,0.0038042965542833527,0.10303111445690241,0.05088209064846189,0.10223227958577454,0.118353848098295,-0.024618609446184565,-0.02196784054073801,0.052002060718145164,-0.013231256899445583,-0.02673581597129777],"bias":-0.07016345150087425},{"weights":[0.5157528947072633,-0.055847968389361055,-0.3571788560813238,-0.10245505997314729,0.021846530681876433,0.26820662152421226,-0.34934900196064717,0.30202943475156346,-0.01100147513359472,-0.11571279834864398,0.30239700205445963,-0.4352310992170213,-0.02830716846336831,0.34025430398723266,-0.09923444205438543,-0.2998494127202723,-0.16085600912561013,0.01657772039028696,0.3974832658016169,0.13571903634221072],"bias":0.16133083279433658},{"weights":[-0.15123019411034408,-0.13616749522638588,-0.0054583499691270585,-0.05030818232820839,-0.04064120783778339,0.023629535612125236,0.03626601767323706,0.07804603557251696,0.07485427727002535,-0.17237492297771081,-0.09546279122430769,-0.045286672023296615,0.04242709511276083,0.09402938947861675,0.04032739079003303,0.07012600019548153,-0.14825879813230797,-0.0785801179010837,-0.08894653167586479,-0.12218962244353301],"bias":-0.10769250670415653},{"weights":[-0.15449800179429488,-0.354090721936142,0.9072313216763956,-0.08242587506884304,-0.019766160799025233,-0.08723513271775071,0.3068426192231203,-0.22000587011313183,0.13169197218848613,0.2732255487600814,0.06084804226374733,-0.3006684799336084,-0.5434317771722689,0.02801348165769797,0.10885432372677012,0.39754592879037753,0.8737850082520241,0.08635680341099054,0.25141345054959857,0.18100392907779664],"bias":-0.004476881257870668},{"weights":[-0.15572709367722729,-0.08035331958156589,-0.057359456397668374,-0.11338314586337472,0.03468166012392937,-0.010257962063416034,-0.11284187728730322,-0.10483449830419002,-0.04481836107165815,-0.016901918711899003,0.016516211033249687,-0.0735198030431788,0.008971230147216345,0.007163677740358416,-0.07026765116502977,-0.13214253007794063,-0.08409035785053137,0.060223589405861526,-0.053618805275418055,-0.07569738414290243],"bias":-0.2505473370301974},{"weights":[-0.08537589730854886,-0.12165816516290653,0.7894281233518663,0.29823792506246727,-0.04374281301660755,0.07978114730150611,0.16173827833216523,-0.23789066211377108,0.022058908147704406,0.36408322061141624,-0.12468442818175896,0.23155569109055424,0.2896211764388632,0.0923119709790377,-0.032398778109184095,0.1898200831333911,-0.3059457402560375,0.0655350573375367,-0.11270005411957977,-0.06801143325196],"bias":0.20644129687556648},{"weights":[-0.02589431187904631,0.04772798672454204,-0.2402514000189586,-0.030143938410420262,-0.06530086389300728,-0.17610527049059385,-0.18802880163828598,0.12232229147881252,0.1487107328907174,-0.0011433820100322993,-0.014411915803094344,0.31618940721635386,0.4499556744137931,-0.26448535105529297,-0.035929332538987016,0.04545517700319482,0.37930538624883775,-0.1031417700742963,-0.07584467272628265,-0.20068858525242828],"bias":0.3989857234090943},{"weights":[-0.009779479770543071,0.10218263131957013,-0.1509920656558144,-0.01909822263186924,0.05858146445945247,0.10494219090973578,-0.07578627818696324,-0.15360065788087804,-0.09935930100564888,-0.14953744253460108,0.02725500142569462,-0.06883469906394371,-0.056682234778489035,-0.05364905135371084,-0.06174947022617656,0.014539632237163366,0.002559594389649185,0.14797218828531358,-0.11896428491780629,-0.15131904108493804],"bias":-0.027647038375736264},{"weights":[0.544185397652201,0.7558662633201861,-0.5407878755504146,-0.2111064704136456,-0.15676347921758294,0.2431599794642569,0.5871536898887918,0.21012429459690835,0.05234555749982677,-0.33063058695407166,0.23879319503827157,0.36456231506166437,-0.11525810428004067,-0.00041491228528861817,-0.027371620256024735,-0.32422771334027983,0.34639454002277686,0.062071777276228556,0.17597804029721037,-0.13134072497267688],"bias":-0.018920641153634173}],[{"weights":[-0.4614659164510981,0.011890628046236707,0.06397281930258257,-0.18199564058297754,-0.27076878317358993,-0.05435007677284474,-0.7202205629321822,0.35873221406735795,-0.009058950461645279,-0.08516970082648478,-0.036519504668037404,-0.03044937465679735,-0.18404624255315627,0.01762704670699393,0.8478634116233027,0.22084469858386768,-0.6804604802929524,0.26564086981081186,0.10610850747453025,-0.28248799764984245],"bias":0.4658782282393713},{"weights":[-0.7863463496812305,1.1141578813009418,0.0011219848197197995,0.11918661300356598,0.5453564245282689,0.01897979510844854,0.25061499007497795,-0.3429894344611914,0.45254534027212173,0.09001209773496181,0.14425771423379843,0.03203330099024011,0.873820285492509,0.135565842136152,-0.4753674058858589,-0.05598361910630107,-0.2870642811987526,-0.1029228159707457,-0.10170360790683007,0.19851129807315027],"bias":-0.5357818139491156},{"weights":[-0.42054736633915857,0.10033850290747304,0.12413121124414352,-0.24682242771796767,-0.050407255259971105,-0.011275634653063187,0.70981050304233,-0.019452552627730428,-0.13628914234281794,0.0013633044098663558,-0.043768185136645855,0.02184920481409228,0.5567763281436724,-0.015890347021069975,0.11720649075134458,0.15397685162796473,-0.10614144999400835,-0.09381969694165977,0.11145406316562168,-0.05591858496878223],"bias":0.30329248155225624},{"weights":[-0.27690735674077716,-0.25241969348095744,-0.01830317349297648,-0.2914400959819781,-0.41654837811501955,-0.04298364521307601,0.3292138133560042,-0.23965872623977355,-0.25799292075726515,-0.14122117870289297,0.12024595200634666,0.12737662037547748,-0.07952041865505387,0.11130629890979626,-0.04391696436330611,-0.1166871014582738,-0.3610862186535762,0.15810454021135972,-0.12182284124668738,1.0832048261104985],"bias":-0.3619205319291076},{"weights":[0.5533114204932311,-0.23282341738490978,0.08540149709972195,0.3729596791085202,-0.041791463877786865,-0.12686647951294905,-0.2375278774866362,0.28882621467402164,-0.003907123470972538,-0.0721479919538536,0.108601250488682,0.12206563993734375,-0.20674674577746305,0.031450364592724114,-0.49716682171424204,0.2654839961192138,0.5159613123670029,0.2931399006890326,0.013859826947800646,-0.8008026666425249],"bias":-0.17527558656309294},{"weights":[0.15398574627911374,-0.17951527848893986,-0.1075690790466715,-0.21906321648888888,-0.22587470110596722,0.06403367634095693,-0.2802247097921816,-0.016341440733742413,-0.07245984744068171,-0.022760232897461194,0.13208594690251882,0.12630132522717635,-0.09177404488098724,0.13393483618566376,-0.08374161935482322,-0.19817003466054198,-0.17825491113896821,0.2539444449548235,0.1007039468653092,0.6021039470196968],"bias":0.18720606423991243},{"weights":[-0.32820445203332765,-0.2674971197468444,-0.09136201601847448,0.308984441010562,-0.30810337746544003,-0.07517429362919671,-0.384403246660967,-0.7121844651248612,-0.02294128073865572,-0.1150240350264134,0.09958505135671183,-0.049618616152316136,-0.146409972016834,0.005445124526504524,-0.33613776222936703,-0.582555740904914,0.08099705134781607,0.4560229269328328,-0.05959884491056347,-0.3611856076424124],"bias":1.2841539446609445},{"weights":[0.32393150913125734,-0.2371175093323489,-0.09579732724630965,-0.20731570833121407,-0.14199002048361534,-0.10188829409750341,0.1567084770429161,-0.10130469947028399,-0.02941538384983577,0.04652142771601684,-0.001534156618175652,-0.03109313161724063,-0.2944638801641988,-0.03264809228989331,0.821518255671019,-0.10513504813555646,0.5365792026158066,-0.6019715980467009,0.1435369405762964,-0.6789117081505629],"bias":-0.21139862089513417},{"weights":[0.28593000663004325,-0.10815425673753909,0.15247136037773376,0.08170723010465253,0.3158818241237158,0.20505226562626588,0.5934063398311177,0.14126628750248268,-0.060915814123162305,0.15847644598069777,0.13204860964861695,-0.06811395251592606,-0.22966784081758415,0.031123628893831745,-0.5718876855715903,0.143148697534928,-0.004202819845605983,0.0674035439256474,0.1546714912565015,0.5695290767632802],"bias":-0.43974898537866797},{"weights":[0.6529014387634005,-0.2638123139969778,0.010942080571915992,0.03237906992496606,0.3244014450039316,-0.018616000942056756,0.04141550608576565,0.5543564920677864,-0.09061059176207478,-0.0768907533846667,-0.09359650910962979,0.009974918158088578,-0.3206722415409702,-0.02263706747581406,-0.03848964107548405,0.23057142872118266,0.6563425546227911,-0.10735984103320498,0.06656146851289807,-0.4653616290303725],"bias":-0.5164045267512015}]]'

export default () => utils.bootstrapModel(JSON.parse(startingWeights))
