import { utils } from '@andypai/neuroflow'

const startingWeights =
  '[[{"weights":[-0.01790728,0.03723412,-0.03975139,-0.0377316,0.00913306,-0.01718527,-0.02773282,-0.02069154,-0.01883511,0.02590535,-0.01926158,0.03557838,-0.00287174,0.01827775,-0.0133192,0.04127689,0.01893349,-0.00181269,0.00659473,0.08413104,0.10201642,0.12574083,0.05685665,0.04364126,-0.05073729,0.01193854,0.02447673,0.00862251,-0.0053494,-0.02869707,0.01005659,0.08022247,0.16258466,0.2236405,0.2377534,0.30431335,0.22024734,0.10072836,-0.01385468,-0.06473248,-0.01628682,-0.01088504,-0.04084065,-0.00801142,0.06613344,0.08363402,0.12330593,0.08694862,0.17849726,0.18169282,-0.00882399,0.04117673,0.00076522,-0.16695161,-0.12944378,0.03598484,0.00449929,0.0258581,0.08976206,0.11873153,-0.00908463,-0.01528571,0.05373511,0.21655423,0.02353525,-0.19517915,-0.1763594,-0.36199525,-0.1207797,0.01701859,0.04057337,-0.03775442,-0.0660413,-0.26048592,-0.27509498,-0.33729157,-0.21371668,0.18132947,-0.03641103,-0.20281616,-0.18351662,-0.07047733,0.00774741,0.02788397,-0.04139226,0.04431053,-0.2125763,-0.41763206,-0.32605257,-0.46261141,-0.1443347,0.36955514,0.01763905,-0.08231202,-0.07789847,-0.16954674,-0.00060874,-0.03930677,-0.02632757,0.03427807,-0.17208278,-0.23855673,-0.13534506,-0.10422384,0.2675667,0.55619026,-0.03490119,-0.04514155,-0.00001816,-0.03886073,0.05018899,-0.01983894,0.03929169,0.03492139,0.043147,-0.01878624,-0.03586567,0.12769692,0.38053885,0.21399625,-0.01964052,0.18995455,0.15428571,0.14928031,0.06499326,0.03017557,-0.01416903,-0.00319723,0.17163899,-0.05059223,0.05457758,0.20594601,0.35264979,0.12253411,0.09442716,0.1121447,0.14820888,0.21308421,0.07062522,0.01232259,0.03242726,0.03065494,0.18440817,0.21905285,0.17509214,0.20323073,0.22198461,0.25654249,0.18353945,0.18537885,0.1010453,0.02445025,0.03164582,0.0063101,-0.02812149,-0.03011862,0.15666036,0.19073257,0.07928595,-0.0885333,-0.12046022,0.01836472,0.08316919,0.04078595,-0.15333154,-0.01937211,0.01439908,-0.03791304,-0.04220757,-0.01950506,0.03679029,-0.09322868,-0.13254838,-0.21874032,-0.05123428,-0.1602841,-0.17461153,-0.11744313,-0.11738455,-0.00252343,-0.01134759,0.01177249,0.00938555,-0.0196621,0.00615444,0.03608818,0.00381472,0.03849287,-0.01182797,0.03906713,0.03782038,-0.02216372,-0.00313173,0.03894742,0.03503028,0.02059901],"bias":0.12794449},{"weights":[-0.01927502,-0.00345542,-0.00383546,0.02012873,-0.03623302,-0.02446517,0.00874295,0.01935386,-0.03720108,0.00537776,0.00070406,0.00222731,-0.02198226,0.01469957,-0.00248705,-0.0394151,0.01028578,0.02583146,0.01722426,0.00347652,-0.02694766,-0.01931263,0.08799577,0.01802612,0.07025384,-0.03484816,-0.00160217,-0.00060335,0.01983962,-0.01031065,0.02464387,-0.05941288,-0.0944288,-0.1242948,-0.06944218,-0.04692528,0.05731643,0.02918484,0.12327212,0.12723822,0.04380754,0.03821912,-0.00158251,0.03562742,-0.03154721,-0.06571281,-0.08868097,-0.06994362,-0.09639597,-0.10967608,-0.12658984,0.04125228,0.07571125,0.29672932,0.15347872,0.00725683,0.01532072,0.01106966,-0.16437844,-0.12734064,0.06243493,-0.05967605,-0.09462691,-0.24507204,-0.21675774,-0.12390841,-0.01991916,0.20766749,0.07800751,-0.04264034,0.03966772,-0.00293704,-0.0658968,0.0660092,0.16675877,0.1829235,0.1491182,-0.01556233,-0.18215089,-0.25687725,-0.22069895,-0.1064359,0.03876093,-0.03706268,-0.00085006,-0.03244611,0.04432827,0.21091849,0.14237609,0.25343982,0.36034764,0.2817313,0.01389907,-0.0760953,-0.04931601,0.02292828,0.05770824,-0.02840563,0.03651356,0.00468076,-0.02215625,-0.05774659,0.0698626,0.12334903,0.23909432,0.32439594,0.08121554,-0.12697926,-0.12298372,-0.03623063,-0.00625229,-0.02459116,-0.00771073,-0.01829827,-0.15765153,-0.25338324,-0.00717261,0.11802747,0.22182725,0.17860009,-0.08204292,-0.15375929,-0.20885736,-0.05221255,-0.13366031,0.04321712,-0.02488204,0.03255917,-0.18479935,-0.19556125,-0.08873847,0.03833799,0.04008214,0.08047743,-0.03285025,-0.10377098,-0.02602212,-0.03791699,-0.03040739,-0.02187827,0.02854211,-0.01063007,-0.08743459,-0.03261626,-0.00434186,0.05519107,0.26093316,0.23685684,0.00905407,-0.04232263,-0.13541256,0.01735212,0.01081102,-0.01149422,-0.04187406,-0.014297,-0.04305597,-0.10164886,0.06549376,0.04877256,0.16063236,0.15212163,0.12485181,-0.05981972,-0.02160625,-0.03666458,0.00059634,-0.03168734,0.02512178,0.00920869,-0.03653113,-0.09609257,-0.04014143,-0.10387437,-0.10811731,-0.06018658,-0.02206097,-0.0404278,-0.03078577,0.02450383,-0.0000087,-0.0259524,0.01823355,-0.0042096,-0.03210095,0.01238247,0.03455934,0.00807821,-0.04603015,-0.00719226,0.01263399,0.00230016,-0.03636644,0.03286902,0.0203066,-0.03340084],"bias":0.0324525},{"weights":[-0.02084388,-0.03052533,0.0064826,-0.01318048,0.01139462,0.03793858,-0.03444056,0.01866638,-0.03266098,-0.03259081,0.03610749,0.02212285,-0.0437911,-0.01629792,-0.02684279,-0.0376214,-0.03635081,0.00950134,0.00039292,-0.0456138,-0.01260555,-0.02557322,-0.08337774,-0.03350065,-0.02795249,0.00337896,-0.01323592,0.00260841,-0.02560292,0.02728924,0.03600374,-0.00485032,-0.0654545,-0.09167171,-0.06850975,-0.0713144,-0.23364385,-0.11570896,-0.05733042,-0.02542091,0.00557142,-0.03933544,-0.00082549,0.02560835,-0.06015765,-0.0724176,-0.03918504,0.04506627,0.11887462,0.24060416,0.17165956,-0.02783219,0.01031932,-0.1192679,0.02483439,-0.0326618,0.04337888,0.05243849,0.110452,0.17342304,0.267646,0.19450941,0.32621077,0.50258208,0.2988702,0.21387247,0.06330907,0.04810513,0.09733704,-0.01440519,0.01366122,0.02502189,0.16343074,0.18150813,0.24282987,0.18516955,0.25393392,0.24292076,0.1353775,0.24491754,0.17781705,0.15611305,-0.018765,-0.00018798,-0.03929653,0.0481888,0.07841129,0.12987346,-0.05005748,-0.13804659,-0.31506433,-0.29950809,-0.08503086,0.04690735,0.01170144,0.14990285,0.03328501,-0.04370687,0.004533,-0.03030438,0.04552716,-0.16360011,-0.11627437,-0.17649167,-0.25121058,-0.31325628,-0.15623566,0.05148413,0.01779745,0.0113406,0.03545565,-0.04212446,-0.01414147,0.01965455,-0.04583722,-0.11001729,-0.09866091,-0.06429193,-0.22429144,-0.17755381,-0.09167594,-0.08237502,0.0472693,0.02217637,0.03144197,0.02865131,0.00851367,-0.01544932,0.00291769,-0.14576921,-0.16817802,-0.12421768,-0.07500696,0.02636483,0.03105411,-0.02475935,-0.09565879,-0.08642322,-0.0131262,0.03341857,0.00283696,0.01595793,0.02208938,-0.06828351,0.03673429,0.06199738,0.02954441,-0.03429434,-0.10313394,-0.13996071,-0.13053277,0.0112273,-0.00722566,-0.00976178,-0.0003216,0.02702098,-0.0001945,0.03289138,0.07497258,0.1935653,0.12845359,0.07989703,-0.00354881,-0.10472401,-0.06665977,-0.00531333,-0.03339317,0.03999127,-0.0068445,0.03109519,-0.00521263,0.0754849,0.15814543,0.31810809,0.31566305,0.24394285,0.2696086,0.14775514,-0.00958734,-0.03305578,0.01344108,0.03519931,-0.03275746,0.00142893,0.02500893,0.04450291,0.04009341,-0.01475273,0.05775272,0.03826857,0.02021243,-0.0115991,-0.02119865,0.02180702,0.00483953,-0.01880389],"bias":0.205849},{"weights":[-0.02306853,0.00300814,0.01001194,0.02405889,0.02347769,0.02671387,0.03845483,0.02471064,-0.01107839,-0.02671895,-0.03558934,-0.01511205,-0.04042378,-0.0225747,-0.0381479,-0.01858145,-0.01079411,0.00800357,0.00841948,-0.07270135,-0.10208601,-0.05333684,-0.03515377,-0.02952401,0.0278668,-0.03356743,-0.03667686,0.00435931,0.01393909,0.02371023,-0.03401814,-0.03091765,-0.04013154,-0.10619401,0.02884124,-0.01504391,-0.02205904,-0.03542803,-0.0006257,-0.015208,-0.02945293,0.01152652,0.0257389,-0.02728206,0.01415049,-0.0675853,-0.01738713,0.02958499,0.14919232,0.33232211,0.2359455,0.04533999,-0.04946611,0.05098407,-0.00393173,0.01636488,-0.02348274,0.00518041,-0.03789884,0.00634115,0.05386161,0.15467743,0.11032318,-0.01373922,0.09944973,0.03198031,0.02194718,0.1504532,0.06885969,-0.03928768,-0.02457921,0.03120254,0.0293753,0.09705953,0.06267097,0.1314734,-0.011324,0.01367844,0.06116072,0.10242329,0.01516021,0.02741535,0.07346298,0.02573058,-0.03563759,0.00189458,0.07102849,0.16552436,0.13623645,0.03425331,0.08975031,0.45758545,0.18332788,-0.0048021,0.03619824,0.00592101,-0.00301383,0.01623186,0.03269768,0.02446764,-0.04859233,-0.15189466,-0.09057967,0.04886447,0.26928208,0.40421723,0.08052887,-0.11982476,-0.14612685,-0.16318057,-0.06550621,0.02494741,0.0082362,0.04237998,-0.11322714,-0.15994673,-0.0473218,0.07788366,0.28660517,0.12423848,-0.02046805,-0.20878134,-0.22704687,-0.13036769,-0.01927723,-0.00315941,0.03736172,0.01069039,-0.06762326,-0.03211568,-0.00518136,-0.01061228,-0.12964552,-0.0518867,-0.06658103,-0.06815599,-0.08052941,-0.02891948,0.01221572,0.02182439,0.0157879,0.02318974,-0.00779197,0.0970573,0.0863147,-0.06063305,-0.1367001,-0.12769771,-0.06596452,0.03607523,-0.00062729,0.02786525,0.03218033,-0.01384269,0.02075048,-0.00657019,-0.03166444,0.03073027,0.00251449,0.05834095,0.10020681,-0.03287035,0.12264565,0.1224148,0.09884495,-0.01545282,0.04246186,0.01486373,-0.02029042,0.02417456,0.00309946,-0.04611876,-0.02514977,-0.03163182,-0.01127002,-0.01713152,0.13077679,0.14749959,0.1048539,0.03076447,0.03611761,0.03032781,-0.00892113,-0.01691784,0.02657172,-0.0282117,0.00082409,-0.00061378,0.02400312,-0.03230354,0.00736259,0.04416916,-0.03095857,-0.03526197,-0.02528472,0.00745171],"bias":-0.16751798},{"weights":[0.03585169,0.03650059,0.04229321,0.04015979,0.04315283,-0.01985097,-0.04247164,0.03516484,-0.02136431,-0.00274015,-0.00221718,0.04046889,0.0004982,-0.04063241,0.03721335,0.03897551,0.00589696,-0.04347322,-0.05906008,-0.00332451,-0.02933596,-0.11078572,-0.03174306,-0.03839738,0.01999294,0.02288814,0.04034356,0.03266107,0.00609738,0.03197564,0.00415535,0.08095223,0.08691713,0.03518649,-0.03072598,-0.08734902,-0.12749218,-0.03937134,-0.1063228,-0.10372431,-0.01120723,0.01267872,-0.03774106,0.02604706,0.13431727,0.0479122,0.11564886,0.0721611,0.12825891,0.13519634,0.23049647,0.05693403,0.1453131,0.07659704,0.14070393,-0.03643088,0.04214452,-0.0008679,0.0873601,-0.04786941,-0.10466651,0.04358489,0.06347355,0.1307363,0.30237024,0.20004459,0.19705814,0.14162797,0.1091212,0.01111424,-0.01266862,-0.03834446,-0.0740334,-0.0487826,-0.07645623,-0.04109846,-0.08739847,0.16756583,0.11080164,0.10721999,-0.00084471,-0.08417479,-0.0115113,0.01162759,0.00056606,-0.02545212,0.04801574,0.05539355,0.15704966,0.08723801,0.0343333,-0.07526078,0.04151744,0.09591725,-0.07427196,-0.08717866,-0.03806673,0.00653734,0.02062684,-0.01419313,0.07734991,0.09143768,0.17770331,0.13815041,0.04365228,-0.16935886,0.0060546,0.19652527,0.0550031,-0.06380632,-0.06264312,0.00455394,0.01625616,0.02477689,0.08463097,0.08418879,-0.11011851,-0.23161351,-0.04288497,-0.09966628,0.15866859,0.1964169,0.0817334,-0.01204837,-0.021466,-0.03416151,-0.0401108,0.07831445,0.12218547,0.18140671,-0.09435816,-0.33033283,-0.18725396,0.04597964,0.17687674,0.15563834,0.10942228,-0.07737456,-0.02303664,-0.03247369,-0.03917562,0.01362863,0.07852122,-0.04647867,-0.01022724,-0.20291419,-0.21430424,0.00945573,0.01921536,0.06159776,0.14447114,-0.02209255,-0.04218174,0.01858213,0.01466155,-0.02891085,0.05637814,0.02298797,0.06980225,0.04905668,-0.01204018,-0.0059249,-0.00112437,0.06628205,-0.00523443,0.05015149,0.04226413,-0.02868197,0.01269823,0.01256969,0.03749085,0.14924276,0.16705369,0.20065896,0.13672331,0.06543512,0.02998551,0.09772097,0.09556036,0.05554157,0.02846033,0.02819089,0.01417389,-0.00072632,-0.04078895,-0.02857964,-0.02190697,0.00100343,-0.03656667,0.02844875,0.04046331,0.03049482,-0.00926619,0.02666868,0.03690711,-0.03462075],"bias":0.24505065},{"weights":[-0.03974863,0.03552461,-0.0072527,0.00652386,0.04338607,-0.00339851,0.0282176,-0.03819659,-0.00203443,0.02961184,-0.01091172,0.00295218,-0.01556553,-0.00106209,0.02896274,0.04103764,0.00279229,0.02291685,-0.05378748,-0.01525417,-0.0244365,-0.07544162,-0.05470611,-0.01067018,-0.04639718,-0.01361673,0.04228563,-0.03343319,-0.00696394,-0.00848663,0.02055801,-0.03478541,-0.12615676,-0.11839643,-0.02569869,-0.09394203,-0.09465765,-0.08944085,-0.02486277,-0.03926902,-0.02905766,-0.02256896,-0.04296216,0.02730712,-0.06329107,-0.05759047,-0.03971106,-0.00656227,0.1098241,0.15691406,0.1279042,0.05337148,-0.10382992,-0.11663702,-0.06956021,0.0241816,-0.017456,0.03629019,-0.01227614,0.06474244,0.10710598,0.1202263,0.07445846,0.04651605,0.17013476,0.12838109,0.01437179,0.00307222,-0.07171483,0.03353853,0.04214025,0.02608248,0.05661915,0.09002369,0.12267153,0.14793683,0.07319255,0.02818216,0.16014373,0.23792952,0.18744969,0.10500964,0.05740358,-0.0168559,-0.01045912,0.00583913,0.0664341,0.11524237,0.06632026,-0.02091568,-0.02638636,0.22336944,0.1932981,0.06373492,0.06219125,0.00108931,0.01351276,0.01196291,-0.01371441,0.0376548,0.03875787,-0.05776305,-0.12023179,-0.07326688,0.06411351,0.09919706,0.08676811,-0.03272901,-0.08697055,-0.07345385,-0.00397256,-0.02747508,-0.03010333,-0.01250765,0.01449649,-0.03601103,0.05653458,0.04009414,0.08278248,0.08261783,0.05642904,-0.14173975,-0.13716272,-0.14088719,-0.04425219,0.00633737,0.00386262,0.03008151,-0.04150005,-0.09003033,0.03162064,0.03946256,0.01253518,-0.02530097,-0.16254514,-0.15416918,-0.19801572,-0.13618531,0.02181466,0.03504688,-0.03081424,0.02057693,-0.05290097,-0.05809699,-0.05842519,-0.02297798,-0.11432521,-0.05024317,-0.10920333,-0.04240001,-0.05969849,0.00823498,-0.02101688,0.03214756,-0.00956844,0.04013202,-0.06565271,-0.01961142,0.06387441,0.14332927,0.1371157,0.08424297,0.0504555,-0.02297483,0.01162282,0.01919911,0.01977847,-0.03783151,0.00801246,-0.01845153,-0.04562887,-0.03564345,0.06651228,0.02123688,0.07359947,0.07386675,0.14061513,0.09163537,0.04309435,0.01933888,-0.01812417,0.03961675,-0.02286762,-0.04159911,-0.03272276,-0.04035846,-0.03211634,0.02613042,0.00552904,-0.03066502,0.03305452,-0.01669416,-0.00832542,-0.02366875,0.01223434,-0.03692868],"bias":-0.03461465},{"weights":[0.00570916,0.0067226,-0.04216299,-0.03584265,0.0083161,-0.00099344,0.03230292,-0.03625196,0.00543637,-0.01869949,0.02800172,0.0351562,0.03312823,0.03030677,-0.03826051,0.00105236,0.01780461,-0.01342081,0.03103645,0.04322606,0.05139698,0.12315944,0.04154158,0.08660477,0.05883361,-0.01416042,-0.00875735,-0.03746845,-0.02952796,-0.00110496,-0.00660301,-0.02757814,-0.01610562,0.07911843,0.04444084,0.12529705,0.17253676,0.12979693,0.01666759,0.03908439,0.01142919,0.00555875,0.03302838,0.013571,-0.0083254,-0.02327828,0.01901995,0.02030908,0.02266798,-0.07080393,-0.01792052,-0.01184019,0.10998634,0.27321389,0.08661736,0.05379532,-0.02472626,0.01604716,-0.09380302,-0.08157689,0.03081616,0.03405959,-0.01063517,-0.08001342,-0.14929203,-0.12831312,-0.00930046,0.18175033,0.12356182,0.03154924,0.02525467,-0.06530783,-0.16238819,-0.049339,0.11425678,0.03451452,-0.04549317,-0.20256276,-0.18658094,-0.19038527,-0.12993124,-0.04139544,0.04461627,-0.00243742,0.02559579,0.01588415,-0.07840458,0.0976056,0.12245319,0.21391257,0.12929708,-0.22702634,-0.14871866,-0.06249832,-0.02041475,0.08129272,-0.0312463,0.03978311,0.0011431,-0.00046902,0.00414513,0.25667807,0.28229355,0.31420648,0.11388525,-0.07133418,-0.00954369,0.07188275,0.03697629,0.15638805,0.00441297,-0.00345297,0.03392449,0.02371003,-0.03027923,0.15424539,0.13755074,0.16505414,0.1254448,-0.00297399,0.0579358,0.09493653,0.06148903,0.15151327,0.00454605,-0.01993339,0.04220216,-0.02097049,-0.01839782,0.24751498,0.18039843,0.16884731,0.09566419,0.01232079,0.20171071,0.2193628,0.23629935,0.12548051,0.04724075,0.03799273,-0.01888668,-0.00206726,0.02478807,0.12245091,0.14531542,0.10217257,0.26979783,0.14365409,0.16027816,0.18020167,0.12064677,0.07707837,0.02026744,0.00010057,-0.01808911,0.03263569,-0.02339974,-0.08950536,-0.0383781,0.06384647,0.09451706,0.04148217,0.00965427,0.0661625,0.01704126,0.07329527,0.00395988,-0.03349811,0.02061596,-0.02976893,-0.05130566,-0.0753022,-0.14024839,-0.10131131,-0.09030425,-0.03474279,-0.14808592,-0.12686372,-0.03348208,0.03333103,0.04130306,0.04219698,-0.04079462,0.00188057,0.02480128,-0.02511014,-0.02159273,-0.00047434,-0.07107992,-0.05710095,0.01836617,-0.06021946,-0.01025005,0.02889383,-0.02635296,0.02625477],"bias":0.1860208},{"weights":[-0.00450291,0.0023303,0.0401876,0.01139797,-0.04155631,0.03513455,-0.00474586,0.03235703,-0.01098657,-0.00951823,-0.03665231,-0.02742127,-0.0108553,0.03502535,0.01814806,0.0052428,-0.00417568,0.00607142,0.0244262,-0.03497931,-0.00136608,0.01205419,-0.03731107,0.00825732,-0.01248202,-0.02059326,0.02993034,-0.02678142,-0.00165022,0.04346101,-0.0049272,-0.03539264,-0.01914182,0.00961543,-0.05565631,-0.04535844,-0.03496485,0.02505586,-0.04787432,-0.02708737,0.0104856,-0.03984546,0.00601915,-0.0069694,0.03512208,-0.02067043,0.00469527,-0.0128603,-0.06062442,-0.05789329,-0.05503482,-0.04400154,0.01928439,0.02639169,0.02589037,0.02875237,0.01621852,0.01933069,0.00189563,-0.00121766,-0.06039634,-0.05020634,-0.05246653,-0.00718149,0.09358177,0.06720763,0.07870873,0.12972665,0.06431483,0.02802114,0.03387201,-0.04437214,-0.04011047,0.00659493,-0.05966032,-0.04897461,0.07068177,0.06007992,0.05455284,-0.0075251,0.03016183,-0.00442775,0.0051818,0.04052367,-0.03280967,-0.03690203,-0.03702647,0.00106545,-0.04021555,0.0361318,0.03428301,0.01798055,-0.06938215,-0.03224012,-0.01834715,-0.0069094,0.03954958,-0.02009371,-0.01927249,0.00870217,0.03222387,0.00220362,-0.0448234,0.01302594,0.02318749,0.03378691,-0.01707302,-0.04177075,-0.04897046,-0.00031265,-0.00713295,0.02611189,0.03047178,-0.03905875,-0.00671359,0.03114665,0.00083309,-0.06587469,-0.03302557,0.02730684,0.0147276,-0.03097769,-0.05850018,-0.02237739,-0.0139109,0.03240738,-0.02057643,-0.00705475,-0.02926339,0.04408333,0.05903221,0.07841071,0.07248314,0.10404628,-0.02734572,-0.0591176,-0.02005229,-0.0431372,-0.00943009,0.02101288,-0.02318707,0.03599287,0.02884907,0.00969864,0.06461747,0.03733008,0.06439774,0.00788637,-0.05989837,-0.05089711,-0.02086981,-0.004342,-0.02703227,-0.03011291,-0.00562592,-0.03672513,-0.02307122,-0.00989191,-0.02054914,0.00432861,-0.0664019,-0.06048797,-0.01899019,-0.0556875,0.0020162,0.00094994,0.01096092,-0.01130368,-0.01315225,-0.01331809,0.00059466,-0.00509666,0.01538439,-0.01587555,-0.00165262,0.00410883,0.02374703,0.00867978,0.00894655,-0.03387506,0.00491889,0.01991462,0.02061361,-0.0100452,-0.04211802,-0.02085623,-0.01284825,-0.018584,-0.03080049,0.03888875,-0.03763587,-0.03533087,-0.00302814,0.02018256,0.02920343,0.01769098],"bias":0.01987398},{"weights":[-0.04103536,-0.02394479,0.0142302,0.02041523,0.04028372,0.01500446,0.00643906,0.0167485,-0.0056872,0.02315762,-0.00385676,0.00329646,0.04365329,-0.01222123,0.03186443,-0.02949579,-0.01374555,0.01311454,-0.01009794,-0.03355415,-0.0572367,-0.05477675,-0.04207944,-0.000778,0.01015528,0.01481408,-0.00584734,0.031464,-0.01494441,-0.01332243,-0.00782661,0.02617329,0.06353601,0.09800379,-0.03365448,-0.14719106,-0.19449347,-0.11206683,-0.17685853,-0.02789083,0.01225183,-0.01691848,0.02991277,-0.026035,0.05336193,0.12716566,0.10370792,0.07066641,0.02925523,0.06639767,0.08753442,-0.11460063,-0.11519181,-0.18338957,-0.09702923,0.02096992,-0.03388199,0.01272367,0.16279043,0.11198625,-0.03343787,-0.00069141,0.10247598,0.19638665,0.15337212,0.05367187,0.15693145,-0.1365978,-0.0772539,-0.0094651,0.00638553,-0.00541696,0.05355925,-0.02984831,-0.11605046,-0.07970756,-0.07963001,0.17798915,0.2941766,0.21309402,0.14162047,-0.05424218,-0.06210386,-0.02619947,-0.00415299,-0.01129962,0.00098474,-0.02114776,0.06548854,0.05425191,-0.05689128,0.1275869,0.30049864,0.12270605,0.0664795,-0.13869472,0.00366993,0.03920378,-0.03738508,0.04319129,0.01658198,0.03331834,-0.00985763,-0.10665977,-0.05040552,0.06772396,0.32860938,0.17432566,0.10851997,-0.05759717,0.00612599,-0.01970753,-0.02168414,0.05660052,0.08203072,0.00505087,-0.1670223,-0.28451363,-0.1044959,0.17975058,0.24163426,0.06045643,-0.00837718,-0.18730681,0.01900852,0.01173642,0.03278629,0.0025176,-0.03742613,-0.21218333,-0.39685244,-0.41579522,-0.19934762,-0.03302945,-0.09927884,-0.0528482,-0.08618359,-0.21170761,-0.00271976,0.03419777,-0.02663677,0.00759009,0.00003955,-0.23122779,-0.24574004,-0.2265239,-0.19704296,-0.01301162,-0.0229539,-0.11157896,-0.07977895,-0.11521033,-0.00745162,0.02369094,0.01345534,0.02028981,0.04691907,-0.00603216,0.04454694,0.05629841,-0.01731032,0.04947152,-0.09258002,-0.0561111,-0.04441829,-0.01864306,0.02317932,-0.03804923,0.01136109,-0.01939687,0.06477051,0.21001674,0.20213944,0.16014234,0.09145743,0.0779875,0.08389093,-0.00579765,0.02671679,0.0043039,0.03812486,-0.02076901,-0.0197426,-0.01000458,0.00177281,-0.0154334,-0.01928113,-0.01250897,0.02453345,-0.0027576,0.00223408,0.04735809,0.01522625,-0.01903159,-0.02002612,0.02911818],"bias":0.09092503},{"weights":[0.03222668,-0.00731887,-0.04131803,0.0157405,0.02673027,-0.01522879,0.01847789,-0.02615345,-0.01931181,-0.02383733,0.02020133,-0.02491467,0.01342601,0.03492903,0.03654012,-0.03203893,0.04345243,0.01649545,0.04763964,0.03679513,0.11598677,0.09605407,0.01931789,0.04442199,0.0185936,-0.04167439,0.02793149,0.02177251,-0.02521169,-0.03323481,-0.04261276,0.0217491,0.01839947,0.04269631,0.13220791,0.14858965,0.07230905,0.0407955,-0.01896281,-0.06721168,0.00962755,0.00535217,0.00215886,-0.02846953,-0.02070546,-0.02095733,-0.08555253,0.01061802,0.12799907,0.20403312,0.17876563,-0.11480946,-0.14507782,-0.15137537,-0.06969483,0.00160287,-0.02280171,-0.03940194,-0.07004512,0.00241014,0.06362369,0.05108147,0.03173962,0.08984166,0.00501811,-0.05027671,-0.08178186,-0.16330096,-0.08747929,0.00230457,0.01809811,0.01105232,-0.02753755,0.01604743,-0.04917547,-0.01947784,0.02811718,-0.29131962,-0.17811397,0.09204527,0.3000178,0.18848926,0.0166957,-0.03522743,0.00512549,-0.00358584,0.0004228,0.00812892,-0.02060972,-0.06358642,0.00173121,-0.13973386,-0.08564056,0.09073866,0.26879063,0.19908587,0.07444236,0.02585168,-0.03818347,0.00092419,0.05102544,0.22489239,0.04003521,0.13551937,0.02297365,-0.07406196,-0.01100642,-0.03987259,-0.03940535,0.1758879,0.06812142,0.01402615,-0.00815159,-0.06284434,0.06080606,0.2194882,0.38813421,0.35053306,0.05927307,-0.05428517,0.05552066,-0.02195842,0.03815143,0.11042127,0.05964056,0.04260102,-0.0384715,-0.02850965,-0.04750852,0.01046325,0.22758008,0.34981923,0.10103508,-0.02738812,0.01148695,-0.01155142,-0.02431999,0.11073474,0.05407638,-0.02380161,0.02284506,-0.05027089,-0.05781945,0.11790005,0.0195385,0.15184538,0.04091739,0.00938589,-0.01171151,0.03858431,-0.0094015,0.02963977,0.01187481,-0.01913657,-0.00440687,-0.04353732,-0.00281089,0.04804026,0.01072066,0.12588615,0.12439937,0.00359432,-0.06414033,-0.01256231,0.02781305,0.02263353,0.0243338,0.01360564,-0.01721033,0.02556271,-0.03458122,-0.11274905,-0.14198126,-0.08588941,-0.04399422,-0.02155343,-0.04406206,-0.00994817,0.02340964,-0.02592002,0.00722372,-0.02057121,0.01522364,-0.03696671,0.03656085,-0.00546076,0.01146457,-0.04380181,0.0231682,0.04260713,-0.02275979,0.02913637,0.04069777,-0.03524715,0.00764772,0.04131223],"bias":-0.04201368},{"weights":[0.0196184,0.02227748,-0.00447777,-0.02426931,0.00604333,-0.01931133,-0.00402685,0.01290082,0.00281055,-0.00121417,0.02524507,-0.01471004,0.01328722,0.03105609,0.01556529,-0.00924946,0.02251703,-0.02137029,-0.03776807,-0.07197871,-0.04157832,-0.07195718,-0.01452751,0.03113528,0.01022184,-0.0027037,0.03508586,-0.03592787,0.01992114,0.02872678,-0.02031306,0.02577115,-0.0148682,0.05199152,0.08695253,0.06068828,0.03915636,0.0475218,-0.05450687,-0.00518632,-0.01757016,-0.00519643,-0.0427337,-0.02628312,0.07540071,0.01214152,0.01874431,0.03143045,-0.01709182,0.07796804,0.04841063,0.08568294,0.09267958,0.17157203,0.11797249,0.01344615,-0.02040717,-0.04890673,0.03046764,-0.13218918,-0.03252009,-0.01630178,-0.00761799,-0.03548775,-0.0141278,-0.06025514,0.11891877,0.0906933,0.0880045,0.03424592,-0.03319044,-0.03518545,-0.10564002,-0.1069022,-0.06271766,0.0335646,-0.01423706,0.07317156,-0.06173799,-0.04289134,-0.30748276,-0.28592849,0.02135575,0.00848729,0.03244123,-0.04959231,-0.04814885,-0.09736967,-0.02322274,0.20611402,0.30892269,0.41645009,0.15986159,-0.06564404,-0.18959115,-0.19750164,-0.05038223,0.02842203,0.00553848,0.00042529,-0.04030659,-0.28249864,-0.11460079,0.13790236,0.33374727,0.2189279,0.19305023,0.09734597,0.00997567,-0.11862989,-0.05190535,-0.03566821,0.02992726,0.07168328,-0.03209177,-0.35923706,-0.46754111,-0.54014885,-0.16745874,-0.06327275,0.00754322,-0.00632139,0.0051321,-0.01352887,-0.02570379,-0.02170691,0.03452539,0.08630152,0.06800201,0.02728617,-0.21154627,-0.53043361,-0.47321886,-0.0844663,0.04014078,0.12044259,0.11359056,0.02730768,-0.00022406,-0.02994802,0.04240412,-0.01269173,0.08684526,0.15202046,0.15883313,0.01247381,-0.0704561,-0.0228477,0.08700374,0.06029543,-0.00910274,0.00480517,-0.01883383,0.00124784,0.02301876,0.01827922,0.06999956,0.07403052,0.13746031,0.08320534,0.03777167,0.07808168,0.05066016,-0.04536476,-0.04676383,-0.00863545,-0.00874534,-0.00478279,-0.00958912,0.03097443,0.05667182,0.11936611,0.13057077,0.07827227,-0.03385753,-0.04721652,-0.07025138,-0.01859168,0.04668349,0.02526538,-0.03906052,-0.00425897,0.02372902,-0.02045392,0.04337974,0.02825349,-0.01181152,-0.03253682,-0.03832598,-0.0513746,-0.02589508,0.02641876,0.0402645,0.0073799,0.02065912,-0.03345982],"bias":-0.05101519},{"weights":[-0.00115013,0.03947036,-0.04147897,-0.01376647,-0.01616757,0.03232389,-0.00393813,-0.00818266,0.02389757,0.04356807,0.03587697,-0.02478531,-0.01294148,0.00211771,0.00423942,0.00995032,0.00247972,0.00161341,0.03823943,0.0065238,-0.01958713,-0.0308395,0.00824032,-0.01770596,0.037612,-0.00130393,-0.01375354,-0.02819888,-0.0245513,0.01116357,-0.0002007,-0.01687672,0.03509962,-0.00863607,-0.05387547,-0.03122506,-0.00118328,0.03934759,0.00521515,0.05576667,-0.0015361,-0.0052164,-0.01391809,0.00008851,0.04735956,0.00094579,-0.01080762,0.00585739,-0.13361226,-0.26567073,-0.11671493,0.10015577,0.06068023,0.1250468,0.03080683,-0.03455038,0.03536956,0.00351085,-0.00077691,0.00895672,0.0651733,-0.04312307,-0.22859433,-0.24685691,-0.04722179,0.05520239,0.00786325,0.03866982,0.01277154,0.01014963,-0.01720653,-0.0266208,-0.04076242,0.02534797,0.09264804,0.01038213,-0.04593798,-0.11170862,0.06434273,-0.01587761,-0.06643427,-0.08683631,0.00568705,0.01685015,0.02595058,0.0278263,0.04633619,0.11064382,0.1056536,0.10717625,0.03814836,0.00290802,0.06875358,0.03874806,0.04044144,-0.00538692,0.02984941,0.02315668,0.0253211,0.00394879,0.02153527,0.13797326,0.07205217,0.03072587,0.07474847,0.06784897,0.11294215,0.01298069,0.0284469,-0.01323126,0.00548572,-0.04321486,0.00343716,0.03891118,0.00652016,0.00133596,0.08255646,0.06410599,0.09143088,0.07139653,0.03838096,-0.03493494,-0.08362607,0.00747753,-0.04192089,0.03805602,-0.03352508,0.01127648,-0.01740312,-0.12015124,0.00323307,0.05129951,0.04315216,-0.00965386,-0.05682703,-0.02300585,0.02526867,0.02108446,0.01293537,-0.00953334,-0.0396682,-0.02156406,-0.00817794,-0.09173666,-0.02331674,-0.0516122,0.06419893,0.07201988,0.00569876,0.03828461,-0.01074845,0.02554329,0.01069889,-0.0380148,-0.00059738,0.03087462,-0.02409152,-0.06081721,0.01634648,0.04018114,0.06838256,0.09455288,0.04135156,0.04488021,0.02201084,-0.01048374,-0.01396227,-0.02562892,0.00744698,-0.01295256,-0.02041466,-0.02817758,-0.06192157,-0.11637955,-0.08716553,-0.04528162,-0.06753376,-0.07031079,-0.01372902,0.04828206,0.01881255,0.03485228,-0.03674077,0.01918769,-0.04145615,-0.00455212,-0.00738383,0.00902539,-0.00386366,-0.01133384,0.01056656,-0.02364136,-0.00693367,0.01154545,-0.00484671,0.02028096],"bias":-0.01922229},{"weights":[0.00065125,0.00038378,-0.00192099,0.03658398,-0.01869297,0.00471212,-0.02325951,-0.00495932,0.00329814,-0.00521626,0.02962389,-0.01993068,-0.04078328,-0.00765269,0.00563682,0.02521391,-0.03009777,0.02907942,-0.06461437,0.00232844,-0.04844629,-0.07846634,-0.0503187,-0.0708908,0.01906833,-0.02419598,-0.01432017,-0.04250576,0.02379778,-0.01400404,-0.02180107,-0.01330717,-0.11442465,-0.11688027,0.14013853,0.10508119,0.01493775,0.0335232,0.05450854,-0.03146347,-0.02531669,0.03747661,-0.00268927,0.04290523,-0.01810523,-0.06493889,0.02687031,0.16250021,0.19886961,0.40584167,0.25852624,0.152389,0.09171139,0.10028456,0.11844082,-0.04980391,0.01666782,-0.04861144,-0.10741689,0.05735595,0.18566204,0.18575507,0.11033235,-0.00565555,0.10925262,0.22505934,0.16886667,0.4715321,0.22180457,-0.0064459,0.02553907,0.00920949,-0.00515077,0.11004694,0.14566809,0.12116902,0.13030171,0.03595283,-0.15112995,0.0448705,0.05796284,0.20825075,0.05061368,0.00454587,-0.00790503,0.02772698,0.00766066,0.065225,0.01051745,-0.01590395,0.19301838,0.12173988,-0.11442747,-0.14754218,-0.21742753,0.09609168,0.049225,0.02925205,-0.01990367,-0.03260336,-0.03518022,-0.2454859,-0.21297116,-0.02185887,0.29400933,0.11783786,-0.21471025,-0.15566519,-0.28079453,-0.13981395,-0.00546648,0.0243268,0.03229009,-0.0168465,-0.11930042,-0.12381991,-0.18724965,0.01461553,0.11048807,-0.14617101,-0.14485333,-0.19522378,-0.02626618,0.01567015,-0.00980261,-0.04364439,0.00340075,-0.01533868,0.04302202,0.25212105,0.26650759,0.0711493,-0.26727286,-0.11004391,0.02141783,0.03017286,-0.03231531,0.02173284,-0.01843232,-0.02616411,-0.00445645,-0.02308846,0.02590712,0.25831356,0.34547383,0.08174142,0.0123558,-0.14308219,0.01183057,0.12792707,0.01025366,0.1375551,-0.0306699,-0.02897064,0.02552687,-0.0294349,0.02901314,0.0944033,0.02156215,0.23250126,0.36528839,0.34685568,0.21309659,0.1759786,0.04938813,0.00056579,-0.00594929,0.02729372,0.0085674,-0.01113636,-0.00504776,-0.10458579,0.02466275,0.12825669,0.18582927,0.07369074,0.14668441,0.20045126,-0.02895277,0.00502863,-0.00353511,-0.00103094,-0.03949074,-0.03862391,0.03013195,-0.03190814,0.01258489,0.03111075,0.03179923,-0.04671271,0.00397567,0.0234007,-0.05140249,-0.02350116,0.04096583,-0.01390573],"bias":-0.01528579},{"weights":[0.00663275,-0.00234535,0.01439102,0.00866309,0.04292982,-0.04114661,0.00506213,-0.03166165,-0.03245903,-0.01600142,0.03532071,-0.0116203,0.00590732,-0.01720312,-0.03324567,-0.01685478,-0.04351771,0.02919362,0.00283111,0.02005961,0.05550667,0.03204254,0.04972311,0.00499123,0.02069362,-0.02624697,-0.01112513,0.03593641,-0.00403963,-0.03285591,-0.01366461,0.07529863,0.03689757,0.0451495,0.07884178,0.05277654,0.07716786,-0.06268594,-0.15151715,-0.1198054,0.03002339,0.03068513,0.03597259,0.01988298,0.0213238,0.09036785,-0.0099041,0.01336901,0.07080123,0.09796925,0.02120881,-0.00566136,-0.00597609,-0.05496398,-0.12232195,0.01277567,-0.04264551,-0.01794074,0.04721113,-0.00203327,0.06149959,0.11458388,0.02019427,-0.08878756,0.0315173,0.04425626,0.09258678,-0.11869303,-0.14097652,0.02222819,0.01259711,0.02872233,-0.00986994,-0.06112748,-0.15358977,-0.12975471,-0.29419392,-0.35552241,0.10632742,0.2858931,0.20959693,-0.0005655,-0.03781153,0.04229996,-0.01648088,-0.02118081,-0.09421298,-0.1574726,-0.05639588,-0.12763358,-0.14933948,0.00927268,0.23058735,0.27544124,0.1151534,-0.07095127,0.01214918,-0.0183226,0.00233957,-0.03531921,-0.0050078,0.12248089,0.1319695,0.03424605,0.25704646,0.20634292,0.33479886,0.05192123,-0.07589579,-0.08509464,0.00649392,0.02655886,0.03497538,0.02120425,0.04692982,0.09698409,0.19298834,0.24821652,0.42446375,0.2979857,0.32084996,-0.01602727,-0.17410478,-0.01108139,0.08047176,0.02949146,-0.0056936,-0.00965916,0.10612659,0.10311062,0.0129916,0.08710133,0.10965039,0.09673842,0.03914276,-0.03635347,-0.02588847,0.11984309,0.03711276,0.01083284,0.01400272,-0.05381251,0.06360578,0.06279771,-0.07984879,-0.18587524,-0.13149333,-0.02446521,0.00619955,0.13926823,0.11447091,-0.02383527,-0.00654703,0.01549446,0.02129502,-0.02863707,0.0159295,-0.04571316,-0.04939749,-0.02825411,-0.10189903,-0.14281846,-0.10126647,0.08759357,0.08137028,0.06043428,0.00576259,0.00037872,-0.02268285,0.03825122,-0.01126972,0.03556079,-0.04096447,-0.09003573,-0.06535548,-0.05549131,-0.09984785,-0.02333128,0.00307864,-0.0114397,-0.02444117,0.01949684,0.0248319,-0.03480878,0.00664082,-0.01726317,-0.01144723,-0.0240226,-0.02387001,-0.04884413,0.01693468,0.02825809,-0.00560107,-0.00982038,0.03577953,-0.00925662],"bias":-0.12890152},{"weights":[-0.0166268,0.02110379,-0.02506283,-0.04054808,-0.02971179,-0.03589345,0.03378464,-0.03160905,0.03219733,-0.0262289,-0.01785326,0.00983785,-0.00265643,0.00234757,0.04267336,-0.03247588,-0.01806499,-0.03262713,-0.01057626,0.02650606,-0.0028481,-0.0111569,0.02258364,-0.00165213,0.03420379,-0.02509959,0.02069222,-0.00591306,-0.0169247,0.01584447,-0.0068278,-0.09713353,-0.09959908,-0.10128863,-0.12288614,-0.17006827,-0.06768754,-0.02886067,0.00410493,0.03650797,-0.00418088,0.01335805,-0.03569488,0.03856169,-0.07771453,-0.05354903,-0.03051793,-0.05043472,0.0601453,0.18901345,0.22093181,-0.12690846,-0.15569801,0.02135555,0.02599388,0.03219241,0.03239847,-0.01128768,-0.09174919,0.00015464,0.13683159,0.16486687,0.14020657,-0.04366663,0.00964521,0.02254669,-0.01256561,0.07974612,-0.04689249,0.02499525,-0.01369301,0.03973396,0.03540403,0.14730507,0.27961345,0.29699418,0.03978882,-0.27502098,-0.03263867,0.04227734,0.07211523,0.05230744,0.03414626,0.00464029,0.04156692,0.0316733,0.08169427,0.34965763,0.29229234,0.27133843,0.00699425,-0.09284706,0.11833724,0.12031319,0.14002702,0.04091729,-0.00843165,0.02328171,0.03976093,0.00026558,0.13166301,0.30029844,0.30507933,0.27801032,0.07641483,-0.01135704,0.24667033,0.09897111,0.01032657,0.07345407,-0.03799437,-0.00415518,0.0272773,-0.0428939,-0.01992516,0.14024359,0.31525833,0.31434547,0.14392975,0.09950972,0.25961252,0.00060969,-0.05725936,-0.14302612,-0.05167824,-0.01292606,-0.03440241,0.01022575,-0.23127063,-0.06729903,0.00544015,0.10901796,-0.05401173,0.04806624,0.08249035,-0.01343407,-0.10636715,-0.1854394,-0.04740883,-0.00876564,-0.00745575,0.00295811,-0.16222645,-0.10463082,-0.09701797,-0.10309136,-0.05631279,0.04518338,0.02585955,0.03082127,-0.13992287,-0.01238072,-0.04160356,0.02313136,0.0311207,-0.03022255,-0.06755554,-0.15200505,-0.04545186,0.02665809,0.05519809,-0.10214097,-0.11150382,-0.10057235,0.08719377,-0.02204019,0.0395831,-0.04281176,-0.03833941,-0.01377098,-0.01284758,0.01214945,0.07061926,0.14950748,0.04162696,0.09257872,0.16129481,0.07658873,0.04120492,0.01013493,-0.04350446,-0.03988284,-0.02682343,0.03513197,0.04272737,0.00199167,-0.01760532,-0.01332266,-0.01235013,-0.02371159,0.03363268,-0.01947852,0.05437955,-0.0256835,-0.00577362,-0.04344138],"bias":0.15488088},{"weights":[-0.01865273,0.02623684,-0.00942578,0.01525633,-0.04009454,-0.00213936,-0.01788874,0.0101997,0.01362237,0.01545455,-0.02088775,0.02266049,-0.02471965,0.02530148,-0.03682741,0.01069731,0.00131681,-0.0403599,-0.01624088,0.01812578,0.00952635,0.039627,-0.02231852,-0.03344141,-0.01666321,0.02697544,-0.02760366,0.00502949,-0.02128441,0.01375021,-0.02306107,0.04721366,0.05366059,0.11175024,0.14100511,0.10343099,0.02219651,-0.02324042,-0.14471109,-0.10950229,0.03238181,-0.00646478,-0.00911576,-0.00320114,0.07457379,0.08195675,0.10387798,0.19728962,0.13298387,0.14806688,0.16240139,0.00946487,0.05831632,-0.06061149,-0.04673924,-0.00490665,0.01680958,0.04222267,0.01914469,0.03647148,-0.05534937,-0.05682097,-0.04758275,0.01790718,0.14143465,0.06045073,0.10867972,0.06530606,-0.0108606,-0.03739018,0.03911093,0.04093484,-0.07731666,-0.13777479,-0.27865827,-0.20489873,-0.08408694,0.03637251,0.04947558,0.14038908,0.1125062,0.03706517,0.04266451,0.03602294,0.00121117,-0.00300474,-0.10093318,-0.14142756,-0.0971664,0.01552664,0.01594071,-0.03353407,-0.0035484,-0.01249795,-0.03968132,-0.06364858,-0.04693114,-0.03315487,0.02997101,0.02190359,0.0175982,-0.03675412,-0.0014056,-0.01324945,0.02175165,-0.07367408,-0.02516898,0.04099706,-0.05468713,-0.01438047,-0.05908022,-0.00907269,-0.03407244,0.01784156,0.01834297,0.05617731,-0.03191968,-0.07971463,-0.08446358,-0.0850486,0.05726518,0.03725176,0.02100858,-0.00781474,0.00127302,0.02872528,-0.04226599,-0.01218962,0.11536491,0.15002942,0.0292114,-0.07686669,-0.07235822,-0.00972167,0.07047504,0.08506841,0.05525794,0.03698708,0.01173841,-0.00755902,-0.00741947,0.00370942,0.06201332,0.09606316,0.05165231,0.02623907,0.01211521,0.03212483,-0.01146321,0.04248712,0.11472235,0.02177157,0.03243873,0.01262917,0.040166,-0.00427763,0.01028767,0.08830419,0.08284935,0.04452943,0.02202049,-0.01021624,-0.02872314,0.04516519,-0.02872466,0.02783198,-0.0267674,-0.02463703,-0.03218257,-0.03219053,-0.00582325,0.03966976,0.06960446,0.01591355,0.03169089,0.03650698,-0.01060204,0.06181972,-0.0154388,0.02670367,-0.00585258,0.01644073,0.02787646,0.02835704,0.03105272,0.01492734,-0.0079175,0.01014556,0.01871305,0.03490767,-0.01513581,-0.02889852,-0.01851755,0.0313354,-0.04188764,-0.00956576],"bias":-0.04695102},{"weights":[0.02593382,0.01898346,-0.01026884,0.00923581,0.01836614,-0.04298565,0.02578165,-0.02628995,-0.01959874,0.0117979,-0.01143073,0.04364617,0.02465803,-0.01325348,0.04358815,0.03981863,-0.03001008,-0.02604358,-0.02534196,0.02811822,-0.00016705,0.05907482,0.00106911,0.00621707,-0.0244467,0.03439637,0.04028438,-0.01843212,-0.02643536,-0.01425606,0.02466811,-0.08623849,-0.07844398,-0.12220192,-0.1060077,0.04533712,0.07499567,0.04673908,0.09490006,0.1007977,-0.02171171,-0.01557562,-0.04043535,0.00439435,-0.0269363,-0.10337599,-0.09385553,-0.08465274,0.03048442,0.04059188,-0.01972773,-0.04073223,0.0017565,-0.01162964,0.03523933,-0.02812643,-0.03747497,0.03552629,-0.00058017,-0.00725576,0.10855958,0.1244681,0.07092063,0.11084277,-0.04414968,-0.02122707,-0.04004035,0.05948566,0.04537469,-0.01844894,-0.03094094,-0.00893142,0.00397334,0.12114993,0.18891974,0.20014666,0.18905559,0.08527295,-0.04870278,-0.01946505,-0.04554504,0.06711519,-0.03036682,0.02313028,0.00121145,-0.0083526,0.01829498,0.12497435,-0.00647397,-0.01827368,-0.05705427,-0.03984629,-0.12145482,-0.07289696,0.02013604,0.07627685,-0.01326475,0.01489635,0.0204468,0.02419457,0.00282768,-0.05012114,-0.03278138,0.00039229,-0.00143719,-0.01253158,-0.10615882,-0.0960685,-0.01583019,0.09941189,0.05775147,0.02929056,0.00771962,-0.04970519,-0.07330054,-0.02001111,-0.00309684,0.0209597,-0.07024054,-0.01446781,-0.08863733,-0.06992846,-0.00646115,0.02682388,0.01966308,-0.01554676,0.00645191,-0.02215594,-0.11046759,-0.04166873,-0.00126324,0.19116556,0.04778538,0.05270667,-0.0120336,0.02438999,-0.05414109,0.00635923,-0.00187649,0.03287846,-0.03393932,0.02402605,-0.0689415,0.01864406,0.0691087,0.18137454,0.22224036,0.07624795,-0.01751762,-0.05643211,-0.1426861,-0.04132278,0.03886954,-0.0378563,0.04118027,-0.02433985,0.01906581,-0.04827363,0.04575735,0.05082606,0.03774854,0.09276857,0.03634812,-0.06927185,-0.0710707,-0.0355356,-0.0037408,-0.00659866,-0.03581852,-0.04040428,0.00420454,-0.03473098,0.01101442,0.03462597,0.01413567,0.04084482,0.0358118,-0.01853803,-0.0099877,0.02980646,0.03055371,-0.00296948,0.02010653,0.02446686,-0.00955583,0.02544348,0.008454,-0.01218386,0.02679935,-0.02892753,-0.00880195,0.02411515,-0.03941492,-0.02270391,0.02936304,0.01614196],"bias":0.19370417},{"weights":[0.01021758,0.00162819,-0.01600549,-0.03411844,0.01492049,0.04215054,-0.04341627,0.03352656,-0.01657131,-0.0081943,0.00298478,0.03294854,-0.03169011,-0.03955622,0.02952775,0.00645147,-0.00460061,0.04046869,0.01793079,0.05783083,0.08542955,0.07330638,-0.01275213,-0.04527292,-0.04213217,0.00591901,0.03449933,-0.00411713,0.01207858,-0.02101664,0.03038123,0.05394562,0.10503332,0.15965911,0.26273869,0.24828124,0.15483914,0.00139113,-0.17461056,-0.11809419,-0.03850258,-0.01698364,0.00207533,0.00735519,0.00937174,0.02198823,0.12798,0.21823421,0.18939278,0.32674829,0.33401884,0.14155369,0.08782402,-0.06170456,0.00395767,0.03764572,0.02190163,0.00801922,0.02995727,0.03398015,-0.01833675,-0.00114785,-0.00042741,-0.00885489,0.2254718,0.20631075,0.16561565,0.22876342,0.02883006,-0.03557659,-0.01368464,0.01699647,-0.0933752,-0.19790346,-0.20956414,-0.15903308,-0.16695486,-0.20767077,-0.06342593,0.16061858,0.18858766,0.09909461,0.06334606,-0.0309763,0.01659737,-0.01298003,-0.08319679,-0.31876276,-0.06937944,0.02810131,0.07629292,-0.12471553,-0.15508934,-0.09027384,-0.10664793,0.01122811,-0.0098802,0.01188151,0.03768714,0.00326541,-0.03062206,-0.08427231,-0.00969141,0.01040562,0.14095811,-0.20259118,-0.12366366,-0.17243829,-0.18242097,-0.03676898,-0.02124239,0.04377784,-0.04116287,0.02335626,0.07892514,0.00134649,-0.10427324,-0.10801742,-0.0779968,-0.19181941,-0.08840836,-0.07290468,-0.01044063,0.07568027,0.07429094,-0.02497778,-0.00141387,0.03944539,0.21820928,0.28364285,0.13108307,-0.06714391,-0.18404679,-0.10235265,0.11328155,0.07284817,0.04896724,0.16635155,0.06015584,0.02288794,-0.01190358,0.04442568,0.13916157,0.27309728,0.18898505,0.09485118,0.0123593,0.05354771,0.16707402,0.10960879,0.24435339,0.07854349,0.02182784,0.0300488,-0.04348203,0.0444297,0.06884738,0.11254143,0.07780626,0.22113397,0.3533913,0.28833928,0.10512824,0.19569309,-0.03511487,0.01398211,0.04160222,0.01989483,0.04188303,0.01870349,0.02875805,-0.01204553,-0.0263659,0.02678888,0.14009322,0.02276079,0.0114391,0.01636209,-0.05051225,0.01365216,0.02922285,-0.02564293,0.03049874,-0.00462918,0.02515255,-0.01997353,-0.03029674,-0.04080134,-0.01879668,0.02710309,-0.01004752,-0.01782568,0.01209526,0.00489245,0.01057116,-0.04194185],"bias":-0.08139388},{"weights":[0.03276142,0.00938505,-0.0314319,0.01515316,-0.02410846,0.04364972,0.03932535,0.04348463,-0.01498744,-0.02040532,-0.02080613,0.02767669,0.02894006,-0.00224618,0.00611535,-0.01236841,0.02837795,-0.01699823,0.02651576,0.04776359,0.06310802,0.01380002,0.00706452,0.00114218,-0.01016443,-0.00739691,0.02102988,0.04253481,-0.03889389,-0.0427085,0.0033935,0.03859584,0.02442924,0.05334251,0.08030785,0.0596945,0.12144345,0.05557994,-0.03422214,-0.03164206,0.00087278,-0.03117443,-0.02928913,0.00022348,0.07212114,0.06003011,0.00112554,-0.00783042,-0.00331008,-0.05174936,-0.00539514,0.21267759,0.07051561,-0.09938808,-0.06639647,0.01313288,0.01660065,0.0398679,0.02949979,0.05298645,-0.01871732,-0.02187319,-0.16009497,-0.16372589,0.14703542,0.18244942,0.08625483,-0.1219671,-0.06308575,-0.00325498,-0.0027227,0.02014118,-0.00599151,-0.14697028,-0.12772486,-0.22415427,-0.27442527,0.04601832,0.12041208,0.15144212,0.03821102,0.03366552,0.00427214,0.03220605,0.0328642,-0.00154794,-0.12105484,-0.18804659,-0.18157035,-0.17470439,-0.09694082,0.15128109,0.0317556,-0.00011043,-0.03986649,-0.1359552,-0.00984125,0.03484357,-0.02314359,0.03617544,-0.0311376,-0.13414547,-0.08744637,-0.06141932,0.16137264,0.2033477,0.00467563,-0.07178013,-0.1138715,-0.11451384,-0.03600292,-0.03404949,-0.02757055,0.04242848,0.05824002,0.01297631,-0.00449188,0.04954043,0.24994772,0.15529958,-0.01717419,-0.00882015,-0.03919775,0.03215593,0.060333,-0.03334684,-0.0227408,0.0005039,0.10988723,-0.00023415,0.06965776,0.04107986,0.08506204,-0.03039232,0.0475612,-0.052383,-0.03579699,0.12600581,0.06521864,0.02606361,0.00159581,0.02577733,0.09625663,0.14311717,0.04798809,-0.00388481,-0.10206856,-0.03929805,0.00436161,0.07718567,0.12815884,0.00788987,0.01918329,0.03412409,0.01777469,0.04165969,0.10715506,0.15281822,0.05177679,0.05527793,0.05932142,0.08629862,0.07691972,0.13131039,-0.02536886,-0.00843902,0.04337218,-0.008021,-0.02724197,0.01187623,-0.00673836,-0.10835311,-0.08839595,-0.07446339,-0.02001588,-0.0711189,-0.04701834,-0.04371745,-0.05268065,-0.01357653,0.00046592,0.00982091,-0.01687915,-0.00060622,0.03199004,0.02150744,-0.02527191,-0.02578927,0.02890489,0.01377391,0.0339343,-0.01404595,0.00632176,-0.02866479,-0.00648998,0.02765193],"bias":-0.09928598},{"weights":[0.00660777,-0.03539389,-0.02042322,0.03059207,0.00993746,0.01194316,-0.03292847,0.00743452,0.03040676,-0.01765748,-0.00945181,-0.0401001,0.00902305,-0.0071686,-0.03275026,0.00820298,0.01548191,-0.03370964,-0.01959048,0.04722978,0.06352139,0.07542569,0.09187935,0.03427729,0.02432275,0.02435174,-0.00666123,-0.0104508,-0.00700091,-0.00293122,0.02359252,-0.0184659,0.05466641,0.14849392,0.02269092,0.09254442,0.12643158,0.05968636,-0.0186969,0.00359082,-0.00688371,0.0022227,-0.04353458,-0.00744403,-0.02613001,-0.04041628,-0.08029513,-0.09544177,0.01152401,0.02522797,0.09895858,-0.07032606,-0.00138551,-0.01365501,0.04570182,-0.03563435,-0.01284543,0.02462332,-0.0540221,-0.16709913,-0.21991675,-0.12857477,0.02616211,0.1190518,-0.0083931,-0.10544292,-0.12113368,-0.09980304,0.0384963,-0.02657106,-0.01871507,-0.00244391,-0.11839763,-0.19826154,-0.13727965,-0.07540516,0.01771057,-0.05711377,-0.03600328,-0.12627312,-0.09358352,0.0132717,-0.04328677,0.01889967,0.02555763,-0.00259482,-0.07204584,-0.101392,0.0309214,0.16522415,0.0551085,-0.22458241,-0.19728519,-0.08536743,-0.03680533,0.08536604,-0.00722867,0.00669047,-0.01011857,0.0399317,0.01441181,0.1479693,0.13177095,0.12895049,0.00471872,-0.11780809,-0.12383374,-0.06949105,0.0480435,0.12328581,0.08043522,-0.04263417,-0.00528994,-0.02937552,-0.00717845,0.10176065,0.06923965,-0.05036969,-0.22962046,-0.25246679,-0.04926775,0.15706474,0.18496758,0.18496328,0.0116089,-0.02192414,0.02514102,-0.01149475,0.08632792,0.12529031,0.09718758,0.12859289,-0.04164922,0.05470908,0.28491747,0.17410646,0.12974257,0.14682436,0.05117693,0.03817138,0.01838278,0.03212121,0.0441267,0.09326168,0.15668439,0.20958985,0.22139688,0.2081593,0.12220037,-0.05491954,0.04124294,0.02079701,0.02794064,0.03448622,0.02931074,0.01307592,-0.00167262,0.05689334,0.09898488,0.06668522,-0.01351686,-0.07830375,-0.13238234,-0.05010113,-0.1567404,-0.00742993,0.03000997,-0.03901435,0.02610237,0.0066655,0.00258278,-0.01966548,-0.06679116,-0.01592232,-0.07504197,-0.01706625,-0.12928237,-0.01562641,-0.0544625,0.03564281,0.04042874,-0.0409138,-0.00918676,0.02620407,0.03638645,-0.02667653,-0.00182784,-0.01599875,-0.024619,-0.04244974,-0.03891794,-0.023082,0.00446092,0.01179065,-0.00316359,-0.01112512],"bias":0.22199177}],[{"weights":[0.60655755,-0.19006806,0.17509464,-0.04011664,-0.13395463,-0.13800576,0.06989716,0.04340499,-0.23455038,0.10837368,-0.1274442,-0.022991,0.28478988,0.34242051,-0.13998627,0.14748263,0.14872558,0.53262673,0.28327501,0.30568313],"bias":0.02635048},{"weights":[-0.29075716,0.03124808,0.33030289,-0.44987982,0.20830603,-0.05137757,0.15811519,-0.02769835,0.05059441,-0.11743884,-0.32838744,0.21406292,0.06126479,-0.34447203,0.32204799,-0.17053981,0.21625856,-0.03993526,-0.31375339,0.35823704],"bias":0.26526971},{"weights":[-0.23435167,0.41258833,-0.14521678,0.46393974,-0.01900038,0.38477138,-0.12136936,0.10655769,0.11900448,0.10571593,0.27798258,0.10012557,0.14060873,0.21132248,0.5307622,-0.1238547,0.09820778,-0.3753197,-0.13938769,-0.38407336],"bias":0.09088062},{"weights":[0.46012353,-0.02169251,0.3439638,-0.18655322,0.13444443,0.03451868,0.00785866,0.03333439,0.16462983,-0.21388388,-0.22650684,0.04410138,0.08610794,-0.25093286,-0.18174282,-0.04963274,0.32478316,-0.02221853,0.27429703,0.20634817],"bias":0.42300323},{"weights":[0.62400153,0.31856526,0.12228239,0.25856011,-0.00788489,0.01900256,-0.03727517,0.08448125,-0.11699496,-0.27483229,0.24917126,-0.10835341,0.33705072,-0.10500139,-0.05539787,-0.06086602,0.21690673,-0.19780906,-0.00499308,-0.02290733],"bias":0.19639622},{"weights":[-0.30675014,0.07985648,0.2904174,0.26292689,-0.08091386,-0.01252602,0.29529493,0.09378604,-0.4337896,0.35580206,-0.1335573,-0.22434843,0.74836443,-0.10539778,0.28888321,0.01919821,0.1456212,0.38368953,-0.33920088,0.13751979],"bias":-0.11166423},{"weights":[-0.32936081,-0.25239981,0.45466105,0.46730631,0.26075822,0.50872397,-0.43167892,-0.07963791,0.48582991,0.07413745,-0.12438703,-0.1429138,0.06277066,0.30107939,0.72105952,-0.007501,0.11077896,-0.21737555,-0.09435621,-0.40571248],"bias":0.18063259},{"weights":[-0.04267468,0.07976161,0.10387032,0.11937263,0.04673211,0.11282543,-0.07361143,0.08929644,-0.06896561,-0.04131547,-0.06430298,0.03591208,-0.11547091,-0.07504081,-0.11672782,-0.09337868,-0.05783666,0.02265806,-0.1185155,0.06804144],"bias":-0.01219851},{"weights":[-0.09546195,-0.20538385,0.10961689,-0.04857449,0.20145889,0.1925736,-0.13286354,0.00710189,0.43861415,0.21882756,-0.25328973,-0.09364362,-0.10749203,0.24425788,0.29988296,0.13957499,0.00931033,0.24715342,-0.02605083,0.04870034],"bias":0.12333231},{"weights":[0.2069826,-0.08308555,0.03424694,-0.00379528,-0.07473799,-0.12663142,0.18464013,-0.12314104,-0.13695867,0.27125407,-0.27680477,-0.10009845,-0.01062865,0.19109328,0.06040341,-0.04387539,-0.05524053,0.21829485,-0.0941536,0.1979254],"bias":-0.03998444},{"weights":[0.72239878,-0.04473515,0.10106949,0.46869252,-0.21365695,0.36132768,-0.51301025,-0.18865959,0.27653964,-0.04631059,-0.08637931,0.07593843,0.27532124,0.43782537,-0.29328951,0.17649076,-0.14200869,0.21923133,0.61351324,-0.339841],"bias":-0.06460798},{"weights":[0.52076943,-0.53689686,0.25337347,-0.31481655,0.26745512,-0.20717019,0.0295142,-0.17637457,0.53134488,0.22343154,-0.22549377,-0.1947471,-0.31330831,0.47476738,0.18059085,0.25075627,-0.16609024,0.48046429,0.11444071,0.43307722],"bias":0.04518081},{"weights":[-0.22991,-0.30272902,0.52552461,-0.06216111,0.44898665,-0.05352998,0.24224619,0.22155154,-0.14880995,0.00735193,0.05240188,-0.25150777,0.65721881,-0.04731269,0.02774794,0.39402377,0.03324772,0.70620398,-0.07269046,0.26344917],"bias":0.08566433},{"weights":[0.15746648,0.23933328,-0.65688853,-0.21070381,-0.11934948,-0.17029781,0.44546771,-0.06915607,0.04619559,0.3636196,-0.12159132,0.20580252,-0.62146187,0.62452004,0.700811,-0.23705223,-0.05073348,-0.37595294,-0.07592564,0.22307926],"bias":0.24376162},{"weights":[0.6721586,0.14247082,0.40169732,-0.0209683,-0.1125762,0.01313676,-0.0304407,-0.0214905,0.01131869,-0.19830503,-0.01569124,-0.0382981,0.19199613,-0.21289428,0.10004542,-0.18238211,0.1468851,-0.19166042,0.04879365,-0.24668266],"bias":0.41574979},{"weights":[-0.07167593,-0.0264046,-0.09625465,0.00357625,-0.19569869,0.23945679,0.3136831,-0.19079234,-0.37496809,0.62711035,-0.60265368,0.08510134,0.35164864,0.28505845,0.12967601,-0.05279852,0.03667636,0.37764169,0.16421158,-0.0284449],"bias":-0.20794502},{"weights":[0.01085444,0.58615608,-0.22055758,0.08914826,-0.4073292,-0.1314319,0.44888588,-0.00133457,-0.45007735,0.22970029,-0.1628773,0.24737631,0.29644023,-0.06947993,0.44705551,-0.28155827,0.41727087,0.02167507,-0.05036659,0.18917195],"bias":0.10322023},{"weights":[0.02950537,0.19825883,-0.0357309,0.10216775,-0.07633927,0.1001035,-0.09606399,-0.1440918,-0.08276361,-0.05618123,-0.07678983,0.10073793,0.00078444,-0.04595168,-0.04768986,0.08956416,-0.03363442,0.05035489,0.15724713,-0.05596609],"bias":0.09186745},{"weights":[0.03291014,0.0763425,0.04829494,-0.0372361,0.03968425,0.00613244,0.07192207,0.0886031,-0.0324158,-0.07546773,-0.13099384,0.11608496,-0.02230726,0.03863547,-0.10719422,-0.01668066,-0.04676427,0.02470714,-0.01271476,0.03650603],"bias":0.0067013},{"weights":[-0.32722165,0.35920892,-0.51937483,0.29177881,0.64427563,-0.10331332,0.4707403,0.06525093,0.05486823,-0.32972515,1.06876678,0.25733571,0.30210345,0.33123489,0.09842742,0.08470503,-0.27689721,0.23346025,0.04403727,0.03156098],"bias":-0.02094174}],[{"weights":[0.0324824,0.47955648,-0.56661026,-0.06546156,-0.60081165,0.69707777,-0.24429054,0.01666024,0.24056018,0.2261053,-0.68848581,0.10547975,0.76674821,-0.35011098,-0.56060134,0.3914552,0.15156112,0.06200938,-0.1313308,-0.42662153],"bias":-0.46642234},{"weights":[0.14112494,0.06620892,-0.06440885,0.61250224,0.62241939,-0.48175469,-0.31842295,-0.08112099,-0.57226018,-0.2400509,0.69998061,-0.67337445,-0.72254241,-0.6827104,0.59006259,-0.08745783,-0.06060751,0.13590303,0.07310135,-0.52634379],"bias":0.57514888},{"weights":[0.63896569,-0.30083969,-0.6718384,-0.00003616,-0.25139482,-0.19228496,-0.16324701,-0.10904886,0.04132924,0.38154153,0.53807675,0.62194895,-0.00752539,0.27991977,-0.08853218,0.50463082,-0.1232696,-0.00592647,0.05265951,-0.33473109],"bias":-0.25180489},{"weights":[0.27297249,-0.07642263,-0.27460676,0.13579545,0.15737984,-0.22379406,-0.16562614,-0.1269151,0.04694596,-0.1247803,0.28821201,0.54368382,0.48699791,-0.48584562,-0.09428712,-0.5281265,-0.63565415,-0.15592611,0.11665801,0.71677756],"bias":-0.06758831},{"weights":[-0.85625593,0.05257983,0.52390255,-0.23569108,-0.37337922,-0.51690803,0.15371161,0.02856126,0.1463106,-0.12539746,-0.12627568,-0.10894238,-0.6213607,0.89768879,-0.43719117,-0.2197376,0.1410467,0.11733495,-0.05692759,0.83794367],"bias":0.12406228},{"weights":[-0.04970871,0.11794464,-0.01427244,0.09408847,0.22761107,0.50836584,-0.14397799,-0.0772201,-0.35305005,-0.08394109,-0.73723392,-0.52421244,0.58961862,-0.20527815,0.26832228,-0.40267105,0.25081151,-0.14537408,0.13540943,0.48997843],"bias":0.47621991},{"weights":[0.06857664,0.19992753,-0.24535396,0.06734005,0.05037695,0.03264149,-1.01319847,0.03007512,-0.29708548,0.32943437,-0.42743222,-0.00891828,-0.42804409,0.84052507,0.11133575,0.11991291,0.92360899,0.03431453,-0.08635511,-0.22695769],"bias":0.04212001},{"weights":[-0.138912,0.70209733,0.08929331,0.1814262,-0.18448106,-0.36130306,0.84975483,0.07111245,0.42634952,-0.00682681,0.27778184,0.58063705,-0.08401207,-0.30051691,0.33540127,-0.45556429,-0.40507519,-0.0534279,-0.03606546,-1.07048888],"bias":0.17851258},{"weights":[0.06719115,-0.43855809,0.28571609,-0.35707801,0.03939355,0.54677836,0.03850557,0.07744871,-0.13276521,0.02923245,0.477946,-0.47146856,0.05455479,-0.2877357,-0.04770898,0.52238871,0.32076838,0.05873676,0.10746235,0.14281378],"bias":-0.52793502},{"weights":[-0.5292744,-0.24051721,0.59271565,-0.58823815,-0.02831462,0.21372063,0.82536349,-0.02069239,0.21718745,0.08792809,0.00643558,0.06578282,-0.08617907,0.02709436,-0.15355191,-0.21954113,-0.30411987,-0.06397288,0.00632628,0.07761773],"bias":-0.08512762}]]'

export default () => utils.bootstrapModel(JSON.parse(startingWeights))
