[[{"weights":[0.05765261150080415,-0.06360467709798807,-0.03378625192058495,0.060248661077398256,-0.014066973867045942,-0.031273146493408926,-0.04228649598225666,-0.0691839979792944,0.020238134625475697,0.002572980210289234,0.015451752888950577,0.02329441126147294,0.03443832414541055,0.007266783177458912,0.039544969454640214,-0.027992265216156383,-0.026449337259989207,0.03079454335371289,-0.06966683606999949,0.03479075145429961,0.03838574535101631,0.011569073418777852,0.004810617829293549,0.01204405775999696,-0.01283679339286773,-0.0575671915665066,-0.06648870560400552,-0.015974390012670037,-0.023393946825343567,0.04435851795875517,0.053449249858017946,-0.014158861669950527,-0.07069896108391155,-0.006926727816445348,-0.02198714984705467,0.040121985016400595,0.04768564426384795,-0.010030282144897243,-0.005510027480594711,-0.04761549442334246,-0.02757560009696672,0.029737367918417763,-0.016051189621554267,0.03932150575285529,0.019612585343628225,-0.04523748397473083,-0.03560714695452871,0.008147112914913057,-0.031001611445991086,-0.05081520766351395,-0.01481065210331437,-0.03592714335710798,0.04057395620902752,-0.060439821513541395,0.01704823463581277,0.028472095387771974,0.009459208696570845,0.054789917283826595,-0.048633680072207544,-0.06899294312008258,0.009834354180392118,-0.004459392735781247,0.022203720572611288,0.0545075054768604,-0.07014394783047376,-0.025771803906223696,0.04568025126677409,0.007036643517429816,0.024116319054236217,0.05931490211038252,0.0028839591482966013,0.04384804242175511,-0.021499283719900616,-0.052902250301711605,-0.04978409438014866,0.044384590905873954,-0.05748345177002005,0.032974366105461915,0.03856995449350821,-0.04484105074411851,-0.03723707514102144,-0.016529088506972867,0.05496678122017567,0.020291996517911054,-0.03342199927543752,-0.022606811789389763,0.058708805416382286,-0.06813048651886393,0.030218239706726654,-0.06836980094790943,0.06318033604967813,0.03347385622406464,0.03491261309227327,0.016364166976877932,-0.002603364573932473,0.06903273878972037,-0.056964361182899916,-0.04564114185804481],"bias":-0.021214874851182224},{"weights":[-0.014315925925023813,0.057599267018504936,0.005469275703505419,-0.04334985149781054,0.018278341493518497,-0.03661265777796227,-0.03144588552846503,-0.027798104965440204,0.012525092054929852,0.008402810820486443,0.022354737987683004,-0.026837507082040392,-0.041609911030918934,0.024414858581217103,-0.017007871740462917,0.06932398889648768,-0.05873326313662212,-0.06366100055128496,0.0350978876020961,-0.05071594595607441,-0.0059576593364465006,-0.03102824010992622,-0.03526882772700327,0.06542656000710337,0.007756571697282169,-0.07103251442811562,-0.036564530509031336,0.06472583816674683,-0.06696256407632739,0.031849827458373996,-0.050926167730049716,-0.010791136741682621,0.05562891373934562,-0.0006930351217036711,-0.008285415318494697,-0.0278045584214105,0.03412979521080655,-0.029413799007976114,-0.06436000947427312,0.0633558810976544,-0.022280250287389558,-0.04247911467059618,0.041694073846808684,0.055835687389922194,-0.04909588637105714,0.0654708932575134,-0.050266073128696714,0.05533444679082567,-0.05941074577065452,0.06124616098238299,-0.03249212054108817,0.05670796547025952,0.011971413041194747,0.029236176937588655,0.02415511975534708,-0.056491548306622646,-0.053971136078701215,0.028180427502793426,-0.027022273509809947,0.049027830225533656,-0.041563145488137714,-0.057220756679096714,0.0682479786752202,-0.04775482348090685,0.061945771989301686,-0.06550241393500986,-0.03543348952433477,0.07003676069023396,-0.03724031301667747,-0.0605279382314486,0.0201777200326409,-0.017646681568137534,-0.06407166653089712,0.043685274958098055,0.0032587722044116604,-0.0663480367317759,0.04943948831251385,-0.018084459161993263,0.011085286677642425,0.04407459000656878,-0.019957664445309574,0.012389718696843284,0.04441061570242105,0.052934885170210534,-0.05695286991411299,0.04541296805332394,-0.055386295802363775,-0.008852276106456254,0.003956101101470151,0.01144866906291681,-0.060414412028114726,0.04473052939156525,-0.042919313638062416,0.02556949743153726,-0.015300384031253543,0.04050316932103094,0.006294916266624872,0.005362110193282279],"bias":-0.025070406062970573},{"weights":[-0.02232245605325076,0.05384807056314054,-0.06191787981810706,0.039151594049555316,0.014281449826454929,0.06884361311395354,-0.047774703853369356,0.024867898863235486,-0.024310273707241085,-0.0518067794136921,0.004117764053315018,-0.0005848271946972847,-0.05019866227172694,0.04466788600794604,-0.012182608934761674,0.016040554742178276,0.04230382398414457,0.013753474865023502,0.0012865218274638122,0.016143016612873845,0.016761920693424356,0.03216405059418276,-0.033241411846673875,0.06752303077343673,0.034331608730370965,0.007948614264106976,0.03734898100001529,-0.047730038771487966,-0.06690053908416675,0.03155279996868756,-0.04812198487534747,0.0031957634950086134,0.012506708962753608,0.017996998868170994,0.05355913214057213,-0.008996373407503325,0.02868222723374848,0.013117438195730807,-0.05675729669244568,-0.05323097152015083,-0.06570609301600289,-0.008109629202502565,-0.03442804916253062,0.057757294523820765,-0.07126132692055695,0.018918841179291965,-0.020497862048957368,-0.016612267854011764,-0.006801664676368023,0.035601101704090886,-0.02167326970370895,0.007836753601688623,-0.01787383114073484,-0.04769645391817229,0.0677777759295381,0.018607311598395213,0.018214041471909026,-0.037437535469455344,-0.033916053764500735,-0.043102981793503914,0.02406944995088122,0.054959364795686305,0.011752009572545552,-0.06240231997619362,-0.04501845984668148,0.04325958262079725,0.010187695382870086,0.014074606386593922,0.02661916365048257,0.04907551153886457,0.03287637682144654,-0.009965781185876125,0.0360586535342876,0.044160585012137106,0.03558843879416247,0.013610695855156767,0.0699699206354132,0.016384001674383298,-0.05154716599871747,0.0012591156498004586,0.005148826848766305,0.06779703075814188,-0.07014087755449397,-0.0629690773436482,-0.013917944405416657,-0.05446716749053412,0.01772449442743655,0.049683295266090804,-0.010364339559904087,-0.0039494050644390604,-0.03861696144252681,0.011526632002096887,-0.04287952835767226,-0.02686959965766746,0.01347410196371564,-0.025419485041738205,-0.06235060990178354,0.01998658195192045],"bias":-0.027098026614915678},{"weights":[-0.033168513969752206,0.031156947656414916,-0.008271297577318294,0.057405837260483074,0.038498110145506304,-0.05309975040151337,-0.031090456849952118,0.008198245468383686,0.04629510003004449,0.020191509132207085,0.004414409362241507,-0.05450429009007498,0.025063083492054865,0.0004142685227049908,-0.03974777943929671,0.0335489822524739,0.06304275952880695,0.033009581641008395,-0.01478730290521684,-0.0021881468514241068,0.06458531996838576,-0.022333361092059984,-0.061524761429054005,0.03168013361793191,0.005010175593849059,-0.005691786252273072,0.03654608211322492,0.05822945542491038,-0.065008009163725,0.03492606803002755,0.00457875044065653,-0.039631033604209415,0.06774289626274821,-0.03298017934222123,0.005307316287617123,-0.0340328643332199,-0.04165112076280566,0.015755745883912608,-0.042695884761867746,-0.03208941496776681,0.03898793333464356,-0.02349651531239844,0.05667985123416805,0.025117233314321242,0.05599244965585652,0.059133887164913954,0.04317823819264837,0.022461150464322593,0.043524007760971005,-0.04821185795237254,0.042822600225608895,-0.03492527433056584,-0.06753957060872909,0.05852506248842058,0.010253804582095434,-0.05332852463235407,-0.06414202167593609,0.04129314461138712,-0.03611265136423877,0.025661726690125064,-0.02319472651877006,-0.008677735295388104,0.013821166986007648,0.010896037246862346,0.05944201202492295,-0.002059666084644804,0.004923629721793726,0.004168480697982054,0.060596854694663194,0.05678629945902225,0.02922051985633855,0.06367749434121402,-0.007102204398499168,0.0011473291064975407,0.06003605309189983,0.007409061825149114,-0.018937183370433822,0.06814938774868493,0.0326608611424598,0.05588174519590801,-0.025035589110419382,0.03275502717699767,-0.042280165271939486,0.011613743985275583,-0.023767933900493008,-0.028794219177906664,-0.052637091560328496,-0.022339506139783007,-0.06718262656610938,-0.046329333887633196,-0.04437821417732602,-0.026303563464750684,-0.03629002613090121,0.0613856009889938,-0.004199053283961102,-0.02950383571366148,-0.054986769134972135,0.06366609528217276],"bias":-0.055723693236810944},{"weights":[0.05961135847822859,0.04615573276145906,0.06044450398145434,-0.04031421977254619,0.009061120435750403,-0.027318864888064287,0.0451024104840003,-0.03397934811547172,-0.013789098412497544,-0.026952566603410076,0.023169519309027057,0.051936494189696224,0.03971580552711707,0.029874210195755802,-0.025646409861115667,0.007036808364341904,-0.032317975724789595,-0.04067216621911346,-0.05307146812653874,-0.032256165066871,-0.04549784595624949,-0.004314960468243509,0.003292541574130527,-0.06981515551401986,-0.005999508815235583,-0.028901187542303156,-0.01390083853223338,0.020526906082644875,0.034115207600657525,0.018813696477719227,0.022517738481643297,0.0002476810276293106,0.06347818976539707,0.025793849352094955,-0.001902139273887442,-0.0702404145907371,0.012982225016392923,0.06433011327419151,-0.04247531105826046,0.04665757980131194,-0.03726965599640843,0.05327814388041045,-0.029122566928221676,-0.056854868234590274,0.044783479746062685,-0.006249751688875692,0.07064069937461594,-0.06294251066153328,-0.06628375972046928,-0.05399261434294231,-0.022391471333945208,0.025985490131180417,-0.025197921744186294,-0.07136435529828099,0.010066502242052106,0.05098575937241605,0.004269122156374798,0.01732065016083069,-0.0024300804786056528,-0.007654014546079087,-0.06923958811785422,-0.028961659536173714,0.0377507628303843,-0.039907042436954365,-0.038928088983301024,0.0403761011231957,0.01885400440538856,0.04896541735326267,0.0012516749408867983,-0.04364434696746416,0.06939483394808965,-0.014078211625514684,-0.05938870306889238,-0.01873575068530037,0.0450957766438958,0.06779848696921642,0.05036779479282179,-0.019900118564871557,-0.002372983262459551,0.021368936148819614,0.00950706998665171,-0.06282694233970475,0.06976525204603279,0.0006934303716260131,0.019538738528743577,0.0265744279756658,-0.06467219037712285,-0.057969481756027834,-0.05330425294542537,-0.03969805537079453,0.03664683760954031,0.059784054821668306,0.034302767898983004,-0.05938843553838932,-0.017161149897750597,0.0344900238673822,0.03189120026384982,0.013842311866852114],"bias":-0.0005887639075381865},{"weights":[0.06663482870902537,-0.06016777990979066,0.00985963612798355,0.03603681670451478,-0.02659373438669541,-0.03286713032610979,-0.06944327842359099,0.050484298665721024,-0.06970596592673027,-0.009278960205251933,0.0361839280062781,0.05653445495174074,0.023802498875875523,-0.00892821982859439,0.0002475579105127429,0.004204471429492138,-0.012016411523026405,0.06265841265726046,-0.03708954655330416,-0.019252742583061686,-0.019848162394187213,0.05187763432128611,0.06074751899207021,-0.015836493930339337,0.03925711198471415,0.015580522549765202,0.0028206477845413684,-0.022880329512062928,0.0008814652126142723,0.03329542495423771,-0.03431923236881852,0.030193136113998972,0.04462540526801431,0.01190285117698419,-0.0008756898508484475,0.06424369151315995,0.03009096417008166,-0.05781598444717991,0.02434502063565736,0.021865478188364255,0.02055343543787754,0.0601626224268988,-0.05207092123906434,-0.023733437329128557,0.012511362373896637,0.04943314316950767,-0.06531588372468729,0.04319064726375969,-0.028130019836381727,-0.07014365605103191,-0.048712852919003215,-0.05565758693795888,-0.03271408356022225,-0.03977643364976531,0.012819477609020956,-0.04872798060204445,0.010132799601322443,0.05718420305774426,-0.031058132620428027,0.05154310374733157,0.05994359307193157,-0.04720121852305552,-0.05573924514638981,0.015460795702830366,0.05191899721500888,0.046266026405274066,-0.01868896656746099,0.0023869681004602974,-0.07038992897365551,0.025263643857604063,0.019885760516619288,-0.023816176910868854,0.015299886589360847,0.04748045403060076,0.01361618585938555,-0.02632171757400156,0.043003569723413744,0.0436223837243487,0.059275068140233145,0.04459657778058023,0.008082845223689947,0.04233602014230245,-0.02350439587577007,-0.05547217444678545,0.050291541383601486,-0.0014291418027917197,0.06327124520214157,0.059562467325751184,-0.0369184871824043,-0.06600318913462466,0.009971564807103333,-0.015437902328506867,-0.02592563591589164,0.05692867492535537,-0.05421280728939608,0.04728653167022212,-0.04908313005440665,0.056281747385426004],"bias":-0.057250634923354714},{"weights":[-0.04539843176314038,-0.0280808876786532,-0.026093077040269478,-0.020396272188751573,-0.040502791716889315,0.06564156166625895,0.0385535014381344,-0.05327539606118517,-0.039316055509263474,-0.037019960035272866,-0.01862734051041274,-0.04348196336929763,-0.005110125528540847,-0.030975163394606115,-0.04441930988163616,0.024746523851407562,0.036460355198934216,0.0029841543404826613,0.0507136730897335,-0.03169361540127976,0.06864902760560124,-0.03253590752321578,-0.028622333153666486,0.045163610030871146,0.04840733661523352,-0.02894116244214372,0.06782643853783651,0.007817109738969442,-0.03407891672887559,0.020608987768820867,-0.045319662846819514,-0.036630898218565855,0.038767386084255,0.01965566492514344,-0.019974567155122285,0.05316845694095201,0.019361340055302764,0.05186490408890228,-0.014863442448264175,0.04285590308495144,0.05540873674523006,-0.05970314946234008,-0.023969528963789767,-0.028243919325197993,-0.03990209697675416,0.016770582333097157,-0.04730966973014554,0.04935091684258953,0.0024044200853337917,-0.0035670520714764144,-0.02317733795670609,-0.01902591285380829,0.0684625406027954,-0.060814180390032536,0.060547282267369974,-0.04961802759419675,-0.0700569788494191,-0.026156964239070393,0.004140381586217975,-0.020521021766889715,0.02415229084829087,-0.019844571676988883,0.02094229017668648,0.05187208975370098,0.0540216722980867,0.06230148719486418,0.0007626070370982229,-0.02836725174200167,-0.005821389314606325,0.03119354486816752,-0.016141621297188453,-0.030649404788460274,0.03864149523672848,-0.011832870711598761,-0.01856766221613727,-0.058584893346173283,-0.011091678009104159,0.058362467059105735,-0.037942827763291775,0.0508880956242377,-0.065981199921067,-0.048735483144588414,-0.05995489975461754,0.0006959719188654886,-0.010413787102676568,-0.06698463599322657,0.02981729129511805,-0.02017427967684896,0.0510305677734168,0.011305404891121786,0.0610161304643322,-0.0656894691033437,0.027532489498380847,0.04062464256267712,-0.010126310465311482,0.012044857649397396,0.026339969723678566,-0.035862507756756645],"bias":-0.009886758183628388},{"weights":[0.0365965537494411,-0.02761819044765998,-0.012867540492904282,0.022212678360711533,-0.012816962941969748,-0.053959301414405705,0.029642390102250702,0.0422446012578921,-0.030329643031980356,-0.009406790077700152,0.05200944269579608,0.05865031801842798,-0.03029449803593805,-0.007251525635804902,0.021281028322450646,-0.05000063584664591,-0.025027238638476446,-0.05558383390796426,0.022242670622735404,0.06462299220004476,0.020487123396571293,0.070565465287789,-0.026116596264787205,0.05792855452237729,0.011742826964878364,-0.015525775574335748,-0.04611478172541624,-0.05973699007486191,0.004389077238466136,-0.021490298121736823,-0.0020536468878773104,-0.012407111857202151,-0.05575822678095098,-0.04940690888571148,-0.003866552573411607,-0.01901264543575316,-0.035028942053413996,0.043676206886915085,0.06861270283517788,0.01775371128407731,0.05503553287102542,-0.0632861161825056,0.046061267661490046,-0.03345126324149145,-0.03979507687581087,0.06803655810701074,-0.04416975873745197,-0.0023811417098435718,0.05391108022795105,0.025816583639296644,-0.059508297387019286,-0.05041262812558955,-0.037053706404167955,-0.01754073000526082,-0.05725909396192295,-0.03245001083902585,0.04501178084542454,0.04465942191509859,-0.06610301733075923,-0.06270709958828767,-0.029254588747174327,-0.026031900098762786,-0.015418229290506489,-0.043098926248103686,0.05875832302060172,-0.025678464513172003,-0.041887666858717046,-0.06842101135130554,0.007449854625418596,0.025571241897814494,-0.04993004473613039,0.0574261986379324,-0.07065556329194723,-0.008556063283870718,-0.008466785337579323,0.04880556470506275,-0.0226361786237554,0.06162927896907351,-0.05110420218572127,-0.07134202722879765,-0.022916626324521003,0.027307939785838856,0.03187905056499731,-0.060273928385870285,0.021911753593811905,-0.0318352794366833,0.03815811806530113,0.013043580403744549,-0.06488220295007832,0.024640141539188847,0.03267717345120565,0.06357433585524652,-0.04810650935333998,0.04935799610651104,0.05191315953507082,-0.05872613491899216,-0.0172557021485138,-0.05607282111127757],"bias":-0.024336621736992206},{"weights":[0.03175504463657629,0.02574079602464209,0.021584632281547358,-0.05774717488992255,-0.040875988336646976,0.015504003994173383,-0.047020991068307226,-0.03126257589400618,-0.002158191119685774,-0.012959399325820697,-0.00783799594626864,-0.06531989841115905,-0.04994326148922701,-0.013402920105424324,-0.0137482281101228,-0.006875650873010918,0.06058955858374988,0.011992347705066235,-0.04277280964865732,-0.0371345563597202,0.0334499076730112,0.011116691457216802,-0.011684998179843748,0.023675363497508536,-0.047425743931038315,0.02422045290407232,0.04835247602401746,0.03777352124028067,-0.06513846501056023,-0.052751912845147755,0.03801347992146957,-0.010773058724490282,-0.05328740355715358,-0.012171807896490066,0.06157006088292277,0.013524690791133808,-0.016366242266340952,0.055214916030591546,0.022672232516711063,0.06415072665010325,-0.04853554536779455,0.06370935566877821,0.03280275347742981,0.06673702572553143,-0.00866756002871762,-0.02872956296603528,-0.002542479029042265,-0.07086526700091715,-0.02713014640773722,0.023105266059984836,0.019229759354575597,0.026860368433249456,-0.012392674645590109,-0.05247144164419028,-0.07256727743093044,0.03933447931429665,0.022467528475766243,0.054898569292900455,-0.009924017213115208,-0.04533421153200247,-0.007604702805230786,-0.03415060525492782,0.010543613488998516,-0.01692770302382008,-0.05425105144149359,0.0009999749089321358,-0.03692750816754745,0.03541497484539702,0.017672349260861975,-0.05387682972944107,-0.008961527324409291,0.06620364618131554,-0.058273555062174624,0.028247275970554542,0.054654481035996474,0.04637860269451103,0.042643145482760825,0.06904382447689797,-0.02552336006124673,0.05837143779992622,0.06604658360863566,0.05453686301951702,-0.07102743893772163,0.023146629861120697,0.06314299844602339,0.05837923874822214,-0.048443441478667,0.03510094334139777,-0.02518290111925591,0.02578625430857075,-0.016110451944334084,-0.024014892553563098,-0.06658740162943193,0.011193122591833254,0.012645984800456925,0.06489673057403551,0.011162246421807825,0.028485244838888306],"bias":-0.04163569981409113},{"weights":[-0.07115158380113076,-0.010479838358312217,-0.00038770068323178657,-0.004310894296961897,0.016370182793174592,0.057772683294541015,-0.05473140242891971,0.01646046826287523,-0.013986172230261143,0.0005816979249122166,-0.06597045450920146,0.06619732907972778,0.018043863631303267,-0.05342360744337339,-0.057466029635648994,0.011186693298135946,0.02283004460470519,0.0692626448883546,-0.02244894018986818,-0.04568007840576756,-0.009640436192074178,-0.006315433390350745,0.034976612701854676,0.026034565871951607,0.05258259883779137,0.02638989559545313,-0.02257151000654674,-0.031441450563508375,-0.059156616456003834,-0.0676368976274431,-0.01581081592544846,0.006095901655586531,-0.061679237163489706,0.033997043816720494,0.06811779595120598,-0.05765580286322175,0.05678152868368048,-0.0515995337062212,-0.009822918539277192,0.060555945372325296,-0.01106036306201452,-0.0212473819894855,0.0064972920154702865,-0.001067974129462972,-0.029235017936320287,0.06679510595444763,-0.02116810287590069,-0.03308748707233098,-0.010008522486335289,0.015410134359683731,-0.002035831067653768,0.024942259130296122,-0.01292336211165231,-0.06856004324035715,-0.02823770778744067,-0.0469179234777748,0.04456360695961067,0.05859475984087751,0.031211704826537363,-0.019515986203930007,-0.014096731394603256,0.006876899430969096,0.04256563081993696,-0.0160397415554934,-0.030064834292464527,-0.007767801496080554,-0.038725259133381394,0.012525344165408308,-0.07025788415123999,0.03089574265418905,-0.03881874584197633,0.0459728134474328,0.007616939301708246,-0.020399035793436462,0.06513945025051981,-0.06912394235585319,-0.02443019003585115,0.014313030372098788,0.06098806755556763,0.056329845816024925,-0.034585413084786264,-0.06525339426246167,-0.0072269325935471725,-0.057220760259741585,-0.05980402258630422,-0.003186588082089155,0.028634865456734025,-0.034972093345102005,-0.05537387257053594,0.024633238498920722,-0.06883530187175733,-0.06942384903839327,-0.018250770907968502,-0.05196626609787848,0.01618481870409485,0.03884977847088075,-0.007521387110320104,-0.02879127407859551],"bias":-0.0020799979069789035},{"weights":[-0.06703184402460677,-0.04175230065909659,-0.05437918062124916,0.018499087019326524,0.03821975078316195,-0.04042011766336716,0.06666038350807622,-0.004048842889430797,0.004104998973025748,0.03148599993533649,0.040950191089235,-0.028578103516044222,0.020689457204495977,0.036990689389847516,0.04867104349623523,0.03128740361761234,-0.07095232876309358,-0.02606311696548703,0.044640796935677754,-0.06013507617569953,0.05365231653027922,0.0030424438181414688,-0.008695931992717168,-0.058596261680079795,-0.0446089308055541,-0.06024303386908922,0.05314341801390019,-0.024358966974508543,-0.04498128285115073,0.0287002144261692,-0.027237724296244166,-0.032827468086723675,-0.0699877747359667,-0.0625696111108054,-0.026897758500066142,-0.004003116444756662,0.03317080986279894,0.035350588123464755,-0.044804803703850024,-0.04243576502556476,0.03823390464238068,0.04352151836307766,0.04426018042836612,0.013687219281405087,-0.041704832283357494,0.003585130259706209,-0.07038346778816308,-0.03265277950707781,-0.04322917417659639,-0.029202292928461698,-0.0019876507052276767,-0.04279958934434111,-0.01915616829013153,0.06931580392413755,0.06219757075454696,-0.017530860739362553,0.009115179266839489,0.01954016591558618,0.05152223524302398,0.022142383160396885,-0.01360141644048882,-0.051649366002439925,0.0400541329544948,-0.05923904964861753,0.055698878244429234,-0.07112247410075583,0.05653438388576641,-0.015025014954774343,0.000544564499562412,-0.027596487666546862,-0.01911614188533522,-0.020737061273478602,0.02970025119533576,-0.02144708845721654,0.031862077684372325,0.03374900704725378,-0.013814905168510389,0.011192382390770958,0.038863786497645735,0.017627265375417655,-0.0692220537950874,-0.030656677303814158,-0.03247527795503463,0.06203865789265664,-0.032913212570641386,0.02487696348340544,0.019343269777279758,0.06892073168169763,-0.0237367254687525,0.038478016083290115,-0.040609987595551546,-0.02528416817943861,0.0240971968363467,0.027668144470849736,-0.06902898980928314,0.04385898408767684,0.028138322870775556,-0.05879847331055832],"bias":-0.03350805712928458},{"weights":[-0.029211195649108845,0.0020159132449727685,-0.014065434159408061,-0.03714341159859851,0.02528898294799302,0.026151909676262602,0.03622755322834959,-0.025500072625678504,-0.012820418469701222,0.050639310648447323,-0.04554815564456049,0.011356529075836974,-0.06031766813914046,0.048265198463321356,0.07021495480149914,0.06643550362426993,0.030909959661078113,0.050865736915582084,-0.016010983101468743,0.03335983491470821,-0.03308116158218391,-0.028054757004080583,-0.06002156028383614,-0.02276677522830608,-0.05184435411790942,-0.022157493605610385,-0.004384146237176581,-0.052469262690609794,0.06795365958514202,0.002140251385778797,0.0578845072944665,-0.03769287821158783,0.010051019422530737,0.05514445386078094,-0.036937598972441456,-0.021610821941005526,-0.0476811947345846,-0.04782956047893914,-0.007887507550687796,-0.05532304755189894,-0.01015822659943718,-0.06773171081440585,0.011372614132256645,0.052799501846601274,0.05547064708557396,-0.000992794078524613,-0.004118409425611933,0.05251347367370405,0.03679902878792917,-0.07120504095657443,0.054627286570493545,0.00708967620975426,-0.002418140412055232,-0.011503084750421399,0.01612172072780604,0.03025699197537471,-0.02563302106319274,-0.030292659230687344,-0.03500817170722571,-0.05942447557906584,-0.048451117580451675,0.06584313332378211,0.036337998265113886,-0.044362402488342285,0.029528914424257622,0.01716741270996463,0.05817933802548354,0.0008847422945530887,-0.008556094807668193,-0.040024768939497336,0.05735803135771746,-0.04257758001140184,0.05071190648579801,-0.04218478380563061,-0.028205714295492762,-0.006349781053563384,0.0426844362435969,-0.062336081337560696,0.027023864286993722,0.06435549396745924,-0.01973824150348308,0.010011532070629168,-0.03691936241538563,0.0022288129369689783,0.037822218904820064,0.016562561610485787,0.046650678391588755,0.0559019574403987,0.04814275495316443,0.013165772207850026,-0.024333215060274537,0.016561939429097835,0.0363473679936211,0.050873370154315534,0.05642825682063141,-0.03298756189067347,-0.004558921333669035,0.009798509269994787],"bias":-0.01244930436720418},{"weights":[0.038205050284518184,0.04124702639352436,0.04531621321304336,-0.0722839898378646,0.007968769906752514,-0.008275943956137344,0.004611264954057353,0.06638014888834286,-0.06201746548774561,0.05591279726120594,0.04548836300990227,-0.054682572699867385,0.036588911801709964,-0.0675390795575385,-0.04020350308022337,-0.029841362659180592,-0.03865048383665534,-0.011730497910830385,-0.03391531653003842,0.018695765690306662,-0.009663535335292382,-0.015408891372636868,-0.0048408644547709035,-0.07037389318110755,-0.05339370672826794,-0.019781353855330495,-0.017441873356244763,0.01832834405971619,0.022902776759409018,0.0480132864833794,-0.05629919321042421,0.026046226959943027,-0.06720523503286001,0.039451035173946984,0.0485413647131624,0.0180696582246127,-0.0604442803756597,0.007176090023730712,0.03860354305761247,-0.010640480474899664,-0.0484015895968168,-0.057561239818543886,0.012668801117434752,0.06875027750588325,-0.010729918883778137,0.03914856118541175,0.04337055828287515,-0.030007972317412902,0.046400358770893706,-0.052472899613414004,0.0475647304690233,0.0017639188996083567,0.045050591821496344,-0.03525537016395996,-0.025036222417784682,-0.015181907871563653,0.03852684703133182,-0.03558572775218814,-0.04271242896786573,-0.02267839135755094,-0.002566276931783417,-0.014296395795363095,-0.05071573048596003,0.02171749568568549,-0.02444442257710551,0.0701273719522007,0.06562777753773916,0.058848647873335866,0.010851443775572298,0.05715292081848421,-0.04492093726228152,-0.0697143346875291,-0.044141487921981526,0.02992734368955287,-0.01703638929533846,-0.041731573053012096,-0.006189449777945218,-0.023002135908778486,-0.06982744446574637,0.014568927865913931,0.022826315088343065,-0.06534049963113446,-0.03603667547238974,0.014313473827375188,0.0005485683363178176,0.06371135319197843,-0.02917309155462679,0.06414842361390385,-0.06208537243300478,-0.030165386744164382,0.019155078312197357,-0.03186783222942585,0.018391528580021025,0.01633315414790911,0.022761022619177937,0.049281523596330916,-0.015999893366660425,-0.008123168598143559],"bias":-0.02826062723450173},{"weights":[0.06970472886541908,-0.06479836979938597,-0.04535213678572876,-0.05086765886992764,0.023593295528264304,0.01757568950168551,0.011169261595566865,0.04972162804176327,0.041854741183344375,-0.062382306627692945,-0.06299385026475977,-0.05253178521765628,0.06675622079240287,-0.016450893376696515,-0.034073911595281954,0.01536595214224707,0.012933787346668241,0.04701614930155224,0.02232278213885695,0.05606398275389078,-0.040913127328039145,0.02577981153567259,0.06713746786810534,-0.013628291661266357,0.06812957405767912,-0.04768212614336161,0.04566208648021557,0.046017353866725036,0.014238453263717754,-0.016594051664153883,-0.040775093487704604,-0.033374023141526356,-0.06574575317702108,-0.04747983856321272,-0.02528012013354125,0.018391866597405365,-0.038232584022010165,-0.04137199079208399,0.04990265892967095,0.0016084662574835467,-0.037394372401868464,-0.060685759264089666,0.06552964995504004,-0.021223798841339073,-0.054522976864567904,0.0448484140114443,0.0039634004963654745,0.012139577282044057,-0.024275692611070807,0.06332732606492164,0.05695770422912275,0.05834783778047137,0.016667620261118867,-0.0516182963746432,0.04170929744706657,0.06634523862568341,0.06814848515290911,-0.018073064582336425,-0.007005889416460113,0.06069107023603198,-0.009138730868206504,-0.049414905762824625,-0.04889916284091859,0.034358072767003645,0.002767876837138616,0.03842409701241575,0.02279385656716864,-0.017996640807386624,0.03115961514140025,0.012575859518891144,0.002470203019863561,0.06243430305312359,-0.06912386540704549,0.008467820296502067,0.01518462832778364,-0.06241642587677411,-0.05835809561839298,-0.0556126431735747,-0.0390125846143011,-0.020037558287078445,-0.039466597630436105,0.015302094346107065,-0.06925570579271104,-0.009403669841059054,0.05134237939292569,-0.006436590150087427,0.02568235610857646,0.04000776766849469,-0.01713748896358785,-0.07001287778323742,0.04248966079783372,-0.009386290585401103,-0.015713105115630375,0.06862324367962869,0.04480857904861274,0.0010122564392856975,0.06681019818380683,0.0076744486551022775],"bias":-0.032802821406406536},{"weights":[0.04145986065894885,-0.057240978018960886,-0.012547340984617768,0.0464399854479115,0.008977320635309424,0.06981613385996668,-0.017322137584050785,-0.038076281461368745,0.03524214614119233,-0.04395734127832885,-0.041384597147606506,-0.03874003977309965,0.06378717010540758,0.019973708910062348,-0.05293013022263769,-0.025016290886798277,-0.01903322647951692,-0.00987077122888476,-0.06017381417149766,-0.030538461131855196,0.02992081268484008,0.02903221457580547,0.06789079804502918,-0.008831802171260268,0.0009418004940545656,0.01999219594461968,0.04515385804317022,0.05861294736712603,-0.001992649211232232,-0.007399024638362419,0.06447913573851395,0.06470384805661654,0.02493503669612733,-0.0388782606801286,0.047519928117255465,-0.060584624255441144,-0.020672379071290794,0.03292467241983849,0.06304451474973014,0.01200913466695603,0.04757605514034073,-0.02841087848273237,-0.022669133999249347,0.05641238670057016,0.0484776775571486,-0.006090010359917757,-0.007941959638680256,0.030221195184667496,0.027838396268354673,0.03170028205646213,-0.030131247897655762,0.027326165602485793,-0.048241780006143535,-0.06530936975555317,0.03531116233376464,-0.03629418839125149,-0.0536103036087837,-0.06239979692898345,0.016666572546724108,-0.0008925261615337355,0.04118852511440407,-0.05558069789597498,0.050947490105485514,0.04066488441709305,-0.030888775909626527,-0.061480751722600806,0.012074456585120515,-0.02875617078617075,-0.054417147483276175,0.0303509034805204,-0.07159258608266619,-0.048494180536957414,-0.027467119290402735,-0.049185187544908845,0.043850636038127055,0.040287817483111166,-0.024461465335695803,-0.008178265612977794,0.05018240929263368,-0.010374768591828516,0.004355997514189534,-0.007584052937029824,-0.04054213607604701,0.04906935949517624,-0.0008374966452170085,0.05980417539541096,0.0030689908094514743,-0.05484495111487975,-0.03756696123028727,0.013374473598227358,-0.021793270946454786,-0.04168537786687546,0.06799162923343331,-0.04266633825504812,0.017138119015677383,0.006537784374205727,0.046921410699903104,-0.004963920175951493],"bias":-0.04910394621239247},{"weights":[0.03912355801335896,0.008118705913498543,-0.00506222196853243,-0.048103275099956204,0.030977204182378964,-0.0260447234497948,-0.025773980414033067,0.0443971438003254,0.05176331658378236,-0.002529896734414095,-0.0021192181401229436,0.006510689882400701,-0.03285752299037263,-0.05249875324180402,-0.044354880698333286,-0.01402336497912904,0.05227622952761241,0.05089580131462579,0.03787731308766121,0.05549694635374812,-0.0007171020857226205,-0.06337396694310227,0.05212705209609377,-0.06497332926861163,-0.055294713083268374,0.009906906683860304,-0.047442033917642325,-0.026949282740340006,-0.009317176992326733,0.02805602930605709,0.024943019825743866,-0.008329679183897288,0.03176907337493784,-0.05709166853408961,0.01752942441950003,0.029695259658202702,0.04165360546553806,-0.010871639106201338,0.06734037466388353,-0.0693187917557868,-0.011105494666481945,-0.06348981793707371,-0.015896600635399077,0.007381822778891629,0.018823179710288022,0.00839857474755636,-0.030699451082938242,0.05610365531230722,-0.04457363943805857,-0.04242406230832734,0.002399351705309038,-0.023429138437275333,-0.06007824602905727,-0.0504847095529986,-0.05179060175980321,-0.0023345491406924386,-0.0037092248054235283,-0.012163921256864474,-0.017130695248578975,-0.021829064883971877,0.06732974422854603,0.04391818451542268,-0.0203350895852567,-0.018245317988927524,-0.015664537840369967,0.04202368862412357,0.03951252860986374,0.00725111195637859,-0.013088728905343626,0.009972680806931738,-0.05340740192255083,-0.030444756670960783,0.06038721518910484,-0.022711775186247177,-0.007715530604232487,-0.016801660464260824,0.02718469921018773,-0.020913389235063237,-0.03989182988470371,0.0053945842767683765,-0.016867115981948646,-0.030877871814168067,-0.0008554462585222395,-0.02322578197823691,0.06646560788638078,-0.038438782252863984,-0.008056199601847842,-0.05970998695735153,0.02093671278930019,0.03828388856783982,0.01213362054330435,-0.02035235640694398,-0.06746454203425009,0.04840698326315699,-0.05213331580110194,-0.05358957974649987,0.0049540221407877215,0.012673046467690421],"bias":0.00040293914211395624},{"weights":[-0.06150743376838317,-0.062308617271092645,-0.0004975799829156264,0.0005570641792143684,0.03428520501242282,0.04630855154731277,0.024013982377164487,0.05503285581635455,-0.012668398975745739,0.025120395438330126,-0.06625668516627888,0.0558130576818934,0.01647785293318415,0.030016427757374526,-0.06648765940143311,-0.036697907502615715,-0.04131770936005914,0.04380045456829285,-0.02202030262232891,-0.06535420261065596,0.04852549541764895,-0.06257249445510171,0.01485789449844369,0.009807426929661894,0.05148274922224331,-0.024446575418889654,-0.03237200175597529,0.009054332232909116,-0.06686304081790642,-0.06168460564720366,-0.001688951476599592,-0.017543496306295234,-0.03234583103936192,0.030205696548633004,0.03149493553390269,0.032025530105337964,-0.05443100937478822,0.03766896251191541,-0.019074823941029623,0.002876662154752265,-0.036847592990171416,-0.03036366081164957,-0.013908762814088222,0.0017843531151856724,0.05746187238312517,0.036093038252190096,-0.06837847157110284,0.02084971451363404,0.06322225434224772,0.04249539199504556,-0.028303218797898818,0.07074970857967325,-0.01686286296386939,0.06991130614111173,-0.024299214874114225,0.004163150224546786,0.009100403938282481,0.04381982101630097,-0.06411711252707465,0.00455480929635103,-0.0103914155285495,-0.025440873089269594,-0.02598389046206908,0.004556305572884016,0.04926679538939802,-0.015178242917503613,0.00040407240530330725,-0.047447319591396406,0.005468541605137168,-0.0372497894725426,-0.0695742599360195,-0.0299407570095228,-0.03300057235467594,-0.047460439115145525,-0.06935362058665569,0.029971703805374596,0.012498439844475021,0.05478187073816474,0.05026666074038162,-0.06834069056398087,-0.0221085035075215,-0.04552033944902209,0.007578233938852337,0.04519934532709877,-0.024610888809351486,0.06344105401228194,0.05940737520359273,-0.01558845763105016,0.04659507714434811,0.044879596856211935,0.041292167030368886,0.03671194479987302,-0.030270857643443217,0.01621450068589157,-0.027247370494223665,-0.02288279482347444,0.007141223663289754,-0.013417803651885095],"bias":-0.006931818400574267},{"weights":[0.015941914826060832,-0.031965588892199935,0.03806828725480522,0.02084498309933092,0.03998009514960031,-0.015793548163141335,0.038032185416460966,-0.04297048487372811,-0.041486456548817385,0.053971842054748566,0.06395888652645106,0.05800836357814929,-0.0261965331664058,0.023455767645261933,0.026669367498014525,-0.009976444828154074,-0.019221597650098256,-0.05201439444436107,-0.0003970487228329592,-0.030915930662434074,0.018713006226873934,0.03620981610323921,-0.0019002422562041335,-0.0032853022871808177,0.01925358241791962,-0.005216284116201149,-0.07586507940122543,0.05617809703182895,-0.05354857819262614,0.04638406041453519,-0.03402867538023276,-0.05422194234346746,0.01877289485030017,-0.022441921533646096,-0.02690315616071697,-0.016272041530476032,-0.004589458993987476,-0.001626705136278906,-0.06421061085414063,-0.02958567896315781,0.02494608585485383,0.001009755546510753,-0.031438039761343614,0.062229530582261126,0.061880941559214496,-0.07174993093268021,0.009526890317109469,-0.007292659227828297,0.013961008724724978,-0.029162854365415714,0.05963931760404785,-0.07015648245365542,0.015406152761158441,0.06412498306736983,0.05558684209128997,-0.06481836646009999,-0.04320794930007827,0.023176856831379128,0.0176312126073234,0.009722194269618279,-0.01194846699055492,0.008052324575184929,0.013195356433309309,-0.05333217272273797,-0.06016437960317359,-0.050614088381023686,0.028564892051345304,0.016280129058130643,0.055485393526991084,0.048532233007367684,0.034076194186633525,-0.009726234367409775,-0.028834025111882218,0.04919090018236461,-0.05772980600872052,-0.05080269454381885,0.0013143776382257973,0.0011897683642477126,-0.061148851679433076,0.026613235891394103,0.037066721059677274,0.05819016303701384,-0.015696416032064894,-0.0277354387513954,0.03781593188331152,0.06355325548468717,-0.048201006262504745,-0.02571435431358826,0.07035583489647988,0.06719546484388217,-0.029597644896421058,0.032812862885269425,0.007823556127952713,-0.04766517642806924,0.05113832100081098,0.06130554928374083,0.0102590026904804,0.029261775223981375],"bias":-0.05217155679174551},{"weights":[0.04823478733329055,0.060186582063979935,-0.028545077186370425,0.02897443283023476,-0.02815216244636247,0.024857862484658308,0.04731550817627401,0.024237800381148467,-0.06866800434051243,0.004034553963630803,-0.04729278350066131,-0.05166083373881635,-0.059384971410111405,-0.030884689279493997,-0.019316082582539224,-0.0699996356412151,0.021595507813135774,-0.04908318093774068,-0.03947716021406822,-0.0386458542349448,0.023965797563782993,0.015604379194308455,-0.0641250652902054,0.02476157137032961,-0.0004944654863540961,-0.022739733758634924,0.04999190164824432,-0.07021811742665587,-0.020794245174370285,-0.014649094228325379,0.021933872709781362,0.05899432794358641,0.019929061395399746,-0.05468135441916366,0.019189606737902466,-0.06782796603404512,0.06149179293209561,0.003519061377925173,-0.0024116791313988505,-0.05189427815443732,-0.04757704097668876,0.05641509103111456,0.011471865929559103,-0.009499257188956606,0.01806798442641931,0.03646052518529851,-0.04397607287331722,0.06181011769506815,-0.005580810549980935,-0.06840194633032703,0.023980844843469344,-0.033398229662038745,-0.04714365180658865,-0.047173415981789917,0.05127131538237028,-0.05279027008562327,0.06063216838864803,0.03614942677335519,0.03510174369864327,-0.05715686175946788,-0.004305421017930993,-0.024712357077164522,-0.03422952032057332,-0.009380285110253742,0.015839948062225336,0.011182323186817777,0.016606219592448877,0.03576894299621692,0.0008849171315300119,-0.06274082505313969,-0.029798499821237983,-0.019525973077501143,-0.049301089274398996,-0.006329817667853568,-0.025077787287512598,0.04763345670506523,0.029981745697000753,-0.029132047815597743,0.01117452626009623,-0.04079597686080558,0.041324999192451715,-0.07278713322289769,0.06448308184249574,-0.044670015696225154,-0.049055839555458024,0.05483006545079794,-0.04356121488480343,0.029786566770264474,-0.05975956236025254,0.011604048761735822,0.015787273805719967,-0.040583801875623625,-0.02690365657706318,0.05841814088675424,0.007948179332658033,-0.01721790365977903,0.023572152299006673,-0.05880757373563981],"bias":-0.027953483984922173},{"weights":[0.04055077110821996,-0.007177160655562385,0.024314957566166973,0.018429525158254793,0.006884988002735339,-0.06575866737350816,-0.041147748232050495,0.03442079855621974,-0.0038145003893161303,0.0460541785274373,-0.0351131810206456,0.06853101011894604,-0.024441759422816355,-0.040587147781506204,-0.05054505702447311,-0.052803446021729206,0.06741627206695285,-0.062428334947642106,-0.02953457978617211,0.052785924940194344,-0.012122297157666457,-0.012164473137544186,0.05665916385797632,0.023022887169197485,0.013311449771577156,0.0014160940447576291,-0.00974369616728494,-0.06221658146890989,-0.02778553247273266,-0.026718268370348526,-0.06355583830854514,0.01870019860061656,0.05112501976211984,0.033584998261600704,0.0601911926970764,0.012443898222355008,0.053645641014085484,-0.009228861166156548,-0.032864752166781835,0.06266551251098092,-0.033123625872028634,-0.0503742382290144,0.018601787708301124,-0.03454226130012549,0.022978868919636346,0.051920550523869034,-0.03901598654707074,0.03540553583899979,0.008325667760859232,-0.053425080842991045,0.007720522014091955,0.030905296702019528,-0.01454995242317486,0.0139047044347453,0.0012499067424819204,-0.035397149518135794,-0.043948268583128766,0.01477070997820713,0.06410563248032855,0.06683377422440079,0.0499996528179915,-0.06430903948233287,0.01914151868433665,-0.0472436105995923,0.01954722385579033,0.04349622360687067,-0.032786104707799996,0.02013690502515214,0.040206074473116644,0.04620319891853226,-0.07310307429222339,-0.018304168094025818,0.05439003866170459,-0.0006915487133767327,-0.008224707844625055,-0.012083522702383503,0.06993028852482727,-0.023889964061640383,0.022089974024354954,-0.018364130577642235,-0.04621203678256304,-0.03817101512090039,0.04107031278464691,-0.043691307379743305,0.0394328126313014,-0.013636861183601525,0.01680785992301229,-0.04456545579925664,-0.06287037915660576,-0.03813508439133106,-0.06009325930018266,-0.05296227445406373,0.0019362828180085963,-0.04114639367079476,0.04765652532910279,-0.03381702103035988,0.031089561386026063,-0.04187606370625853],"bias":-0.039012637917591075},{"weights":[0.06567009479485032,-0.03039100276107342,-0.06187367807396478,0.00826225248564388,-0.007777175815612899,-0.01374120623174566,0.038816949428650535,-0.003439563635817963,-0.05083672774335451,0.05820936305625634,0.01873559929542247,0.03462350330865416,-0.023235972485375716,-0.02182468586910715,0.03097901237969441,-0.05786079986218251,0.010964027323153156,-0.02837157595712007,0.04203302169776718,0.011127456800957256,0.03682862781707672,0.009203965999740224,0.021592988538583234,0.03290240095086127,0.06216840488816933,-0.07043328734284601,-0.005663230597196811,-0.02493674696954935,-0.046919030517583137,0.0583409430764856,-0.002261999947193683,-0.05981758090211966,-0.008989787043659934,0.02970739495793581,-0.053788473564887564,-0.015366508787438221,-0.0688758170873059,0.06495332552148299,-0.022205728591554216,0.019646324289970537,0.029469864991086746,-0.03795247455414702,-0.04361318959844868,-0.006403579154454565,-0.015228208625934698,-0.036570836562822076,0.0019301351585486854,-0.02637641935820509,-0.04480262796326351,0.0025414606254782466,-0.06667302192838483,-0.018479388902254486,0.029837786778368274,0.025255391752413342,-0.04400248947822962,0.02961440575722704,0.009063956582033593,-0.057951032867144286,0.04454992200664593,-0.06513266717779674,0.031055278414402136,-0.05850531279856445,-0.05213514073741093,-0.06836822312419233,-0.03307048000524181,0.038563070961704325,0.04425736498884535,-0.05851998208177114,-0.03609900280056082,-0.05070523776186905,-0.06131302270250009,-0.06364212828055985,-0.053885555271986664,0.049528115434580446,-0.030428972992731153,-0.0353877508803343,0.03474562462566261,-0.03741932344458351,0.00953635306338173,-0.06958814452895473,0.042460508023526466,0.05015764883143364,0.06296652248233363,-0.034264935420489924,-0.0473376380952267,0.04821982228869711,0.00867303246188536,0.03634941714569549,-0.06226084407757525,0.011464475619169624,0.0361013100841946,0.07036154284343914,-0.03623046323961724,-0.06457510654316934,0.00648810989792782,0.03405131047165186,-0.059042543466282876,0.023358673279945712],"bias":-0.013368356888014424},{"weights":[0.05142997357802707,0.05776144306921641,0.043291550267886676,0.045581013531442956,-0.02405314907065448,0.032323346064809536,0.0008439020273855695,0.0031062357850762403,-0.019076655151220073,0.06078390424984639,-0.007553012526937097,0.05892511915754919,0.0034411999716452697,-0.05898211240918555,-0.01367670061125934,0.06029391456782288,0.016705142455463395,0.006129253807982255,0.05700253383465175,-0.03593299571847185,-0.021635471857176663,0.02938391120468505,-0.04192379559112026,-0.02889983792731071,0.06159150732289684,-0.07102923366929184,-0.011839252849145563,-0.05165252348745592,-0.0017351973577726424,-0.05377690146739708,-0.06866982392380601,-0.018780633395773186,-0.02214421855851498,-0.03174328504046005,-0.03793030700836316,-0.047489466981801294,-0.05215975253646688,0.02435669604554126,0.05072946056636249,0.002573889850653525,-0.06495366419466915,0.023656019457152205,-0.027608027993850766,-0.030352390637896878,0.03828557076994852,0.051839744314754174,0.013376388839582464,0.011364380050707803,-0.0705942913869624,-0.03442699997059273,0.0562129463627402,-0.0669777747993741,0.006083514967682933,0.06188156665780054,-0.059140976163866335,-0.0245906278565883,-0.02289098776567845,0.009531720032012593,0.04111367199526869,-0.05026149494336804,-0.05089566450465469,-0.03655473234321471,-0.019856428549645255,-0.060394245552142116,0.008408494532630364,-0.05482883930784086,-0.006016364477018973,-0.014890859383321745,-0.021147345950254352,-0.047459875910913475,0.02507552644824664,-0.05494440242522065,0.028216404215174382,0.01162166083115277,0.042300626841317794,-0.038865805841068794,-0.0050745096379489225,0.06161056851276217,0.00938837652357143,-0.06108676419215839,0.005051188213569735,0.020649758716497782,-0.04453181792748228,0.06613703541501344,0.008594487089061928,-0.031410919137544215,-0.05609842329614996,-0.015575709036537402,0.04389644802313417,-0.04777704931747549,0.005518385312247844,0.012594531782197424,-0.028789544743918483,0.05803718370470513,-0.012921454935326355,-0.059470392966013946,0.05677314741631133,-0.0037587068952337115],"bias":-0.012833661178500998},{"weights":[0.025866713975664774,0.031090413394129844,0.042029931912997726,0.05845949927850579,-0.020532360558842177,-0.03283091518706928,-0.06534085047734804,-0.0434796330294494,0.03770208439381001,-0.0599033210911067,-0.057318790160257795,-0.05200024053342051,-0.039046732533210775,-0.02305656820942484,0.030456864615896334,0.059830667760978375,0.031111860778998482,-0.007770544399530206,0.045035672073807466,-0.051953273641361285,-0.012063294435218523,0.06415627060996161,-0.04495940536494908,-0.06192457747567877,0.006086721494795167,0.024963832329607086,-0.014097088455759074,-0.06601286593903785,-0.06338242017921668,-0.023421831400296897,-0.008850780173149723,0.011453341526767895,0.029144274795595934,-0.043420911661019024,-0.026553640240642943,0.019239581000706486,-0.05535359804118064,-0.06392411271598085,-0.02475567850358956,0.009024296457641908,-0.026189197386294855,-0.05043009635261414,0.011205243760540003,-0.030892131963683855,-0.03065664414413187,-0.007939193229648074,0.043242922371775815,0.025538113532921954,0.0021399873614996352,0.028853013451533866,-0.059805874100922606,-0.013418849737565186,-0.004605595530255601,-0.008054692192768902,-0.05920408565088451,0.009596502781466253,0.013941637590728246,0.01182252934887836,-0.008104257054012886,-0.03137276284075306,-0.012941271115547522,-0.043775217500154825,0.00900427435429715,-0.06846790544466515,-0.031267958836298834,0.05465948620205581,-0.013337530023443275,0.04796769875956927,0.0216602639724709,0.02839015679223963,-0.049958244563734266,-0.01260822839423612,-0.018674131995620832,-0.07079339991448734,-0.04437763827477384,0.05540585277894534,-0.057274464201148186,0.03621778216977949,0.031863678267036545,0.027431462443029807,0.01155096244759956,0.02635988841289696,0.0060667872838486405,-0.0301750720510403,0.0561784416712075,-0.03713961034420929,0.013033461740402146,0.04468573587839819,-0.04327190122877335,0.05746996013862822,-0.02888120804359344,-0.04999702881970494,0.06713607197044404,0.06271873988698104,0.021463579736315554,0.03548550825754138,-0.05700131470252835,-0.028904059926796066],"bias":0.0005481965535654575},{"weights":[0.056589105587085846,-0.01582670392909224,-0.035132153803851277,0.02587349622502292,0.026584672566528272,-0.066262565458813,0.057867293686724545,0.01860942080212054,-0.02423365681097957,0.01482087812139063,-0.044175954970085154,0.05564579734236566,-0.03699635702037163,0.032908142238578506,0.02734178796910958,-0.05600660786218166,0.017504333930889623,-0.01200609325763902,0.04735165684700086,0.07056073555297279,0.03837485068131988,-0.008475031333743997,0.049945910855339365,0.025399979449126517,0.04400224668631299,0.0013461104786129923,-0.06586825402009883,-0.06477516241232638,0.05987497972285766,-0.020979841819999234,0.05628761944599955,-0.01657288776076022,0.06499556843090475,0.05575811093035028,0.008538482133348057,0.027257191982098323,0.020329284626005934,0.002167609014335895,-0.07327227815186643,-0.045186141565539205,-0.0041266755783634914,-0.03414398316742812,0.029101879302287373,0.057984583416366725,-0.0044958473151167026,-0.06297842223798313,0.05532263365552576,-0.040594262517134175,0.03645871173526675,-0.02608446734824327,0.046648051495174814,-0.00931631319431641,0.00850114871607651,0.024691487931358454,0.030758973508741086,-0.07165356258315567,0.011854358748441604,0.04551531294514137,-0.051793457914051794,-0.012487118083529458,-0.03707188210137022,0.020495404582484104,0.03952210385413968,0.023328244142073885,0.06617832170246898,-0.07026433254317604,-0.06953846806014186,0.005023752636955385,-0.07033946606070031,-0.020683242473733765,0.052542243817496746,-0.025800041744866796,-0.03401356920394142,-0.0686062428010724,0.01823504836368987,-0.017449506919498592,0.03088915171159727,0.0472861517479824,-0.04216083080958661,0.044591375431881436,0.023856778777197843,0.056584956399482224,0.03080820222053604,-0.009936980579955592,0.06201291291099183,0.03248288494887658,-0.007231935017026398,-0.024333548760082035,0.03836656392140452,0.05155121268696482,-0.07143115728854882,0.01412125195225326,0.04057318033736335,0.010563826616610213,-0.04244665644213517,-0.03257976746099802,0.03864508620646918,-0.04676157315382145],"bias":-0.04409250788440444},{"weights":[0.023621155444093003,-0.03110390443996559,0.04860126616036315,0.03197831487117409,-0.05488420228867296,0.044067238215715274,-0.037782438637204784,0.013461983033723332,-0.013403360970636716,0.058678155151984275,-0.042311730652256886,-0.06917514485731327,0.04751760740602275,0.005390431493420403,-0.008216295179308705,0.014850083148196939,-0.0201618013256307,-0.059386651025883024,-0.0037076506123317567,0.04625323237813128,-0.02367709454299895,-0.02026905799747257,-0.06790507137945882,0.025847154582502307,-0.0530949835733864,0.02744293834415094,0.02010378707467128,-0.06094032963976379,-0.06727259001121882,-0.00630887846096024,-0.03630856147399997,0.014859843710952518,-0.06868288497004406,-0.006186897664575274,0.011543260210662116,-0.06116779700049976,-0.009057857884062945,-0.0159320726052605,0.010819959391324345,0.05285006641879129,0.028137533847179604,-0.06792646100388693,0.027848260979046243,-0.028363979805909018,0.019517875174527174,-0.04424759035481191,-0.04574602262398513,0.06451155992838138,-0.01229507764671553,0.021522808012714546,0.037417604468267654,-0.011940992372883348,0.0307347882509197,-0.02453627134857944,-0.025394101491958046,0.0007106532144440766,-0.06526962340546225,-0.022606636337310408,-0.038854182455256396,-0.05513665269392931,-0.05291570025208161,0.06482592431520631,-0.049133006553706116,-0.0018116791710374445,-0.03368064659138869,-0.06020120507924381,-0.03178817304824236,-0.039444258704079,0.02339538041786342,-0.046680245091542595,-0.0010763218006801182,-0.011429099302799672,0.009772739414825333,-0.042216056835182335,0.06025681410376037,-0.015842550991457514,-0.0009633619662065991,-0.01109747217321172,0.028456188266150203,-0.06006815869615757,0.0687995547379824,-0.002720041689494961,-0.04481399247849838,0.030710392765721448,-0.01887456608417188,0.05801487196384006,-0.03394279763405272,-0.04470474588152582,0.03777301410914753,0.07008411255481103,-0.053808786436561604,0.06423149324626264,0.05936415190180398,-0.0300013490583002,0.05500293678495654,0.05709532535335356,0.024734995250451728,-0.023323984184229884],"bias":0.0003727227797791659},{"weights":[0.014655402462594964,0.04123032398725702,0.03768469940016564,0.04202604448885606,0.01316387862072883,0.057628676183686,-0.008210483547751214,-0.04312587964080737,0.054031373885591524,0.02172508067953606,0.048124206148392974,-0.0621718605311492,-0.0467012322277911,-0.06747429976780915,-0.05903613299958618,-0.04307559832149753,-0.06015162160556128,-0.002174135133552943,-0.03402169867860469,-0.021692743796627376,-0.055134526694337944,0.059831695857823934,0.0045851549723489185,-0.009067856696061012,0.01088438638088081,-0.04485807558897082,-0.006662525343022692,-0.06783840230177735,-0.026487121836429844,-0.054119168965270595,0.054091119728644894,-0.005334000603165273,0.00933632164914196,0.0547612613204731,0.05374816523044803,0.003981622121206555,-0.04633913534562468,0.06663560387653487,-0.014375965212036152,0.06469516796419612,0.036579275041151826,0.043171418413337916,0.008167015638460227,-0.06737783857900642,-0.06881578671686964,-0.055803171230516715,-0.04897211829472588,0.01719337638716461,0.021430291553214027,-0.03963210093347803,-0.037591821055533076,0.05459846981945818,-0.02076961474409598,0.00744879829816106,0.006910830866464432,0.031271279296113924,-0.032081907077561256,0.0025119160913745285,0.061321552590312266,-0.025829402508449797,0.030251565657227062,-0.0016412224651165689,0.0023629229806612427,0.05486666313880244,-0.008930957835476656,-0.007256600529723119,0.03295072493329452,0.005606091020885648,-0.0014852012050027043,0.0035678405519185773,-0.05084294943758749,0.057098052657281455,-0.024398902088304968,-0.060711978333532556,0.014585011662461326,-0.02309577761088584,0.043265201357843196,0.043689371699209556,-0.07166650986540504,-0.029575351265199203,0.030165675495689277,0.021796236180188843,0.05745726369680941,0.021897283412145623,-0.01998238202931496,-0.01859588095398761,-0.06869052060623211,-0.01263347353274347,-0.0029927833902955144,-0.021778061236977436,0.014908071952130363,0.06233822075269831,0.023988310014165914,0.015884027052224452,-0.029562678761319922,0.012896744033468853,0.027117287112997036,0.013573112512613481],"bias":-0.0534392650717518},{"weights":[-0.05850342390157547,0.011075655606812677,-0.053838430713467805,0.023958175747221075,-0.039853071519884896,-0.05200126039237714,0.005371382246188206,0.016493300101152044,0.03850505210768056,0.030231720431142018,-0.05878921825822964,-0.04368731175203551,-0.038889856046156024,0.053089908536159865,0.0687654839731071,-0.03645748476239293,-0.007561698284897712,-0.03249207549865108,0.03211618356671509,0.04689027582564841,0.044912195051700354,0.003042357691918643,0.04302590927315437,0.0324323920899038,-0.042852237695628015,-0.02729600698754069,0.001373532715702085,-0.02761227030425652,-0.00018137021093194474,-0.03695629353011962,-0.04271365534380196,0.059611781369765936,0.0012163917964792565,-0.009374288934460845,0.06000708734477686,0.044984796732129385,0.013852050082000373,0.009954985912539472,-0.0720951973127714,-0.044161555841906334,-0.0362152501459875,0.014701431140596783,-0.06421527914483834,-0.058343783927836596,0.024763961365151372,-0.059828302565890355,-0.04941630255004018,-0.025148670972547565,-0.02323915684088022,-0.02966389234382882,0.030763998598939662,0.014838613725702549,0.039666578293793844,0.02985557908096981,-0.04040494790860678,-0.0692138334354707,-0.016530423952016184,-0.021895205013620907,-0.037310238099505184,0.023337853133286738,-0.06155325685020506,0.008646617985203258,-0.007400705799304232,-0.042082772638075146,-0.03207988817917767,-0.05618957218477529,0.06043103993289472,-0.05411361776512065,-0.03972354443272282,-0.03392618746045043,0.012082267179754263,0.009240096435589438,0.040927567730989496,-0.06422498225644466,-0.05496400629864126,0.0673721522924073,-0.020712224001499156,0.006482154049771487,0.027445784808667387,-0.039463759685974965,0.04412654366000545,0.025174562203505075,0.009496459523211419,-0.053062103873713816,-0.06873148649499454,0.00039489075939336135,0.03172911278442749,0.06162523630031702,-0.0005343583413809165,-0.025168104822422006,0.0658029722352567,-0.05363591521771282,0.017854484703929266,-0.02561088787099892,0.04221436285707545,-0.021319390504427754,0.038170467407285844,-0.06011987027799417],"bias":-0.017673214585344904},{"weights":[-0.07012590494518228,0.024113047507097057,0.04086545614169522,-0.027980955939269088,0.06266570401454197,0.020004011335004977,0.07063089327006596,-0.06684637386693693,-0.04779923010584161,0.023983726394352933,0.0644305703568114,0.055223069105955355,0.06995822000586967,-0.053851647246972965,-0.0451639809262626,0.021802332181333428,0.009379662698045122,-0.0037778124139231737,-0.018212706029607076,-0.006761241317895555,0.04821868728056117,0.010260313235294258,-0.03584121587281105,-0.02889497644705664,0.03734966302408535,-0.014972895103391172,0.01882017444794551,-0.060939524744201126,0.047639327111744456,-0.07217366682174199,-0.04210428052276731,-0.018463307928778178,-0.009956288704043675,-0.007185680221232367,0.020760665475439477,-0.028110935060077134,0.02058342133018693,0.03427628810663426,0.06712779786851977,-0.03935859481023125,-0.013097625391190915,-0.07056544548713553,0.006783373983824286,-0.024904848031828925,-0.04682438090800867,-0.034755646576656654,-0.05401160480518778,0.012510661193394145,-0.010558335901705561,0.07062347717445515,-0.059300722982528524,-0.018846246739167932,0.06994597519011563,-0.03667206183910414,-0.046451739965672346,0.024362015811258284,0.02061764181472373,0.008299153320967086,-0.05946775573541751,-0.06252652499819947,0.01366515654557209,-0.024442164979850307,0.032562626243497705,-0.017762952174489057,-0.013468732522041336,0.022171900030638902,-0.0661664207284869,-0.06865778147399207,-0.023313637378300257,-0.0321276464175269,0.05729499588517342,-0.05571824038129196,-0.06313719003154873,-0.053155142788414524,-0.06596405089974869,-0.0630980531545593,0.020891437830238398,-0.036880061696991207,-0.06362606989625612,-0.060080734218451365,-0.010335828397015807,0.05812779905962002,0.049516725069282876,0.023532326370244314,0.061834809301499025,-0.030789703070062163,0.026643815079993825,-0.041221113414705066,0.045503777969397884,0.05468159623315641,-0.016728237154951114,0.01662510848341734,-0.034961905986996625,-0.028875141516475637,-0.02445493477262424,0.06566816653241976,0.03816409855478369,-0.023777180987396524],"bias":-0.003562111146239466},{"weights":[-0.03895056292550871,0.016539703927538948,-0.03611576371901556,-0.06579206477453411,0.02671311743482533,0.03264238090987286,0.00961519375409048,0.009690750529252976,-0.04538092181008611,0.02601232260622146,0.03972322721005374,0.06605489884931325,-0.03906254732126648,0.012505529631840949,0.04261647920006555,0.02445493986427478,-0.03070205008263012,-0.01477814606953603,0.012607562052073733,-0.035042121334495364,-0.012989883215560927,-0.026653144634375223,-0.06195301150389466,-0.012771086304556777,-0.02661278575663623,-0.046962738159620133,0.03968897061287758,0.02900887491239506,-0.03344994696831609,-0.06520495959692466,0.05239805782676882,-0.04824614844757447,-0.027313078135994245,-0.04310941950700678,0.05600147353603989,-0.016820338672223073,-0.05664403715870018,-0.005682279318259189,-0.03116145848242355,-0.014303689810177555,-0.039627462544727154,0.00037979359565016907,-0.04072303401214077,-0.046050749873391104,-0.016179046863299996,0.024360861628353006,-0.07053221440477352,-0.012891730259032926,-0.01451920381543915,0.06259595496423431,-0.04340249401260435,-0.019497714343701577,-0.023144957296354227,-0.007614294324485239,0.0059457935770895354,-0.023601795121495052,0.037856369717640524,0.05914337847726185,0.01272838397654682,0.03266041291645553,-0.06510228798557018,-0.032408054653009756,-0.05135038572989806,-0.008364728657336926,-0.043815543881803205,0.04670245525672789,0.057231131444570336,0.04888110263500338,0.04156347044698669,0.04728393364076281,0.05790781375022008,0.06095783365405386,-0.02603995721254646,0.0252970428775618,-0.04732519862798609,0.03532147384636429,0.01581309315110435,-0.03225908402510295,0.00445350158366526,0.06079437508552202,0.0661862471945022,0.04896810252620311,0.06367277625686486,-0.0657744923407038,0.02143454434574842,-0.02644172820356498,-0.023868293587708568,0.03675139513480955,0.02254441314445519,0.05496600595470762,0.006040877182690559,0.024172316736039888,0.021950301407679448,0.00033932059587120486,0.01104305109868607,0.049641057561962035,-0.04801464463866252,0.056975827510702425],"bias":-0.029556587932597102},{"weights":[0.004503308791848036,-0.06215390435971484,0.0488349152889193,0.0521550165673462,0.015910982817497147,-0.04669937553847595,0.05364648819378156,-0.05486609241404419,0.004556356454900693,-0.002170203622074854,0.02287274527075767,-0.0515302710242492,-0.03390857312027579,-0.032986780463376726,-0.055612254225744145,-0.05681776921923215,-0.01884519255109879,0.024055740413571017,-0.048891845482014855,-0.01797007447379506,-0.0006710208438032222,-0.05293776725232444,0.05337344969146404,0.024809708760566238,0.00618861165372881,0.04435355054244777,-0.0006971689824898293,-0.035487136165848976,0.0411509953472409,-0.035534816714412706,-0.06182395078617503,0.05632680945891509,0.061587865107207214,0.02104834582976023,0.03456052510124636,0.05371866530926196,-0.03724574602526081,-0.02971972623214192,0.026917343724699713,0.0560632644915596,-0.016665458177143936,-0.07558643317487203,0.008671461626671264,0.027329639912727906,0.05219242259801524,-0.05889692248198256,-0.008851412137658261,-0.025489763106833884,-0.02606425935024767,0.00023514528874855333,0.03060371962816032,0.011467150571011228,0.024885718478775527,0.0027729340303051975,0.023286715856424774,0.018576003783265647,-0.0261495653733431,-0.03681601306771924,0.05283728439539702,0.05436913333139851,0.0518018324527315,0.01063134639067412,-0.06277568846052342,0.04844716552768148,0.05963855641635445,0.0007085088902269943,-0.06533022728914416,-0.017877382185637034,-0.06252710847069483,-0.029033094354537842,0.0030252893103712712,-0.03312898905312247,0.041150445451267406,-0.04983347831111357,-0.05711932216670735,-0.05675013165890981,0.06142517655605153,0.02631005775807879,0.030413671213837982,0.06100130763527519,0.059669809643650984,-0.04121493382323558,0.049826199162291446,-0.0025558924052714767,0.06852024177030572,0.048420706398240664,-0.043107229719293955,-0.011430109029572777,-0.03913901719510991,0.054439216412124784,-0.05363501372310261,-0.04593745639961438,-0.043918605076479794,-0.02899592542029544,-0.017027460892165915,0.05352653755220393,-0.03654876764650432,-0.045574172740405594],"bias":-0.05416298661298474},{"weights":[-0.03580764630341823,-0.024400178191731032,-0.052618283202689346,0.06936499135078521,0.024068253875528467,0.041813230812928634,0.004938390823222948,-0.06343382729816943,-0.034254177546104735,-0.02119611670296043,-0.006370557705565115,0.05688831508043253,-0.03771063787791712,0.03815449172226991,0.041982170309390006,0.025326966527317158,-0.061762619997808695,-0.053856883416341095,-0.03157590490542088,0.03613951230867259,0.0029608723782461738,-0.06967023242797496,0.058588732945622675,0.05294897337682169,-0.009268846788096691,-0.035148117602201844,-0.05146901221112811,0.022295035427853035,-0.010405696356222047,0.04150625320593719,-0.02620850126099561,0.05668823176796009,0.0014590810235090735,0.04643060477291011,-0.0356257664587535,-0.05167113016357869,-0.0066224209557878945,-0.015315149218856955,0.024686888792860896,-0.06277231730902307,-0.002984824116582562,0.01770942111319024,0.046262461290962335,-0.05688837761425094,-0.058107855352835844,-0.06744037858766797,-0.005285101170616898,0.022059825179207404,-0.04668136323432295,0.06826647678143022,0.04821402621702946,-0.06916826231250583,-0.016428369394286543,-0.026209521148248434,-0.004298275571373816,-0.03471009589063541,-0.044902099120488224,0.04870422687506438,-0.039081081171780586,0.0385795279859689,-0.06783120981889312,0.01809637234113453,-0.0508851961243278,-0.058355652711668725,0.016986951744064706,-0.021318529826670176,-0.051766100435531856,0.030494901550524978,-0.068437869720248,-0.022918160168583307,0.0024856440552962146,0.02204820649201551,-0.0562022459706673,0.01024010521169864,0.0688753773679185,0.006104288871352406,-0.055328507274406614,-0.0335863249336074,0.022765364502300073,-0.029180887018758303,-0.05281342499315859,-0.020146453168471443,0.004141191174634523,0.03846633816825516,-0.005212215154216073,-0.012389859299934148,0.010960736447790602,-0.0016026022805548307,-0.06434859087518192,0.01010468472679277,0.06479243283467101,0.005027909083783356,-0.06407716382795577,0.026122411252153997,-0.06274382385973834,0.016152219170388216,0.0038276608422133803,0.01755529470146125],"bias":0.00041685174770785465},{"weights":[0.0201139239843696,-0.06928751553403606,0.0017976342803522664,0.0022903462770255964,0.04757790884357191,-0.06739948429390688,-0.03160820781665413,-0.00042170889177534245,0.007574423464787115,-0.04406025742127558,0.005919290381947476,-0.015486193961595424,0.062012245075036054,0.018708644745724645,-0.010878764478283438,0.053295755537569975,0.03800379509790057,-0.06856526472476861,0.017943818401020863,-0.015877015626244228,0.05311455315988923,-0.04815671245712138,0.021898116156963052,0.0321244974044439,0.018802968938329664,0.05773474261708886,0.003145300679024608,-0.053351450739740895,-0.03577470032189305,0.03694271337357614,-0.061920502628124895,-0.0188162950345198,-0.046811965336183224,-0.04053638775357293,0.02745887594249444,-0.0528095816915061,0.030911397722950984,-0.06772084705638064,0.055357056805476944,0.027838936797271518,-0.04441733514544708,0.0001078527182568889,0.02292259487901208,0.00012628638137622894,-0.030334479270728586,0.006789130767671341,0.005420074170134735,0.06416590491787129,-0.041414106082360014,-0.060776491376000184,-0.06991679817275342,0.02853575935830792,0.0063264128933063594,-0.06429746469410472,0.015232992826715284,-0.007292080831376605,-0.004834512626612003,-0.002972505846344539,-0.010419028702852792,-0.030340928632838438,-0.06139947190179657,-0.005975821856513878,-0.06545795582399368,-0.005805212944312187,0.012644787350548147,0.03165064362187936,0.015433278057886855,-0.021203107400118087,0.03881256833178179,0.02906611983834207,0.015641282170663094,-0.0692113178682879,0.03336112909496291,-0.07261358859286743,-0.023051792721920226,0.05054171029551572,-0.06438245094803245,-0.05315418684616757,0.04721248277997903,0.018527404155667178,0.059352557875570526,0.06886723711127726,0.031523004476133744,0.022139001277330612,0.017503423342007773,0.007292684458099492,-0.007797148993816311,0.012568033099318967,-0.002726707322941939,-0.04968428080104062,0.042624445636652825,0.043806959922657554,-0.005396640498754441,-0.06813875257950015,-0.06058691019313435,0.009541611545033767,0.05988359360104257,-0.00888209942808223],"bias":-0.03932499273083233},{"weights":[0.020235019726785552,-0.031546689697221485,-0.019928452109597393,0.04208163053146334,-0.006538526622654302,0.007501510246149362,-0.029021777531820215,-0.0453373717887975,0.022357222292274194,0.011130849378119093,0.008677158870444639,-0.01477296446635636,-0.051939539476533576,-0.009008047932736539,-0.07121537099190468,0.02146763175391837,-0.01804619266727495,-0.0678010350778337,0.025921339381839624,-0.05114118875750533,0.028019243564399623,0.04235021394424102,-0.03412914242402381,0.0005417770755467797,0.030287548111064346,-0.013393786702164023,-0.014620257431633652,0.01868205381122068,-0.015223634533962836,0.02279216535884348,-0.0015902535945216576,0.051423298675879296,-0.045269424314748966,-0.06235104643890962,0.03844970734406438,-0.05928954639631297,-0.01872927224187002,0.00011780311050890857,0.036844401760366,0.0484168199302033,0.06017127364060807,0.02806494197228315,0.04231254942274766,0.03236713579807543,-0.0671611588434455,-0.0582384043436853,0.06206826406522591,-0.030380350722899272,0.07117009236990632,0.039678134401880755,-0.04106728509581627,-0.05662939495890189,-0.05422552553531782,0.011163099341017493,-0.04260538820874033,-0.019530092861680393,-0.013493418538633655,-0.04934223709567611,-0.06173889859699939,0.06981911628752724,-0.009515484994124641,-0.0488199314330168,0.04424368278518765,0.04536238767163841,0.008550821875214642,0.0350650612282949,0.00255884110173975,-0.0441116763351308,-0.04011359399398109,0.01852237463252606,0.01149208249637909,-0.04516946766527611,0.013538130325563197,-0.049757674800255634,-0.0643030858448433,0.004287737755817159,0.012670915484341462,-0.044644094044616986,-0.03133514658946527,0.014244857064851497,0.025193544566788142,-0.06420091000620459,-0.0268145473898838,-0.04782215068420209,-0.022704074418564132,0.04062510872486635,0.023921108776476952,0.05849903185005753,0.03445942888650448,-0.05475890974724657,0.024775283752501046,0.059193654537886026,-0.05504712787781708,-0.02789706789580074,-0.018209912011817788,-0.025326077869128258,-0.045991349794887774,0.018526522879361528],"bias":-0.020429398746496782},{"weights":[-0.06816585236925678,-0.06369675823103094,0.0057699391968046455,0.05096997525330513,-0.029013510649340716,0.012486407221087941,-0.04458817636106738,0.050773743334737935,-0.034157328832373,-0.0695576276377673,-0.04429018736543579,-0.057654454891045426,-0.06940786150578283,0.07093167873850173,-0.06412392955783505,-0.000655724584608682,0.06071612976821705,0.01481006109248042,0.023830350801963652,-0.036183873387226916,-0.0057020825617206455,0.0033770535189483327,0.0438659400094006,0.07101877415699517,-0.06483834037218147,-0.06213592439138882,-0.03121576027727916,-0.03977540753025378,0.046646323399451156,0.009790838449596969,0.0334999517989261,0.010961089209943767,0.02277511829267322,-0.053063996039302876,-0.022635377945240395,0.036226587545211915,0.0549090963498105,-0.05081392214140786,-0.03969257535921737,-0.05476103141823978,0.06521602387902481,-0.05592275699437397,-0.05969209763847466,0.04143058383858119,0.022715764531229633,0.009253403905008136,0.06611120695098378,-0.04281838594405998,-0.047852679753858186,0.027305182079229048,-0.026410144784308,-0.035725091838701796,-0.053503214372251334,-0.05592401703662183,0.06601950737949938,-0.00416283144796614,-0.031181339650405187,0.04220355934188108,0.04386911141304309,-0.06802180754031764,0.013907312578950028,-0.015515677181691136,0.0686156067852263,0.010466532296484645,0.023234470059262848,0.02293022468982358,-0.057453408096091944,-0.06641004306671244,-0.0005635887553382871,0.03954357838611404,-0.054468818643906194,0.04376737793576461,-0.012445550335813451,-0.0613126641268959,0.05170916007880762,0.04622499017190329,-0.03336781419157498,-0.04729491737437349,-0.023329738126577786,-0.06803573209755316,0.01847671170294694,-0.023604472141627694,-0.04445376227066614,-0.06973634248673113,0.03319681238019566,-0.06767233464395164,-0.03289068493173098,0.0666333091677392,0.06333702634251645,-0.00012727019842711962,-0.01263260604002652,-0.06107092570273731,0.07057764394415712,-0.03663055859184455,-0.051715425765864256,-0.014465018008467685,0.019833180344859862,-0.003151750978531446],"bias":-0.009225189562435602},{"weights":[0.06411887829919129,-0.01807248361773959,0.04903854368361916,0.03557915660278404,0.0576576143442641,-0.025068069953162072,-0.014064356438368477,-0.05114253155480214,-0.012571434723663595,-0.0010846888322936924,0.011641271227310082,0.031411884615736005,-0.05718678619047835,-0.0410990273967426,-0.00694367644066481,0.015877659163661424,-0.04768946552850389,0.03866777167828655,-0.024391075069748358,0.02688704477305888,0.002944724573066244,-0.027779333734503107,-0.06574389981525575,0.05947874979592628,0.0004164984270543051,-0.008295882997148177,0.05589245954808566,0.004511427504640812,-0.0015725234798244403,0.04621222129595105,-0.023044647691048945,-0.008629172406082878,-0.04662216188928459,-0.04623200932086836,0.05021500296895536,0.06162580471573009,0.05827867069513181,-0.025215117908931547,0.02357944241615598,0.04760832336163403,0.022178028935401453,-0.058834767968148335,0.03824850159772093,0.008062769860783088,0.017844724541896537,-0.052448376742395976,-0.03609870409627249,0.03309323152698932,-0.008478320951668974,-0.03915179119210574,-0.04007346833839746,-0.04430505434116071,-0.015282233684333664,0.04190275757042958,-0.03616461476996497,0.055448522765991166,0.0077080735263219905,0.022645792283712475,0.014328154635863989,-0.03714312828494788,-0.047787796735647356,-0.022873945541706256,0.038132258697550984,-0.022215010141833177,-0.037080540415884045,0.04694126558164731,-0.05471734123299371,0.01843052437422872,-0.06215916401970314,-0.052359134227443434,0.04523100322887453,0.011128839953062368,-0.04852521414210616,0.008176880258668045,-0.0028484727515104644,-0.03154471970864666,-0.007849234915167543,-0.07832392080554101,-0.0060138633292198575,0.01270197775822511,-0.047301068621658345,-0.04921830778884312,-0.02163861874309148,-0.009038625368859538,0.016797852634473247,-0.008656824424074458,0.035165051889991694,0.04849814262158453,-0.012966663801934676,0.05201886506844289,-0.040374778778148164,-0.06626955779268735,0.03833108804152301,0.0005346153282155295,0.06257889086867202,-0.026781579288714195,0.00892241094696857,0.026876357213760436],"bias":0.026955636751389674},{"weights":[0.036320480700442595,0.010026555223297453,0.06853239028442812,-0.04485922989082055,0.029741035957572177,-0.041068404335897264,0.0320137239360178,0.024196735254986446,-0.038533597823744506,-0.042691231144309644,0.011828630606448546,0.01779531137611542,0.004607899495784869,0.04324933612354076,-0.02257458849822053,-0.007997386702445444,0.0017931194161387677,-0.05354653036600426,0.06972480412193273,0.01681547404319281,-0.0033396434632281423,-0.06730775819183246,0.014464245301666089,0.06792935408065645,0.009246180962872226,0.01323382697606977,-0.0014281172245565678,0.05053995578233463,0.009035262414830207,-0.06099484616032885,-0.043584958379391525,-0.04551500511744422,0.04961593613504235,0.018935294217058748,-0.02086471529463115,-0.021940982431864466,0.025345198827995987,-0.006916437247095601,-0.06644986633953366,-0.022292978041372116,-0.011855566790695311,0.016326936859503524,-0.05717982442485443,0.035549192917721906,-0.005089873719324032,-0.060841894406243435,-0.06388879376707408,0.057112095909870694,0.035384893490687984,0.000016080726796715556,-0.04912499051373461,-0.006545140750743308,0.019342460640355597,-0.047775654779324675,-0.033167164828213976,0.0428418612206488,0.01624951545427315,-0.0539754244871059,-0.021448808767305327,-0.014734778811263208,0.00939127191774279,-0.02127525390951168,0.053989629412046845,0.03289864276502135,-0.039367416280700035,-0.005307380781884283,0.018282882003127613,0.052253759272729274,0.046291864707476926,-0.014297830873473,0.018151252683605523,-0.05071530627069626,-0.025934600234508415,0.022854573632859823,-0.0562534227623239,-0.06642633719243109,-0.0453365232436654,0.014430530668252327,-0.02665401735532827,0.07104120803552784,-0.03723377208343202,-0.008519083265078662,-0.007895996158030535,0.07183357158117022,0.026013203744375143,0.013207787569174073,0.06867721868996725,-0.04324708823852346,0.013790432090188284,-0.0405026663534131,0.02178481344061278,-0.006038065656329148,-0.03141378042477828,-0.028854532879936237,0.008200025880765039,0.03855104639627646,0.023521137597194187,0.053970983591995675],"bias":0.026616325055987048},{"weights":[-0.014789614759167978,0.0181226467261626,-0.11550735581934923,-0.0828007304594039,0.2727702040567242,0.005576167964878039,-0.0946530190326907,0.03322351908170911,-0.1608016721909269,0.05717446975333306,-0.06532828965841055,0.023600123098166115,-0.07940783328915875,0.04775108210573779,0.12293181111336506,0.15075269325358928,0.18414460737128188,-0.02278881123001497,0.10160235451708251,-0.035055236786079566,0.013530753896092457,0.21694968027636555,-0.0925816700451499,0.401050712634813,-0.06394060638019455,-0.2602093714740366,-0.2629426509408462,-0.09361120397681985,-0.1300785279439411,-0.007746915394141483,0.10356955524288038,0.013521543102173555,-0.07125650072927545,-0.149072529377165,-0.022539889336775986,-0.11956793853218102,-0.03696123950214911,-0.09288577352730294,-0.006617183115880651,0.08670430779736837,-0.05900296286152155,0.22304427845415903,-0.02663639857439776,0.07493314682285641,-0.03194152933623469,-0.005544223372671524,-0.15301888032256028,-0.06813456059596043,-0.06342896766349924,0.12636225841497967,-0.1375667121936785,-0.1607214289278983,-0.026455726219443497,-0.06927882244971811,0.08769067452951868,0.26991094084387834,-0.14658408033113343,0.09595643168490293,0.12694437602190345,0.007685696309421526,-0.036880296333921654,-0.05278604130389937,0.2349752047059468,0.22230559153136362,-0.09199369581233731,-0.03980959698969096,0.19497860001831827,-0.003165572931220504,-0.06890659543279803,-0.16184627283093828,-0.08877823831954554,-0.11501757646518845,0.2576059359729565,-0.11292364879893022,-0.01835076403364736,0.2262659966480153,-0.001292303266760795,0.0025968309410136056,0.057523946358876844,0.0008933077945421878,0.13190969650805023,0.20655445142375,-0.15037188992592834,-0.10987864798582904,-0.06232399560988996,0.26845948851873214,-0.07306180980088689,-0.0140330792726675,0.001455951083836697,0.08840275507402037,0.24481192739843752,-0.10932417915277105,-0.012848446842619028,0.19956113716181786,0.17086443128048748,-0.10479500661412879,0.08724251038080696,0.008944809267465242],"bias":-0.013341687859599693},{"weights":[-0.08682848166768821,0.22247261268512042,-0.0855429839531314,-0.11681795610148893,0.1122849233652978,0.05981750678153883,0.027583914378876844,-0.2087663133363762,-0.11873920660909935,0.14456709799449013,0.18987637817848088,-0.10903523529327672,0.30457094693911807,0.07175879966797191,0.07227734041316795,-0.0541718611510309,0.14673914356939416,-0.010536394980860207,0.012121996457539034,0.01907089110069606,-0.018165734430413374,0.1375989802762127,0.05973848863340905,0.37987736495212493,-0.1669196615926144,-0.14528475177726463,-0.16928612072089305,-0.33426533023163774,-0.30833353062567376,0.1984908383223184,0.01021774389675829,-0.005286854686538227,-0.1256509591206731,-0.24239003935811995,-0.31185126895484966,-0.3392395100733989,-0.067873612894605,-0.2296106393199642,0.24168089308058982,0.7332971964599755,-0.002000029411415862,0.06378562626862659,-0.045004822944029896,-0.043490901347368896,0.150004788557241,-0.10007881832045613,-0.3107446340684964,0.29648694725636576,-0.15253846655790665,0.07932127406985397,-0.2220151068187743,-0.18367701323270358,-0.08304294021182447,0.2628198463127898,-0.0042927514662463835,0.361421268218398,-0.09117900681582852,0.1113904935093219,0.005647422918899372,-0.04715100891260192,0.21965566371764073,-0.12331821113299672,0.2310309556798661,0.11026926264435793,0.33192600365962327,0.009286985836323617,0.38554900455840024,-0.05986182432540307,-0.03687748935398578,0.1677816126076294,-0.0021620631169567777,0.02094738335065904,-0.026760518230827552,0.0460911381774072,-0.04128786296109561,0.5997534493798706,-0.07020303824044481,-0.19250251305394026,0.09027002963450352,-0.10647109750536923,0.19092625497277024,-0.03164465479925331,-0.23037903051347147,0.3043131128844846,-0.008785980574974627,0.37003630229762313,-0.12813556059827524,-0.16528624836775085,-0.03668537118583564,-0.1134559066907273,0.5288884498873816,-0.07143677325797915,-0.0058391090032467565,0.2126825928342743,0.1424250655398341,0.03236024823851054,0.16187035442184713,-0.10662282836601003],"bias":-0.08128082386067192},{"weights":[0.05353361694523542,-0.0479450376386791,0.02863519229501101,0.05142751013874024,0.038762220660578064,0.0506178369807014,0.03432529791950888,-0.062036326491660146,0.023039933646426775,0.005061478030042096,0.027848661637080274,-0.05100584529663927,-0.06715136617818891,0.025196055284166793,0.006042367898029635,-0.04793696667050518,-0.06676308205982327,-0.004963362965645147,0.0066062281307945805,0.03204768938539458,0.010900520802099798,0.0583141816247354,0.060564005177275816,0.05082157002757044,0.062856126610006,0.0014447003971589573,0.062788967992269,-0.0022015658734149297,0.013725626699347009,-0.04067212040987247,-0.06208431008395856,0.0618311946138594,-0.056923183009679176,-0.009046674051900279,0.05292674412410844,-0.061189831705912266,0.03182112663303235,0.06030254461752244,-0.06870619307557672,0.06148148926263854,-0.027666201863853098,-0.05702302596364319,-0.004321713744397273,0.057664283423217486,0.04785090788878947,0.04393895219035233,-0.07192113136647418,0.016457473215258266,0.00019341101690019427,0.05038733719511337,-0.0510390917722651,0.003452280215264171,0.026975299377177606,-0.05236495729516597,-0.008119135315035683,-0.06604901200075138,0.04719981125193422,-0.04867809239387706,0.0038710798371431035,0.06626976984595345,-0.07058388734268908,0.059621384649100516,-0.06353847634011034,0.027478824926153302,0.000518448247225196,-0.010971249378205435,-0.06271501343988317,-0.00281107841028555,0.05143009833528096,-0.024009614872412943,0.024311374465052236,-0.02670865779700515,-0.06193509603081032,-0.014021515634448723,0.02578410440378046,-0.03808925274426739,0.014380594642705476,0.04957901284059693,0.02616534385768173,-0.015480065665811114,-0.004249132830239854,0.056687418580652744,0.026474801569008277,-0.048526529102274986,-0.001860224818324106,0.02699983171957071,-0.05183273724862833,0.06721301224444153,-0.043841959817450676,0.043980828989748415,-0.014730697211242842,0.016461258033174022,-0.031072406760077446,-0.06197771387732514,-0.04894266759500541,-0.02125472931638608,0.009789161548051335,-0.024568876132866596],"bias":-0.024423121145117757},{"weights":[0.03063125557384162,-0.060508600185739454,0.13717374061103071,-0.087076253769252,0.043013248412751996,0.021246507968329213,0.08006909648190157,-0.06216074474158076,0.06922612158743337,0.046807592194806805,-0.258404611124636,0.035168908634675755,0.2331190029211236,0.15054804006253,-0.025870669160866465,-0.15226852451809386,-0.187920458608131,0.16051913484380703,-0.04800603080314897,-0.06985634484058256,-0.04232610042259481,-0.06770961717831106,0.0011920112012288931,0.23664264010493608,-0.12697057213497387,0.11015389205756129,0.1848345979534074,0.15787259678618634,0.042060961256726453,0.3229760995227683,-0.08911011042923785,-0.07955847094016873,0.024602258815055154,0.2468800410663814,-0.1916563715614827,0.1780109410377579,-0.007634616490318846,0.24077119581111492,-0.020624996155473415,-0.08168077025620651,0.0325364124192565,-0.10615470841727816,-0.020877768937789074,0.06173493133302097,-0.04848858836437878,0.08435316858736037,0.04320670772643181,-0.0827569877798752,0.020335718606830075,0.10528030324394955,-0.14476258654434843,-0.04638469936125459,-0.0035165660483418852,-0.002610108305100285,-0.07794775661393115,-0.04581282384140548,-0.04844480501072177,0.17743888430904647,0.06353231418503663,0.0487493486008148,-0.10650018278254668,0.10851490772002777,-0.08364893909787707,-0.12580298246135516,-0.016383927917960915,-0.059380725457772336,-0.14608307566373435,0.025083751816574577,0.017943620827736536,-0.14422764900123367,-0.07619005860346138,-0.08574917774745447,0.06559279446726035,0.06313152868894946,-0.07511928904459425,-0.09178163677750668,0.0001091331228353622,-0.0021817162018150727,0.10775255948334767,0.16662848220347184,-0.10678565903697337,-0.0021682839981116554,-0.05508246697304297,0.022271510859580314,-0.0690418828136277,0.004018323079641589,0.008326714977721581,-0.05023844145818736,0.16932163282469007,-0.0909123435560867,-0.11326651342269824,0.5439105419369384,-0.008170000423517652,0.1338498221246906,-0.10145572755031544,0.020896614769308878,0.08642670069863237,-0.005213676354511047],"bias":0.013551086099015288},{"weights":[-0.05722216900349291,0.006901477145659149,-0.06965130142393286,0.05811211940204163,-0.04262812409654315,0.03455090478022994,-0.04828486486313867,-0.011150666305814112,-0.04156139324363059,0.041300162956320184,-0.03157060189673803,-0.062232337139224776,0.029846677360946462,0.02007604002940013,-0.014019061217133023,0.05450853450026703,0.06332773519718904,0.014009063623280778,-0.05031890043264609,0.03566346882963984,0.03533794123921756,-0.01733001762196672,-0.015962237407989716,-0.014676264555902322,0.020878014331066803,0.003458899397683868,-0.05898078872389813,-0.019626122828269664,-0.022803223932548796,-0.012663299753473502,0.06855205722716781,0.00873798591816647,-0.015005770220251588,0.01855154398246657,0.022403539684805466,-0.009790096157967191,-0.01402070484691352,0.03776453037129158,-0.036466445572238874,0.003587193211931155,-0.02514968872986981,-0.049066411681889244,-0.05149600878210087,-0.0280073359972344,-0.04308986947916198,0.06158608835664183,0.05287526085331413,0.005702792298432224,-0.040891103163959,-0.015309440135594224,-0.05649155785345888,0.03207428827256498,0.054157833088510805,0.009757436122937167,-0.022628825030770617,-0.01815691374520245,-0.05614166427940862,-0.025895479281788245,0.054237683630249764,0.002547485750493107,-0.01718059439029185,0.05262082884306713,-0.032453604689412364,-0.02762892404457794,-0.06990853501375983,0.01836297981745704,-0.0028652633338535883,-0.06472054086298751,0.033412987510440785,0.06142506624817515,0.056370391870058684,0.010006287485007185,0.03908783766350026,0.046131446566620465,-0.04586306462255699,0.04339799406515471,-0.053609155239021315,0.029291074928991696,0.043476535718032346,-0.048969824031300284,0.04621829332085064,-0.028513835830947607,0.007723698683470126,-0.0544502622592533,-0.01921269241085636,0.0633853246406619,-0.0008698901467403059,-0.011116584244064785,-0.03309639821837614,-0.06207061010548004,0.019881408437976634,0.03168448107736181,0.036837400849667856,-0.00041502678334276807,0.031239533589126088,-0.009402253719748056,-0.032601459733054755,0.06617241750156987],"bias":-0.06449393828876641},{"weights":[0.030505925636822376,0.027616038505174193,-0.005597377157632222,-0.017338350252096513,0.0349728054955819,-0.05227462393482018,0.020879696991566485,0.047079200265444904,-0.01253185215516841,-0.04999365969866775,0.06925992120227122,-0.04355163902644839,0.03698170955933508,-0.04023006138172085,-0.0323197216234895,0.02212328048149376,-0.020434256242748618,0.044482828701145304,0.026382092313789497,-0.01592557552954282,0.06897750758895671,-0.0022589044009884655,-0.03845119033797639,0.0009877853128907835,-0.03736622234526459,-0.028224576524037034,-0.05780096395311057,0.06561332265401942,0.06324700693240155,-0.006874152284323685,-0.034166548679339284,0.012873746608084522,0.03558549260840691,0.02135640579409737,-0.01761851662142177,0.03652315612957406,-0.053580403506119846,0.017629764100216005,-0.04685906712827981,-0.0573641410516553,0.050658707578481205,0.014976055940930653,-0.004825965108352951,-0.03289725805031843,0.030858049032103697,0.030098247858897788,0.06868818136274535,-0.014088732716678608,0.06235392611378784,0.04768427280180684,-0.028927544255299673,-0.013765064138813558,0.037151893800186166,-0.061940336978133226,0.0598406667744559,0.005127045806844239,0.0020040311546419276,-0.05155526154118755,-0.07078167313384487,-0.04860814073084698,0.05570089387104488,0.04947614552693196,0.06347822597442876,0.05038460286592813,0.05450122325601217,0.029158968444493904,-0.0453206464201197,0.06881667448842077,0.03847481955100229,-0.05069612908397396,0.041516344205255094,0.06806039738087767,-0.06965554664412489,-0.06107849379102084,0.012103386495735268,-0.027168330174627775,0.06533814832585436,0.04078146893678965,-0.02382561265981204,0.0580934852221496,-0.0621681665923644,-0.06418394448929027,-0.012052223793100262,-0.05286375364720985,-0.06407407787125488,-0.022423265065923955,0.06071722781431776,-0.06674633706031646,0.037910099421954814,-0.0008442585985538219,-0.022199525737268248,-0.019530887024971848,-0.028139123022296424,0.0629638378868132,-0.04588857152028309,0.03391576441072697,-0.019961984095928472,-0.05016982519503491],"bias":-0.011551624975139818},{"weights":[0.0017401016056833051,-0.010372848559509885,0.004130744940095575,-0.061070023247038606,0.01667995650936387,-0.036241833078370464,0.016311665517386505,-0.04499805117276423,0.013939585663822132,-0.08269532342615211,-0.059787737860305064,0.02096866528446039,-0.05303437816467551,0.04736682311243175,-0.010604332873798729,0.05906886070586731,0.019274267861431917,0.017378915932561335,-0.05474086702977845,0.03317962887040251,-0.008027466839289671,0.04852209871003076,0.06638641231643062,0.05162219881206672,-0.025520407175031273,0.014806754224175173,0.015267258777864168,0.023717958841435894,-0.06268799358364598,0.06329171655199904,0.06134944790483932,-0.02611320724663561,0.062382150324057625,0.043072278651821304,0.04276386150014032,0.024808443288002538,0.0625482121184994,-0.07017195457102796,-0.02860264458108124,0.01736189827753246,0.027814387014258837,0.04331097725032021,-0.04716495464761552,0.0434986046515728,-0.0155320963649484,-0.030671203548996065,-0.02233192877876246,0.04279541453829904,0.015498394430141957,-0.020000020298143774,-0.06175080967791158,-0.03405593360842089,0.03353573845249709,0.0505916626438436,-0.04978745852731589,0.05697728150114457,-0.0591177164222388,-0.061518224759162146,0.05721505123132939,-0.03429893191279553,0.018583987890540377,-0.029638502891627914,0.015258925651652303,0.040257364423211026,-0.041587261918589795,0.021944107789588486,0.046792344616905776,0.021197597439800517,-0.004241224294760782,0.018505526924769693,-0.012422583012625495,0.06853136615573019,-0.042586289409830974,-0.0557233649289033,-0.0355474467089338,-0.055031926684205215,0.006235177463715187,0.0695515440489579,0.06467643130466091,0.022391638232957197,0.03918777650175652,0.05502803351007099,0.04633710625979692,0.04618417202320395,0.0020621013748879295,-0.007288618401837256,0.030441947182649618,0.06335034822852009,0.04420773102000927,0.03830667157276852,0.04401090175548962,-0.0503847211168045,0.057294687351268594,0.0326202998859551,-0.003091501082315788,0.028544065709891153,-0.003970236150634331,-0.049940113215780714],"bias":-0.04712065462445229},{"weights":[-0.06604938896517368,0.019547057984050913,-0.06861377732145957,-0.007420326038626018,0.03274497970794659,0.011789739349572982,0.009215860463915993,-0.007800261591719137,-0.010856085708613902,0.03327924896953052,-0.030697511756735938,0.05331779554774913,-0.006379107567886058,-0.07257271757545593,0.03523548137542527,-0.0706009110716698,-0.04160625063283556,0.0217471331890124,0.05296222925620165,0.03351845327817766,0.0028033737465484876,-0.05972409828770703,0.01670588662673051,0.03766964699404919,0.03507073533463018,0.04916541505763896,0.03371138384353856,0.028931288159212545,-0.07366867008309587,0.005945678211793475,0.04651589747444638,-0.02863853279089543,0.06768887645221322,0.01663849982859909,-0.038664114103911504,-0.054841747933732116,0.0015321181773221089,-0.005384786514886928,-0.015855212017507524,-0.04696185476851052,0.05745176766463158,0.032938523655440505,0.006946933794083769,-0.025032109769960394,-0.0009070121023592452,-0.06648626610164352,0.02350264213003302,-0.042502554259967275,-0.010086069788199278,0.06386772677588792,0.062283544905550284,0.014072589009789999,-0.05628754922803555,0.000011583845702267463,0.025936230645821078,-0.02968531287884995,0.01458327213457979,-0.045935810315077555,0.005781372113727377,0.037621038822121575,-0.03673507010514805,0.042910472223265564,-0.05050945094411199,0.06931072335552838,-0.00887337004160039,-0.004956269522942793,-0.017014672679541775,-0.0015194627137065783,0.03903111410436357,0.02142148812455205,-0.04122290119059266,-0.03805002435474435,-0.017758903237693708,0.04589917236518883,0.05116615669356462,-0.036574753617392756,0.02894635139558756,0.04498653802343501,0.02428221036654096,0.04274985221090878,-0.020037567128043006,-0.05907749684115388,-0.02500911672426048,-0.06085910498483187,-0.033599103891514576,-0.019595282411086205,0.01948674388547985,-0.03310806081712231,0.020539067090662413,-0.046879337216609675,0.03135054887249182,0.019711654014703827,-0.07118416896335811,0.007969674552696263,-0.006838244411299265,-0.00573054871713084,-0.003326137966879924,0.044020439606146405],"bias":-0.021056130417968222},{"weights":[-0.04138728947210662,-0.01722570124298555,-0.008871059757870392,0.06624747478580074,-0.040394786184255835,0.00583462698384319,0.04910148735084197,-0.06391802324663724,0.049674097166268735,-0.06145162008718786,-0.05452296490403388,0.037891794761908536,0.04898359772552113,-0.06575584597433554,0.06799144472990765,0.06532487118042936,-0.000913289886353867,-0.006656586735777947,-0.030457087735441552,-0.019579341661298863,0.032339787732754234,-0.00159810599780982,-0.03490512827184531,0.06248118685726427,-0.00511542576940011,-0.06265646010960818,-0.036318119327456835,0.018814046834542464,-0.019861938977215998,0.0179838866771369,-0.05472821792320314,0.04873732063964851,0.0077385180204378,0.00623115321687882,0.0646921497270907,-0.07092511414412163,0.01984405581605994,0.05460120306811443,0.004129217021909337,0.05053311919769706,-0.022947583424563385,0.02257195632217102,0.02373485541833277,0.05489458624230886,0.021507278435404554,-0.02613748965533539,-0.010325958715879987,0.03050621594158782,-0.011179355869803665,0.005977349665517053,0.0609165852463701,0.027501016777594933,0.05060073274497196,-0.05528343121678459,0.019935245604314134,0.028455673440823465,0.051489728779585985,0.022617674453644532,-0.043336276251886706,0.04470176703531756,-0.05632601039782221,0.04302621311828637,-0.06693895393943244,0.0405480678680281,-0.040178140172523476,0.04191929875563806,0.06590360522163446,0.030290938035392453,0.03144653326995814,-0.022705048774520342,-0.0470063208767026,-0.005180241946431085,0.032309987753095716,-0.05525990054336183,0.020009748738175993,0.023729013182069165,0.0025190687779712657,0.04756145729396158,-0.02261164608181133,0.04324422013147364,0.04423251439448263,-0.023653731904133946,0.03347145144926942,0.03313007215433497,-0.05016938347555013,0.033480933237589945,0.03556060794494664,0.007740021960351112,-0.06873615593524225,-0.026477274014121904,-0.013551937522715354,0.03402695979926307,-0.01986917212929693,-0.02655935391019532,-0.07042766427575846,-0.059440495398442844,-0.06449271757031003,0.0585665918675567],"bias":-0.024236581380238254},{"weights":[0.05781333687732001,0.0017065767662426158,0.07008484651344948,-0.0034855602843925876,-0.021313531091178808,-0.01131105526449123,-0.05831966608778886,-0.02614321491964941,-0.03214982190168042,-0.03241584852810304,-0.0593326511245446,0.032498058303762574,0.03970278443341041,0.012491039716380034,0.05535087967777785,0.030684144354320337,0.039817066030624175,-0.01699892855972648,-0.050128224583429776,-0.030724350868720017,-0.05004763135013266,-0.044985662123626834,0.024716067941866832,0.03139256789376926,0.018827260211169396,-0.005566379994740476,-0.0005557887629291813,-0.024290562633057934,-0.04876555259338241,0.03682313845602026,-0.0166338001330917,0.05705208138051546,0.05158242765894257,-0.05326970684938711,-0.013997465040817733,-0.0497128427356281,-0.05003188574254408,-0.000154048003645639,-0.02480028501124509,0.0025310126963235717,0.044817943930051396,0.044216673742656525,0.03974498747353191,0.03843683669159864,0.047342324491497945,-0.06399754006755444,0.04778558906602074,0.057679006588963674,-0.0339266240405863,0.03098864418821088,-0.01632702675605635,-0.031936648147058516,-0.014631793401457847,0.05200450838140202,0.011160279911603352,0.07017867715417019,0.06580755810161991,-0.030473847250507315,0.004995730148629938,0.008482504217912804,0.05161068347272959,0.044369272392004874,0.0017690932055393197,-0.01574299774844866,-0.04499003213242045,-0.04916743452184964,-0.00525646101215474,-0.024095549080069285,0.049374720861176134,0.05469601496919625,-0.038686843088529974,0.04281078156661319,0.05858482920813474,0.06449451655275797,-0.023627248955172007,0.03485637123562516,-0.018166990090429654,-0.02527329632422096,-0.06622906200399735,0.009921316424006215,-0.039957748973381814,0.006985556217505106,0.019306920748979738,-0.05343433539794987,0.02543265218446514,-0.03024152432232716,0.06633548524318499,-0.054287969258050066,0.0385777984121304,-0.03181348133564053,-0.01087788164816671,-0.008593090536004709,0.003937946562866238,0.016620656347685565,-0.04296187240524748,0.006663332006468836,-0.00433279667167055,-0.01656254044109419],"bias":-0.029588990922153075},{"weights":[-0.023552645206133937,0.06413855134115705,0.2395195396109109,0.37233699988386926,0.14381695427424476,0.015436788240869427,-0.02978339421916121,0.12147066814677333,-0.1191993086586915,0.036628570979256383,-0.04064328501955495,-0.05430184590587857,-0.11359786603840973,-0.10188625496666255,-0.05105296551068362,0.04167468003667287,0.3104670379139664,-0.0023133759449257456,-0.16269992495064312,-0.03857830031255521,-0.19055363963506683,-0.14328561864753206,0.06999727228931331,-0.04658356926446229,-0.047512252535994524,-0.13899976917579773,0.007946333240193275,-0.07129293182656289,0.19894343278030807,-0.28349831600585645,-0.006135875006822667,-0.1985326140176834,-0.06391542734339344,0.10601189618134076,-0.16342799904996153,0.11845692785941933,-0.02868479383597287,0.09828662952057794,-0.007246230864003829,-0.2003882740226161,-0.01868440856683106,-0.143762517638861,0.0471196339783468,-0.09242654740990507,-0.04365970456483285,-0.047574581456291114,-0.05805982348395305,-0.11433561313433477,0.36951612232328335,0.00709042379189232,-0.0365427075397653,-0.17578066378680163,0.014025587007622898,-0.03714411027676717,0.22397515505666943,-0.005547874760307165,0.32546775487553775,-0.08677678863539456,-0.145812641826323,-0.08588268424401213,-0.26592641372685405,-0.07109776469553854,-0.05440951945834343,-0.13897501550331584,0.21571984034151073,-0.04761332176922992,-0.09786919357548243,0.03497098515939586,-0.00017195557124784433,-0.4009337493584002,-0.1297056704474142,0.06161061312958009,-0.036441176125508935,0.2589246128533469,-0.07811050451890515,0.15029074609625553,0.034436081978083205,0.18369654201211938,0.22001603666905262,-0.03454141620612372,0.20208553068118318,0.14321464437093134,-0.15107664277860092,-0.16987767457123162,-0.017988830088907677,-0.15555314866594516,0.24541639704467785,0.4971076983574548,-0.025311541506356162,-0.15582702396749323,-0.021669876902851524,-0.0777378123616499,0.0011456071339144818,-0.03002294031693193,-0.07020060480355006,0.17699282005088726,0.11687952990403533,0.026568033437661065],"bias":0.053278895680867716},{"weights":[-0.07620487325241165,0.15943744695238674,0.3346309205071953,0.34785855654413217,-0.10724473340849168,0.027070851127469896,0.14568258299131687,-0.013526767086601329,-0.12033197952412691,0.05286601868123221,0.1368428018082535,-0.14944731195738337,0.2773301983469823,-0.12701903695619232,-0.06364033286603873,-0.005290256302879998,0.37122304711733395,-0.08372622339122364,-0.30563542127813825,-0.03203350226268963,-0.1799891268592965,-0.21927000834063112,0.15416164541931582,-0.11206698323717336,-0.1917585535588624,-0.023922754132345347,0.0516253860325309,-0.2218542999846629,-0.028015851570555857,-0.10719357511299467,-0.1015340983341977,-0.2381136718283297,-0.12982778640123796,0.07270651133522192,-0.4754412506001912,-0.07165991892702031,-0.08389257739927135,-0.1181977114601294,0.3219111490404423,0.3931007846104159,0.04905364908155808,-0.034340637409634805,0.054921502634695085,-0.1376659945185094,0.10866742071230837,-0.07494264379914223,-0.20923374242347537,0.17556225530446312,0.30904009350858386,-0.05453432288716689,-0.039339537354379554,-0.14992000198404187,-0.08001779511679233,0.18704553043746064,0.11208741422924551,0.10036460982819013,0.3085925852917701,-0.12654016187763004,-0.16842570375298496,-0.085932339856633,-0.031610280801055324,-0.12224713254789701,-0.13987961382125197,-0.16529966742502625,0.6129395553407966,-0.08088022681638814,0.054996400723997904,0.057523823782272776,-0.13799622894294158,-0.006604372356731007,0.05812398917038661,0.28560914213558986,-0.2918219477972031,0.3319211188377832,-0.015828812609572522,0.4110679837430349,