[[{"weights":[0.05764058364330359,-0.06355515991490973,-0.03381536972952645,0.06027286021843192,-0.014103349618370844,-0.03128875,-0.042318639346512456,-0.06916552785288414,0.020191759014434707,0.0025809420401664133,0.015409344487635916,0.02333294651280843,0.03441206350944476,0.007246702479110512,0.03952873374122833,-0.028002143649959097,-0.026494668447723656,0.03078814270140604,-0.06960904030756437,0.03475247,0.038364945425500216,0.0115115125985249,0.004847901555454244,0.0120076017208096,-0.012863890715260406,-0.05761938347833177,-0.066538925362677,-0.015972495897497916,-0.023436344949509746,0.04440394707940585,0.053420480135145464,-0.014084851539153412,-0.07071259761640318,-0.006979726431295941,-0.021892592970726,0.040137138423719305,0.04766083254367721,-0.010038749417227525,-0.00554120113706105,-0.04757058964950936,-0.02761357,0.02969148916316254,-0.016074067636234087,0.03931455197858798,0.019584730262126922,-0.045262407866030106,-0.03560095327216979,0.00820341468624763,-0.031014660412023363,-0.05086827890943594,-0.014845746876483034,-0.03597577772121151,0.04056695720673946,-0.06046500500965753,0.0171219961299688,0.028451667173183686,0.009421231513934085,0.0547597723270496,-0.048663533550635234,-0.06899735873676845,0.009784027008243351,-0.004498965856934466,0.022196256687374752,0.054483031007882404,-0.07016252215173847,-0.025795796481254633,0.045694070399582856,0.00701777,0.024132293372241136,0.05934013466224251,0.0028843681525061106,0.043876322427166055,-0.021562143531001887,-0.052957589042954806,-0.049785600958541176,0.044371771239885074,-0.05749643,0.033032719283315845,0.03853033178712077,-0.04487653,-0.03723171415663581,-0.016542387755475205,0.054987638266126286,0.020280486573772682,-0.03344701,-0.02264193377599574,0.05866545,-0.06816327171780345,0.030185446034845843,-0.06836729893058525,0.06313747082954135,0.03343207069021986,0.03488271085822174,0.016371818807895986,-0.0026272235176087537,0.06912694266546414,-0.05700818954869043,-0.04566165971924994],"bias":-0.02110623059674175},{"weights":[-0.01434544,0.05770475258883064,0.005463513448554041,-0.04332198363164229,0.018231409630009257,-0.03664763,-0.031461671639894016,-0.027742840572417164,0.012483353919138693,0.008475643626670179,0.02227329,-0.02675367105628308,-0.04162463832420245,0.024422955236751025,-0.017007885583432324,0.06931301303232829,-0.05886962787446036,-0.0636275228072837,0.03518014808973197,-0.0507665,-0.00602847,-0.031118509121062683,-0.035188824250053034,0.06544016830143039,0.00770779,-0.07105900238828972,-0.03660854591105424,0.06481114425803121,-0.06702900030849777,0.03200247922231642,-0.05098153,-0.010669524832107985,0.055593388585398223,-0.0006952008756880546,-0.008127543298055527,-0.027728126039375932,0.03410215826620932,-0.029377374309215235,-0.06442544028989083,0.0634403362542319,-0.02235282,-0.042526370576376975,0.04169037403776626,0.05585712555092776,-0.04913422,0.06546010776451312,-0.05023646472898108,0.05546031331875927,-0.0594151978287512,0.06123075314926336,-0.03257418,0.056645782209285,0.011986293645595829,0.02919853,0.024271301483475786,-0.05654537,-0.05403069,0.02816535303248125,-0.026991254608811976,0.04904561948884204,-0.04162909251732732,-0.05725770971935586,0.06822108,-0.047782397872042325,0.06194185352301313,-0.06555139,-0.03539610680178961,0.07002172,-0.03719016409115205,-0.0604823020075273,0.020187055881011117,-0.017612325138330484,-0.06410426624636034,0.043654949435126586,0.003287740109372423,-0.06635466085107203,0.04942312,-0.01798233239560521,0.011060712947823575,0.044053146680955196,-0.01997592808241976,0.012405845285014438,0.044439369310875554,0.05290750037907042,-0.0570067,0.04538635738608895,-0.05540928,-0.00891138,0.003928353536174657,0.01143739038426308,-0.06048842,0.044752829287700864,-0.042949909155112154,0.025600662101339492,-0.01533803,0.04066988482507282,0.006246303501876994,0.005334589908133135],"bias":-0.024740814923069846},{"weights":[-0.022336849286724147,0.05383664864410924,-0.061936018935922994,0.03911400463374362,0.01426755227726148,0.06879557,-0.04780778972017071,0.024846385289656905,-0.024348710220505828,-0.051834884462933335,0.004135411301813839,-0.0006162656963441139,-0.05023492306551471,0.04463459018769555,-0.012211275921161287,0.016037747386576245,0.04225265460470393,0.013734867379914436,0.0012678106025709923,0.016071869776328632,0.01673221073418915,0.03213952884313951,-0.03325125577506034,0.06750455295936107,0.0343454218427656,0.007944924778089507,0.03735316862416771,-0.04767204909444913,-0.06692134510004753,0.03151947709429948,-0.048154436827251956,0.0031817447107413267,0.012515760607346665,0.018005512275430836,0.05357201192393872,-0.009015784716110314,0.02869907178932059,0.013099518364114335,-0.0568150941105627,-0.05324171106333298,-0.06574821,-0.00809036636631478,-0.03444448573411011,0.05773917922091623,-0.07128615302773579,0.018893682743408153,-0.020517726365905663,-0.01661464305459694,-0.006810966166130506,0.0355778366359589,-0.021668831892834674,0.007830726031943375,-0.017861185144137287,-0.04769078015351087,0.06775349199186417,0.018568790706092644,0.018186595531890778,-0.0374376603569593,-0.03388852289107937,-0.04310031237925828,0.024063036595119477,0.05494165095745389,0.011718644633650344,-0.062453126610779085,-0.0450563117689427,0.04325441948531432,0.010188076138553579,0.01405136,0.026603881558771053,0.049092924126109036,0.03291166349971384,-0.009949886414857192,0.03607322204063399,0.04417296525893344,0.03560096997019003,0.013612339774925738,0.06994502,0.01636265074166365,-0.05155471539596214,0.0012186804108044313,0.005111701978212169,0.06776677573016889,-0.07016758650903902,-0.0629979680176157,-0.01395304,-0.05448380849196997,0.01768195273228994,0.04968149418083223,-0.010413942271514364,-0.003969188780097614,-0.0386736742601863,0.011510544571198706,-0.042884893475616755,-0.026901353435256164,0.013433497118467221,-0.025420817730376813,-0.06240232968068827,0.019995677346507278],"bias":-0.027091787608155497},{"weights":[-0.03323901103244043,0.03112946819878605,-0.008288464177504834,0.05739233046455271,0.03847945208036293,-0.05319013,-0.031131393725008217,0.008177173463177272,0.04624775427607512,0.020154360223545494,0.004411450257903487,-0.054550978693648874,0.02503932049256695,0.0003882717920568008,-0.03982196584862894,0.033515982022863315,0.06301627998207619,0.03297207227629282,-0.014813164441797314,-0.0023447572948286223,0.06454991345718027,-0.022371608852132296,-0.061530468082372426,0.031663574855876876,0.004982348488894711,-0.005718299955994155,0.036546902995216415,0.05823929586677178,-0.06501947438205308,0.034880460631229036,0.004543178345783893,-0.039661770124700214,0.06771994256775561,-0.03300309451147814,0.005265577631285677,-0.03407214798465186,-0.04166503074361808,0.015739784028177047,-0.042733037979083226,-0.0320963869171646,0.03886086,-0.023516628174178128,0.05666507159773105,0.02509925965181591,0.055951659292180086,0.05910005104302698,0.043143469098727634,0.0224283127458772,0.04350663188007197,-0.048278930177893205,0.04282694008349313,-0.034929454471714055,-0.06755080056525095,0.05850807557275556,0.010222445137710413,-0.053356726954290244,-0.0641882252091701,0.04127743037123379,-0.036121977015483045,0.025583690065718867,-0.02319459038754202,-0.00872825259485807,0.013759293609937967,0.010851763965818464,0.05943403901974439,-0.002149135266696185,0.004917428678236858,0.00414397,0.060575063523240914,0.05679155102534767,0.029222985986957245,0.06369182357430682,-0.0071163325891314315,0.0011701433169660986,0.05998928218063174,0.007404206089242992,-0.01899659,0.06810947090092377,0.03264921250553697,0.055810493146919965,-0.02505732068174128,0.03274201805008301,-0.04229907708168714,0.011608596627362848,-0.02385246,-0.028817518550223957,-0.05271232225032917,-0.022343221287335246,-0.06722873048358238,-0.046371524221326496,-0.04441209766635814,-0.026315003683732293,-0.03634114336890991,0.06137092155810407,-0.004253853575140889,-0.02953125029133836,-0.05501475091288025,0.06366287640537045],"bias":-0.055754895006134314},{"weights":[0.059609664501099044,0.04614296,0.06043556,-0.04036853427143662,0.009071536685525093,-0.0273208,0.04509174,-0.03398964,-0.013798803266102444,-0.026942909310391592,0.02325400525493539,0.05193397,0.03970686,0.02985588,-0.02565239,0.007043254292446697,-0.032350297283291106,-0.04067476,-0.05308787,-0.03225947,-0.04552149,-0.004278432142709912,0.0032766,-0.06979104478791824,-0.00594724305415888,-0.02885455398790755,-0.013858222944651834,0.020649814361778193,0.034101266565122364,0.018790223301862453,0.02250891,0.00023413,0.06352141685360543,0.025844120562897394,-0.001887507794190709,-0.07025893,0.013034076214606168,0.06431523180707585,-0.04250043,0.046672100262129985,-0.0372703,0.053369736020280646,-0.029123237737547495,-0.05687317,0.04477745,-0.00626325,0.07062253593529125,-0.0629282105885909,-0.06629962,-0.05398919279105929,-0.02235153416158702,0.02605500005822988,-0.025168113187454662,-0.0713149630195405,0.01002925,0.05097211,0.00425027,0.017364364799314306,-0.002326068301328789,-0.007623566380622893,-0.06919830577092971,-0.028939021293642224,0.03773373,-0.03994133,-0.03896742,0.040411546893274905,0.018876493470933727,0.04896549,0.00124704,-0.04358177742818382,0.06947664955230118,-0.014045980639540054,-0.05929031899670369,-0.018680826286569356,0.04512873100782468,0.06784322578189576,0.05036771,-0.01991179,-0.0023573288703566397,0.02136521,0.00948159,-0.06286779,0.06973088,0.00067645,0.01953869,0.026601949567170508,-0.06467718,-0.05796293045772495,-0.05331191,-0.03971882,0.03660286,0.059804116720743684,0.034327731246243574,-0.0594171,-0.01717835,0.03447669,0.03186387,0.013886589653049638],"bias":-0.0004207150183989534},{"weights":[0.06654543485718172,-0.060197241300803124,0.009824096425840237,0.03590109716076657,-0.02666187945188409,-0.03295701,-0.06949322343208891,0.05045754551382123,-0.06976856163162855,-0.00941005701358592,0.036145300161373586,0.0564829733501412,0.023727361598908342,-0.008967246054189396,0.00019036216732617062,0.0041759773959430015,-0.012132516935876834,0.06261859122153975,-0.03711457993230079,-0.01942153695571507,-0.019907103778919463,0.051800690605727236,0.060720885488782454,-0.01586945303123897,0.03920023001789237,0.01552467239051223,0.0027599462818597965,-0.02288861948757084,0.000795480865164114,0.03323221265357241,-0.03437275282145084,0.030157430677284356,0.044578192254780755,0.011867157938135352,-0.0009090981108763871,0.06419375205239333,0.03007227510928456,-0.057866367522414766,0.024267416432211506,0.021844105482089683,0.02041737,0.060113489460153255,-0.05208829640449936,-0.0237618796114685,0.012473013330664738,0.049386375661497575,-0.06535581611273106,0.04315246772617073,-0.028180154636311985,-0.07020756027940249,-0.04876385242796441,-0.05572448856692513,-0.032726213540731276,-0.039801425926533664,0.012754599068417766,-0.04877657240189514,0.010068901044048437,0.05714557499682928,-0.031113956604800055,0.05143750008118468,0.059882672496258525,-0.04729818546719422,-0.05580680004584513,0.015386552566096617,0.051841068208041664,0.0461445089807667,-0.018702533070379255,0.0023655,-0.07040532477944966,0.025216083335392516,0.019884274073775587,-0.023851762295429995,0.015254379281778507,0.047403652975793235,0.013594371375701585,-0.02635352763890896,0.04293633,0.04357746411093587,0.05923435134887421,0.04451881878814993,0.008021164829762164,0.04227807803500445,-0.02356318040365949,-0.05551166676188355,0.05018224,-0.0014689284615145785,0.06320689499302906,0.059511128641530096,-0.03698195853954863,-0.0660500707861994,0.009892571427867229,-0.015483229054265078,-0.02600526920951633,0.056883622963776234,-0.05427231366229274,0.04726049585271929,-0.04915826972581751,0.056267494363812384],"bias":-0.05768782500577144},{"weights":[-0.045410293659360675,-0.028060883779186092,-0.02610082751060295,-0.020398619087576966,-0.0405301502781384,0.06562931,0.03854587494488202,-0.0532646792778293,-0.039331780499336104,-0.03702153480724578,-0.018654098570313322,-0.04346206528015505,-0.005132633917514387,-0.030981196111040745,-0.044420239316223215,0.02474656464684989,0.03642083493611648,0.0029855813571929976,0.050733261749844924,-0.03171101788587279,0.06863913334224873,-0.03256875489027993,-0.028608366658811123,0.045144090828229136,0.04839142190761869,-0.02895593272288993,0.0678023720470624,0.007816228140354481,-0.03410221586465816,0.020628862742842317,-0.04534107731339468,-0.0366020490977576,0.03874991893919549,0.019643231535014436,-0.019930990705733016,0.053177641490981614,0.019350186173228423,0.051860079535862066,-0.014880812481595488,0.04286809774066362,0.05538021,-0.0597245408480883,-0.023973380669666644,-0.028243711388060193,-0.03991036076771633,0.01675895550101939,-0.04729885977921466,0.04937647753595383,0.0023987408692259294,-0.0035852345925321133,-0.023209252142949284,-0.019056502073169307,0.068463147372742,-0.06083099310967377,0.06057629705690095,-0.04963835834913505,-0.07006741791195342,-0.0261795534903675,0.004128077575214665,-0.020521203841740516,0.024125388919834012,-0.019869269915705007,0.020933125195316385,0.05186293887463045,0.054012738444365466,0.06228029,0.0007664135747161841,-0.02837331,-0.005810341608910979,0.031199707506515267,-0.01614431550553758,-0.03064700258778698,0.03860727564279269,-0.011862477520759543,-0.01856189423677003,-0.05859576048768141,-0.01109754,0.05838600738820436,-0.03796339605336565,0.05087255087235543,-0.06598460220493495,-0.04873986412708062,-0.05994967994611415,0.000687172351448959,-0.01043457,-0.06700170195460167,0.02980989,-0.0201981101481206,0.051011658564111745,0.011309086419108952,0.060999066984824296,-0.06571408368417322,0.02751582754879454,0.04062255122789353,-0.010132753766065466,0.012081709492959948,0.02631636416280167,-0.035878624693253744],"bias":-0.009887575013921396},{"weights":[0.03655032567578421,-0.027573724606894487,-0.012805285049411124,0.02236567493681292,-0.0127907732862674,-0.05398302,0.02960563,0.04228563094105541,-0.03037515,-0.009377336953607566,0.05198006968915893,0.05859889,-0.03036228481381565,-0.0072820327616297,0.02128466565750043,-0.049989702508317795,-0.024906905203127196,-0.05561982,0.022224810558001372,0.06454479,0.020460355271702955,0.0705220122633832,-0.02610057143720447,0.057886123814783357,0.011681790311751055,-0.01560027,-0.04611912987711047,-0.059816148963004453,0.004437322434581903,-0.02156744392318606,-0.002076811976856503,-0.012444358135472228,-0.05579892405607361,-0.049426125057773364,-0.003926493912122967,-0.018980130014459765,-0.03504916,0.04369751619442282,0.06862158973474634,0.017740019713554763,0.05498837,-0.0633680579808696,0.04608278102633727,-0.033469564083270696,-0.03981114,0.06801662105543738,-0.04420595,-0.00243775,0.05401789585159337,0.025793314747976904,-0.059511063041214826,-0.050494125362741726,-0.0370582806779923,-0.01757006,-0.057183832971532504,-0.032425714929007934,0.045091673971762954,0.04461332275920632,-0.06616505395018678,-0.06280504,-0.029319515817865006,-0.02611304046405701,-0.015428695717439907,-0.04312042196347637,0.05883097156361194,-0.025770255711278552,-0.04190430339656502,-0.06842777,0.0074596266098926655,0.025512385843790484,-0.04995957729566854,0.05748329973536406,-0.07072192719561464,-0.008506096768740706,-0.0084817,0.04883803948754765,-0.02268362,0.06170328410646285,-0.05106358128726345,-0.07137759,-0.02285265163539814,0.027335898869109282,0.03187689324116741,-0.06029922871759155,0.02184064,-0.031867924245401726,0.03820280522950449,0.01316238220678222,-0.06491125,0.02461587164311112,0.03268160023082422,0.06351742396991004,-0.04817985887725704,0.049349275574819794,0.05189169619015873,-0.05865977051550306,-0.017212804795491057,-0.05608095356715972],"bias":-0.024256559474063858},{"weights":[0.031714143306361776,0.025749187035980992,0.02156114128792285,-0.05775311810219908,-0.04084218623655688,0.01543805,-0.04709796283737655,-0.03133775896086556,-0.0022636953023755686,-0.012972480099450802,-0.007844647942279607,-0.06543105,-0.049970451946686895,-0.013402919330591175,-0.01373541051912201,-0.006856929359487489,0.06062380428770988,0.011931367709376474,-0.0427701441184762,-0.03728707393545699,0.03341425554751609,0.011124497524463733,-0.011699812951386682,0.023718968755374215,-0.047460465079511675,0.02412781146964202,0.04830941712346424,0.03774898900282066,-0.0651608549908337,-0.05279130406103601,0.03801365765759881,-0.010796772698440106,-0.05330383698893887,-0.012224959183644597,0.06153523719228091,0.013498517830137535,-0.016386571885995207,0.055210614615845977,0.022655810123737453,0.06415939148377081,-0.0485666,0.06372064489739794,0.03273540483147565,0.06673439816085873,-0.00870657334073381,-0.028749130849071502,-0.0026146992232161975,-0.07090787786332621,-0.027121909840565697,0.023122174782835472,0.01917934774893848,0.02669165008125825,-0.012399091843058934,-0.052492133102360373,-0.07255665357097013,0.03936137920434782,0.02246507082010903,0.05490600103757812,-0.009928191662544486,-0.04538457140143929,-0.007640211037569762,-0.034230399661836025,0.010570497407318392,-0.016926685840760104,-0.05425912047608341,0.0009782854231831948,-0.03690829104199687,0.03533632,0.017604065793133658,-0.05396617751172923,-0.008999837495372044,0.06617861076156481,-0.05825143945486221,0.0282452754110377,0.05461985533813864,0.04643085685316237,0.04257886,0.06896442791502408,-0.02550429872661606,0.058285562148297845,0.06606254575822448,0.054554755914959764,-0.07111121754601096,0.023105477001509264,0.06309231,0.05840217553418193,-0.04855396773136998,0.0351249263772702,-0.025241737779492138,0.025773671639624227,-0.016086069624625225,-0.024072805278113587,-0.06660242388538747,0.01120409488339794,0.012665349760759583,0.06487478454654257,0.011175816867897616,0.028461677417009956],"bias":-0.04173245482361107},{"weights":[-0.07115945,-0.010399815911745942,-0.00040142,-0.004297639078417147,0.016321,0.0577705,-0.05475726,0.016509379677836975,-0.01402228,0.0005958068003094636,-0.06600996,0.0662677653127553,0.01801172,-0.0534501927518001,-0.0574673421985114,0.011185547511477543,0.02276351,0.06927025471361441,-0.022378603918086305,-0.04568615,-0.00967371,-0.00638488,0.03502992495051663,0.02598603,0.05256621,0.02634686,-0.02263297,-0.03141107911397878,-0.05922402,-0.06757340972998446,-0.0158254,0.006198472119373004,-0.06169316,0.0339629517437758,0.06826104305622363,-0.05761768430526174,0.05677509,-0.05161433330209753,-0.00986856,0.06061053732907774,-0.01106669,-0.02128486,0.00649182,-0.001066064710363435,-0.02925011,0.06677502,-0.021148678932658784,-0.03299067890532027,-0.010014437238346115,0.01537362,-0.0020716,0.02489933,-0.012916143084932458,-0.06857253,-0.028133436595204103,-0.04694055,0.0445406,0.05856335,0.03119605334917259,-0.019509789871813545,-0.0141666,0.00684862,0.042543,-0.016071539593828107,-0.030085554430174705,-0.00777519,-0.03870197519658399,0.01252406,-0.07021362363904068,0.030937130963743134,-0.038804400478764677,0.04600794203371565,0.00755297,-0.020456297021700667,0.06516847458282554,-0.06913803283036984,-0.02443117,0.014406678343850081,0.06096256,0.05631763,-0.03459126175536201,-0.06525743663799063,-0.007202208926958418,-0.05725091,-0.05980871,-0.00323222,0.02863127,-0.03498878,-0.05539281,0.024636063811193768,-0.06889588,-0.06946185,-0.01826796,-0.0519679767111651,0.01616148,0.03899266657479902,-0.00756487,-0.02879969],"bias":-0.0019500150216097908},{"weights":[-0.06706990408467446,-0.04171368150668292,-0.05438911760485424,0.01856890823639658,0.0383002875729622,-0.0404773,0.06661548729726663,-0.0040976889068259,0.004035114133207761,0.031601641483115776,0.0409790843773907,-0.02865147541763513,0.02069027533771353,0.03703109170331267,0.04869835116470676,0.03132877885523702,-0.07086710795214224,-0.026104406903827326,0.04467685425643117,-0.06025362437867694,0.05363890700600839,0.0031229307552504276,-0.008689370920220246,-0.058483880900640925,-0.04463401365969225,-0.06029685883022666,0.0531357277518656,-0.024351898724072178,-0.04496460776814192,0.02873078194539337,-0.02722744891141261,-0.032821151963580514,-0.06999720553977219,-0.06259435655756092,-0.026887381311509695,-0.004012328214663274,0.033154831144089264,0.03538343516049209,-0.04478033626538139,-0.042374474120350517,0.03819805,0.04358479243949453,0.04421245251474656,0.013705459408581035,-0.04172655357307704,0.0035740923256590553,-0.07042516196440457,-0.03265941579463362,-0.043218831343620215,-0.02914698842242437,-0.0020291814261241595,-0.042920952881360414,-0.01914871494712731,0.06930661296964642,0.0622567030448314,-0.017478004924271776,0.009123394303177889,0.019583361604743228,0.05160480423802347,0.02210548274118767,-0.01358167501671118,-0.05171104246762983,0.04011067115380325,-0.059202017787965196,0.055734381014754364,-0.07113973423948604,0.05659172641352517,-0.0150843,0.00049688013906246,-0.02763528557535911,-0.019140382113631397,-0.020736112543541477,0.029796587463034638,-0.021397443701185234,0.031834444566893765,0.03385783982241991,-0.0138647,0.011140550778626674,0.03890448253701952,0.01756347715959577,-0.06917129183643875,-0.030596556981748752,-0.032541020283964085,0.06201893247763379,-0.03295586,0.024959160823392838,0.019256268831164394,0.06894325182103203,-0.023774623909708404,0.03849331982175558,-0.040522282472246866,-0.025317560768675307,0.02409663715210091,0.02773132103027693,-0.06897060839018007,0.04386531271337017,0.028188989712169682,-0.05881533008574663],"bias":-0.03320166502285771},{"weights":[-0.02922523,0.001995523019132606,-0.014082529281925065,-0.03722129552558122,0.025265586039999982,0.0261255,0.03619656535805968,-0.025527573019174795,-0.012862515490016432,0.05053981987319058,-0.04557884095915676,0.01132519,-0.0603411659915317,0.04824520676852,0.07021218200270861,0.06642182819521739,0.03087814672923608,0.05084560292108776,-0.016034127374566897,0.03332273164408593,-0.03310556363401528,-0.028094030218591314,-0.060047622618929826,-0.022789504288269657,-0.0518640404706915,-0.022207456171929544,-0.004436586636803823,-0.052510872118224666,0.06790589940121097,0.0020845021704504105,0.057875694038262815,-0.03771289493433046,0.010037326199557084,0.05510397479594315,-0.03698321441816445,-0.021639210557958942,-0.047693288937916675,-0.04786525347512514,-0.00791452605618812,-0.055349568624419254,-0.01017625,-0.06775677993999626,0.011353179135474699,0.052785029958710934,0.055449600373594546,-0.0010069295924326881,-0.004156215436699581,0.052484147824746516,0.036785635790002665,-0.07122315003370955,0.05458892853628769,0.007024378481803557,-0.0024335666392073813,-0.011522,0.016078390474979276,0.030238886075339897,-0.02565370538271371,-0.030312229925821377,-0.03507390710107594,-0.05944350449828128,-0.04850078295233406,0.06580808126618419,0.03632868815640486,-0.04438142423291708,0.029486301060126008,0.017153894056671885,0.05816447780001834,0.00086636,-0.00858036313671429,-0.04009310603259689,0.0573250209154175,-0.04261580206621842,0.05067126540600362,-0.042244518725233375,-0.02822673,-0.006367102221956689,0.04266542,-0.062379324411020634,0.027008662131377866,0.06433157336801502,-0.01976786323068788,0.009985018258210843,-0.03695978266585218,0.0022043572628323432,0.03780187,0.016538678969788785,0.04661253827358616,0.055889820647027334,0.04812188897316435,0.013148196623368663,-0.02436695763557961,0.016522181170162978,0.03633374168262673,0.050847260262697584,0.05642030805534208,-0.03302873276674559,-0.004580711041381579,0.009785173106032065],"bias":-0.012830742186763668},{"weights":[0.03815326,0.04131639911319474,0.04530675199477185,-0.07224079112599302,0.007897617008512268,-0.00832086,0.004600606184947726,0.06641457018955953,-0.06204233603680608,0.05595501558001372,0.04544643950737251,-0.05463080678398663,0.03655449438965529,-0.06755607425870828,-0.040232043569752664,-0.029848000362332077,-0.03871725097754008,-0.011732085947944152,-0.033865516073374825,0.01862512193984584,-0.009685337463909715,-0.015485146858510086,-0.004782559961732581,-0.07043210689372463,-0.05342960402580475,-0.019804048416094438,-0.017475869516413414,0.018336061582893606,0.022858022828619422,0.04808030693181419,-0.05633789883581486,0.026128297045600265,-0.06725437,0.03942731107823324,0.04866188427356206,0.018099632929292977,-0.0604742777103355,0.007164056347179026,0.03858055880769706,-0.010580745896053814,-0.0484893,-0.057609757051373174,0.012661179758236876,0.06875340305682372,-0.010737101501936871,0.03911575719736435,0.043404857351635316,-0.02992210847986428,0.04639387946517914,-0.052536311149517206,0.04751106137877449,0.0017120302414155991,0.04505595868170354,-0.03527659134514579,-0.02493751734553514,-0.015219553995333038,0.038516796621834826,-0.03564498848314938,-0.042725247413268184,-0.02270874321159157,-0.002609414991480504,-0.01435706370684294,-0.05077016102256711,0.021684394499448822,-0.024420074735499446,0.07006107234556663,0.06564876447479716,0.05883667,0.01088026174693794,0.05721531591517573,-0.0449203435303409,-0.06967664313164294,-0.04422787385742826,0.02989763376199389,-0.017031989771349194,-0.041746047578906896,-0.00620999,-0.022939434815580827,-0.06986873482605359,0.014524212432855281,0.022834808243994618,-0.06533541177981275,-0.036017443728766495,0.014307960571991518,0.00049788,0.06367377219877268,-0.029202442094755802,0.06411193954997328,-0.062121766773857806,-0.030165129827374133,0.019128309315473685,-0.03191585244291902,0.018349284936270884,0.01633434665580781,0.0227288858379324,0.049404409164144326,-0.016034236088397123,-0.00815362339690262],"bias":-0.028091095001293753},{"weights":[0.0696841051314994,-0.0648622608979593,-0.04541663718112816,-0.05092972872203712,0.023585517767149157,0.01756478,0.011120152712174782,0.04967243599905907,0.04184392043918838,-0.06248112765330407,-0.06301886508730754,-0.05255096,0.06673534629329916,-0.016469967098447513,-0.034141600814876584,0.015321965383053792,0.012861690942953793,0.04697759,0.022309814060587477,0.05601923,-0.04095579128250883,0.025713191314696876,0.06713270752108526,-0.01366306869902101,0.0681284030420662,-0.04770006984046001,0.045629477057753616,0.045996745185890975,0.014206040574097729,-0.01665290099175169,-0.04076083838848388,-0.033391149456651614,-0.0657626076808831,-0.04758035406859317,-0.025297554758886606,0.01837897516297699,-0.038299487487228896,-0.041421844860510156,0.04986345128660115,0.0015684846571362198,-0.03744567,-0.06070987000470892,0.06548156772284251,-0.021188959712715536,-0.05457190157709912,0.044877860631512174,0.003955756964618094,0.012072957665764982,-0.024286704780332957,0.06323942198405712,0.05698276746370949,0.05836397911875925,0.016628983417398064,-0.05163346273959893,0.04168561799229724,0.06632960176946712,0.06807964718937785,-0.01809413818738871,-0.007042673660218747,0.06064008666020594,-0.009130245931778526,-0.04939893241160986,-0.04890178868989904,0.03441736676326744,0.0027540720031216464,0.03841215655492368,0.02278360469795261,-0.01802167,0.031109080970446585,0.012587033836004792,0.002428156548190338,0.062403669027211575,-0.06918421992717114,0.008478785474899279,0.01513099,-0.062477949022542306,-0.05837128,-0.055650649551493174,-0.0390903842298265,-0.02007865,-0.03950292011956577,0.015351093049915485,-0.06920091743640311,-0.009401810350526528,0.05131908,-0.006487444802883535,0.02557531636060791,0.03994978493154298,-0.017167734017699898,-0.07004375158134726,0.04250227180797018,-0.009410334452791479,-0.015705214847814643,0.06860655907724839,0.04475501554683672,0.0009583426159707689,0.06680144687004926,0.007658740233674625],"bias":-0.033009365015204864},{"weights":[0.04136802162616981,-0.057303034976690204,-0.012594524217070042,0.0464407088438112,0.00894722637774966,0.06971449,-0.01732150329483587,-0.03815350516910894,0.035273422614166564,-0.043909539653480434,-0.04137447466253714,-0.038773490093283604,0.06374544990958257,0.020007829967389493,-0.052970143274685945,-0.02499191948106071,-0.019007898772825844,-0.009912993553851942,-0.06016706901313511,-0.03059605206797606,0.02996545656538559,0.029107907766306448,0.067871325081844,-0.008847921082512655,0.0009491955008653038,0.020017148185280446,0.045160493041714954,0.05858723880831811,-0.0019565908478649183,-0.007382303109531362,0.06448892317495498,0.06470463961943741,0.02489558329862486,-0.03889012219333846,0.047565708720640455,-0.0605939736845436,-0.020696882101943676,0.03294835386271788,0.06307850466208607,0.011951008660125164,0.04745797,-0.02837977660295798,-0.022736213744885814,0.05641375787318103,0.04846760997561551,-0.006135899945047652,-0.007891688748751461,0.030154837393025054,0.027810858047789166,0.031706710030577095,-0.03020914112583094,0.02728339743276117,-0.04823858471461205,-0.06535850956948683,0.03532336226027593,-0.03633627401496861,-0.05359638459305581,-0.06244278064910229,0.016704409795185744,-0.0009512869666858263,0.04119939922578053,-0.055597971333405535,0.050935962798056775,0.040660017572562976,-0.030904058317980918,-0.0615299147123153,0.01206742752545668,-0.02878227,-0.0544935775400114,0.030321803558488566,-0.07170949972956103,-0.04854120309515071,-0.02743247557984508,-0.04921851344041173,0.04379974812622325,0.04022473366462025,-0.02450229,-0.008261560086324322,0.050118804905470715,-0.01040700336863869,0.0043536391295582524,-0.007573043044740026,-0.04057811513219883,0.04905724407842703,-0.00089526,0.059828410503525706,0.00294372,-0.05490408105739138,-0.03756911335933385,0.01342304589089038,-0.021745824353030185,-0.04173883246538244,0.06799096316283051,-0.042655087048773216,0.017177210591619908,0.00645287589024638,0.046932023302693075,-0.004983732217988769],"bias":-0.04909836525549002},{"weights":[0.03912283,0.00809609,-0.00507747,-0.04818817,0.03093506,-0.02604393,-0.02579138,0.0443888,0.05174027,-0.002646,-0.00215645,0.00650849,-0.03287847,-0.05252679,-0.04436196,-0.01404176,0.05222358,0.05088876,0.0378623,0.05549649,-0.00073226,-0.06343238,0.05210587,-0.06502188,-0.05530846,0.00987035,-0.04749313,-0.02699073,-0.00936824,0.02800483,0.02493641,-0.00834084,0.03175787,-0.05712734,0.01749866,0.02967173,0.04164518,-0.01091359,0.06730807,-0.06935091,-0.01110468,-0.0635313,-0.01590255,0.00736559,0.01881478,0.00838669,-0.03072196,0.05608716,-0.04459264,-0.04245631,0.00237732,-0.02345818,-0.0600953,-0.05049721,-0.05183254,-0.00235178,-0.00372989,-0.01219393,-0.01721288,-0.02183756,0.06727979,0.04389957,-0.0203511,-0.01826888,-0.01571246,0.04201731,0.03948824,0.00725138,-0.01309227,0.00992574,-0.05342436,-0.03047695,0.06032191,-0.02278285,-0.00772113,-0.0168442,0.02718516,-0.02092766,-0.03991875,0.00538785,-0.01689645,-0.03091438,-0.00087015,-0.02324112,0.06646623,-0.03848161,-0.00806124,-0.05973034,0.02092568,0.03826875,0.01209044,-0.02038308,-0.06747856,0.04837242,-0.05215106,-0.05361243,0.00491913,0.01266292],"bias":0},{"weights":[-0.06151862,-0.06231204946360541,-0.00048153160555817234,0.0005306758545935531,0.03427674579405694,0.04628578,0.024037679121096063,0.05502471,-0.01264606824311056,0.025127115457132955,-0.06629724,0.05580706,0.016523130993875708,0.030049250460930862,-0.06649681,-0.03672277,-0.0413542960478927,0.04382842070253372,-0.02205076,-0.06536482,0.0484926,-0.06257389578881035,0.014861730837884444,0.009856380429072319,0.05146121,-0.0244212385706677,-0.032351988740760604,0.009085353001877764,-0.06685967704503176,-0.06161787514223817,-0.00170295,-0.01755781,-0.03235294353369727,0.030246568402793272,0.03145016,0.032057730865731875,-0.05444296492007903,0.0377252840109764,-0.019076521336474746,0.002865299490799359,-0.03686845,-0.03038338128093216,-0.01390341423827007,0.0017855296055540972,0.05744415,0.036110208431784356,-0.06837634730328236,0.020842419096791912,0.0632267983409402,0.04253245199410488,-0.02834251,0.07073576111857131,-0.016860530079962504,0.06989334,-0.02434098,0.00413088,0.00907687,0.043844293548920714,-0.0641134422753948,0.004561712701230618,-0.010415547963153434,-0.025419479416170006,-0.02600863,0.00452784,0.04926604031718993,-0.01519287,0.00038699891814964756,-0.04744942,0.00545885,-0.03730479698800226,-0.06960832,-0.02997088,-0.032965653736619166,-0.047467623557732215,-0.0693717,0.029948095157998907,0.01248937,0.0547597,0.05028523328815946,-0.06831576345141388,-0.02214687,-0.04553587558861838,0.00754979,0.04519495777261699,-0.02462738,0.06345260664461008,0.05938892,-0.01559964,0.04662842818637825,0.04485216,0.04124012,0.036808845218685805,-0.030271542778108954,0.01622311229642493,-0.02727075,-0.02290855,0.0071524896961810205,-0.013415306975358978],"bias":-0.006999829587033105},{"weights":[0.015898955914596995,-0.03198400550396756,0.038032463317631576,0.020806270314403102,0.039957218938940615,-0.01589509,0.03800369913541815,-0.04302024666560107,-0.041524208586070005,0.05396463467215479,0.06396014984796532,0.057966322308367235,-0.026234160010810283,0.023439410740484792,0.026623749651107594,-0.009975132626422044,-0.019276324665722485,-0.05204348021182952,-0.0004153497593037473,-0.031019552346633176,0.018685112465571547,0.03619512622138515,-0.0019072002505933698,-0.003289720466812299,0.01924786902842757,-0.005226144097227302,-0.07587834492851747,0.05620511956995038,-0.053578080094796914,0.046376352050327974,-0.034072991576168415,-0.05423649178012788,0.018753618199953328,-0.02245331912197113,-0.026881851320749384,-0.01630691207534931,-0.004599258768652452,-0.0016434923546675996,-0.06426435776562343,-0.029581449055927325,0.02484435,0.0010289296065428312,-0.031470717296182296,0.06221825256439872,0.06185441365748473,-0.07179236664747053,0.009517975125995467,-0.00729454537131271,0.013933047048247441,-0.029182633359265683,0.05958987797295735,-0.07020005464623034,0.015411175798738398,0.0641076205313034,0.05556635118794891,-0.06487493381754997,-0.04325255165533891,0.02316005761458664,0.01765796972468388,0.00970945967709097,-0.011954199216242424,0.008013703730697298,0.013164752707002571,-0.05338358572313444,-0.060189105315254586,-0.05064517962105452,0.028577747171346746,0.01624696,0.05544557156494808,0.04853681058792329,0.034062866568566094,-0.009733200348256548,-0.028826365559753223,0.04918371384774846,-0.05774002892702988,-0.05080048404707757,0.0012748,0.001131119930492079,-0.061180382550328385,0.02655366276040983,0.037024660448357935,0.05817516150983546,-0.015745158792781856,-0.02775996935753973,0.03774928,0.0635557397392757,-0.04829436218904187,-0.025756894355590032,0.07028125621828246,0.06718597460400749,-0.029621356720876096,0.0327714253675982,0.007812113700686819,-0.04767665827704806,0.05110721460403591,0.06128581395466477,0.010206172443680763,0.029246550660041826],"bias":-0.05219332500637166},{"weights":[0.048202483112296926,0.060223798580067954,-0.028513409598850428,0.029129631029604697,-0.028079118235305633,0.02482748,0.04727115310097524,0.02426153605386476,-0.06872501507070021,0.00411594847457474,-0.04728366545540151,-0.051715042904906694,-0.05943747651898454,-0.030892646830722466,-0.019301477639170596,-0.06997409143589499,0.02172806331215343,-0.04912785678983347,-0.039457141308079174,-0.03873270140756803,0.023966872798796425,0.015621002834008496,-0.06411352153759615,0.024774624346861823,-0.0005362273665915699,-0.022812191780465774,0.04999334289098238,-0.07027548892654,-0.02073701054867053,-0.014703340594683634,0.021924832713479187,0.058980205488290804,0.01991027983917341,-0.05471454463933018,0.019163033152386877,-0.06782419000811125,0.06148019833974426,0.0035353450458645353,-0.0023926973389402782,-0.051874245327762775,-0.04762279,0.05639114298968904,0.011475659093959945,-0.009500416466340405,0.01805071284114579,0.03644401957160407,-0.04401264319652118,0.06176852832130344,-0.005515765923007146,-0.06840258558965863,0.02399778989249031,-0.03345295526598905,-0.04714793513071582,-0.04719603815852737,0.05135051207942407,-0.052741526422881914,0.06067974319948339,0.03614054495219699,0.03510332463412225,-0.057239680702154,-0.004302960925344312,-0.024784640698689873,-0.03419173719335893,-0.00935518321176547,0.015903449370136026,0.011109657239688894,0.016624075887577524,0.03575191,0.0008864183250491517,-0.06275597037304276,-0.02981166772366728,-0.019468964926086206,-0.04930167346043936,-0.006260800688565607,-0.02509672112114827,0.04770348818567296,0.02993178,-0.029092199770247944,0.011212591338801653,-0.040843324251864495,0.041400213793697835,-0.07273055681442314,0.06449434247775811,-0.04467753839578102,-0.04912274,0.05484123769643249,-0.04355035355208251,0.029869815289585735,-0.05979848442441617,0.011610985383174486,0.01585096888865262,-0.040650765642063366,-0.026957244515924347,0.058452399344186765,0.007969066772111016,-0.017175498746002858,0.023616978249876915,-0.058816961418163075],"bias":-0.02765409501012791},{"weights":[0.04053110650283853,-0.0071857727257092835,0.024278320212507556,0.018399520620987105,0.006855859421115881,-0.06581395,-0.04119342711710834,0.03442947507659133,-0.0038709100596886425,0.046039298627093474,-0.03512121832272314,0.06853931489947845,-0.024491391344333775,-0.040618997331649115,-0.050586467788255096,-0.05281492134506828,0.0673313354748222,-0.062450386468727664,-0.02951136664566023,0.052698590313604354,-0.012143953688770087,-0.012210128898243015,0.056663560023966865,0.02298595607768752,0.013311453669928858,0.001397509137461194,-0.009763663369879336,-0.062167940079465654,-0.027821612277702776,-0.026726081818348225,-0.0636038292601739,0.01873582175879458,0.05111980042177211,0.033562080526285044,0.06025719346516378,0.012417826293207314,0.05364661467169511,-0.009252481867960636,-0.03293214629871484,0.06266751833566958,-0.03320161,-0.05037810050908699,0.018588973733882103,-0.03455655835440894,0.02293458943676018,0.05188692141824819,-0.03901953782399564,0.035427610641940034,0.008290822982635105,-0.053478393882087555,0.007709264676154468,0.03090701737142382,-0.014547311144401257,0.013877963448821265,0.001261034368231285,-0.03544271360588731,-0.04401048803436747,0.014755122205304758,0.06412318172756043,0.06682580936763671,0.04998697374493352,-0.06434285902235047,0.019111021897580776,-0.04728468418124315,0.019498913270258555,0.04345818693958763,-0.032782037749624626,0.02011666,0.04021911495760789,0.04624374499879071,-0.0730693268342093,-0.01828166564444146,0.05437697173009407,-0.0007116763475253755,-0.008225308265146078,-0.012103781305578154,0.06989473,-0.023876675658681415,0.022057114793243765,-0.01841853612450158,-0.04624279712548677,-0.03819386445063846,0.04107614894197111,-0.04371601827806133,0.03937279,-0.013677712954989258,0.016761098434574687,-0.044603175752439515,-0.06293197565607452,-0.03813561764274616,-0.06014797748001228,-0.052999849948936396,0.0019027936476740967,-0.04116144571815096,0.047624898388051146,-0.033793518864349996,0.031015079469407625,-0.04188451168528701],"bias":-0.03894927217214692},{"weights":[0.06565692881448015,-0.030371482838654974,-0.06189232371810395,0.008314573624560841,-0.007667491560339961,-0.01376619,0.03879372279384596,-0.0034694474403949038,-0.05087017972928619,0.058336451960201215,0.01877524810354292,0.03458923,-0.02324072949239443,-0.02176422068699369,0.031025679193623694,-0.05780007325887202,0.011062091394352554,-0.028397867520923305,0.0420908122280279,0.011085579846515495,0.036847829212492585,0.009331974650720538,0.021580250628662444,0.033044641616845935,0.06215822399016698,-0.07046954092180298,-0.0056833537541993,-0.02494870812180563,-0.04689370953508721,0.05837056341218501,-0.002234632322449452,-0.05980253282663992,-0.008990736138960278,0.029675537635656727,-0.05376031308673776,-0.015390229244538343,-0.06888816012717242,0.06498164319914682,-0.022169314941639522,0.019697357088191092,0.02945749,-0.03785847210765082,-0.04364067734492789,-0.00637054877946746,-0.015235847779694695,-0.03657255959741505,0.0019119807936862057,-0.02639238061822185,-0.044813881178883366,0.002621331441521985,-0.06670765324767035,-0.018550153081451783,0.0298415556262141,0.025242535550173514,-0.04394762985322918,0.029685223250466644,0.009066930843554295,-0.05789074384026286,0.04465136763165667,-0.06515167917378399,0.03110087421651184,-0.058544841251723795,-0.05203495675417462,-0.06828717788901624,-0.03305787659659101,0.03856437948962965,0.044323660076614195,-0.05854621,-0.03612566574904924,-0.05074528607808723,-0.06133959710447796,-0.06366331827633386,-0.05375711859072045,0.0495554647017008,-0.03044709,-0.035272378529951395,0.0347256,-0.03745900998782307,0.009568117003446702,-0.06961901047372021,0.042515091009601595,0.05023847085741946,0.062925340290269,-0.03427978072954205,-0.04735337,0.048325876592181925,0.008627705286534853,0.03634505538481937,-0.062282623980362085,0.011517783711356077,0.03623703190880072,0.07031250435551996,-0.03621545898352565,-0.06448967160593136,0.006593163980176782,0.03402984001486889,-0.058988647420626816,0.023342823808320756],"bias":-0.013073648237019623},{"weights":[0.051399864816268695,0.05783576014224677,0.043318993385988935,0.045723430526955135,-0.0240543510188652,0.03229835,0.0008879725229638956,0.0031077774458182304,-0.01907029139388027,0.060948816603512625,-0.007482236698509765,0.05891002,0.0035162031548094377,-0.05896464573804092,-0.013686252750859626,0.060293584034623836,0.016816413172902597,0.00611523,0.05700867596657768,-0.035980159576395006,-0.02160332018058715,0.029427554011053857,-0.0418609246958676,-0.028884009756279784,0.06156707341110022,-0.07101106562454465,-0.011775931109220159,-0.051678720504473905,-0.0017119204208184194,-0.053697359537342136,-0.06867555547437887,-0.018769088269166744,-0.02216189187035847,-0.03172278368599557,-0.03793235355355732,-0.047505960992468704,-0.05216967774757466,0.024351601463930485,0.05083432852665731,0.0027394826316261608,-0.06499056,0.023667326778021962,-0.0275977132122187,-0.03036563281301432,0.03834863510160379,0.051817125271512096,0.013380732626967451,0.011460934580712357,-0.07059578815549074,-0.03443728752720808,0.056218702902162306,-0.06697473684499268,0.006088820205791029,0.06193700259980452,-0.059084480661553855,-0.024542860969119073,-0.022853607228108124,0.009523512959041563,0.0411518057636446,-0.05030216,-0.05080997823504945,-0.03659512855224703,-0.019866225148769963,-0.06041471004098754,0.008564986153285813,-0.05486648767301118,-0.005956449888208035,-0.01489477,-0.021150743579130944,-0.047327888910021376,0.025105042358909653,-0.05486133969677015,0.028210285257725,0.011705327477922679,0.04228534,-0.03875896081664487,-0.00509184,0.061601519418158515,0.009414400197967767,-0.06110830435100246,0.005138426422101043,0.020651745188902962,-0.04456176881298719,0.06622487464113772,0.00857078,-0.03133728947689053,-0.05611013143900126,-0.01556035472150581,0.043889122986534655,-0.04778525999675101,0.005610906557641818,0.012595521583989362,-0.02881604909820596,0.05808606878597862,-0.012920394465679502,-0.05939278538712841,0.05683419711010862,-0.0037650494699279606],"bias":-0.012362985011656901},{"weights":[0.02586132,0.03107459,0.04201695,0.05836232,-0.02058586,-0.03282981,-0.06537066,-0.04348414,0.03765774,-0.0600499,-0.05736784,-0.05200091,-0.03908439,-0.02309886,0.03045297,0.05981572,0.03106594,-0.00778502,0.04501918,-0.05195416,-0.01208937,0.06407989,-0.0449875,-0.06198988,0.00606169,0.02489847,-0.014178,-0.06608047,-0.06345579,-0.02349976,-0.00886195,0.01144089,0.02912394,-0.04347684,-0.02659368,0.01920631,-0.05536734,-0.06398183,-0.02479577,0.00899129,-0.02618807,-0.05048429,0.01119984,-0.03092258,-0.03066748,-0.00796774,0.04320264,0.02551945,0.0021275,0.02880894,-0.05985055,-0.01348275,-0.00462732,-0.00807232,-0.05924122,0.00958351,0.01392827,0.01177784,-0.00822064,-0.03138855,-0.01302932,-0.04381867,0.00898564,-0.0685114,-0.03132674,0.05465035,-0.01336443,0.04796801,0.02165804,0.02830914,-0.0499832,-0.01264337,-0.01876508,-0.07089472,-0.04438413,0.05537024,-0.05727396,0.03621428,0.03183542,0.02741722,0.01152727,0.02630721,0.00602665,-0.03020718,0.05617915,-0.03719285,0.01303381,0.04467708,-0.04329398,0.05745039,-0.02893623,-0.05006005,0.06711068,0.06267127,0.02144704,0.03547395,-0.05704334,-0.02891913],"bias":0},{"weights":[0.05656282221175372,-0.01590379944639575,-0.03519224624543312,0.025824069968383195,0.026543815095943807,-0.06629956,0.057814697662410146,0.018558023235147877,-0.02426489148777438,0.014697662405714643,-0.044214040525940135,0.055605120152016664,-0.037037010022673636,0.0328815198951804,0.027299432794827792,-0.05604154763187059,0.017485181306031425,-0.012045882164371498,0.047343840972996175,0.07049460649388173,0.03837557792388486,-0.008508083833579894,0.0499297580122468,0.02533520889839842,0.04398540077785377,0.0012968364080447132,-0.06591683640925924,-0.0648268029741759,0.05986120560497133,-0.02104518303104806,0.05627050530982473,-0.01660663470702693,0.0649972028020953,0.05568889891438297,0.008529427940958829,0.02720916659071213,0.02033026188462731,0.002153345149600497,-0.07328719524606601,-0.04525428477550975,-0.00417778,-0.03420292975424672,0.029061698800064137,0.05798103674244431,-0.0045578387903149175,-0.06298303495740289,0.05532252139882092,-0.040674481463206104,0.036421938437676264,-0.02616624674323545,0.04664364767185933,-0.009331221337154128,0.008461364277560392,0.024622047996359336,0.030737889967812973,-0.07170288526241642,0.011780751149562639,0.04547132184949496,-0.05186748061182948,-0.012505286863758012,-0.037105597240760166,0.0205022632371613,0.039523856527297244,0.023353726408033848,0.06611285710236536,-0.07030425547745209,-0.06957679787789503,0.00499584,-0.07036903602736272,-0.020707637584891324,0.052501436092651524,-0.025838468285945264,-0.03409747016363027,-0.06867053724826089,0.0181719846170164,-0.0175281106513521,0.03084244,0.04726371821766209,-0.04221049262452279,0.04453886228000326,0.02382748089410574,0.056567210677391226,0.03085154631902013,-0.009928869400514467,0.06196574,0.03242461091621575,-0.007300573850822524,-0.02436866970749934,0.0383360837914895,0.0515309372993965,-0.07146270861143443,0.014060308140220416,0.04054468863609544,0.010538639017762096,-0.04246989764778655,-0.0326627804575066,0.03859925042304202,-0.046773758015157346],"bias":-0.04430542954381597},{"weights":[0.02361396,-0.03111067,0.04859654,0.03190378,-0.05492934,0.0440677,-0.03778734,0.01345542,-0.01342166,0.0585988,-0.04234744,-0.06917527,0.0475134,0.00537656,-0.00821988,0.01483768,-0.02020131,-0.0593871,-0.0037235,0.04625265,-0.02369834,-0.02030915,-0.06792026,0.02582219,-0.05311743,0.02741515,0.02006172,-0.06097217,-0.06732367,-0.00632532,-0.03632015,0.0148509,-0.06869945,-0.00620425,0.01151081,-0.06118287,-0.00907037,-0.0159522,0.01080332,0.0528393,0.02813805,-0.06796216,0.0278463,-0.02838952,0.01951522,-0.04426609,-0.0457677,0.06450791,-0.01230874,0.02150847,0.03736971,-0.01199106,0.03072444,-0.02454544,-0.02542897,0.00070018,-0.06528078,-0.02262721,-0.03892256,-0.05514482,-0.05297895,0.06479943,-0.04915301,-0.00186056,-0.03371478,-0.06020885,-0.03180662,-0.03944399,0.02339252,-0.04674425,-0.00109442,-0.01145947,0.00973084,-0.04229169,0.06025191,-0.01586576,-0.00096304,-0.01110499,0.02844357,-0.06006919,0.06878061,-0.00277197,-0.04486425,0.0306914,-0.01887418,0.05799358,-0.03394496,-0.04471831,0.03777051,0.07006709,-0.05385622,0.06422233,0.0593452,-0.03002905,0.05498952,0.05708887,0.02471078,-0.02333244],"bias":0},{"weights":[0.014609711571536541,0.041169854356355874,0.03762290995676022,0.04206557187897667,0.013204719146211012,0.05758062,-0.008263512642789909,-0.04318675896775817,0.054051298846142466,0.021714326710981523,0.04813077659816436,-0.062213377435674816,-0.046726134920150646,-0.06747534050601378,-0.05911688570870702,-0.04311362462745655,-0.06020324540823797,-0.0022237573604863598,-0.03403180095776387,-0.021791813796576433,-0.05517648117944895,0.05977584601059981,0.00462369274837059,-0.009082085209634369,0.010900419614548797,-0.044836144920969434,-0.006646957506272621,-0.06782633530817976,-0.026463709765596147,-0.05416707586749443,0.05412656742544598,-0.0053587689749180056,0.009308240119196903,0.05466966659971765,0.05378031004175179,0.003996420467889996,-0.046406809847576364,0.06659694567088277,-0.014404256368187807,0.0646647341165462,0.03648422,0.04318368744530726,0.00811382287549265,-0.06726310880054927,-0.06886916689762061,-0.05572384686927672,-0.04893655176484177,0.017122950569788523,0.02144864944736828,-0.039726781582983456,-0.03750469033799059,0.054664993116569686,-0.02080404547008836,0.0074322387563286255,0.006954858890236291,0.031249044748690245,-0.03214453377050644,0.0024907513291948834,0.06138028356268133,-0.025894252833155842,0.030358792873357816,-0.001586575834865381,0.0023661150233340728,0.0550473984867783,-0.008855002153898986,-0.007288604833056921,0.032974201409269606,0.00556705,-0.001545887217795359,0.003694210881638784,-0.050885455454769,0.057091945207374574,-0.024453135785331065,-0.06054734018633058,0.014519760055626984,-0.023137495533172438,0.04323145,0.04363851873183187,-0.07173752447826826,-0.029644712833196883,0.030139914098144895,0.021988435771543424,0.057614720782206696,0.021933811848495143,-0.02003548,-0.01863422069296167,-0.06881858164156344,-0.012683329686718646,-0.0030441603224609956,-0.021811146516301345,0.015027855443665413,0.062305010758102096,0.02403081861641497,0.015902202151318174,-0.02961847065029599,0.012842196199484339,0.027159712276070034,0.013551029793580907],"bias":-0.05313663265653507},{"weights":[-0.0585218,0.011099768241806822,-0.053852588462066565,0.024011809873327232,-0.03979323769926085,-0.05202803,0.0053406187653802974,0.016465893603896418,0.038464339844286946,0.03032314095736558,-0.05877452248796126,-0.043727198910438636,-0.03890932607302676,0.0531247384848748,0.06879575531773578,-0.03641071162444424,-0.007489062260148526,-0.03252160811681611,0.03216037299702122,0.04682803652842038,0.044924483645733676,0.0031193592834708084,0.043022358370339436,0.03250801389573593,-0.042866231627011635,-0.0273367120042573,0.0013544176373111098,-0.027625987939677767,-0.0001614344502513693,-0.036933617682173424,-0.04270111512491955,0.05963073534510546,0.0012082681628003782,-0.009400955522794843,0.06004484374010421,0.04497984936421925,0.013838112125355073,0.00998344307404512,-0.07207243154880819,-0.04413635894638328,-0.03622645,0.014748390750140877,-0.06424980074482067,-0.05832923440678378,0.024750191571159524,-0.05983779792559804,-0.04942754269864977,-0.025163449787847843,-0.023234325276734805,-0.029616058136756614,0.03072456914850237,0.014740752518719601,0.03967291683840877,0.02983572,-0.0403441545664739,-0.06917030622925668,-0.016512094081599486,-0.021868986676360055,-0.03725425161815848,0.02331506788189824,-0.061552066726915995,0.00859879258879096,-0.0073437258390388485,-0.0420463969065773,-0.03207278313166456,-0.05619595119808516,0.06046729047624503,-0.05415151,-0.03974958319460479,-0.03397296430883694,0.01205603362880834,0.009228439084181507,0.040996997006222634,-0.06422222723631178,-0.054979114335043065,0.0674394009383521,-0.02074013,0.006460622469639273,0.02746650359026735,-0.03950412846894517,0.044170268334562265,0.025220018114087472,0.009455061088502395,-0.05308761592386487,-0.06875207,0.0004524450399105925,0.03167867328973774,0.06163671859110007,-0.0005587071057652112,-0.025128372857216787,0.06587774424835974,-0.05368349,0.01785356520286265,-0.025562385179177975,0.042281360876426664,-0.021313466613360182,0.03820247282538119,-0.06013738689033165],"bias":-0.01747852545228949},{"weights":[-0.07013662837218594,0.02408619,0.04085457,-0.027941598812305197,0.06261647219135436,0.0199944,0.07067811235191239,-0.06686015,-0.04773125188626836,0.02406097190557991,0.06445204322372607,0.05521643,0.06993518,-0.053829913142809965,-0.0451735,0.021834957559673514,0.009441031701067698,-0.00378852,-0.018218585084721288,-0.006742787593356126,0.048314837508742485,0.010341816979600944,-0.035856637337339674,-0.02895154,0.03736802879507616,-0.014915816515982535,0.018858590847618255,-0.06099483,0.047698128141957244,-0.07214255021694828,-0.0421104932607055,-0.018454753199318268,-0.009973657511034921,-0.007154706541023261,0.020811988184008316,-0.028114832145287212,0.02057665177323543,0.03430133482841669,0.06720321808646522,-0.03939705,-0.01310845,-0.07056441742399372,0.00677432,-0.02493248368941355,-0.046789293850791225,-0.03478122849306107,-0.05392948596400065,0.01248556,-0.01057183,0.0706335310138083,-0.05933938824572643,-0.018868907618195277,0.06996162974787495,-0.03669052,-0.046439226057292865,0.02434189,0.020686412671842153,0.0082591372086768,-0.059467355746367,-0.06254097830962455,0.013665317183874601,-0.024458631403010012,0.03254295348316188,-0.01780394052960742,-0.013459236354060324,0.02215896,-0.06619682,-0.06865751,-0.023325558819515094,-0.0321338710393135,0.0572603045239595,-0.05573608553991587,-0.0631417289208944,-0.05322616256104095,-0.06597518,-0.0631456,0.02088906,-0.036898396052799536,-0.06365523139645549,-0.06007513927090125,-0.010314831592524481,0.058078785559454005,0.049485318606080714,0.023540875943081838,0.0618301,-0.030776968254674388,0.02663394,-0.0412367678796413,0.04552216222127235,0.05475542622059899,-0.01670698583446983,0.016589,-0.03497837679663939,-0.028887268981375554,-0.024413427015985794,0.06563905,0.038164244298932025,-0.023789497191799215],"bias":-0.003587475010236047},{"weights":[-0.03897062597531563,0.016590906252593487,-0.036140673801952426,-0.06580979505976538,0.026668632758396378,0.03258892,0.00957344,0.009703984694919059,-0.04544405565086539,0.025980517329343887,0.03965398917379156,0.06607742768745926,-0.039108427911165325,0.012474325121819464,0.04259509373939798,0.02445075352150627,-0.030789987345577315,-0.014785903431121687,0.01264873285965461,-0.0351128,-0.013039583681722861,-0.026746926984418985,-0.06192112325226172,-0.012806624909336154,-0.026654227711673282,-0.047033269889519176,0.039606207514339624,0.029002173847938184,-0.033527240802919356,-0.065176545008747,0.052358206546608575,-0.04818888452575625,-0.027348727799004994,-0.043165619728647735,0.05608953918869801,-0.016816518054226216,-0.05667282575871422,-0.005707657022278295,-0.031242057451044896,-0.014269034520931725,-0.0396836,0.00032633003280040513,-0.04073836556043362,-0.04604996245965324,-0.01620817,0.02432802787948905,-0.0705388057189674,-0.012831314119895276,-0.014534008163440306,0.06255493731348127,-0.04346791684979841,-0.019585653634217295,-0.02315178576824529,-0.007648892017297832,0.0060059347691332155,-0.02363956118230965,0.03780823403997363,0.05910217206590049,0.012681799832639059,0.03265248583448791,-0.06518121792663614,-0.03246681068613618,-0.05137361954720321,-0.008406285754997137,-0.04384449086083947,0.046668841834936366,0.05724725506029173,0.04886127,0.041580352134987876,0.04727550877530001,0.05789687448294523,0.06096246576245239,-0.02612193806634352,0.025230267682735896,-0.04731389142188554,0.035307913854217506,0.01579328,-0.03221969045722708,0.004418172956304226,0.06074656,0.06615983000775083,0.04897042434310428,0.06366934523941531,-0.0658132238379992,0.02139539,-0.026488395176600024,-0.023909284507408,0.03671542215115873,0.02247502,0.05495764124393362,0.0059919877953326555,0.024112470808187056,0.02191971864664623,0.0003369816050912117,0.01100694724329521,0.04973769369230812,-0.0480793534846391,0.056942988520474434],"bias":-0.029625735007045014},{"weights":[0.004404260214336624,-0.06221283199295123,0.048802251256182094,0.05217775853561897,0.015823540482305817,-0.04681228,0.05367404944966573,-0.05492451808793822,0.00460478905087597,-0.0020998593803856483,0.022896973051166513,-0.051551720408473854,-0.033938863622083426,-0.03296994691567904,-0.0556712832314125,-0.056808744401495775,-0.018817386028454345,0.024013443637335898,-0.04890582867335282,-0.01801506322531938,-0.0006086773358326782,-0.05287920837180451,0.0533724754958892,0.02472551408485088,0.006197366818172593,0.04440834378315656,-0.0006578912572683199,-0.035517257703688965,0.04118648098802296,-0.03549981728403353,-0.06183963965657552,0.05633153679140867,0.061540157920346415,0.021069084963236392,0.03460859379456923,0.05370364243292375,-0.037258753096347824,-0.02970349065823763,0.026977232822896043,0.0560292794702134,-0.01680053,-0.075585616428739,0.008623028829572261,0.027296091682765377,0.05220324174823111,-0.05896830574332922,-0.00878061639547459,-0.02552131492753394,-0.026095433436838913,0.00021620579499655055,0.03051445879970223,0.011452722538416915,0.024894707700559144,0.002729270386643121,0.023295479928400656,0.018505992786895603,-0.026122760418943246,-0.0368944909370223,0.052854676326685994,0.054307264058100636,0.051811991897529726,0.010611978689122467,-0.06283011067031488,0.04837408805391429,0.059659137722520184,0.0006401754767320936,-0.06535038616640279,-0.01788902,-0.06258801708711727,-0.029010404721962868,0.0029195464699194183,-0.03314053408329883,0.041144380224293384,-0.0498749594276643,-0.05716715317502602,-0.05683625040616992,0.06137618,0.026245942121095194,0.030343388942602884,0.0609796018984711,0.05967373307481285,-0.041261473113747574,0.04977393087865474,-0.0025424842512929784,0.06844425,0.04842641745498265,-0.04320950688105917,-0.011486164524806362,-0.03913745002868285,0.0544819266057515,-0.05362272434619942,-0.045984892756742224,-0.04394592325048576,-0.02900808678488054,-0.017014723450461077,0.053464635325236,-0.03655244630380757,-0.04558825502261034],"bias":-0.05414145678190511},{"weights":[-0.0358133,-0.02441331,-0.05262576,0.06927571,0.0240262,0.04181396,0.00491883,-0.06344029,-0.03428538,-0.02131251,-0.00641204,0.05688773,-0.03772628,0.03812742,0.04197716,0.02530823,-0.06181681,-0.05386043,-0.03159401,0.03613699,0.00292692,-0.06973305,0.05856986,0.05291388,-0.00928945,-0.03518949,-0.05152433,0.02226463,-0.01046673,0.04146128,-0.02621816,0.05667391,0.00144619,0.04639994,-0.03566534,-0.05168954,-0.00663099,-0.01534959,0.0246499,-0.06279587,-0.00298403,0.01766923,0.0462594,-0.05690898,-0.05811989,-0.06745556,-0.00531917,0.02204838,-0.04669239,0.06823985,0.04817918,-0.06921075,-0.0164435,-0.02621999,-0.0043386,-0.03472475,-0.04492361,0.04868022,-0.03916111,0.03857278,-0.06789817,0.01807403,-0.05090454,-0.05839238,0.01693936,-0.02132399,-0.05178702,0.03049517,-0.06844075,-0.02298208,0.00246993,0.02201722,-0.05625879,0.01017052,0.06887187,0.0060744,-0.0553281,-0.03359248,0.02274888,-0.02918604,-0.05284213,-0.02018924,0.00410739,0.03844207,-0.0052117,-0.01242766,0.01095927,-0.00161347,-0.06435856,0.01007688,0.06473697,0.00500823,-0.06409271,0.02608645,-0.06276656,0.01614053,0.00379584,0.01754835],"bias":0},{"weights":[0.01999661,-0.0692135119052377,0.0018111599820463758,0.0023961358777039197,0.047501648293284106,-0.06749288,-0.03155246499021606,-0.00044419896599861924,0.007589556265821046,-0.043920132962240406,0.005993483129003212,-0.015499526706559283,0.06210765163468034,0.018721838302233295,-0.010962165681777018,0.05327046070262527,0.03808708456919794,-0.06859278400546745,0.017936529005789965,-0.016037998428460598,0.05314232378862241,-0.04813348948942274,0.021973952838551202,0.03211282589080582,0.018756952004367958,0.05776445987529293,0.0032001978082953513,-0.05339099148646171,-0.03578739505866949,0.037036584739680085,-0.06192565649850787,-0.01880555477706018,-0.04687300931013367,-0.04052529270383432,0.027463493869167032,-0.0528589692474561,0.030882454133407733,-0.06775378153182463,0.055477802680074725,0.028032990654801644,-0.04455664,0.00011474636265188286,0.022921534961582474,0.00010652061438817859,-0.03025479343767862,0.006732447609909868,0.005433913715875101,0.06429061029128916,-0.041461425939488664,-0.06085360766373747,-0.06993154069626165,0.028525554635551356,0.006325943352570752,-0.0642276593707352,0.01528124818377095,-0.00725670915573911,-0.004805112972825104,-0.0030177898123449954,-0.010400293662080028,-0.03045071347512063,-0.06131360239211575,-0.006058819488305834,-0.06556373573544788,-0.005864141425538274,0.012819803099179121,0.03154282450038972,0.015499432208772345,-0.02121328,0.03879380101187257,0.02922666638810693,0.015663479497058014,-0.06913972352204832,0.03330942368824311,-0.07254681477129998,-0.023109431645142176,0.05063931398752609,-0.06442096,-0.053214733238321515,0.047215807752672354,0.018457636102338096,0.05943154242943746,0.06885514785571273,0.03145900590396044,0.02224684521846754,0.0174538,0.007364212683402052,-0.007873747045271875,0.012553143497330164,-0.0027371076491602597,-0.0497207763714635,0.04272089348716128,0.04379882007701517,-0.005449561248666501,-0.06810410296971167,-0.06061776000363276,0.009619479515469077,0.05994310233744347,-0.008899622276942057],"bias":-0.03896660502206241},{"weights":[0.02018196,-0.031576191797393814,-0.01994864,0.042074185177340837,-0.006563938378186299,0.00744974,-0.029004727304155813,-0.04538135,0.022380052884479695,0.011179860877692016,0.008692787284793745,-0.01478512,-0.05196354413632091,-0.008978419114199889,-0.07121675331749129,0.021501950719524602,-0.01800792916148602,-0.06782301,0.025929877487286562,-0.05113949694796242,0.028059469483642324,0.04242555455188474,-0.034148740490635314,0.0005412146149119392,0.030289016729090863,-0.013376756357876154,-0.014622091217585193,0.01865261109548252,-0.01521008187104765,0.022815647880518597,-0.0015865767948246917,0.05142485650887341,-0.04529628794850912,-0.06234387876905527,0.03847706393015484,-0.059303385159370336,-0.01873664440638041,0.00013580197730506962,0.036885724652938726,0.048398724652816236,0.06011617,0.028095276285976682,0.04227935,0.032348444362011404,-0.06714688420820947,-0.05828614221949363,0.06209875995589574,-0.03040815,0.07114855,0.03971055441786357,-0.04115127,-0.05667672533054069,-0.05421688424389773,0.01113734,-0.04259771255211616,-0.019544069208905814,-0.013465161400500416,-0.04936930010132107,-0.06171581069828565,0.06979269,-0.009524482997456717,-0.0488434151944099,0.0442521463685013,0.04533189833069661,0.008539230260106575,0.03504438451020483,0.0025606188241853118,-0.04411661,-0.040156,0.018481124563541645,0.01141599,-0.04520319779193615,0.013577344219251523,-0.04981092470467783,-0.06432012,0.004268571304278232,0.01265502,-0.04468833,-0.031367087574251155,0.014241814057512878,0.02520902853052554,-0.06422541630874881,-0.02688142,-0.04783421249474241,-0.02273035,0.04066454908667213,0.02387003,0.05846267902058266,0.03446427936064584,-0.05471422292152967,0.024810814637159295,0.05915009,-0.055052268947000146,-0.027888031352802472,-0.01815875703554568,-0.02537175,-0.045982875105759505,0.01851479],"bias":-0.020487419253627775},{"weights":[-0.06818297949852047,-0.06365158245293691,0.0058173371523685185,0.05113687432879415,-0.02892477338080988,0.01247757,-0.04462217,0.05080423907800797,-0.03419639,-0.06947567454515288,-0.044292919345324054,-0.05767602,-0.06944743737818894,0.07093415709614323,-0.06409882433145403,-0.0006204812390829289,0.060860958589400445,0.01478965,0.02385066829013343,-0.03621551,-0.005715227080174056,0.003399911320636003,0.043879557179709636,0.0710578819760762,-0.0648683369671094,-0.06219576,-0.03122227866835209,-0.03981738604370139,0.046712119901559206,0.009746672615885169,0.033505437125735185,0.010946301329779745,0.022765083025480047,-0.05308870345575317,-0.022652402385279165,0.03625301109480003,0.05490250833132159,-0.05077351302998359,-0.039677829515964914,-0.054755793934991887,0.06519988,-0.05592639307617926,-0.059677492503408806,0.04144552718809239,0.02269806,0.00925036682670007,0.06608089781588643,-0.04285616,-0.04776263129971457,0.027323331701890784,-0.026396807318806774,-0.03577231631901744,-0.05350385156964025,-0.05594638,0.06611859892404738,-0.00411188510316637,-0.0311214080043622,0.04220721023379025,0.04388351984467898,-0.06805862498555564,0.013890720133895178,-0.015552261358145055,0.06866221925963756,0.010516247878649895,0.02329492698254766,0.022898998917440735,-0.05743406825526919,-0.06641431,-0.0005569515286027913,0.03950162914829754,-0.05449049881307444,0.04381475030708842,-0.0124341484456085,-0.061230207083785085,0.05169977,0.04630374657990748,-0.03338562,-0.047230561615486014,-0.02327729769202648,-0.06805699,0.01855166085991471,-0.023521245142722504,-0.044430971994102605,-0.06975644096468689,0.03317144,-0.06765528561270216,-0.03285603492264161,0.06673533366798276,0.06331468,-0.00012475583651284296,-0.012564483293513529,-0.06112141,0.0705577298006106,-0.036592952662315215,-0.05168594828045788,-0.014414306921894608,0.019894249625412117,-0.0031565292982023508],"bias":-0.008885955507056476},{"weights":[0.05304622,-0.00784504,0.05052307,0.02371876,0.04184208,-0.02504854,-0.01396172,-0.05363372,-0.01244249,-0.00667288,0.00640617,0.03764769,-0.06007608,-0.04017658,-0.00611372,0.01804427,-0.05535643,0.04016504,-0.02490177,0.02697316,-0.01247299,-0.03237461,-0.05806432,0.06017347,-0.00564965,-0.00812401,0.0428728,0.0102712,-0.01956651,0.05740696,-0.02303804,-0.00804884,-0.05319247,-0.04528326,0.06586027,0.06845567,0.05842758,-0.0221609,0.02438433,0.05588627,0.02211008,-0.05830911,0.03854067,0.01044524,0.01794713,-0.05245196,-0.03143616,0.04308477,-0.00528409,-0.03868288,-0.05992711,-0.06612766,-0.01286848,0.04211043,-0.02156229,0.05035354,0.00965678,0.01684766,0.0150444,-0.03589851,-0.07105205,-0.02455212,0.03103023,-0.02592997,-0.03828717,0.04700978,-0.05015913,0.01845416,-0.06175379,-0.06051981,0.04212445,0.00391102,-0.05624391,-0.00319074,0.00001148,-0.02781467,-0.00776457,-0.06771997,-0.0050177,0.01271569,-0.05067078,-0.05141464,-0.03399629,-0.01710357,0.01680231,-0.00796107,0.03616576,0.04906593,-0.01295911,0.04185256,-0.0485698,-0.06917157,0.03852361,-0.006264,0.05885267,-0.01092558,0.01048494,0.02714278],"bias":0},{"weights":[0.02725324,0.01012191,0.06851055,-0.05856295,0.01856981,-0.04101067,0.0320765,0.01574128,-0.03678538,-0.05802862,0.00998587,0.01779419,0.00187916,0.04381485,-0.02249767,-0.00773449,-0.00162578,-0.05345068,0.06443018,0.01694261,-0.01352237,-0.06806603,0.01712128,0.06907074,0.0061779,0.01550754,-0.01061433,0.05337679,-0.00154617,-0.06062053,-0.04216662,-0.05512622,0.04807833,0.01978976,-0.01557134,-0.02053927,0.02976339,-0.00488597,-0.06394814,-0.02193608,-0.0118033,0.01879611,-0.05742765,0.03965866,-0.00504116,-0.0573921,-0.06030741,0.05732576,0.03632102,0.00021504,-0.05837976,-0.01813831,0.01981048,-0.04685098,-0.02869616,0.03700393,0.01627375,-0.05849002,-0.02150372,-0.01158586,-0.00355349,-0.01661134,0.05102156,0.03921393,-0.04386469,-0.00454502,0.01976991,0.05226795,0.04246421,-0.01933372,0.01582676,-0.06073874,-0.03295889,0.01697321,-0.05577486,-0.06558968,-0.04525271,0.0158703,-0.02659011,0.0710577,-0.04251593,-0.00851117,-0.01118128,0.06985345,0.02612037,0.01388995,0.06869574,-0.04390895,0.01384758,-0.05171254,0.01816302,-0.0084635,-0.02912459,-0.03599394,0.00479927,0.0385974,0.02532735,0.05524846],"bias":0},{"weights":[-0.015697667969473146,0.01785151299393763,-0.11454894747843773,-0.08210988620092682,0.27393622466231266,0.00470155,-0.09355065604121171,0.03562919514491199,-0.1591622656590293,0.05723140113789801,-0.06566998120920664,0.026715285217938107,-0.08053588407186127,0.04768296587204453,0.12212761488825037,0.1507941826714014,0.1855557701555354,-0.02195656701696934,0.10144210231872079,-0.031500712031228784,0.012678090400407543,0.21727470986530603,-0.0928879646777187,0.4019448655660787,-0.06471857796401653,-0.26021086848674524,-0.26437373014010423,-0.09512080282268759,-0.13036478106987556,-0.009002580608904982,0.10309480438652172,0.012910540907999363,-0.07202826424717165,-0.14981706462583502,-0.02343381699830778,-0.12023637289259906,-0.03717799653052434,-0.09327445922623924,-0.0072518897244807186,0.08705566561869664,-0.06189357,0.22315389276940675,-0.02404885725390177,0.07499387131680998,-0.0318080306114743,-0.006622204506485617,-0.15283834413544792,-0.06848004743016091,-0.06299803386282755,0.12623418215695156,-0.13835144214044537,-0.15684302893280425,-0.02700247614800789,-0.06998599244171144,0.087897008001545,0.2694099456572069,-0.14749311491051711,0.09564359785439809,0.1267111200715805,0.006830472690499954,-0.037181063501002254,-0.05240856832841548,0.2355738463035854,0.22246284574205274,-0.09196263833891784,-0.04149668725386564,0.19573598051949068,0.00007362,-0.06730730928498001,-0.16216452733179762,-0.09024792865418484,-0.1145798421210164,0.2577978613934191,-0.11283493014346091,-0.018395085326011834,0.22737073079768905,-0.00029988,0.005170607879905207,0.05714151969289439,0.0028308709984502167,0.13169616097808198,0.20771551648836012,-0.14940335836835572,-0.10999883052256806,-0.06324083,0.26905305683143216,-0.07015465968443718,-0.014256617380418836,0.0014456698672504777,0.08817656262898453,0.24579167091298343,-0.11056823488356142,-0.013535706246701727,0.20044629465575547,0.17102912566169456,-0.10482636164633963,0.08738688518113198,0.009337835136820176],"bias":-0.013500446807673311},{"weights":[-0.08324457204220818,0.22015092154329524,-0.08498104531393327,-0.11473486660529636,0.11522490899524737,0.06139987,0.026691615780630815,-0.20668800658899597,-0.11750503605316756,0.14573977960085369,0.1887917964600256,-0.10712143988087836,0.29741917815689395,0.0708265767440634,0.07568776135946163,-0.05164938812020794,0.147527610774157,-0.010354985380644124,0.011349748047061943,0.030682904200083072,-0.019767115868156115,0.13825084529696294,0.05842990447889329,0.3780782910223689,-0.16518718645937397,-0.14457950295231078,-0.17012614584828742,-0.33336599681474766,-0.30648142497823966,0.19531969362072268,0.007656925937639504,-0.00639096730977617,-0.12442794341440847,-0.24200876677801272,-0.3096935533541711,-0.3361899274337606,-0.0670160427864231,-0.22755220512099458,0.2385128541435228,0.7280561578472361,-0.00020344,0.06376773557528959,-0.04349298812841304,-0.04372130044068376,0.14717873813632512,-0.09995590084510167,-0.30879078819340566,0.2918895228505834,-0.1473396841803133,0.08302183506685719,-0.2252550494815091,-0.18171010925489098,-0.08231477191209369,0.25880064199443137,-0.002235687969990401,0.35697389369836513,-0.09093264344947377,0.11051852188156329,0.007554415858365516,-0.04265667667775947,0.2159233047899632,-0.11975033537786259,0.23714932455871163,0.11062915006922094,0.32912193217732855,0.012493553208943157,0.3843734844957048,-0.05747426,-0.036257003032257436,0.16468129332481907,-0.00574844585315798,0.02153322351896953,-0.0249323848190689,0.045644304565998856,-0.03794363430313436,0.5974791633786096,-0.06926314,-0.1856777509943387,0.08855834261620475,-0.10201644932951086,0.18927564439755892,-0.03128665463692648,-0.22840568950090948,0.30017394680200477,-0.01090025,0.36840302125477853,-0.12332925484333282,-0.1643811185632758,-0.038589012620299026,-0.11139391261435244,0.5261981573624381,-0.0749124024024212,-0.004843091854000339,0.21141501608793195,0.143319782533458,0.03166198223725594,0.1599009811354058,-0.10570140570079951],"bias":-0.07811646033149114},{"weights":[0.05349783804361237,-0.0479278948313048,0.028618149860761784,0.051383611521103253,0.0387157925470725,0.05057717,0.034315698447107544,-0.062036351667982256,0.023020721687725027,0.00504655324390111,0.027801879604624782,-0.05098957441721792,-0.06716236689211526,0.025197386886094977,0.006024001651822002,-0.04795725332111506,-0.06683852901938653,-0.00495855847103046,0.006621590492739075,0.032009023331189275,0.010862945076596886,0.058277208280209686,0.06057848166883411,0.050817174270157396,0.06282430317625037,0.0014258529391223942,0.06275980704429313,-0.002174914944940105,0.013680785743462006,-0.04061502814401324,-0.062116044966230015,0.06186574320877403,-0.05694206388341787,-0.009051951380826786,0.05296042934258687,-0.061169512070190835,0.0318048113500207,0.06031855823393048,-0.06873837919341115,0.061493757674159516,-0.02772543,-0.05706144690980157,-0.004338139128535888,0.05764917179365139,0.04782243030567895,0.04391669648216075,-0.07191863298455367,0.016480877317596298,0.00017220143972454362,0.05037856064131244,-0.0511030327489106,0.003410266825024081,0.026975976925057533,-0.052392812051704964,-0.008116806282577998,-0.06609536932138611,0.04715482774150715,-0.048691067643717084,0.003854056246673153,0.0662508639043096,-0.0706397483752333,0.059596248030617756,-0.06356660372413274,0.027422803268192533,0.0004787804890119898,-0.011013616638310278,-0.06271847340744845,-0.00282046,0.05142857562420077,-0.024034337488810974,0.02428321899541237,-0.0267191592360943,-0.06194527456555757,-0.014085832456395097,0.02577747537120392,-0.03812606709659097,0.01435601,0.049590743967944204,0.02613788868567602,-0.015488293417931705,-0.004284891495266927,0.05664568454033118,0.0264495999381351,-0.048548487754860474,-0.00190628,0.026982691799586518,-0.051879127992342504,0.06716821196155078,-0.04384460564886676,0.04396493568436432,-0.014809354642341854,0.016482497816477433,-0.031102978198081437,-0.06198017596492084,-0.048973577771988096,-0.02122403353695896,0.009752146241359026,-0.024575842708845993],"bias":-0.02450003629053883},{"weights":[0.039204249157522415,-0.06064962,0.05104877,-0.06357521101162256,0.06838382721970367,0.02280384,-0.0471198,-0.0516893,-0.05759942064196362,-0.03439752456478368,-0.0574875641339573,0.03791431,-0.01056513,-0.01255374,0.00314098,-0.0556833351260065,-0.03402381581377431,0.01372382,0.01544754,-0.05776458,0.05904007,-0.043885291988849044,-0.05467363,0.021936575571264435,-0.02843986631862334,-0.020696264651942808,0.0519621875409494,0.015305078022158355,-0.03277476795968747,-0.040166304837095955,-0.06128428,-0.03721014,0.04712232830933835,0.047217628717836975,-0.03428423834708732,-0.00920743,0.05023414867359795,-0.057657413602100534,-0.0265743,-0.03476260944410157,0.03439423,0.03132711435082259,-0.049787839739304104,0.03264576,-0.0101004,-0.02428206,0.00204697217934141,-0.06882709903041083,-0.01343247,-0.062345409674056475,-0.04828135109760367,-0.03238911033137503,-0.009135117069839351,0.058538208522286646,0.04125726,0.01293015,0.02473798,0.06809268562853486,0.051806956684422506,0.006934098235418235,-0.04102760860486281,-0.028907948528970176,-0.01273278,-0.04394235,-0.05865489,-0.014327239331800738,-0.05662058753993648,0.02453842,0.02349278,0.0450203366623512,0.023526131516884083,0.015349032691167644,-0.06451310167545854,0.04824967297221981,-0.037481875851382546,0.05521359912990953,0.00065787,0.01457672,0.023176208868618042,0.03838357,-0.01501727,0.0291199,-0.02373176,-0.00518091,-0.06723492,-0.028441788590094413,0.01408387,-0.010993066029269624,-0.00299519,0.0099872,0.05408158,0.04335594350341294,-0.0048056318740638026,0.06082534,0.00123438,0.04915555,0.02020811,-0.010705713466323798],"bias":-0.007653275005372023},{"weights":[-0.05726501498833602,0.0068584182191146524,-0.06969151850432805,0.05806972072015564,-0.04261489350569141,0.03439981,-0.048317350898585125,-0.01123128080166131,-0.04159468669592539,0.041304869298211255,-0.03151307870377899,-0.06231646774610654,0.02982738115080864,0.020049517519157258,-0.014099046801790978,0.05450607831808697,0.06331018472795312,0.01396940397025998,-0.050372639913698496,0.035530794546642,0.035303674018968716,-0.017294615279075953,-0.01598392392471462,-0.01464974546050117,0.02090442927547597,0.0034700589333904823,-0.05895861006620626,-0.01954732911382805,-0.02281205868695699,-0.01269204907066399,0.06851416654360293,0.008681353360256916,-0.014987173604243103,0.018566633177304268,0.022396035610554626,-0.009855559606311888,-0.013993649731174998,0.03775317944573449,-0.03653835683151781,0.003589951931744629,-0.02526103,-0.04899389573692289,-0.051530994265141794,-0.028029704692425335,-0.04312143332663918,0.06153371169133017,0.05284655902303955,0.005685868496746776,-0.040929558979001586,-0.01530797125936276,-0.05649508828457955,0.03208787877969994,0.054173223007798005,0.009767419903614101,-0.02269720268088684,-0.018226311485331763,-0.0562089560147869,-0.02587264497620867,0.054318899545293974,0.0025413275198634152,-0.01714380059605807,0.05261688745466593,-0.03249824747373667,-0.027713415480164903,-0.06994536552876877,0.018356300466083404,-0.0028433708580509224,-0.06475292,0.03334709695310195,0.0614529452822775,0.05637596947636675,0.010015162254391113,0.03916990010287798,0.04617619401913526,-0.04587590471146512,0.04342672427554997,-0.05366182,0.029180741262928942,0.04347258761419108,-0.04902891831834378,0.0461416868040553,-0.028537808824827773,0.007653882387938434,-0.05447652739586488,-0.01928085,0.06341476306121023,-0.0009993787522014454,-0.01113152880400714,-0.03318157659486945,-0.062099661340243764,0.01983833440288616,0.03167479158027649,0.03685018898088642,-0.00042789489112190354,0.031183123048118152,-0.009464020590421288,-0.03266053332220118,0.0661929246829272],"bias":-0.06437501151954489},{"weights":[0.03048803086884405,0.02766510764601712,-0.00560709,-0.017352785047506408,0.034915995284064756,-0.05228731,0.02085973,0.04711039816956792,-0.01256396,-0.050006958711085764,0.0692021637129256,-0.04350618606417285,0.036947827160560776,-0.04024814011001875,-0.032323593772648714,0.022118351318632736,-0.02051375798869567,0.044488409646234725,0.02641991364884768,-0.01594772,0.06894043619045356,-0.002335977893635586,-0.038418758803697474,0.00094464,-0.03739626647692647,-0.02826147,-0.05785716953592266,0.06561830192302497,0.06318473045995086,-0.006832158417948138,-0.03419566,0.012938675331510266,0.035552391512942455,0.021328968474064427,-0.01753430249659464,0.036550728634691186,-0.05360368530338676,0.017619037810408786,-0.04690188846231573,-0.05733992196229257,0.05062847,0.01492676,-0.004830930574645671,-0.032899877401760105,0.0308387,0.030078190474718016,0.06869996641721673,-0.0140323544844813,0.06235193761235739,0.04764864,-0.028990146343196348,-0.013830420218080551,0.03715220004368461,-0.06196896,0.059902767330866837,0.0050955096497688444,0.00198406,-0.05159446502727267,-0.07081757738326037,-0.0486113742000017,0.05562328694821601,0.049434638630150934,0.06344987563443255,0.05034802618959897,0.0544832921412782,0.02913208,-0.04531566903873777,0.06880926,0.03850327145436589,-0.05070150614294671,0.04150910284297172,0.06806687813857376,-0.06972479447091909,-0.0611420345445314,0.012116321650886556,-0.027193599510179085,0.06533052,0.040843166971085657,-0.023854452458633178,0.0580736,-0.06217962650305254,-0.06419631415247526,-0.012055047732249292,-0.05289557224207407,-0.06409715,-0.02246691,0.06071042,-0.06677268338078056,0.03788539,-0.0008473663048639824,-0.02225366517972898,-0.01956474540723594,-0.02816614,0.06295241252335,-0.04591083417492728,0.03400746697488716,-0.02000281,-0.05019180685394193],"bias":-0.011618075012354559},{"weights":[0.0017002293249203328,-0.010400999355419827,0.00406498751137817,-0.06116216311288329,0.016687523907859922,-0.03629463,0.01623627185719116,-0.045093037038793825,0.013846713370105844,-0.08276695214691143,-0.059819819981456884,0.020885389228554693,-0.053062022144863025,0.04737321757482394,-0.010617101462717986,0.05907178094736975,0.01923860195840806,0.017322160793483764,-0.05473579906019204,0.033049199885482765,-0.008073491619644197,0.04851392225671344,0.0663535552639005,0.05166948030948794,-0.025558104162882102,0.014720963966215812,0.015191703041169883,0.023682044052015547,-0.06274872406434932,0.06325632211919387,0.061343307014272416,-0.026132666735930937,0.06235604861610395,0.04297796635934283,0.042730759983928564,0.024764466438530853,0.06249013889352831,-0.07019639316590245,-0.028634469668396174,0.017356636990367092,0.02776174,0.04331993120509934,-0.04724729490025392,0.04349859911074687,-0.015584981518917324,-0.03068877805754693,-0.02239469319667404,0.04273642086396067,0.015468495290672235,-0.02001548461206851,-0.061829654143262365,-0.03421758164897167,0.0335114272965074,0.05056074537030998,-0.049813658174812446,0.05699009454152698,-0.0591689320397779,-0.06151412219743236,0.05718715693308341,-0.034344719645503355,0.01853396257612886,-0.029713719432013026,0.015289791995960127,0.040264773209878015,-0.04164028257664294,0.021927751471749794,0.04680497794016687,0.02112153,-0.004322674303790202,0.0183931047915877,-0.012477798504632058,0.06846340387309922,-0.0425787741688853,-0.05578709210130671,-0.03559981703580707,-0.05501213787374184,0.00618925,0.06945615752732387,0.06464149181631529,0.02230408855665102,0.039176521327859586,0.05502743353129754,0.04624941982444548,0.046140711867865475,0.00201798,-0.007272332042528469,0.03029234,0.06330161423592214,0.044145184724297404,0.03829546966906398,0.04402657315282878,-0.05044613327374126,0.05728276377790952,0.032624463271943446,-0.003079864278354112,0.028486248279603735,-0.003984994624551551,-0.04997797166375637],"bias":-0.0474675150171847},{"weights":[-0.06606041564197844,0.019516828286726805,-0.06863615274478554,-0.007515961155155193,0.03271738160974398,0.01173727,0.009191756034089909,-0.00782859,-0.010883607523942187,0.03318665337343156,-0.030698717343329258,0.05329457,-0.006401028800457574,-0.0726095182776767,0.03519478,-0.07062158528672385,-0.04166211150817838,0.021734644150794933,0.052916928525585306,0.03348006,0.00276155,-0.05975647536915165,0.0166781371561641,0.037648931248961265,0.03507664969638741,0.04915115047552071,0.033683530541200976,0.028952871186856098,-0.07371935902323273,0.005893456443644902,0.04648892246921627,-0.02867117429744937,0.06769612032095026,0.016626149230507946,-0.038695827419793244,-0.05488095492537316,0.0015402851504124574,-0.00541955816587661,-0.01591589260728313,-0.04698417808836025,0.05741252,0.0329445551496467,0.006938657092711871,-0.025060362766238752,-0.00093264,-0.06651420009266092,0.023469912651803565,-0.042517632011597424,-0.010109354449294035,0.0638422322773724,0.06226653003502114,0.014067806329394921,-0.056289699802421475,0.000013568674730145126,0.025866277000373823,-0.029735976519412458,0.01453568,-0.045938054316038014,0.005758390494010158,0.03762370170839112,-0.036771399924410676,0.042901475425091276,-0.050550531642694435,0.06924272924875086,-0.00893506562038475,-0.004953415265377754,-0.017025449456724868,-0.00152562,0.03900857,0.021391196140546683,-0.0412202879524344,-0.03806651798665248,-0.017763375383415738,0.04586166242635705,0.05116072860957343,-0.03658673960224547,0.02893225,0.04494324,0.02426733332427275,0.042731139500232836,-0.020104547092768377,-0.05913052664407105,-0.025058998003472978,-0.060891752466718206,-0.03362183,-0.019616515517876125,0.01943896,-0.033121148231153454,0.02050256284019751,-0.0469139,0.03126995593257943,0.01969890023772104,-0.0711863174856085,0.00792709566868374,-0.00688684,-0.00576852,-0.0033814369016180925,0.044031614593391534],"bias":-0.021337541850810077},{"weights":[-0.0414111264358838,-0.017195199911047867,-0.00888823610832521,0.06621481812937689,-0.04045319545350862,0.00580868,0.04907812172484581,-0.06390119004807251,0.04963649081223531,-0.06147611375832308,-0.0545771038484341,0.0379192020923275,0.048947225323461616,-0.06577439117927923,0.06798456871783161,0.06531487985215302,-0.001006343163450114,-0.006654865091761998,-0.03043514018803277,-0.01962287,0.032299494017755996,-0.0016759285016437909,-0.034883435118076477,0.06244368135189084,-0.005147557289452727,-0.0626909402493607,-0.03636607585351189,0.018822230764175014,-0.019924196785259942,0.01801147492272092,-0.054773612689476114,0.04878323690809618,0.007703325553646688,0.00620900695187461,0.06474976353989959,-0.07091356681000846,0.019820984864279242,0.05458684411370365,0.00408440988637746,0.05055115654036782,-0.02300122,0.022526366096158552,0.02372499315060882,0.05488694066745888,0.021478,-0.026161833296346974,-0.010322409612578486,0.030544640136197978,-0.011189865773227373,0.005930853463440851,0.06084727137769294,0.027436653329909768,0.050597671573388056,-0.05532003792041444,0.019969747093799645,0.028411647933956896,0.05145446,0.02257977553824863,-0.04336715032095257,0.04470052470588931,-0.05639304951427187,0.04297722659815292,-0.06696938229498836,0.04050795056006444,-0.04020057310679097,0.04188088065356512,0.06590562967133436,0.0302746,0.03146553330964896,-0.022712985889800946,-0.04700951633755999,-0.005179247865204612,0.0322469898574387,-0.05531735452884227,0.020012303277963973,0.02370858850586276,0.00250061,0.04760148799030722,-0.02264370795091785,0.04320869318756848,0.04421517846280248,-0.02367694235493394,0.03345567249007036,0.03310233996859944,-0.05021146,0.0334438887590571,0.03554196,0.007701426987724211,-0.06877250431763024,-0.02648676126089178,-0.013607140695839326,0.03398827029778682,-0.019900656594387917,-0.026575386444747374,-0.07045254782367966,-0.059381852410816185,-0.06454308600477406,0.058541244269229714],"bias":-0.024345478601208448},{"weights":[0.057767456646782595,0.0017281947536400828,0.07006293311778011,-0.00352825797962922,-0.021364034288647287,-0.01135772,-0.058351236486314836,-0.026143206712058924,-0.032199929809234244,-0.03245865355510178,-0.059378181714284085,0.032510182382379946,0.039670976366254204,0.012471833688923122,0.05532070334796274,0.03067078154385987,0.03973875403131468,-0.017010318013527845,-0.050108201231912765,-0.0308114,-0.05008755480996095,-0.04505338431751203,0.02472683125883038,0.03136884839766515,0.018790814291490335,-0.005611035264585399,-0.0006091734295097485,-0.024290353351981226,-0.04882686613883808,0.036831486956473286,-0.016667148229207965,0.05708414127900737,0.051546478514797975,-0.053307885340260985,-0.013961025205068875,-0.0497202039214714,-0.05005983464767879,-0.00017659596705387511,-0.024847622857239023,0.0025484939994114865,0.04474035,0.04418284985233576,0.03972686861328409,0.03842671523165376,0.04731656090081453,-0.06403130958710404,0.04777099934124113,0.05770663668381824,-0.03394912396750857,0.030937864000477246,-0.0163816270704446,-0.03200302842094432,-0.014638032503659068,0.051982224166018526,0.011178888061587034,0.07015196277244826,0.06577157736291206,-0.030505945961300508,0.004960616380326386,0.008449536424434407,0.051553966112819614,0.04430680183639904,0.0017277985364197355,-0.01578371255351356,-0.04502070727458033,-0.04922079240621297,-0.005251265503627827,-0.0241161,0.049376580671271486,0.054678161334769035,-0.038692968559547666,0.0428052779293253,0.058533272947163865,0.06444042258352364,-0.023638101015622588,0.03484388445384496,-0.01819093,-0.025266197490905886,-0.06626164145291509,0.009870770038913838,-0.03997497989350276,0.006966110649858341,0.019281815213600315,-0.05346064128246905,0.02538817,-0.03027203552138113,0.06628579866999482,-0.05432517126676533,0.038537808215677254,-0.03183065476783932,-0.010921831106995104,-0.008629652612657558,0.0039004809608905403,0.016608460865218062,-0.042990892114982526,0.00670669393880545,-0.004377187890689372,-0.0165868644313895],"bias":-0.029729948466209157},{"weights":[-0.022394814761173647,0.06308280316582345,0.23790559682846493,0.37149411859669446,0.14230379180435185,0.01434525,-0.029225860646469898,0.11975727905007887,-0.11962921418261409,0.036387690928775786,-0.04031934011633047,-0.051729450164470225,-0.10937404287423239,-0.10164833342367172,-0.05338153324892067,0.040702059300647464,0.3098916169630944,-0.0015300391255471378,-0.1624847735148238,-0.037771151037982724,-0.1895956808051946,-0.14306024757623037,0.07013368429951554,-0.04664513792308464,-0.0455714935319798,-0.13785228836810132,0.007707451269527737,-0.07062634198856013,0.19818520452048816,-0.2816291991240735,-0.005935050074816,-0.19685710919565838,-0.06303447916011892,0.10486385641152088,-0.1623534089002892,0.11592247698820211,-0.02891831583587509,0.0977130197553069,-0.006655188995960749,-0.19901850525002027,-0.01901168,-0.1413000246103676,0.045993510583026996,-0.09292981170315005,-0.0438268195068059,-0.048863246630625135,-0.05815971610651984,-0.1112309635435015,0.36695689479380683,0.004724174241807052,-0.037407342570237326,-0.17441045737884206,0.013377290817757265,-0.03704734882296297,0.22333216779566725,-0.00617402259168164,0.3232252814471924,-0.08656928299810315,-0.1458289268307215,-0.08093291842382472,-0.26495803207216134,-0.06902095085735918,-0.05586636763255132,-0.13960637411838164,0.21569021804929445,-0.04371897945314388,-0.09744788825428338,0.03422823,-0.0011760711169975914,-0.399665262333737,-0.1296596748600808,0.06134311074141278,-0.03710199703384019,0.2582469835299443,-0.08012284271075214,0.15053506736355948,0.03634565,0.18118638872647422,0.21910265821520022,-0.03529603399510475,0.2021260141694872,0.1423736197578161,-0.1520575818259263,-0.1683913838445143,-0.01454828,-0.15519871557458725,0.24176983758097254,0.49515826058902973,-0.02557354922853269,-0.1556404475486889,-0.021095311741236362,-0.0775638434976903,0.00376458435894818,-0.029622535322145874,-0.06981773050882695,0.17544321963738882,0.11596909144603222,0.025789525874158125],"bias":0.05411369006593446},{"weights":[-0.06971654927883816,0.15785849129017585,0.3322818482585697,0.3490799312881146,-0.10611567371115031,0.02856907,0.14428755884650962,-0.01417185982478929,-0.12261505344455392,0.055104434582012106,0.13462228909820514,-0.14690392352923692,0.2775073743534505,-0.12694151547203747,-0.061128487046647695,-0.004662180911881873,0.3684862235917588,-0.08335230592797263,-0.3039322915897948,-0.023416193424249453,-0.17944806584485629,-0.22078644336444717,0.15415533229632178,-0.11397187312843123,-0.18897829530347904,-0.024250314410422982,0.0508862586712406,-0.2212427383533839,-0.027962574700521464,-0.10517183881914544,-0.10345101088634154,-0.23405018121968363,-0.12827196748374042,0.07036329109802016,-0.47220494872349483,-0.07084706097002837,-0.08550537596661133,-0.11782252725535036,0.31992761272791564,0.3920232436066533,0.05278271,-0.0339154355826205,0.052623330284004864,-0.13809570987444325,0.10588097450642402,-0.07516320497079017,-0.20884059980181371,0.17684822801229072,0.3099110835764178,-0.053432798581312516,-0.04356845396274875,-0.15098220765581008,-0.08051163535880425,0.1833978671843699,0.11344063200323179,0.09756567964095417,0.30588462299767927,-0.12682839623247083,-0.16837654439588062,-0.07678408727338726,-0.03265610253939042,-0.11891008349578724,-0.1344902260733514,-0.16510673227199624,0.6120702544403193,-0.07325690332114534,0.05455896777256364,0.05584626,-0.13914600172988886,-0.007391145744609569,0.055067409287206485,0.28598699856480375,-0.292220526260446,0.3301237849803008,-0.015214219923175638,0.4085089884876094,0.05193629,0.10009325281477585,0.21477711728669205,-0.04854689882441705,0.31457284543785247,0.0029617688318579194,-0.32308657060514384,0.23300694370804703,-0.0380478,0.056636759793120314,0.07809876070707696,0.331875925656792,-0.013802681869021905,-0.26798577447533317,0.10881418118409308,0.022917600434441247,-0.02350795321816646,-0.050261767690745494,-0.178955906687082,0.21012548348048984,0.29210677651236017,-0.04532726236720132],"bias":0.005626831820862293},{"weights":[0.21078259794017054,0.10281577800186009,0.19058150229615836,0.5414457856182032,0.18223233911712466,-0.02128647,0.04268761771710488,0.027009134414591532,-0.27568875747007576,-0.1860516314877664,0.022673955259527038,-0.1172445785554269,0.2960926023259012,-0.22794580917204327,-0.06151666592308938,-0.1555627997660168,0.6659172563263863,-0.11590264747366157,-0.063860764293952,-0.0655890797498418,0.2812915245582395,-0.16144858480395866,-0.064369067991089,-0.26715363146589555,-0.15440832383847766,-0.37327766088264935,0.06916381098870465,-0.45123321958232077,0.19330603779790598,-0.39765403174462133,-0.15470978605415686,-0.2655290637173024,0.15271993079139168,-0.1934936972935943,-0.6615363092233556,-0.2687802665544007,0.05025134441929923,-0.10041986970443227,0.21188980232678026,0.32073972505452797,0.00974909,-0.43373631060767576,0.0590604029775778,-0.3056260447935257,0.08974268856832017,-0.147575188840557,-0.3718517245378905,0.019502990289067147,-0.01127493319385919,-0.1633997652520106,0.3052569201450876,0.155444741151062,-0.13237839710678317,0.10757636919827235,-0.23333416286483544,0.09986559898469041,0.0348099569362197,-0.07090442809799212,-0.5579236504285493,0.03697835624622366,0.15892011391645958,-0.10818191641712332,0.08156009183012088,-0.24446819219259208,0.21736073537713624,-0.08005756099709521,-0.09500343539420518,0.00668006,-0.057005044212055475,0.11558352484300391,0.1295464213235643,0.4145042072896519,-0.4067660751885941,0.06824911615328208,-0.1222489427953545,0.17546005688310642,-0.06333259,-0.013089954331174434,0.03345874604735224,0.011181637951888878,0.3595697774240529,-0.3510873437327895,0.07385994928639777,0.47862483376998316,-0.05447337,-0.09617188567750459,0.11614254482490258,0.22118234010949395,-0.025510640468627253,-0.07654308452498791,-0.143244224737705,-0.02503131357026526,-0.1790169546489136,0.09997845131761066,-0.12715916361711702,-0.09269451157499688,-0.12091060716118213,-0.06258468809571947],"bias":0.4813736891452605},{"weights":[0.10302031902580477,-0.08015368414381374,-0.018540799103584242,0.4461922335759157,0.1543081631930202,0.03971399,0.016536011884587972,-0.15370156941080876,0.056012836322837795,0.026674783866235813,0.06842089917392108,-0.24460516343855054,0.033263095317809147,0.06934802636285976,0.08081994262029274,0.09679777954593431,0.6279343519471271,-0.09068662184574765,-0.010196603821246607,-0.04717698342417825,0.36747985071298067,0.10729730774864472,-0.00480447354979916,-0.15845017433121425,-0.06167405353419135,-0.14213405130297702,0.01987020438487284,-0.5738709602127052,0.33343718514821064,-0.251657187967812,0.07868392122687841,-0.23560637789263814,0.026944288830430544,-0.26228697393671824,-0.2328829378555001,-0.183512889374599,-0.07873104324430126,-0.04484191736711682,0.3204664827932491,0.054171811833151576,-0.06509375,-0.07133117040351605,0.031912076366356006,0.06224547225529401,0.2061600736449143,0.05582971781169093,0.10098783240161326,-0.23050479045309732,-0.020137643919426507,-0.11225758960560213,0.15219195273482883,0.04556049888951628,-0.18800819870595972,0.020725758165040308,0.10232115122365444,0.17936828918456407,0.26463462465064946,-0.1242644784182781,-0.22908748418761182,-0.07896672696884252,0.3363115817715331,-0.10043686342179427,0.254620460483109,0.36139248864795626,0.2807809852351592,-0.07856464743580546,0.021043581187640915,0.00555289,-0.13120051414497078,0.05798713180975321,-0.10525825374127391,-0.012677616843767808,-0.25882968126929234,0.1329534852908294,-0.15292273735663955,0.15405424520758634,-0.0259596,-0.15249653726405715,0.01432068107616357,-0.09025331958936743,0.30696566335067754,0.23303074476095634,0.21608671281010905,0.3335733005912516,0.06943617,0.046200943420061515,0.06012160484681717,0.0666951562446878,-0.0532202773815325,0.08685327030622271,0.6119533532737432,-0.2779290879142976,-0.04107121007724706,0.18322005096864968,0.2198060327607112,-0.28574505944412043,0.26069711008571306,-0.1502661271124571],"bias":0.2865026977262329},{"weights":[-0.10303112867561631,0.20973364486701257,0.15965374651196118,0.35574014513878105,0.05217306662906507,0.01993367,0.16953972647623824,-0.08500847157392695,0.1153505962489173,0.39939968369295054,0.2577486312757051,-0.10558910663461478,-0.014970674649049706,0.04181709727397989,0.045671371587775296,0.25162662101940786,0.6580624939668867,-0.12732307750399102,-0.15022005836974403,0.07276606576376432,0.06520588485596354,0.31354762741926406,0.06677380360412431,0.10146844195161359,-0.10011958118324345,-0.0497081209722439,0.03689788379114061,-0.3227173467752377,0.019036626522453713,-0.1047867515861625,0.0348748634892323,-0.22152918380561148,-0.21211169672463254,-0.027954018401359478,-0.21036664350390688,-0.12895626756546752,-0.1256083332640225,-0.014873471519021896,0.4643034254421084,0.24876127910173157,-0.00037091,0.17742322300715982,0.0932161177587608,-0.12522582698783022,0.20350159089887385,-0.04427837561444968,0.030567219825156717,0.042383809462040865,0.1394882354231158,-0.005900732931119172,-0.2782876961617896,-0.41261943062087036,0.055275725152941435,0.08033780713220709,0.2629943480976465,0.19049011760745066,0.48693094341650667,-0.15886794440978322,-0.03764228475292724,-0.20038418598343108,-0.060853244998657734,-0.28331561118964554,0.09298701777147708,0.03477513500955584,0.43486420047030216,-0.04030306370020447,0.08817158280755935,0.06367286,-0.16978310561699905,-0.14622772450953145,-0.07699958357349362,0.07031247544526187,0.0182703843527329,0.06841316833162531,-0.05078030990176131,0.5453359944027946,0.04136477,-0.01647277025605387,0.10673354685240728,-0.0474068755054785,0.40366756495386047,-0.04005386638457276,-0.4411421677186536,0.07017101088564244,-0.01034849,0.30585202812227036,0.1049404935717686,0.19234273840046576,-0.10380790437868727,0.043888355238779056,0.49014832284025484,-0.42146781824807517,-0.09954204653566437,-0.03422943254099256,0.19264299006505442,0.05998669673685113,0.3313232012592704,-0.04856901663741319],"bias":-0.08895910097115221},{"weights":[-0.12169015854669152,0.3610741659630515,0.005522257594311313,0.2315208294912108,-0.07914669036321521,0.06974525,0.06087179838614234,0.06164141432451601,-0.06347537837429534,0.44752464412150056,0.08106272402788887,0.08412578271383088,-0.10001822148023569,0.0754624215142674,0.10677961150659612,0.1735767718760179,0.41382420766909717,-0.05293016106426675,0.08806690070657733,0.007395636138592971,0.03422812287360658,0.2281242149054447,0.12213973301015488,-0.03142876251618032,-0.09238479939427631,-0.059185616837794046,-0.21264136531116332,-0.2106868978274066,-0.2162008771519064,0.16307767818280217,0.04839748249142016,0.2249746887468358,-0.2181681781695566,-0.06069478931589568,0.3322428845530699,-0.058336022100223636,-0.17207725817724695,-0.012905960164703304,0.3059324463263207,0.3172808190259438,0.02557661,0.10785903494320964,0.08592389663407234,0.02013035300819647,0.19354583364342776,-0.12237389469230467,0.11730468833631227,0.2580854070749443,0.06488676835242337,-0.004640233837245274,-0.4011838584245583,-0.5917925207630452,0.04790866472962911,-0.04728007136715051,0.4844998920393723,0.23512212847826278,0.25257565730583104,-0.12619420654035507,0.0298449814665167,-0.09702361007297591,-0.2167032964886692,-0.3765998989501551,0.01391329423088102,-0.13834155441144919,0.3079202329688442,-0.060863808142172925,0.15484987978531436,0.0479206,0.024537602442458895,-0.1068894461693997,-0.08528596929719136,0.04207097744200566,-0.07798990554714952,-0.13634522656210435,0.062209223693038385,0.46986835966010704,0.06673053,0.3006502807695518,0.07670902255781369,-0.1289517951941219,0.26082184247125156,0.03064715924868057,-0.32278190112265026,-0.1735275465841722,-0.06543011,0.1394608990077883,0.10422162298051552,0.204220226045397,-0.17297997740117055,0.1748711207379665,0.306394739379078,-0.3945299151573674,-0.13407755698599924,0.029056445326543792,0.18154210725560427,0.38408169271108017,0.1821091011877144,-0.0879370786215105],"bias":0.15909649868644893},{"weights":[-0.1037595360865689,0.409619950066461,0.2270604265442905,0.06321334417215581,-0.15910792517092204,0.06779556,0.05502514466859038,0.06716033326458357,-0.14546169815710353,0.1099118521304623,0.10142748832795477,0.060632187415273785,0.1982630396353762,-0.16055832230400974,-0.004362687679605875,-0.11112415739279043,-0.08725715796226587,0.09274044530714762,-0.25527090524955776,-0.015237946534890206,-0.5465440003801018,-0.3041859288604932,0.1917090993813278,-0.02136753014925845,0.014499907979495213,0.04956739364264991,0.18726122779025456,0.5674327176214253,-0.30684964610187526,0.22502736193560327,-0.18649869305708555,-0.018229586678729884,0.04646167194268634,0.23976492914910796,-0.13786881816582108,0.26577440662596424,0.11074117368387222,0.061457759223357236,-0.14043992742121061,0.38608826253880574,-0.01385303,-0.05667973303117881,0.11807439572516584,-0.14080190485152896,0.02295596449956999,-0.11249567847741034,-0.18910513045977584,0.3712944798969178,0.26404968914139215,-0.05432841015393017,-0.22116367923001765,-0.0842851911056377,0.06953241422897269,0.2820489662826013,0.15634443833998646,-0.013543074233405082,0.073236353591504,0.0220491340716817,0.18794832049703866,0.08974764423341018,-0.3264211693991097,0.055042333320012626,-0.31200123856466205,-0.5891599924532596,0.2951120282648526,0.020550913631066058,0.12470933397403751,0.01770985,0.05023452414383547,0.039833426657386144,0.27500189549293463,0.34801775713740823,0.0834009427445585,0.3192447139505193,0.16115017749776694,0.34548096859530786,-0.00883751,0.24556177307256388,0.21007313512489706,0.020320522027546414,-0.014739478776021359,-0.2468322275804632,-0.40331988060129637,-0.05198044973964023,-0.01929702,-0.037671360782948145,0.04380865933153377,0.3150431935298231,0.08204117766074737,-0.5071225347675555,-0.48230369744602564,0.34797305093050984,0.048392093892175324,-0.1942969492392118,-0.3602806820079094,0.5004975361528927,-0.01977069675369815,0.16193160144727842],"bias":0.42953572075279595},{"weights":[0.03093778516906708,0.0012816027334144608,0.032208447334300665,-0.09892893689693874,-0.06295978658876926,-0.07110554,0.07856600700764686,0.04122481378453616,0.13232147014578968,0.05123163558753022,-0.19355856116390366,-0.0558931293479338,0.3193075516432037,0.2354327739092676,-0.022638453457819428,-0.07089325509373513,-0.10623690530241882,0.09871052338986043,-0.055888092252241714,-0.041691531107821506,