[[{"weights":[-0.01085351,0.03527388,0.01855491,-0.00013428,0.02688335,0.03906839,0.00254578,0.01393845,0.0433277,0.00345763,-0.03226921,-0.00060123,0.00987168,0.00012555,0.01916569,0.04379205,0.01674014,0.02383061,0.01994412,-0.12735428,-0.04324102,-0.09940771,-0.01190349,-0.00293599,0.03828713,-0.03055956,0.02194183,-0.0451095,0.0372339,0.03336539,-0.0131918,0.04343912,-0.11793803,-0.14461992,0.13240389,0.19189099,-0.03356615,-0.05466251,-0.01300201,0.0648759,-0.03876524,0.04074796,-0.04952304,-0.02494171,0.01557283,-0.05826461,-0.03947041,-0.12842771,0.03684863,-0.00202279,-0.15771728,0.16303408,0.14528066,-0.07221548,-0.08057186,-0.04229987,-0.01370318,0.00075146,-0.00318747,-0.07827572,-0.19558737,-0.48184634,-0.23858077,0.10530703,0.06325331,0.05419382,-0.10529329,-0.0732993,-0.05943553,-0.00113328,-0.05001488,0.0136789,-0.02031065,-0.13441595,-0.22073098,-0.38699959,0.02638209,0.71352292,0.20031611,-0.01868724,-0.13537838,-0.19550456,0.04216703,-0.01503705,0.00894597,-0.02046968,-0.01560456,-0.21879934,-0.16794074,-0.33423413,0.12529528,0.94916577,-0.0298857,-0.04173854,-0.2242484,-0.2553826,-0.04849536,0.01492342,-0.0472922,0.02361944,-0.04980707,-0.25496264,-0.22672768,-0.45596254,0.05613388,0.41347675,-0.39229842,-0.11535839,-0.16444372,-0.21596917,-0.09763341,0.04383541,-0.01743416,-0.02129336,-0.04928321,-0.26940662,-0.42223741,-0.38735178,0.07759136,-0.02166389,-0.44866941,-0.07434708,-0.07108053,-0.07594493,-0.07280544,-0.03193587,0.01639311,0.0876478,0.10419442,-0.26172201,-0.26765701,-0.3533857,-0.01759242,-0.0388795,-0.18556555,0.09411714,-0.00072317,-0.19250321,0.02997933,-0.00723967,-0.02610874,-0.00811727,0.21694195,-0.01998357,-0.05126127,-0.05183247,-0.16944124,-0.08416426,-0.15611332,-0.06362495,-0.03997616,-0.1070576,-0.00397263,0.00185083,0.02546747,-0.03887265,0.01593018,0.11677623,0.28305563,0.06341191,0.19160414,0.46215841,0.33337482,-0.04518772,-0.07597306,-0.00250611,-0.04049964,-0.04286441,-0.0067193,-0.01002772,-0.04447084,-0.06332795,-0.12623569,-0.24897978,-0.10361691,-0.12239059,-0.0380418,-0.03969637,0.01929088,0.00425033,-0.02937368,0.03769604,-0.04301383,-0.01314247,0.02250124,-0.00890384,0.04667738,-0.04975555,-0.04769385,-0.00864459,-0.05497523,0.03771028,-0.00132987,-0.03057243,-0.03248634,-0.01138547],"bias":0.30799799},{"weights":[0.04289259,-0.04427841,0.04672729,-0.01644477,0.01729869,-0.01895474,-0.01213287,0.04407248,0.02072243,0.0004963,0.01169695,0.04970048,-0.04317715,0.00277327,-0.00807999,-0.0420157,-0.03641149,0.0011683,0.01214201,0.01203073,-0.02790131,-0.05757741,-0.03192885,-0.08084716,-0.04145554,0.04440695,-0.0103473,0.04686112,0.00518767,0.02719743,0.03932634,0.01041896,-0.00372893,0.04053307,0.14782055,-0.02805186,-0.00219469,-0.10081756,-0.02844082,-0.02073806,0.04028945,0.00391955,0.03954612,0.01372168,0.11540143,0.08493417,0.20589771,0.18320488,0.12851696,-0.01233998,-0.11970327,0.05412328,0.13378012,0.16413245,0.07151487,0.04364837,0.0060977,0.02635345,0.02037795,0.04371606,0.05373477,-0.04238946,-0.13599815,-0.17435378,0.04989712,0.08937324,0.21285438,0.32180343,0.12773983,-0.01462587,0.04387774,0.03359185,-0.0318497,-0.00063169,-0.1379274,-0.11279492,0.06204083,0.26529598,0.07614204,0.03913545,-0.15326068,-0.078415,-0.0268396,-0.02869785,-0.03771231,0.03629093,0.01448034,-0.16860231,-0.04366521,0.17970958,0.54449204,0.27505348,0.11580402,-0.01443009,-0.30951719,-0.26029803,-0.04110247,0.00347063,0.00593601,0.03197183,-0.0955331,-0.32261153,-0.2382629,-0.07064229,0.2637584,-0.03779801,0.05171412,-0.01049003,-0.18477697,-0.17416427,-0.05482592,-0.0466074,-0.00650683,0.02031713,-0.063302,-0.33286649,-0.42396824,-0.46372949,-0.07883314,-0.11538847,0.00418749,0.11665625,0.09205555,-0.07907029,0.03160701,0.00393901,-0.03774124,0.02325904,0.14509781,-0.00807529,-0.1102048,-0.29848992,-0.24795899,-0.0992026,0.14227064,0.26441007,0.15258977,0.03417048,0.04251203,0.03773245,-0.04510486,0.04593478,0.19718406,0.32172401,0.15374904,-0.03105084,-0.01494862,-0.02739051,0.02892118,0.21830591,0.14737107,-0.03743629,-0.01096813,-0.01864404,-0.00992231,-0.03181366,0.08960561,0.18799311,0.19554441,0.14148845,0.21879179,0.08838688,0.12317018,0.07948912,0.06106434,-0.07457122,-0.02268469,0.02039832,-0.01702519,-0.03572165,-0.05551812,-0.01493134,0.04761629,-0.04695415,0.07594928,-0.02589707,0.01828714,-0.0391764,-0.04091347,-0.00086069,0.04991366,0.01247135,0.02202878,-0.00248868,0.00141888,-0.00118447,-0.02713179,0.02003226,-0.03149327,-0.01289541,-0.00305759,0.01319582,-0.03158826,0.01853141,0.03820021,-0.03724387],"bias":-0.16249042},{"weights":[0.00532387,-0.02986527,-0.03310144,-0.02875013,-0.03324838,0.04589824,-0.00859477,0.04912717,0.00933231,0.03295179,-0.03597374,-0.00539379,-0.01901083,-0.00826796,-0.04589596,-0.04388423,0.01000033,0.01143594,0.03971635,-0.03174535,-0.08960066,-0.06648607,-0.08913267,-0.04439592,0.02268745,0.04512069,0.03404034,0.01033418,-0.02728263,0.01470398,-0.00826724,-0.0139832,-0.02674791,-0.08115171,-0.34302948,-0.45330044,-0.37944626,-0.18529311,-0.10402573,-0.04214165,-0.0103681,-0.00728336,0.04560928,-0.0062512,-0.01713654,0.09775861,-0.06134064,-0.14966935,-0.08392613,-0.06766408,-0.05462396,-0.28877291,-0.26661893,-0.23702972,-0.15203917,0.02679444,0.00297662,0.02925634,0.17460611,0.15846825,0.17069439,0.21504384,0.21285279,0.2225232,0.36034896,0.1349212,-0.03166652,-0.21930013,-0.11982435,0.03235253,0.04819949,0.01934869,0.17638575,0.16807518,0.17429943,0.24745018,0.05378009,0.03563161,0.51463939,0.38847587,0.2516441,-0.01614288,-0.02265708,-0.04246997,-0.00259475,0.06480657,0.11138597,0.26919047,0.18485354,0.08996443,-0.22878056,-0.04394089,0.58175683,0.37124112,0.16055531,-0.13400617,-0.01811738,-0.01123888,0.00350213,-0.03628214,0.06761199,0.13405471,-0.07518332,-0.15872552,-0.2414694,-0.02681749,0.5517562,0.28439276,0.11924962,-0.0925764,-0.06304242,0.04195297,-0.03294835,-0.03193226,0.05852683,-0.04391267,-0.01872275,-0.08846214,-0.17220713,0.21544809,0.45842086,0.11971655,-0.19650503,-0.19124847,-0.07340694,-0.02005389,0.00768284,-0.02404764,-0.15553766,-0.34077749,-0.41100872,-0.52160163,-0.17492232,0.09978366,-0.07749054,-0.25571839,-0.3622741,-0.22095519,-0.03677771,0.03055401,0.02027868,-0.0348396,-0.15903611,-0.35384366,-0.58938367,-0.36127924,-0.36382498,-0.23135599,-0.30636069,-0.20915788,-0.18228682,0.00024463,-0.03294423,-0.02029731,-0.01711801,-0.04380006,-0.06540816,-0.10987069,-0.06168805,0.02163964,-0.13498673,-0.19101816,-0.11925313,-0.03480801,0.06735608,-0.00291287,0.04724156,0.03824318,0.04075341,0.00910497,-0.00703129,0.12863798,0.31171952,0.29446827,0.16245143,0.20496292,0.21546291,0.1235936,0.09995413,0.05007895,0.00143201,-0.00691142,0.04303483,0.00831066,-0.00592513,0.00820575,-0.02516727,0.01274938,0.01672269,0.02358689,-0.01928871,0.01804887,0.02372533,0.00959436,0.03608072,-0.03568657],"bias":0.34430959},{"weights":[-0.00588698,-0.03843092,0.04342779,-0.03446459,-0.02897102,0.04196988,0.02431556,-0.03957289,-0.04337162,-0.02266726,-0.03856324,0.03330143,0.02000641,0.01030038,0.03523054,-0.02304342,0.01726677,0.02299822,0.00968793,0.05833909,0.10146547,0.04444666,0.09516372,0.1002402,-0.01426827,-0.04807655,-0.02069868,-0.00707323,-0.04423659,-0.00762919,0.02431777,-0.04871262,-0.07571143,0.07468746,-0.04298849,0.00565157,0.0681291,0.00017664,0.02456263,-0.04114128,-0.01512068,0.02740006,-0.04765765,-0.02755223,-0.05671112,0.02916661,-0.12084782,-0.28597975,-0.3629968,-0.41235198,-0.44219427,-0.27626161,-0.14935473,-0.0124449,-0.01234194,0.00290273,-0.01128358,-0.004435,-0.06052324,-0.1837818,-0.23596235,-0.1753615,-0.18498969,-0.24474135,-0.65332071,-0.43982278,-0.20137023,-0.1125233,0.01944643,-0.00706216,-0.02176121,0.01865552,-0.03176452,-0.09493781,-0.30703418,-0.05638945,-0.0340229,-0.37927135,-0.49261085,-0.25739013,-0.20084635,-0.05346283,-0.04877555,0.01264493,-0.03128224,0.00508009,-0.05234604,-0.13034456,-0.01118446,-0.1727046,-0.23929615,-0.37513899,-0.2849578,-0.08702591,-0.12370658,-0.0895554,-0.01877357,-0.01462482,0.01148713,0.03819153,0.00500274,-0.21676374,-0.02716683,-0.10081928,-0.24361686,-0.19672871,-0.0974486,-0.12523859,-0.1130826,-0.11724381,0.00501449,0.01301792,0.04236815,-0.04399245,-0.03997635,-0.01090025,0.0594415,0.0457561,-0.0398333,0.02437391,-0.18848521,-0.23135254,-0.06369114,-0.05083875,0.02253189,-0.02615003,0.0344288,-0.03780092,-0.07213054,-0.04779775,0.08620088,0.31417891,0.23975236,0.00233696,-0.17515609,-0.0912748,0.03487751,-0.00311841,-0.03004198,-0.03752669,-0.04536261,-0.03772037,0.00042016,-0.08744485,-0.22487464,-0.11217785,0.03727115,-0.17765045,-0.32994571,-0.13002589,-0.05890721,-0.07873961,0.02482934,0.01880496,-0.02539655,-0.01667171,0.00032272,-0.12683714,-0.40321989,-0.5958843,-0.47265477,-0.54492179,-0.38841549,-0.22371074,-0.04158615,0.05914335,0.01347181,0.02151262,0.02550685,0.02958762,-0.00224957,-0.03958028,-0.01993728,-0.0362345,-0.09127649,-0.0633395,-0.07299797,0.00659265,0.00209216,0.05011876,-0.01669872,-0.03443637,0.00534504,-0.02724739,-0.04100655,0.04435101,-0.04534688,0.01437735,0.04008625,-0.01254889,-0.02672188,-0.03319898,-0.03287188,-0.01870141,-0.04917488,-0.01468131],"bias":-0.56716946},{"weights":[0.01196244,0.04619538,-0.02993241,-0.04571085,-0.00879953,0.0430994,0.0054652,-0.01016432,0.00124295,-0.05022412,0.04163185,-0.02406815,-0.02258616,0.0311738,-0.033048,-0.00732416,0.00688141,0.00508842,0.02942863,0.01931978,-0.01663126,0.0781266,0.01842972,0.01888851,-0.01797427,-0.0330151,0.01905478,0.02744075,0.04091169,0.03008791,0.04457009,0.02828726,0.0371434,0.01257366,0.01700466,0.08436476,0.09209419,-0.00524546,0.0373641,0.01719048,-0.0462745,0.0219016,0.03899618,0.0440405,-0.05283801,0.04167931,-0.00315883,-0.07220899,-0.05131967,-0.10907239,-0.0963258,-0.09676525,-0.0504124,-0.03334542,-0.02785055,0.00865239,0.0081205,-0.02370078,0.03260415,0.0080047,-0.03806633,-0.06636305,-0.05535006,-0.07038805,-0.09913928,-0.1066332,-0.06501499,-0.03582234,0.00285934,-0.04815338,0.04015626,0.02353812,-0.02372406,0.01054362,-0.11583487,0.00899288,-0.01196083,-0.09250833,-0.07454724,-0.0492962,0.02350918,-0.05250035,-0.00731398,0.03573928,-0.03451865,-0.0008323,-0.02205539,-0.00767018,-0.0194147,-0.09048874,-0.08611546,-0.08900921,-0.07074143,-0.05651715,-0.02534069,-0.0223281,-0.04953638,-0.00620547,0.00840139,0.04937531,0.04368264,0.01113033,0.04665494,-0.00581495,-0.04072084,-0.10938529,-0.00173167,-0.01096195,0.01288439,-0.02889272,-0.02340935,0.00043786,-0.026551,-0.0460617,0.05002932,0.08088758,0.04925071,0.0599401,-0.02935541,0.0450943,-0.02000007,0.02238629,-0.04908001,-0.03782372,0.01713473,-0.0454681,0.04885118,-0.00887287,-0.01378906,0.08220322,0.04791872,0.1018164,0.0464243,0.01518099,0.019242,-0.02501882,0.03180189,0.03569926,0.03197086,-0.01993625,0.01138008,-0.03777622,0.02118222,0.01122824,-0.00128102,-0.0427315,0.06241104,-0.10054943,-0.08887978,0.0164335,0.04249224,-0.00842364,-0.00579481,-0.00078016,0.01630715,0.02393177,-0.03323157,-0.03524413,-0.06199693,-0.13636002,-0.09748162,-0.14831472,-0.06586529,-0.06760379,0.00976438,0.04465702,-0.03854406,0.00120221,-0.04429924,0.01663851,0.00609982,0.04551399,0.03611235,-0.02316396,-0.04204143,-0.04008349,-0.04127352,0.00184552,-0.03468307,0.01335658,-0.02241372,0.00120487,0.03207313,0.01497818,0.02292312,-0.01074875,0.01118554,-0.0318584,0.00470496,0.03111716,0.01932023,0.03196614,-0.01629772,-0.04240171,-0.02096421,0.01315277],"bias":-0.11779221},{"weights":[-0.00456088,0.00203186,-0.00180896,0.01651444,0.03849059,0.00168079,-0.03333913,0.00022436,0.00280922,0.03949691,-0.04604205,0.04097435,-0.02483486,0.01003121,0.04408484,-0.02717583,0.04524174,-0.02118842,-0.04131189,-0.00587438,-0.02113326,0.01212101,0.02663464,0.06113389,0.02541412,-0.02379578,-0.04248627,-0.0309431,-0.03398813,-0.00609061,0.00359625,-0.01054397,-0.06941084,-0.05397053,-0.02295514,0.0487068,0.08797278,0.06519591,0.05007306,0.03117362,0.02280806,0.02299537,-0.00184443,0.05002095,-0.04552996,-0.00964729,-0.02008995,-0.11823363,-0.10500022,-0.09906021,-0.07629718,0.06354306,-0.01158661,-0.01250945,-0.02291997,0.01939106,-0.0399773,0.01816078,0.02391167,-0.04887045,-0.16941596,-0.17946193,-0.19411418,0.08991124,-0.06927932,-0.04937908,-0.09065616,-0.04937849,-0.01222161,-0.01033454,-0.02961982,-0.04156503,0.01467061,-0.01542784,-0.11635899,-0.15414721,-0.10511382,0.09562369,-0.00292711,-0.06112733,-0.09347774,-0.01660311,-0.05823264,0.0277729,-0.02471626,-0.04558189,-0.06756602,-0.04083698,-0.03236344,-0.16581135,-0.06147828,0.15865554,-0.10244928,-0.10969493,-0.07108673,-0.03325598,0.04381529,0.04010319,-0.01567311,0.02816695,-0.00395709,-0.05691663,-0.1124294,-0.14520029,-0.02942492,0.14301092,-0.19503704,-0.06344709,0.01143706,-0.06565897,-0.0331452,-0.02501703,0.0211476,0.02653393,-0.01309135,-0.04661712,-0.03573118,-0.07483992,0.13750364,-0.00179453,-0.20721223,-0.10563306,-0.01646797,-0.01800706,0.00125191,0.00740772,0.04475087,0.04334716,0.01249781,-0.05462555,-0.00771237,0.06008243,0.28301241,0.0303035,-0.15696551,-0.06238857,-0.03468268,-0.0701921,-0.0010719,-0.02909458,-0.04302101,0.01757907,0.0189519,-0.00315041,0.00498219,0.11093558,0.08557958,-0.12294905,-0.14011926,-0.08413205,0.00817553,0.01161117,-0.03752706,-0.0492195,0.0117961,0.00019707,0.03484677,0.01402886,0.06981107,-0.02982052,-0.05062403,-0.16246208,-0.17724237,-0.05234193,-0.01013922,-0.04837034,0.04883141,-0.04755283,0.0016216,-0.02901813,0.00094447,0.03428758,-0.02442167,-0.02596727,-0.06912987,-0.03983321,-0.0374694,-0.04054869,-0.01454329,0.01751654,-0.02894876,-0.01128628,-0.0187618,0.00477213,-0.00886949,0.04793575,0.03726277,0.02410824,0.04285157,0.00172108,-0.03245283,-0.02836891,0.02921166,0.02002628,0.00227027,0.01380515],"bias":0.03307135},{"weights":[-0.03164547,-0.01674454,-0.00095576,-0.02738313,0.04297708,0.03654651,-0.04199362,-0.0071988,0.00762575,-0.02477571,-0.03027657,0.04313711,-0.0495052,-0.02842419,0.02267108,0.01649478,-0.01568407,-0.04453939,0.01935102,-0.06586526,-0.03888802,-0.06631603,-0.07733336,-0.00933008,0.0259731,0.02461518,-0.03292216,0.01562793,0.00320122,0.02048113,0.02085491,0.02252172,-0.09033933,-0.07139205,-0.0347269,-0.23407143,-0.22000468,-0.21710222,-0.05401904,-0.00269562,0.02008462,-0.00825394,0.00574754,0.0378001,0.05167059,0.00640263,0.0077723,-0.01297304,0.07776009,0.30154242,0.32499187,0.09946997,0.0661829,0.16502094,0.06847423,-0.04454907,-0.01923554,0.04476636,0.04471368,0.08797858,0.1129324,0.25908206,0.26202249,0.18667235,0.25962015,0.29684704,0.39112489,0.42156742,0.09459174,-0.01463939,-0.00639638,-0.01779496,0.03408095,0.17362163,0.18076995,0.25698675,0.10903761,0.04375336,0.04931816,0.23394856,0.1226622,0.10375435,0.0074878,0.01753035,0.05022807,0.03137638,0.00193342,0.13722988,0.20863757,0.26568244,0.12790334,0.06251239,0.2254828,0.03753363,-0.05415778,-0.00218867,-0.02311642,-0.00012232,-0.0229217,-0.01557905,0.03869646,-0.09373579,-0.12672532,-0.02238018,0.18134316,-0.01566808,0.02178871,-0.03529328,-0.12945045,-0.15576772,-0.00866129,-0.04449748,-0.02620987,0.02133995,-0.06113492,-0.18786291,-0.27210054,-0.13888581,-0.07364366,-0.08898298,0.13190024,-0.08269946,-0.05040944,-0.06266458,0.0246322,-0.0180285,-0.01325312,-0.03038204,0.01847117,-0.04449977,-0.13223971,-0.36913562,-0.31599174,-0.02704511,0.02410753,-0.09919703,-0.07350515,-0.08392704,-0.0000261,0.01216039,-0.01314086,0.01535137,0.02296022,0.12821876,0.13666906,-0.06753799,-0.18069055,-0.07021021,-0.09860786,-0.00799443,-0.03173644,-0.04965289,-0.0497073,-0.02662729,-0.00787145,0.00015594,-0.00989364,0.09272405,0.14343098,0.31253784,0.42947207,0.12338428,0.0763055,0.02147304,-0.03560717,-0.00009482,0.02450143,0.00519768,0.00280379,-0.00489054,0.05065549,0.05168154,0.14322905,0.24513377,0.29869298,0.2488282,0.18433614,0.06847749,0.05645425,-0.02430871,0.01811294,-0.00475929,-0.04499081,0.0105261,0.00895745,-0.01821611,0.0231719,0.04174047,0.01066098,0.05105678,0.0223967,0.03857629,0.05892716,0.045554,-0.03464038,-0.0495106],"bias":0.14829284},{"weights":[0.04557661,0.03574174,0.00111372,0.02608012,0.03525844,0.00893074,0.02715162,0.00560694,-0.03469417,-0.03475406,0.04958755,0.0404439,0.03280211,-0.01055462,-0.02547351,0.01925269,-0.03720815,0.02908419,-0.02311659,0.02708406,0.00573029,0.07332436,0.0911819,0.06881883,0.06405025,0.04539716,-0.0151218,0.02628333,0.01893678,0.0439262,-0.02786999,-0.07279631,0.01512867,0.08387279,-0.03632047,0.12173638,0.1663136,0.15181433,0.11478115,0.04230056,-0.0135235,0.00031919,-0.04731519,-0.00347203,-0.03720254,0.01141031,-0.19629205,-0.32789516,-0.43942213,-0.52730593,-0.44668757,-0.19187459,-0.05011971,-0.06592358,-0.01866236,0.03383999,0.02178259,0.02351057,-0.05636873,-0.22148051,-0.34536334,-0.35075615,-0.38589433,-0.17464684,-0.58226346,-0.47776241,-0.27555985,-0.10703867,-0.00575868,0.01261334,-0.00807814,-0.00830504,-0.07369047,-0.101897,-0.41376029,-0.33723597,-0.07049465,-0.03383003,-0.52114973,-0.39981427,-0.2788914,-0.06504105,0.00574414,-0.03152081,-0.0422268,0.04439956,-0.06199802,-0.21615778,-0.22595545,-0.39628588,-0.20365179,-0.15497882,-0.54192342,-0.23106087,-0.05833671,-0.02537035,-0.03592322,0.01988095,0.0316834,-0.00852578,-0.00469935,-0.3188435,-0.16584763,-0.21732206,-0.18061464,-0.10002087,-0.42656437,-0.24337171,-0.05169779,-0.10438497,0.01182282,0.03580849,-0.02372029,0.04321984,-0.03013113,-0.05710483,0.05474144,-0.03664271,0.03578445,0.01010577,-0.50709168,-0.25184237,-0.04868867,0.02601378,-0.00154897,0.00816743,0.0421407,-0.00124413,-0.03270812,0.02870099,-0.02077939,0.38774262,0.46376695,0.0363435,-0.28119441,-0.07433731,0.07131666,-0.01925192,-0.02605949,0.02855625,-0.01453881,-0.01520801,0.04742033,-0.02825951,-0.13282509,0.14414491,0.1201263,-0.2041998,-0.37251482,-0.17787631,-0.06276965,-0.06438203,0.05989233,-0.03005541,0.01450058,-0.02164229,-0.02052383,-0.1163047,-0.18213159,-0.48343461,-0.52013483,-0.52053266,-0.44432574,-0.23522986,-0.04373868,-0.04000167,0.04562947,0.02016548,0.04695162,-0.01487099,0.0039076,-0.03921117,-0.01787212,-0.08153516,-0.14954764,-0.20912415,-0.2433069,-0.08517905,0.00041111,-0.00517467,-0.02831943,-0.016392,0.02118721,-0.0432896,0.02026992,-0.03879589,0.03350982,0.01811779,-0.00797914,-0.00412293,-0.00774829,-0.02576503,-0.03470081,0.03432683,0.0268938,-0.01738028],"bias":-0.42680071},{"weights":[-0.00281547,-0.01687786,-0.03685306,-0.00415333,0.03241735,0.03577389,-0.04310909,0.03295882,0.00068971,-0.05019269,-0.03831334,0.01532208,0.01633134,0.02233121,-0.00744708,0.03727131,-0.00647436,-0.04782317,0.00870197,-0.03998015,-0.00999625,-0.02232494,-0.01562298,0.00513072,-0.0089479,0.01276055,-0.03500036,0.04787323,0.02047521,0.03049291,-0.03529221,0.04624181,0.01124155,-0.03783675,-0.0440329,0.00470073,-0.04222799,-0.02495551,0.0130824,-0.016774,0.03276892,0.03935121,-0.03064703,-0.0238805,0.02483535,0.0384123,0.02994239,-0.04087388,0.04531406,0.01686267,-0.03051514,0.04045993,-0.03883819,-0.00539167,-0.01634476,0.03308593,-0.04274922,-0.00761282,-0.00854052,-0.04693558,-0.0140732,-0.00160985,-0.03219791,-0.00482012,-0.02734868,-0.04570279,-0.01811998,0.01187313,-0.00440371,0.04653253,-0.0440853,0.04148233,0.03866745,0.04864261,0.03118661,0.03616233,-0.04684751,-0.02763373,-0.04665642,0.00122315,0.01379391,0.04356655,0.00206444,-0.01548928,0.04341881,-0.02754692,-0.03063088,0.00349972,-0.04738802,-0.00306899,-0.01927888,-0.03450729,0.01145761,0.0290619,-0.048873,0.00107438,-0.03581459,-0.00660386,0.04667602,0.01250154,-0.00645988,-0.00182971,-0.04661141,0.02846087,-0.04817777,-0.00730673,0.00603616,0.01389825,-0.03491979,-0.00581915,0.02311122,0.01232909,0.04599664,0.01763347,-0.00848711,0.04500218,0.03066644,-0.00934859,0.01835132,-0.01603356,0.02464852,-0.01405794,0.0086924,-0.03224256,-0.01111216,-0.04372179,0.00939855,0.02678582,0.0329934,-0.0123173,-0.01459578,-0.01185658,-0.04222129,-0.00868041,-0.05082169,-0.0326948,0.03627409,-0.04004036,0.03176493,0.01438229,-0.03998499,-0.04060647,-0.00739406,0.0068498,-0.0322732,0.02185737,-0.02982361,-0.00328199,-0.00723506,-0.03349697,0.03767051,-0.05029203,0.04966659,-0.02460261,0.03362107,0.04784173,-0.0365973,-0.02528095,-0.03383861,0.03941544,0.0264401,0.01848138,-0.05031669,0.0302275,0.00473346,-0.0307,0.02962158,-0.0285383,0.0364837,0.02660529,0.02648249,0.02647639,-0.00230237,-0.02455919,-0.00153689,0.02876241,0.00756833,0.04805491,0.02021025,0.03562103,-0.0435965,0.01104732,0.01344774,0.02723735,-0.02942739,0.04620094,-0.02829534,-0.04361926,0.00649375,0.03355482,-0.01380792,0.04080969,0.00065319,0.01378375,0.00702067,0.03789507],"bias":-0.01905548},{"weights":[0.01019576,0.02753569,-0.04395145,0.00884911,-0.03231689,0.04982943,0.03826796,0.04349996,-0.04876387,-0.03902835,-0.01721431,-0.0163099,-0.03396399,-0.00817416,0.04036328,0.03349183,-0.02898774,0.02335569,-0.01371803,-0.01477948,0.0084918,-0.02041292,0.0101517,0.02628728,-0.01799079,0.02932882,-0.01808093,-0.04725363,0.04090728,0.03660121,-0.04801574,0.007679,-0.03997424,-0.01606684,-0.06736975,-0.06252601,-0.0950243,-0.07337015,-0.00185313,0.04329263,0.01659053,-0.04183121,-0.03309817,-0.03995683,-0.00387239,-0.01904078,-0.15099253,-0.24401919,-0.3352915,-0.26929254,-0.26236758,-0.11183586,-0.14113413,0.00493741,0.02940155,-0.03028079,0.03667502,0.02857299,0.02977566,-0.07023568,-0.13261786,0.04766362,0.01046091,-0.06306734,-0.33603327,-0.19952406,-0.06695661,-0.06439009,-0.03435998,0.03553515,-0.0369713,0.01454303,-0.03614695,-0.00237086,-0.03764601,0.03667231,-0.01405816,-0.33836698,-0.28358092,-0.0478918,-0.04793457,-0.06222963,-0.04527164,0.0199336,0.04872352,0.04577693,-0.03904277,-0.02300886,0.04980317,0.00055123,-0.21344225,-0.34458532,-0.11778285,0.04695129,-0.05418918,-0.00527085,0.02545479,-0.00864804,0.00846633,-0.00017029,-0.0405609,-0.10205073,-0.03257504,0.01110719,-0.21405242,-0.17591286,-0.05087527,-0.07611753,-0.06020191,-0.0857458,-0.04077458,-0.02032895,0.03507705,-0.03770524,0.02457231,-0.03809247,0.08159512,0.08856054,-0.00563853,0.02403213,-0.10139968,-0.21461481,-0.07611027,-0.01434461,-0.02738963,0.02546385,0.02770296,0.04682445,-0.0306569,-0.0645854,0.05939008,0.12979121,0.10807765,0.08048288,-0.09510467,-0.1671763,-0.11573783,-0.00011186,0.02954242,0.03108207,0.01524471,-0.00934782,-0.05367349,-0.06552474,-0.19176523,-0.17008261,-0.01631613,-0.14196922,-0.22453064,-0.16499567,-0.11587358,-0.03200138,0.01329209,0.00043693,-0.03561173,0.03849136,0.00455758,-0.1809272,-0.30136099,-0.32715034,-0.23434925,-0.28696932,-0.19601863,-0.06520033,-0.0262075,0.01103367,-0.03921021,-0.01205849,-0.00440766,0.00704013,-0.03963518,0.03271797,-0.02369023,0.0842112,-0.00866195,0.08146889,-0.06814244,0.04607046,0.04685296,-0.03216735,-0.00313039,-0.03990455,-0.03603744,0.00122907,0.00358355,-0.05025193,-0.03908975,0.01270525,0.01253838,0.02581541,-0.02986325,0.04642364,0.00270138,0.00837757,-0.03834052,0.01742273],"bias":-0.36640447},{"weights":[-0.01194905,-0.04992572,0.00895822,0.01813817,-0.03395276,-0.02828811,-0.02608677,-0.02251743,0.0503034,0.03667865,0.00185613,-0.04682363,-0.03727266,-0.02992224,0.00610462,-0.04381891,0.04681404,-0.00885591,0.0120068,0.01396101,-0.01845708,-0.03531887,0.00477392,0.01023934,-0.02791534,-0.02123839,0.04166382,-0.03445568,-0.03224266,0.00331402,0.02992915,0.04070418,0.01095492,0.02957821,-0.01631108,0.03205488,0.03552087,0.00347257,0.03523204,-0.0395227,0.00274571,-0.01400445,-0.00296565,-0.01149495,0.0261278,0.01145312,-0.05499096,-0.14205863,-0.1183869,-0.13251917,-0.10533829,0.01382541,0.00692825,-0.05371305,-0.03268526,-0.03699324,0.00484146,-0.01206304,-0.02085363,-0.02987111,-0.13748409,-0.19563953,-0.13965612,0.06231226,-0.12142558,-0.06325307,-0.10740797,-0.06853778,-0.04416393,0.00390459,0.02391738,0.04334858,-0.02502532,-0.06483924,-0.1823052,-0.17389321,-0.14522865,0.08244023,-0.07186454,-0.0362874,-0.09491395,-0.00600761,-0.03388732,0.00763312,-0.03021932,-0.02039142,0.00091335,-0.13640516,-0.07033186,-0.1544529,-0.08434661,0.15405421,-0.11138755,-0.07618594,-0.03310139,-0.07490784,-0.02594647,-0.0020733,-0.02367898,0.00979918,-0.00936293,-0.16407872,-0.18344025,-0.20657179,0.06170783,0.19993408,-0.20946223,-0.09873004,-0.0573665,-0.00079738,-0.02219796,-0.03481457,-0.04635636,-0.02854557,-0.04664405,-0.05137436,-0.08692444,-0.03330473,0.12628437,0.06301636,-0.16180644,-0.11415522,-0.11277306,0.02569866,0.04066802,-0.04351691,-0.02081547,0.04072953,-0.04439617,-0.01311104,-0.01535879,0.09678377,0.20700567,0.00454891,-0.16968465,-0.04461882,0.02005088,-0.05355546,-0.01792605,0.04833232,-0.03914039,0.02011288,-0.03924286,-0.01386872,-0.01804573,0.04054405,0.07424663,-0.07818797,-0.13796564,-0.04868146,0.01315754,-0.063028,-0.00890604,-0.02340952,-0.0203211,0.04485959,0.04952179,0.01439496,0.06536234,-0.02085253,-0.05304807,-0.09383212,-0.13700658,-0.09014013,-0.01712921,-0.0489707,0.04697878,-0.0228803,-0.01108457,0.01037671,0.0209271,0.0028579,-0.0086101,-0.08211666,-0.10007654,-0.0908784,-0.02476065,0.02519495,-0.0116082,-0.02325071,0.01990359,-0.02258485,-0.01323226,-0.00401815,0.03603011,-0.04083491,-0.04827005,-0.03709358,-0.03132121,0.00899904,-0.00780513,0.01602828,0.01850825,0.01592017,-0.02253982,-0.0215811],"bias":-0.01313102},{"weights":[0.0353552,-0.02707465,-0.04966378,-0.03654398,0.04751762,-0.04930764,-0.04781138,-0.0449859,-0.03927076,-0.0192655,0.0486959,-0.02426245,0.04382428,-0.00400654,0.04171149,-0.01755987,0.01158588,0.037619,0.04082822,-0.00558375,-0.04559876,-0.02920093,-0.04168211,-0.08729785,-0.00690571,0.04461569,0.01292694,-0.02809713,0.03513668,0.00107136,-0.01597987,0.02305642,-0.08225333,-0.13300816,-0.07851593,-0.1858679,-0.08486844,-0.05081222,-0.03031309,-0.0067411,0.03164762,-0.01768254,-0.03820678,-0.0287392,0.04248819,-0.04089693,0.0058002,0.06239221,-0.02324247,0.06397726,0.17786026,0.17467327,0.17409266,0.17390453,0.08260974,0.04930794,-0.03923597,0.03175933,-0.07286522,-0.03013774,0.10891766,0.12243273,-0.13554979,-0.36049466,-0.1333286,-0.10120456,0.13000392,0.24810359,-0.01361139,-0.01039286,-0.01293785,-0.04241093,-0.01741469,0.08438504,0.19327248,0.31523642,-0.048942,-0.36290232,-0.13146775,0.01082718,-0.01612611,-0.06874072,-0.00271724,0.01997813,0.00039218,-0.04952686,0.01750957,0.1453003,0.27480158,0.30090452,0.29098211,0.07238556,0.27727696,0.05408738,-0.13020752,-0.17875812,-0.01197843,-0.04834556,-0.02282725,-0.0487947,-0.03029641,0.14784475,0.07799382,0.15091483,0.3571107,0.17578231,0.27312406,-0.04609306,-0.16120377,-0.11882041,-0.04313641,0.03752362,-0.04062385,-0.03508627,-0.05772913,-0.1741473,-0.06929627,0.03896044,0.1932556,0.10853253,0.19312339,-0.17085143,-0.23223868,-0.10350129,-0.02105378,-0.02943307,0.04364752,-0.01819349,-0.12469347,-0.22023287,-0.16948492,-0.32190578,-0.38536031,-0.22002764,0.04128662,-0.11305817,-0.15019367,-0.09736631,0.04048233,0.00147677,0.04796399,-0.01746836,-0.04351356,-0.0991286,-0.13929823,-0.28640408,-0.22230205,-0.2313102,-0.04483994,0.06890829,-0.02193014,-0.02292451,-0.03479466,-0.01230526,0.01692273,-0.00142399,-0.02321691,-0.02256854,0.03225348,0.138753,0.22019093,0.14377052,0.15410015,0.19214589,0.06381869,-0.066066,-0.02923081,-0.03541247,0.00512691,-0.03195588,0.02009756,0.00190444,0.09593561,0.07256722,0.07769542,-0.04952844,0.0590945,0.08710488,0.06278702,0.00153634,0.01883706,-0.00206166,-0.01803725,0.03448611,0.03184451,-0.01073375,-0.0037241,0.01722397,-0.03139746,0.00999392,-0.04090072,0.00374902,0.00910045,-0.0060079,0.01081497,0.01393839],"bias":-0.09944415},{"weights":[0.03335257,-0.02604564,-0.01713141,-0.03845834,-0.01064594,-0.00998505,-0.01673222,-0.02390325,-0.00170136,-0.02377663,0.02295946,0.01694346,0.0472731,0.03109606,0.01319117,-0.02756007,-0.03353359,0.04611444,0.04262747,-0.01467633,-0.05423014,0.03995196,0.05179567,0.03084021,0.07850465,-0.01120278,-0.00228019,-0.0376704,-0.00022463,-0.02440991,-0.04877562,0.00283969,-0.09180213,-0.09705497,-0.09165682,-0.06921019,0.02873044,0.04038373,0.08298639,0.03474687,-0.01169995,0.01575362,0.04147078,-0.01785897,-0.03525163,-0.07410245,-0.10209867,-0.09095917,-0.22396486,-0.32196034,-0.16908363,0.09664736,0.04535778,0.23450235,0.01841749,-0.00979774,0.03028855,-0.05845044,-0.07385293,-0.12355365,-0.04051048,-0.07490651,-0.20401558,-0.46787508,-0.25982059,-0.16042293,0.08031202,0.05456705,0.00519794,-0.02474658,-0.02763158,0.03214902,-0.00048297,0.09584602,0.13995604,0.20029567,-0.03963416,-0.49265697,-0.10464886,-0.05179565,-0.06306327,-0.07113412,-0.00934196,-0.04620035,-0.03723206,-0.03487329,0.0679508,0.31392222,0.35924257,0.48660205,0.28689249,0.09586664,0.3289283,0.14674642,0.014068,-0.02477507,0.01695077,0.01481652,-0.03042412,0.02516144,0.01438836,0.36583615,0.3513245,0.30419533,0.41442609,0.23035028,0.38124459,0.06141786,0.0353396,-0.02708093,0.03424686,0.05025459,-0.00249642,0.01340824,-0.074015,0.09300809,0.25532905,0.30489993,0.43006588,0.35880441,0.27421185,-0.10130205,-0.14767009,-0.0740783,-0.08579346,-0.01177587,0.04668071,0.00704378,-0.27924865,-0.24160964,0.05106022,0.04707947,0.04168681,0.08705485,0.03262836,-0.05193441,-0.10502266,-0.09922922,-0.04105754,-0.0342469,-0.03792842,-0.02422197,-0.18838093,-0.19369823,-0.11252217,-0.12290677,0.04700543,0.12268298,0.02065389,0.06652398,-0.04274317,-0.04691113,-0.03058114,-0.04683789,0.03838676,-0.00973457,-0.11829524,-0.12351298,-0.162181,-0.01981904,0.0606557,-0.14787847,-0.02827706,0.06572159,0.15362999,0.04145753,0.02606097,0.01470065,-0.02388997,0.0106493,-0.0501907,-0.11644522,-0.12639873,-0.1366092,-0.20714838,-0.11905153,-0.09688979,0.02679251,0.08857931,0.03380882,-0.03747568,-0.03184887,-0.04537304,-0.03519253,-0.01641241,0.03243031,0.00782825,-0.01033966,-0.03902843,0.01523699,0.00707569,-0.022456,0.01533784,0.00160461,-0.01409615,0.00518542],"bias":0.15515784},{"weights":[-0.03434905,-0.04986212,0.04817448,0.00926163,0.00994701,0.0094902,0.00322118,-0.03370741,-0.04366844,-0.03161126,-0.00340559,-0.02276663,0.01987689,0.0362765,-0.02666593,0.00983612,0.00439501,0.0500072,-0.05210978,-0.05263469,0.0141563,-0.09385225,-0.12981232,-0.01711735,-0.01496172,0.04730885,-0.03315906,-0.00285274,0.01983599,0.00746409,-0.01267485,0.05194877,0.02107486,0.04057405,0.07794853,0.1057554,0.07526792,-0.02514975,0.02539564,-0.06844542,-0.00206983,0.04147413,0.04495815,0.03421021,0.01538775,-0.03715808,-0.01464396,0.02362051,0.17019775,0.30305952,0.30791359,0.22458322,0.01524604,-0.07778908,-0.07603861,-0.01416029,0.04317055,0.01934292,0.04776969,0.01173897,0.05980912,0.16506263,0.06263285,-0.15368821,0.00199281,0.16278681,0.2009316,-0.00598374,-0.03776854,-0.00750859,-0.0499062,0.01518016,-0.01898741,-0.05041414,-0.01163776,-0.01709333,-0.22977729,-0.16441593,0.09896424,0.42969764,0.32474158,0.03602428,0.08979924,0.03501205,-0.04180174,-0.00637993,0.03087721,-0.1564604,-0.13240232,-0.40246306,-0.21434417,0.27938086,0.22048889,0.20686954,-0.02447985,-0.15559007,0.0264941,-0.02774262,-0.040338,-0.02494577,-0.08218375,-0.17212796,-0.13220097,-0.22237422,0.30492593,0.22603561,0.08737911,-0.11571319,-0.25556972,-0.17985364,-0.06188945,-0.00097908,0.01595354,0.01036348,0.10868678,0.04614499,0.05747874,0.40331868,0.5433254,0.32268277,-0.09160391,-0.25686774,-0.19165772,-0.05928249,0.08461956,-0.01966353,0.03717724,0.01680272,0.14419152,0.04311115,0.25342647,0.21418123,0.05454533,-0.00766213,-0.13257008,-0.19840534,-0.10273791,0.08376787,0.01668127,0.02793985,-0.00726864,-0.03299444,0.14388371,0.09416852,0.09255908,-0.08159827,-0.29638278,-0.24411951,-0.09780999,-0.01968703,0.09163942,0.15199872,0.06071454,-0.01472205,-0.00394988,-0.03831216,0.01105821,-0.01953243,0.03205274,0.10552934,0.14124828,0.06891504,0.12305977,0.1882241,0.01586623,0.0766009,-0.03682801,-0.02331628,0.0003862,0.02526703,-0.06598955,-0.03994351,-0.06075477,-0.07790026,0.03447815,-0.05137689,-0.02163821,0.02682186,0.03061216,-0.01877676,0.00722904,0.00849852,-0.02685501,0.01529197,-0.0091646,0.00260129,0.03699907,0.00684837,0.03296211,-0.04491451,0.03064029,-0.03787775,0.03907796,-0.04887254,-0.04927536,0.04291218],"bias":-0.08004262},{"weights":[-0.01441101,0.0275683,-0.01520627,0.00173212,-0.00905414,-0.04857437,0.05008724,0.00185117,-0.03433903,0.02038803,0.02463323,-0.00697616,-0.00015858,-0.00981703,-0.00472269,0.00547574,0.00753988,-0.03463351,-0.00359083,0.03548264,0.04806614,0.01091427,0.01517079,0.02476848,0.0453118,0.00983661,0.03975649,-0.00623874,0.04274695,-0.03647555,0.0199984,-0.04304563,0.00486152,-0.00507688,-0.07096715,0.02342177,0.03478487,-0.03322727,0.01211186,-0.02547464,-0.04110137,-0.02039114,0.03090563,0.00886337,-0.04228562,-0.01617303,-0.06313271,-0.13568387,-0.09503083,-0.18945306,-0.12585481,-0.12896676,-0.04360953,-0.00812974,-0.04604383,0.03162342,-0.00836624,-0.04862042,-0.03768572,-0.01760694,-0.06387241,-0.06437975,-0.05262089,-0.07200812,-0.21743125,-0.15899841,-0.00954639,-0.03129459,-0.00747956,0.04122763,0.02548226,0.04700705,-0.03302328,-0.05860724,-0.07579474,0.00227725,0.07900739,-0.12878748,-0.19148014,-0.12863547,0.0015815,-0.00567223,-0.03718389,0.00809064,-0.02761657,0.01232915,-0.02940953,-0.0208546,0.05307777,-0.04840867,-0.03222725,-0.2250466,-0.19042344,-0.04283937,0.08220255,0.04858038,0.01173062,-0.01908019,0.01249017,0.02016458,-0.01208382,-0.00742671,0.01287447,-0.06866582,-0.18215555,-0.17507002,-0.14062133,-0.03068837,0.03756198,0.02954573,0.0030475,0.01571101,-0.00931698,-0.04389852,-0.01883138,0.05807889,0.0795488,-0.01003647,-0.08311547,-0.06427225,-0.08964514,-0.01864175,0.01414711,0.05523976,0.04936534,-0.02269502,-0.00199707,-0.0127065,-0.05077504,0.07403115,0.00491867,0.09046909,0.07056634,-0.00924972,-0.10805179,-0.01139917,-0.01580107,0.02256284,-0.03349826,-0.04012559,0.00184125,0.00701162,-0.06496287,-0.00480289,-0.02143501,-0.00298633,0.01965113,-0.06713485,-0.13424071,-0.0853165,-0.00190962,-0.03002695,-0.03421369,0.02109897,0.01470375,0.01523318,0.00013985,-0.04199861,-0.10177769,-0.20531964,-0.14702843,-0.1430976,-0.13375221,-0.12705788,0.00007563,-0.02750088,-0.04580496,0.00975609,-0.0409696,-0.02855777,0.02575375,0.00490773,-0.00669215,-0.03556465,-0.07570156,-0.0192646,-0.00384815,0.02665567,0.01147582,0.05023646,-0.03168356,-0.04946478,-0.00660135,0.02458837,0.00280467,0.04765579,-0.00715667,0.02279212,0.03330764,-0.00005748,-0.00118997,-0.0328801,-0.00812271,-0.02513423,0.02226405,-0.01216594],"bias":-0.20550045},{"weights":[0.01987989,0.01305772,0.04756254,-0.02021134,0.00771968,0.02458506,0.01986773,0.01310606,0.00418517,0.03969381,0.03577615,-0.00230884,0.02563679,-0.04535248,0.02525114,-0.01846468,-0.01958407,0.01928743,0.00263462,0.02521442,0.00080944,-0.05581929,-0.00566996,0.02282423,0.03588783,-0.00391765,0.02963461,-0.0058681,0.02446769,-0.04597218,-0.00055324,-0.02878431,-0.02253068,-0.10640095,-0.07946052,-0.08832286,-0.04012095,-0.0033303,0.03299064,0.00115343,-0.04805601,0.02856751,0.02672495,0.03636107,0.01099329,-0.0605004,-0.05023444,-0.11768073,-0.05044787,-0.03901515,-0.00328995,0.06124485,-0.0905005,-0.11927174,-0.0267635,0.04176819,-0.03377203,-0.00036934,0.01957633,-0.03895851,0.07180853,0.13842337,0.06593557,-0.02904599,0.0036972,0.11160059,0.11015341,-0.03713961,-0.06913504,-0.00439334,0.03108627,0.03466411,0.05807451,0.03364612,0.11997549,0.24317571,0.1705908,-0.17725063,0.07879634,0.22399315,0.27207053,0.09657586,-0.04129892,0.01256979,0.04734401,-0.04180328,0.0016364,0.181052,0.23385568,0.12529515,-0.12707079,-0.19221434,0.02803338,0.06802645,0.21388578,0.10953917,-0.02640874,0.00075243,0.00108642,-0.04920489,0.04104531,0.22536906,0.12400742,-0.00972822,-0.28619155,-0.2145831,-0.0105413,0.04978805,0.1233086,0.06490352,-0.03388296,-0.00768969,-0.02392989,0.0347031,0.00273486,0.15452116,0.16189758,-0.07716107,-0.38595113,-0.13177497,0.03823429,0.05044635,-0.01400218,-0.01174773,-0.0172821,0.01183437,-0.00919888,-0.0393057,-0.04143118,-0.06241419,0.06656147,-0.08266244,-0.15983598,0.00667131,-0.10842971,0.02553722,-0.07152601,-0.08081,0.00591405,-0.0104383,0.0296777,-0.01549927,-0.11275975,-0.1541942,-0.14512243,-0.08123033,-0.06207495,-0.07863245,-0.04475533,0.02080745,-0.10880668,-0.00429539,-0.02203284,-0.03516158,-0.00898105,-0.03018091,-0.03791469,-0.04059495,-0.03153253,0.16197911,0.12549091,0.03560879,-0.06704981,-0.04144079,0.00837238,-0.01812037,-0.00480155,-0.04498116,0.00923247,-0.02737136,-0.02342249,-0.01838853,0.07965481,0.10432988,-0.02477147,0.0653094,0.05603306,0.02490625,0.00368484,-0.01964989,-0.00574695,0.03695621,0.03305242,0.01497682,0.04649146,0.02091252,-0.00491913,0.02577485,-0.03584674,-0.0271434,-0.01767499,0.02424901,-0.00626224,0.01310145,0.03162156,0.01445532],"bias":0.0786902},{"weights":[-0.00958191,-0.02463976,0.00785057,0.00938179,0.03209836,0.02412573,0.03925046,0.03482544,0.01505107,-0.03065834,-0.01556754,0.01324643,0.04892212,0.01235803,0.04744062,-0.00382794,-0.01316877,0.02480616,-0.02909142,-0.01753476,0.00498612,-0.04138795,-0.09407152,0.02553197,-0.02606832,0.03505696,-0.04679026,-0.00672967,0.00465233,-0.04312958,-0.04430115,-0.01254968,0.00106039,0.06442534,0.02235099,-0.0191223,0.00505775,0.03074724,-0.08039245,0.04592578,0.02809714,0.00923046,-0.04713096,0.02163345,-0.02402561,0.01699304,0.18046257,0.14511444,0.19045295,0.16352962,0.31385973,0.28912069,0.28309048,0.1358214,0.0000788,-0.02424061,-0.04762461,-0.0206973,-0.0064287,0.00401112,-0.00284338,0.00904195,0.09306232,0.20728583,0.31659736,0.4306461,0.2697704,0.18581903,0.02776138,-0.01788552,-0.02686713,-0.00880159,-0.02554938,-0.02613875,0.01653297,-0.04688538,-0.01404441,0.01743098,0.14283292,0.22835698,0.16681447,0.07379179,0.01068564,0.0291866,0.03559318,-0.05505217,-0.05788113,-0.04771023,-0.01459144,0.12286458,-0.19507341,-0.46241744,-0.29748594,-0.24473892,-0.06693601,0.16880108,0.05290305,0.0143892,0.04632735,-0.03845402,0.00462609,0.05112401,0.05439906,-0.03734708,-0.33445136,-0.55385684,-0.30772952,-0.12717953,-0.00023413,0.15207974,-0.00214082,-0.0000106,0.00272369,0.01544948,0.09725618,0.03345032,-0.02994264,-0.50881451,-0.53625799,-0.39683841,-0.13466685,0.06302683,0.18852719,0.07894408,0.02381947,0.00008633,-0.00327037,0.03259984,0.15125162,0.19186312,-0.09362843,-0.42908568,-0.29363563,-0.14357384,0.0519589,0.05463652,0.03149251,0.00275504,0.01509035,0.00964321,-0.02634569,-0.0074029,0.07540364,0.16602655,0.25659993,0.08850469,0.08445383,0.13363534,0.16962052,0.02239054,0.05032436,0.03047332,-0.02992456,0.03192088,-0.00034711,0.04555505,0.05912282,0.23188745,0.35950624,0.49282568,0.50254384,0.31551992,0.08259806,0.04404317,-0.09279593,-0.0324867,0.01470602,-0.01685894,0.03998808,-0.00340321,0.07154566,0.05002579,0.11439104,0.23460212,0.11919166,0.10968379,-0.06287788,-0.0623591,-0.06761934,-0.00521296,0.00203876,-0.0324205,0.02696051,-0.00379618,0.04429853,-0.00301516,0.02926628,0.0556116,-0.01184128,0.03978086,0.02834799,-0.02165848,-0.0229845,-0.03221107,0.01081678,-0.00227997],"bias":0.11180054},{"weights":[0.03845975,0.0463057,-0.00771932,0.04512485,0.02012726,-0.02546934,0.01439109,-0.00267136,0.03317442,-0.04545897,-0.00674335,-0.02565646,-0.03636522,0.02933551,0.01299402,0.04980706,-0.03408957,0.01055944,-0.00349017,-0.02114929,-0.0220461,0.05855541,0.05634316,-0.01514632,0.03393405,0.00925471,0.0297002,0.00037504,-0.00922897,-0.03403116,-0.04544219,0.01706862,0.03446575,-0.00777516,-0.07406783,-0.01985256,0.05789906,-0.00498406,-0.02452614,0.02551983,-0.01902538,-0.04022892,-0.04936538,0.02216497,-0.02469069,-0.03034357,-0.10647763,-0.10284913,-0.19328368,-0.18539264,-0.13505523,-0.07156156,-0.04443919,0.00533321,-0.0123164,-0.01389573,-0.02903081,0.04516615,-0.02368651,-0.08288223,-0.14450953,-0.08616287,-0.03769317,-0.02325183,-0.2304194,-0.19937222,-0.06626214,-0.09000879,0.00814589,0.02717015,-0.04876757,0.04834128,-0.00073019,-0.02213144,-0.15449789,-0.00029469,-0.00551046,-0.11084326,-0.19266427,-0.13217641,-0.03547911,-0.00090065,-0.02056972,-0.01953391,-0.02778478,-0.0296958,-0.07256776,-0.07843379,-0.0062635,-0.09740088,-0.08991303,-0.16049156,-0.15711656,0.01538177,-0.03634166,-0.02306198,0.00392304,-0.0416065,0.00113769,0.04372446,-0.00816199,-0.12694769,-0.04067113,-0.03709752,-0.10895464,-0.09183725,-0.04750827,-0.0859041,-0.0388239,-0.03120698,0.04081672,0.03202188,0.03681667,0.0454658,-0.04395438,0.00167918,0.03417365,0.0632453,-0.04382668,-0.03410509,-0.13570901,-0.1059094,0.01565989,0.04602304,-0.0143872,0.03222514,-0.01904848,-0.01691054,0.01919329,0.02944378,0.01106752,0.17764058,0.08352871,0.02468544,-0.10866429,-0.05055469,-0.02259042,0.0355607,-0.02465266,-0.01836117,0.01380676,0.0527682,-0.0258927,-0.0515338,-0.09869274,-0.04667689,0.07268418,-0.09415973,-0.09704295,-0.04147424,-0.0575625,-0.07388299,0.01422307,0.01070919,-0.00832196,0.01888706,-0.015622,-0.07462754,-0.16328871,-0.18854115,-0.15774462,-0.19717618,-0.17899742,-0.09284864,-0.00331695,-0.0357509,0.00721952,-0.01235755,-0.03848518,-0.01863939,-0.0079334,0.00489771,0.01625954,0.02622967,-0.0468251,-0.0253035,-0.0354279,0.02936116,0.03355768,-0.02436242,0.03644516,-0.05006931,-0.04709344,0.00210708,0.03252345,0.02269017,-0.02763047,-0.04578263,-0.00301608,0.0157554,-0.0062553,-0.00668226,-0.03349488,-0.03374201,0.04992015,-0.00947662],"bias":-0.19600187},{"weights":[0.01010349,0.04904987,0.02010345,0.01173794,-0.02689761,0.00706477,0.0418927,0.00475869,-0.00205304,0.03101097,0.00136769,-0.01729581,-0.02179444,0.03683716,-0.02223587,0.02298497,-0.00270447,-0.01405818,-0.01523782,0.04801913,0.06202471,-0.00448007,0.02953675,-0.05355894,-0.05253781,0.01232235,-0.04272204,0.01577313,0.03777027,0.0199389,0.0059251,0.02801097,0.19942286,0.3364167,0.36287144,0.24467291,0.13916,0.01683543,-0.12718068,-0.10098163,0.02592031,0.04187493,0.01408205,-0.03719098,0.02666829,0.1646429,0.26088016,0.26454025,0.1941245,0.25398541,0.17062208,0.0473012,0.06372469,-0.12915553,-0.02735273,0.02339142,0.04979158,0.05860065,0.01691306,0.07078224,-0.15184847,-0.11599015,-0.11786247,0.04725589,0.20326538,0.11664017,0.08424374,-0.10161747,-0.10416038,-0.04664833,-0.02807802,-0.00684295,-0.06952131,-0.2785678,-0.48456361,-0.54195825,-0.51849312,-0.04674867,0.15314841,0.20252629,0.14802148,-0.02799325,-0.00432671,0.03846958,0.01195469,0.03006107,-0.12632113,-0.4398673,-0.27988111,-0.26037131,-0.28921827,-0.05341035,-0.01560543,0.00021833,-0.04748606,-0.11998655,-0.01384741,0.00691779,-0.00120105,0.00899998,-0.04865156,-0.15116728,-0.04301087,0.10201365,0.05292682,-0.0126678,0.0914639,0.0504386,-0.01427782,-0.07745687,-0.00434752,-0.01391485,-0.0192304,0.06533116,0.16407238,0.13729062,0.03638246,-0.17906605,-0.07613595,0.00083358,0.137336,0.09520883,-0.04090948,0.00037649,0.02900281,0.00582933,0.00585887,0.03754493,0.31558701,0.18203742,0.08657051,-0.13000007,-0.00582356,-0.02754699,0.19514787,0.15599701,0.09850362,0.14974467,0.06613936,-0.03451135,-0.04478292,0.01694447,0.171349,0.23055857,0.06119728,0.02181855,0.00965363,0.04110638,0.14228983,0.07093643,0.18164781,0.07405961,0.0600267,0.02461939,0.01282497,-0.00735758,0.0997459,0.18739351,0.14186387,0.03919027,-0.0042523,-0.01026377,-0.01424329,0.04441781,-0.03267034,-0.01771347,-0.03053252,0.00451901,0.03592935,0.01848351,-0.02878774,-0.00064213,0.00095013,0.00418922,0.07277808,-0.09021834,-0.05304924,-0.00149316,-0.13189013,-0.05150341,0.01126439,0.00252874,-0.01281552,0.03026456,0.04117807,-0.02617838,-0.02268647,-0.03485099,-0.03808874,-0.02668829,0.01457661,0.02600822,-0.01938952,0.0142114,-0.00839105,0.03476562],"bias":-0.05908336},{"weights":[-0.00542455,0.03838658,-0.03058849,0.03052874,-0.05254991,-0.04512571,-0.00155966,0.03084182,0.04765268,-0.02526911,-0.02519557,-0.01843001,-0.01646621,-0.02615509,0.04222165,-0.031932,-0.03449081,-0.03090788,-0.01307538,0.03268616,0.03574375,-0.00597083,-0.02760165,0.00626389,-0.00646673,0.04655309,0.02950188,0.03204237,-0.03076839,0.01985117,0.04153939,0.03352608,0.00482613,0.04726884,0.0353145,0.01739203,-0.03830922,-0.10455742,-0.06663113,-0.00788016,-0.01078549,-0.01775447,-0.00512132,0.04793498,-0.03750964,0.0515017,0.14438595,0.10445103,0.0566539,-0.02584494,-0.06000559,-0.10377924,-0.1159879,-0.05334475,-0.03434969,-0.03985501,0.00716242,0.04748034,0.05863579,0.1417692,0.10849229,0.12700287,0.09956614,0.15237856,0.02657511,0.01857859,-0.0619137,-0.06097282,-0.04821151,0.03129486,-0.02619636,-0.03128171,-0.0144222,0.00332828,-0.00014735,-0.00607193,-0.03619456,0.06735603,0.03349981,0.01727557,0.0302618,-0.0637216,-0.04769004,-0.01584587,-0.04349634,-0.02941813,-0.02258255,-0.12909447,-0.16943644,-0.19825379,-0.19141255,-0.10594975,0.07778848,-0.00259901,-0.12047796,-0.02140428,0.00457371,-0.02954407,0.04589808,0.03861557,-0.02921199,-0.1442965,-0.23550671,-0.09026441,-0.08373832,0.01013212,0.0813472,0.00829561,-0.07299495,-0.01498933,-0.0189382,0.04979001,-0.04401216,0.04185542,-0.03672594,-0.11051663,-0.05204335,-0.01578344,0.01532819,0.11977645,0.05304097,-0.03156495,0.0495294,-0.02990336,0.03057723,0.02987757,-0.0453794,0.03713833,0.03041396,-0.01554995,-0.03118207,0.01935911,0.14075797,0.05781336,0.05425699,-0.05713691,0.00746964,0.02073578,0.04204584,-0.00623143,-0.02231908,-0.03656821,-0.03929111,-0.05088873,-0.03589089,0.04200616,0.01249607,0.01917298,0.09687909,0.02122064,0.10068978,0.03267557,0.0085601,-0.03790814,0.02887792,0.04190388,-0.02837638,0.03027951,0.0237348,0.02199227,0.00608235,-0.00960715,-0.02866548,0.04395706,0.00146241,-0.00162746,-0.01531094,-0.04131145,-0.01181475,-0.04542789,-0.04807275,0.01727414,0.05486611,0.00590088,0.03490095,0.03017309,0.03219491,0.02651201,0.00098262,-0.05127418,0.03064727,0.02799241,-0.00434546,0.03964284,0.02960018,0.00329216,-0.04110033,0.05754583,0.05561087,0.05439935,-0.02054474,-0.03721007,-0.00438837,0.01622136,0.03004743,0.0382791],"bias":0.00201604}],[{"weights":[-0.27531826,0.26519824,0.59040716,0.09577802,-0.10623576,-0.20470228,0.62138358,-0.31213793,-0.08038155,0.47192712,-0.02174561,0.62319297,0.18489786,0.1429248,0.0814458,0.12589692,-0.12317654,-0.00487419,-0.50625464,-0.28231355],"bias":-0.34528575},{"weights":[0.9450406,-0.16054892,-0.38138903,-0.50299066,-0.35142156,0.25043967,-0.34757447,0.17253573,-0.0627265,-0.25713364,0.36725898,-0.40392529,-0.129576,0.16019946,-0.11907344,-0.02956368,-0.63681383,-0.18915438,-0.16988351,-0.02680383],"bias":0.02483889},{"weights":[-0.11545281,-0.12721132,0.05579042,-0.05644402,-0.05513221,-0.00876083,-0.07909299,-0.09737781,0.04924372,-0.08032077,0.0553277,-0.15426332,-0.15965139,0.1270193,0.09022453,0.07312454,-0.07571267,-0.1019978,-0.1465021,-0.09610744],"bias":-0.04663613},{"weights":[0.33057152,-0.10131974,-0.15111007,0.1053459,-0.19459881,-0.06412088,-0.29183323,-0.10299218,-0.15786724,-0.10218024,-0.10738057,0.15255586,0.72667486,-0.0423371,0.08612699,0.14207622,-0.40301652,0.08810953,-0.26253174,-0.11605482],"bias":0.34362088},{"weights":[0.45754312,-0.13421735,-0.1384866,-0.11128625,-0.08664494,-0.01084764,0.42060295,-0.01252242,0.15176106,-0.1042236,0.05183048,0.17026447,0.06611478,0.69645805,-0.30490801,0.09020809,-0.50658221,0.0321013,-0.49507824,-0.18685171],"bias":-0.15048732},{"weights":[-0.14260638,-0.04498213,-0.18983662,-0.03977568,-0.08489163,0.11200923,-0.12067129,0.08785252,-0.05999241,-0.03657194,-0.14067265,-0.13407169,-0.02660069,0.08713264,-0.10072531,0.01518277,-0.10977069,-0.12010582,-0.03491566,0.13579642],"bias":-0.04869385},{"weights":[0.111015,0.2716006,0.29020026,0.02748028,0.1062987,-0.06368676,-0.0028613,0.03970412,-0.11628395,-0.04085777,0.13958674,-0.01438815,-0.01508883,0.99260195,-0.22472479,-0.17563306,-0.13096515,-0.1338201,0.94759739,0.33216419],"bias":-0.12674254},{"weights":[-0.31707792,-0.18456675,-0.06649274,-0.08356212,-0.05319977,-0.16692593,-0.10682608,-0.2534322,0.04075502,0.10942397,0.00752778,-0.05879892,-0.02362928,-0.10005938,0.02330646,-0.01865898,-0.19905792,0.05730055,-0.02698391,0.08712551],"bias":-0.31025641},{"weights":[0.54661194,-0.08992499,0.03364176,-0.10686895,-0.04894941,0.25349263,-0.09023553,0.04774777,0.11741374,-0.04495217,0.02387901,-0.05973194,0.14051963,0.00693433,-0.03207795,-0.10987465,-0.3406745,0.161378,-0.2266426,-0.07591796],"bias":0.09887062},{"weights":[-0.13633012,-0.03504663,-0.32263026,-0.11711447,0.06861826,-0.10870378,0.14580017,0.04948283,0.06044206,-0.15293716,-0.11001389,0.11209458,0.04495416,0.33162276,-0.03337977,-0.09508597,0.08961708,-0.00795343,-0.1126922,0.01109125],"bias":0.00751961},{"weights":[-0.110202,0.13120764,-0.14030998,0.01167103,0.07495387,-0.02003941,-0.06551227,-0.08085766,0.00877558,-0.09408586,-0.10689648,-0.10531302,0.3360215,-0.0345313,0.11817604,-0.05649754,-0.01800754,-0.14115647,-0.12104078,0.15685934],"bias":0.06645644},{"weights":[-0.06401925,-0.1128361,0.13836633,0.01328362,-0.08031285,-0.11267045,-0.1397991,-0.134154,0.03405393,-0.14495573,0.00414103,0.16598431,0.08212043,0.1162458,0.11818242,-0.02307789,-0.03599037,0.05192674,0.02162059,-0.03402131],"bias":-0.08096099},{"weights":[0.39468508,-0.08450414,-0.36926965,-0.10230666,0.02424427,0.30066707,-0.46531659,0.30176507,-0.01103753,-0.11554519,0.328798,-0.41782024,0.11729447,0.29536265,-0.09909996,-0.31847093,-0.16693253,0.01655371,0.62283137,0.1902985],"bias":0.23787129},{"weights":[-0.15114176,-0.13512396,0.00796052,-0.05023531,-0.04061592,0.02357927,0.04036707,0.07790685,0.07475421,-0.17212525,-0.09545227,-0.04216044,0.03687491,0.09019232,0.04026898,0.07103859,-0.14754956,-0.0784663,-0.09281693,-0.12115754],"bias":-0.11176887},{"weights":[-0.11703713,-0.47818961,0.89938832,-0.08230649,-0.0199143,-0.08725744,0.44623002,-0.2196872,0.13307275,0.27282979,0.06170602,-0.38621664,-0.65403442,0.15924972,0.10867015,0.53557457,1.05356283,0.08623172,0.417327,0.25274665],"bias":0.03085198},{"weights":[-0.15550153,-0.08023693,-0.05727637,-0.11321892,0.03463143,-0.0102431,-0.11267843,-0.10468265,-0.04475344,-0.01687744,0.01649229,-0.07341331,0.00895824,0.0071533,-0.07016587,-0.13195113,-0.08396856,0.06013636,-0.05354114,-0.07558774],"bias":-0.25018443},{"weights":[-0.0159408,-0.10793185,1.01161269,0.29780594,-0.04391295,0.07166247,0.03423311,-0.23756377,0.02107493,0.36355586,-0.13081512,0.29631354,0.14321987,-0.05401168,-0.03231489,0.20034201,-0.34832881,0.06544013,-0.08019327,-0.10087022],"bias":0.11619527},{"weights":[-0.19450635,0.01211225,-0.40629977,-0.03010028,-0.06682947,-0.17523973,-0.16165337,0.12207318,0.14867064,-0.00114173,-0.01457839,0.27012112,0.8319669,-0.20711542,-0.03588653,0.1081992,0.58817135,-0.10299237,-0.16052856,-0.21319],"bias":0.73081941},{"weights":[-0.00883659,0.11303589,-0.15076018,-0.01907056,0.05849661,0.10363315,-0.06745175,-0.15337817,-0.09930998,-0.14932084,0.02641336,-0.06944949,-0.0554332,-0.05243302,-0.06166003,0.01519807,0.01702958,0.14775786,-0.11845042,-0.15072194],"bias":-0.02079429},{"weights":[0.57419532,0.83208188,-0.47458057,-0.21080069,-0.15688069,0.2303599,0.85942666,0.20968769,0.05364108,-0.33015168,0.22602351,0.40158399,-0.12237912,-0.08811221,-0.02735276,-0.39729589,0.21413855,0.06198187,0.08360656,-0.16869438],"bias":0.07943338}],[{"weights":[-0.54611504,-0.0023245,0.0638762,-0.25895354,-0.26955988,-0.05462719,-0.70086639,0.35821261,-0.03209106,-0.02659164,-0.04735172,-0.0336294,-0.26280355,0.01744463,1.12361027,0.22052482,-0.84739404,0.45127012,0.10525267,-0.22326415],"bias":0.40404413},{"weights":[-0.75550177,1.23550573,0.00104739,0.10162376,0.59884795,0.01388722,0.05586099,-0.34249263,0.54897479,0.03914811,0.11270258,0.01846312,0.78959662,0.133029,-0.48171853,-0.05590253,-0.28447755,-0.22671938,-0.10161572,0.32818843],"bias":-0.59196874},{"weights":[-0.52184054,-0.0480688,0.12358858,-0.20633612,-0.23374649,0.00063713,1.03832827,-0.01942438,-0.24868047,0.05762963,0.00704127,0.06417786,0.76851421,-0.0126195,0.10432758,0.15375382,-0.14221135,-0.00373948,0.11114938,-0.37304517],"bias":0.3312533},{"weights":[-0.25227258,-0.29613725,-0.01830173,-0.35233251,-0.4600968,-0.04436622,0.61240526,-0.23931159,-0.27730676,-0.30585056,0.08745779,0.1421494,-0.13343772,0.11223866,-0.03436416,-0.11651809,-0.08137923,-0.22054558,-0.12185806,1.1172625],"bias":-0.47908566},{"weights":[0.82448312,-0.21366107,0.0851431,0.50219893,-0.01187032,-0.12822133,-0.22220745,0.28840786,0.02677774,-0.1535022,0.07993437,0.17243764,-0.25801956,0.0177407,-0.79166335,0.26509946,0.80619919,0.33448793,0.01380902,-0.80400996],"bias":-0.32050791},{"weights":[0.36509729,-0.16232828,-0.1071958,-0.20863907,-0.30489966,0.06381472,-0.63012757,-0.01631777,-0.09910442,0.04586859,0.14302178,0.11215637,-0.09452766,0.13167022,-0.15363787,-0.19788299,-0.25337692,0.52188487,0.10179927,0.8370771],"bias":0.39823181},{"weights":[-0.68812118,-0.24937374,-0.09127919,0.66571542,-0.39350192,-0.07272269,-0.55914842,-0.7111529,0.08129393,-0.13324573,0.26878284,-0.0753565,-0.02787817,0.00188549,-0.47053824,-0.58171194,-0.03991363,0.83786062,-0.05970347,-0.55126455],"bias":1.61046402},{"weights":[0.18886417,-0.18026819,-0.09666119,-0.3037982,-0.17199298,-0.10285215,0.20297431,-0.10115796,0.00967852,0.03383348,-0.00600828,-0.07805262,-0.20656571,-0.05311955,0.9332231,-0.10498276,0.5236799,-0.78668246,0.14330822,-0.74004652],"bias":-0.26890277},{"weights":[0.26853481,-0.13648925,0.15195392,-0.00428304,0.56316957,0.2012004,0.57791345,0.14106167,-0.09932777,0.3287184,0.13435556,-0.09867006,-0.33338983,0.03629884,-0.45077003,0.14294135,-0.22967231,0.01664563,0.1545049,0.52676084],"bias":-0.54143959},{"weights":[0.8140551,-0.26134807,0.01265702,-0.16627248,0.41419874,-0.01963157,0.08302856,0.55355353,-0.14092375,-0.10253183,-0.21934232,0.03627237,-0.36402098,0.01013792,-0.03789654,0.23023746,0.72109776,-0.3370923,0.0665254,-0.30862411],"bias":-0.54205852}]]