[[{"weights":[-0.01089701,0.03541526,0.01862928,-0.00013482,0.0269911,0.04491389,0.00255598,0.01399432,0.04350136,0.00347149,-0.03239855,-0.00060364,0.00991125,0.00012605,0.01924251,0.04396757,0.01680724,0.02392612,0.0150168,-0.01850559,-0.01490398,-0.02765067,-0.00318619,0.03881695,0.04682636,-0.03068204,0.02202977,-0.0452903,0.03738314,0.03349912,-0.01627349,-0.01584862,-0.04037968,0.04669198,0.04189899,0.0475615,0.00116246,-0.04701109,0.01351417,0.04464822,-0.03844292,0.04091128,-0.04972153,-0.03216589,-0.03116868,0.00886762,0.04620454,-0.0469092,-0.00800247,-0.03801024,0.04494532,-0.03037596,-0.03112091,-0.03727755,-0.02494722,0.00544201,-0.0137581,0.00075403,0.01056025,0.03635655,0.00208451,-0.04541647,-0.03920201,0.02824628,0.02609308,-0.04821931,0.04454965,0.04287941,-0.03088088,-0.00113782,-0.05021534,0.0250992,0.03356141,-0.01544115,-0.01941315,0.00200373,0.03278492,0.01499771,-0.02453799,0.01735064,0.01578931,-0.02637822,0.05015973,-0.01509732,0.00898183,-0.01807479,-0.00299046,-0.00321961,-0.05042557,-0.00083243,0.00342916,-0.01928644,0.00279338,-0.01359305,0.01503208,-0.04977383,-0.00879277,0.01498323,-0.04748175,0.02371411,-0.00702058,0.02939041,-0.01442471,-0.03282282,0.02635837,0.0076841,-0.03548503,-0.03703043,0.00567373,-0.02752475,-0.00494733,0.04401111,-0.01750404,-0.03250576,0.04462778,0.01088143,-0.00805771,0.01612813,-0.04312973,-0.02089029,-0.04236728,-0.03687002,0.01735146,0.04117263,-0.02210658,-0.03206387,0.01645881,0.03930611,0.02114249,-0.0054545,-0.02347821,-0.02916005,0.01791311,0.04464687,-0.03355184,0.01572919,0.04456875,-0.01272319,0.04341052,-0.00726869,-0.02621339,-0.04722413,0.04977255,-0.03629029,0.00193193,0.00320019,-0.04693944,-0.00930986,-0.02704144,0.04725399,0.01159157,-0.04439588,0.01168109,0.00185825,0.02556955,-0.04002802,-0.04378671,-0.03563119,0.02917683,0.02971694,0.02465655,0.04905968,0.02185919,-0.03460792,0.03741665,0.03029411,-0.04066197,-0.04303621,-0.00674623,-0.01006791,0.00161797,0.03879327,0.01618733,0.03581738,-0.0346132,0.04660562,0.01648308,-0.01436433,0.03102084,0.00576097,-0.02949141,0.03784713,-0.04318623,-0.01319515,0.02259143,-0.00893953,0.04862434,-0.04698501,-0.04397687,-0.00851324,-0.04496781,0.03826188,-0.00058905,-0.03069497,-0.03261655,-0.0114311],"bias":0},{"weights":[0.04306451,-0.04445588,0.04691458,-0.01651068,0.01736802,-0.01903071,-0.0121815,0.04424913,0.02080549,0.00049829,0.01174383,0.04989968,-0.04335021,0.00278439,-0.00811238,-0.0421841,-0.03655743,0.00117298,0.00788589,0.0262728,-0.0011613,-0.02483869,-0.00363327,-0.04709669,-0.04565633,0.04160186,-0.01038877,0.04704894,0.00520846,0.02730644,0.03108119,-0.03402199,-0.03897477,-0.02886542,-0.00294187,-0.04149942,0.03362088,0.04523403,0.01808667,0.02045195,0.04075983,0.00393526,0.03970462,0.00872706,0.02619892,-0.01934686,0.02449424,0.01274506,0.03760246,-0.0158078,-0.01946697,0.0412135,-0.03139002,-0.01322744,-0.00830516,0.04152654,0.00695516,0.0279318,-0.04535086,-0.01828929,0.03773423,0.00669848,0.01041941,-0.04110216,0.02872099,-0.01408068,-0.01390976,0.00671559,0.03881035,-0.01468449,0.0440536,0.03721388,-0.02645394,0.04844171,-0.01831743,0.00842254,0.03058329,-0.0016103,0.0394759,0.04114805,-0.0003819,0.02478849,-0.03810243,-0.02881287,-0.03786346,0.04359902,0.03795412,0.03060348,0.02641613,0.04224356,0.00379711,0.00118641,-0.00993236,0.00476923,-0.00586778,-0.04410417,-0.00299523,0.00348454,0.0059598,0.0318879,-0.02288524,-0.02279811,-0.02521663,-0.03531717,0.03042619,-0.03476628,0.01880907,-0.02704098,-0.05019658,0.01943139,-0.03249706,-0.04679421,-0.00653291,-0.01448128,-0.0483248,-0.02954841,-0.01757644,-0.048128,0.00052997,-0.0113363,-0.0186129,0.03768101,-0.03347723,0.00574155,0.03553675,0.0039548,-0.03789251,-0.01742299,-0.00000238,0.00322855,-0.04141405,0.0389919,0.04945865,-0.00037563,-0.02975063,0.05035929,0.01065594,0.03421995,0.04111544,0.03788368,-0.04528564,0.0174956,0.0319168,0.02110855,0.00086833,-0.04901774,-0.04536771,-0.02011714,-0.02259926,0.03150183,0.01110886,-0.03837404,-0.00608313,-0.01871877,-0.00996208,-0.03291047,0.00992788,-0.01754454,0.05005066,0.02950386,0.03083978,-0.04929173,-0.02030889,-0.02147023,0.04806811,-0.04993118,-0.0227736,0.02048008,-0.01709343,-0.03586482,-0.04366624,-0.03697722,0.02899511,-0.03798518,-0.03857252,-0.01290079,0.02634839,-0.0197775,-0.0306776,0.00205314,0.05011372,0.01252134,0.02211707,-0.00249865,0.00142457,-0.00118922,-0.0252573,0.02409714,-0.0229212,-0.00624817,0.00677163,0.01114734,-0.03098749,0.01860569,0.03835332,-0.03739315],"bias":0},{"weights":[0.00534521,-0.02998497,-0.03323411,-0.02886536,-0.03338164,0.0460822,-0.00862922,0.04932407,0.00936971,0.03308386,-0.03611792,-0.00541541,-0.01908703,-0.0083011,-0.04607991,-0.04406012,0.01004041,0.01148178,0.04723134,0.00652558,-0.04677649,0.01904779,-0.02688076,-0.00014871,0.02886802,0.04530154,0.03417678,0.0103756,-0.02739198,0.01476291,-0.01036921,0.00405037,0.04772975,0.03571767,-0.04709772,0.02720522,0.04622806,0.00842508,-0.02438551,-0.02839918,-0.00913194,-0.00731255,0.04579208,-0.00747841,-0.03020714,0.04324109,-0.00857055,0.04914318,-0.02993731,-0.04215868,-0.01375598,-0.02131762,0.01311167,-0.01370642,-0.04028175,0.02692221,0.00213219,0.00770955,0.01347701,-0.03893626,0.04896827,0.00916756,0.03494768,-0.0191421,0.00294302,-0.04722471,-0.00296703,0.00231245,-0.03801976,0.0324822,0.04839268,0.00348944,0.01407523,-0.02912034,-0.00576386,-0.02532222,-0.01391039,-0.01323997,-0.05013356,0.0235475,-0.01684285,-0.00847597,0.01343161,-0.04264019,-0.00260515,0.04951631,-0.03227265,0.0484364,0.02488191,-0.0047844,0.00228651,-0.01773471,0.04654717,0.03786211,0.02381538,-0.04082714,0.01696778,-0.01128393,0.00351617,-0.03594827,-0.03286905,-0.00448492,-0.0067659,0.00049663,0.00753323,0.00149853,0.00984678,-0.02950748,0.01512254,-0.02160271,-0.01759898,0.04212112,-0.03308041,-0.03659423,0.01804246,-0.02382946,-0.02998514,0.05041803,-0.03324162,0.00890801,0.0113257,-0.00729582,0.04301125,-0.02010588,-0.03571006,-0.02013427,0.00771363,-0.00721656,0.02577055,-0.04856536,0.03536672,0.00156143,-0.02521072,0.0321346,0.03616489,-0.04599523,-0.0325919,-0.04593088,-0.01808386,0.03067647,0.02035996,-0.03570307,-0.00256908,0.02721211,-0.04996454,0.02124541,-0.00512185,-0.04787286,-0.02587395,0.01623985,0.0209824,0.01185637,-0.0286567,-0.02037866,-0.01718662,-0.0441887,-0.02058776,0.00357427,0.04106232,0.04824295,-0.00441635,-0.0087472,0.04822873,-0.00159793,0.0103444,-0.02797731,0.04795465,0.03839646,0.04091675,0.00914146,-0.04217354,0.04622456,0.04908283,-0.04571183,0.03187076,-0.02515489,-0.02794237,-0.03759248,0.03805025,0.0341127,0.00143775,-0.00693912,0.04320732,0.00834397,-0.00594888,0.0038558,-0.03946623,-0.00010569,-0.02115865,-0.01133991,-0.03370723,0.01038507,-0.00084498,0.00853807,0.03622533,-0.0358296],"bias":0},{"weights":[-0.00591058,-0.03858495,0.04360185,-0.03460273,-0.02908714,0.0421381,0.02441302,-0.0397315,-0.04354546,-0.02275811,-0.0387178,0.0334349,0.0200866,0.01034166,0.03537175,-0.02313578,0.01733598,0.0230904,0.00000303,-0.0010053,0.04845262,-0.03038223,0.00458849,0.02433611,-0.03309978,-0.04826924,-0.02078164,-0.00710158,-0.04441389,-0.00765977,0.02587547,0.00353488,-0.04146397,0.02634766,0.04565317,-0.02701088,-0.03600614,0.0236434,-0.02139976,-0.04574838,-0.01496909,0.02750988,-0.04784866,-0.02766266,-0.04465652,0.03343078,0.03673408,0.03125738,0.0451322,0.04535321,-0.028976,0.03811596,0.02561603,0.03155111,-0.01099168,0.00291436,-0.01132881,-0.00445278,-0.04763314,-0.03983523,0.04469008,0.00520802,0.04610168,0.02098803,-0.04358877,0.01319484,0.0075097,0.00961027,0.03072238,-0.00709047,-0.02184843,0.01945079,0.04290422,-0.0052672,-0.02814004,0.02639142,0.04079302,-0.02666373,-0.02132025,-0.01575639,-0.02381628,0.03172634,-0.01524198,0.01269561,-0.03140762,0.00545494,0.01237858,0.01490637,0.05038105,0.02172695,-0.01009863,0.04029967,0.02374622,-0.00402813,-0.04133418,-0.01633136,-0.0206999,-0.01468344,0.01153317,0.0383446,0.0272936,0.0053091,0.01149662,-0.04455969,-0.01678467,0.01149834,0.01589173,0.03879377,-0.03939244,-0.04077622,0.00729488,0.0130701,0.04253796,-0.04416877,-0.01469691,0.03995871,-0.04895956,-0.03717607,0.0344846,0.02046744,0.00920783,-0.02543825,0.03258807,-0.047,0.02422485,-0.02625484,0.03456679,-0.03853746,-0.01696874,-0.00009238,0.03631879,0.04354625,0.04828243,-0.02842251,0.02192846,0.03618642,0.04147788,0.02726813,-0.00638037,-0.0376771,-0.04554443,-0.0465933,0.04160972,-0.01168417,0.00276923,0.03842576,0.00271326,0.02784235,0.01649481,0.01701752,0.01847461,-0.01648119,0.01360984,0.01888033,-0.02549834,-0.01673853,0.01050747,0.03248923,-0.03468114,-0.00216035,0.00292517,-0.0088317,0.01823159,-0.00486852,0.03535714,0.04763748,0.01209651,0.02159884,0.02560908,0.02970621,0.00331496,-0.02567381,-0.01486753,-0.00213889,0.01652526,0.02414778,0.04274856,0.0329451,0.0034622,0.05031964,-0.01676565,-0.03457439,0.00536646,-0.0273566,-0.04117091,0.04452877,-0.04195729,0.01830413,0.0447707,-0.00962045,-0.02673995,-0.03281277,-0.0319887,-0.01877637,-0.04937198,-0.01474015],"bias":0},{"weights":[0.01201039,0.04638053,-0.03005238,-0.04589406,-0.0088348,0.04327214,0.0054871,-0.01020506,0.00124793,-0.05042542,0.04179871,-0.02416462,-0.02267669,0.03129875,-0.03318046,-0.00735352,0.00690899,0.00510881,0.02343271,-0.00386551,-0.04015706,0.04101403,-0.00443769,0.00617979,-0.02055931,-0.03314743,0.01913115,0.02755073,0.04107567,0.0302085,0.04447894,0.03898052,0.03320802,-0.03720587,0.00786523,0.03453014,0.02720676,-0.02107737,0.01917857,0.01664499,-0.04645997,0.02198938,0.03915248,0.04399438,-0.04947545,0.03272597,0.03540599,-0.00276216,0.0367954,-0.00796279,-0.01491636,-0.04149171,-0.0245845,-0.02103425,-0.02589155,0.00868707,0.00815305,-0.02379577,0.03610759,0.03929431,0.04053089,-0.02572951,0.0026028,-0.00205,0.02386838,-0.03755249,-0.02829881,-0.01793448,0.00559117,-0.04834638,0.04031721,0.02305263,-0.00872288,0.039653,-0.04504092,0.04246075,0.03089463,0.02043123,0.0227243,-0.00815123,0.04779155,-0.03685962,-0.00140593,0.03588253,-0.034657,-0.0011556,-0.00869906,0.03555081,0.0075126,-0.02272604,0.00648142,0.05041478,-0.00148677,-0.04459435,-0.03022822,-0.00640558,-0.05036211,-0.00623034,0.00843506,0.0476845,0.04345849,0.03877452,0.04815149,0.00787238,0.01984059,-0.03120107,0.02097577,0.01168717,0.0234373,-0.02174371,-0.02338921,0.00043961,-0.02665742,-0.04624632,0.04599926,0.04344906,-0.00082203,0.02073554,-0.02826369,0.03360831,-0.01569454,0.03773181,-0.02889546,-0.04202066,0.01262883,-0.04565034,0.04904698,-0.00891538,-0.03214084,0.03687174,-0.00542919,0.0183549,-0.03405031,-0.02037723,0.0222424,-0.03299162,0.00325438,0.02344492,0.03598856,-0.02001616,0.01142569,-0.04520485,0.0092962,-0.0275433,0.0130673,-0.04187932,0.04570709,-0.04809719,-0.03149061,0.02913929,0.03571945,-0.0084014,-0.01021736,-0.00078329,0.01637251,0.02402769,-0.03873454,-0.02181244,0.02057755,0.02076641,0.03803523,0.02516355,0.04766623,0.00164065,0.02165163,0.03503094,-0.03869855,0.00120703,-0.04447679,0.0167052,0.00612427,0.04852807,0.03661579,-0.01260778,-0.00531608,-0.01069959,-0.01071819,0.01009462,-0.03197677,0.01341011,-0.02250356,0.0012097,0.03220168,0.01503821,0.023015,-0.01079183,0.01284011,-0.03028685,0.00497702,0.03211679,0.01899308,0.03227265,-0.01561909,-0.04257166,-0.02104824,0.01320549],"bias":0},{"weights":[-0.00457916,0.00204,-0.00181621,0.01658063,0.03864486,0.00168767,-0.03347276,0.00022526,0.00282048,0.03965522,-0.04622659,0.04113858,-0.0249344,0.01007142,0.04426153,-0.02728475,0.04542307,-0.02127334,-0.04084435,0.0021728,-0.02275984,-0.00488876,0.00922992,0.04188774,0.0229142,-0.02389115,-0.04265656,-0.03106712,-0.03412436,-0.00611502,0.00361066,0.00484369,-0.04795797,-0.03394585,-0.01148931,0.00891987,0.02389622,-0.01453472,0.00713036,0.01434559,0.02289948,0.02308754,-0.00185182,0.04880126,-0.04168489,0.00869147,0.04329092,-0.00148374,0.03973913,0.03175034,-0.00912864,0.01415968,-0.04272273,-0.0014119,-0.02139695,0.01978112,-0.04013753,0.01823357,0.02565667,0.01655525,-0.03901873,-0.0482738,-0.0348451,0.04444462,-0.03467934,0.00307509,-0.03860418,0.00869934,-0.00822027,-0.01037596,-0.02973854,-0.04173163,0.04209573,0.03527044,0.02728292,-0.04148283,-0.04307994,-0.03024343,-0.00383404,0.00906453,-0.03661561,0.0143399,-0.04969769,0.02788422,-0.02481532,-0.04576459,-0.04643678,0.03096928,0.03998074,-0.04472752,0.00415516,-0.03918601,0.00475607,-0.03209151,-0.04384092,-0.00613755,0.04435852,0.04026393,-0.01573593,0.02827984,-0.00075954,0.04427461,-0.03381094,-0.0158141,-0.03799672,0.01644023,-0.02132065,-0.00234715,0.03930048,-0.03538588,-0.02881333,-0.0251173,0.02123236,0.02567081,-0.01396919,-0.02139143,-0.00304081,-0.02664531,0.02919183,-0.02843625,-0.01689981,-0.03905015,0.01712398,-0.00951881,0.00735514,0.00743741,0.04493023,0.04255143,0.00518984,-0.03894774,0.01164348,-0.04327931,0.04317519,0.04858742,0.00058861,-0.01754434,-0.02404648,-0.03313931,0.00696917,-0.02921119,-0.04319344,0.01308531,0.00883934,0.01329288,-0.02966923,-0.03637631,0.00729022,-0.00426688,0.01739662,-0.03279398,0.04329449,0.0487289,-0.03765859,-0.04941677,0.01184338,0.00019786,0.02816613,0.0150103,0.0333031,-0.02467734,0.03281664,-0.0488842,-0.03472293,0.02038592,0.02131801,-0.04762904,0.04902713,-0.04774342,0.0016281,-0.02913444,0.00098342,0.04881253,-0.02221088,0.0254119,-0.01472355,0.03042294,0.03021804,-0.02760811,-0.01077297,0.01758675,-0.02906479,-0.01133152,-0.018837,0.00479126,-0.00890504,0.04812788,0.03741212,0.02646497,0.04302332,0.00181639,-0.0325829,-0.02848261,0.02932874,0.02010655,0.00227937,0.01386048],"bias":0},{"weights":[-0.03177231,-0.01681165,-0.00095959,-0.02749288,0.04314933,0.03669299,-0.04216193,-0.00722765,0.00765631,-0.02487501,-0.03039792,0.04331001,-0.04970362,-0.02853812,0.02276195,0.01656089,-0.01574693,-0.04471791,0.03329353,-0.02175342,0.0145588,-0.01536337,-0.01482232,0.04608869,0.03796262,0.02180177,-0.03305411,0.01569057,0.00321405,0.02056322,0.01645236,0.04975339,-0.04964117,-0.03438564,-0.00545863,-0.02631094,-0.01028314,-0.0171817,-0.00701158,0.03549892,0.01985108,-0.00828702,0.00577058,0.03525753,0.04183971,0.02055009,-0.03783438,-0.00276507,-0.03580543,0.00383404,0.01455092,0.03137106,0.01651841,0.01848639,0.02583394,-0.04695903,-0.01897699,0.04317506,0.00180221,0.03218956,0.00173207,0.00020265,0.0475303,0.01470659,-0.03062561,-0.00004601,0.02161695,0.02863343,-0.016629,-0.01469807,-0.00642202,-0.02138511,-0.00448973,0.01447579,-0.04810694,-0.04512069,-0.04899014,-0.01966124,-0.04139385,-0.04757125,-0.02434222,-0.00253492,-0.04657823,0.01760061,0.05042939,0.03587815,-0.04074643,0.00371018,0.0036567,0.04560424,0.00926401,-0.01034925,0.03968203,0.04715528,0.04170298,0.04798773,-0.0342331,-0.00012281,-0.02301357,-0.01530439,0.04864503,-0.00387026,0.00938637,0.04658046,0.03574797,0.01415768,-0.01179356,-0.04815543,-0.04795506,-0.01905645,0.02393482,-0.04467583,-0.02631492,0.0101334,-0.04437758,-0.02343339,-0.0287299,-0.01997289,-0.04055066,-0.019626,0.04322044,-0.02502048,0.03804941,0.02250841,0.04767097,-0.01810076,-0.01330624,-0.04234525,0.04619879,-0.04570809,0.03236567,-0.04738969,-0.00127441,-0.01131227,0.02495361,-0.03530815,0.01722466,-0.02504718,0.00616439,0.01220913,-0.01319353,0.01634917,0.02636998,0.01250821,0.00648597,0.03308833,-0.0190725,0.00485943,-0.04046054,-0.01068592,0.03901024,-0.04049495,-0.04863932,-0.02673401,-0.007903,-0.0000789,-0.0162345,0.01740256,-0.02779516,-0.00116819,0.04013422,-0.03310542,-0.04417426,-0.01068079,-0.02684872,0.04898235,0.02460302,0.00521851,0.00281503,-0.00491014,0.03864458,-0.03113559,-0.04405671,-0.04964597,0.02859217,0.02608287,0.00772527,-0.02487255,0.01825472,-0.02657643,0.01818554,-0.00477837,-0.04517114,0.01056829,0.00899335,-0.01986219,0.01839797,0.04245137,0.00141019,0.03734696,0.02117943,0.03227207,0.04495228,0.04542104,-0.03477922,-0.04970904],"bias":0},{"weights":[0.04575928,0.035885,0.00111818,0.02618465,0.03539976,0.00896653,0.02726045,0.00562941,-0.03483323,-0.03489336,0.0497863,0.040606,0.03293358,-0.01059692,-0.02557561,0.01932986,-0.03735728,0.02920076,-0.03375668,-0.02041372,-0.04383991,-0.00282322,-0.00176701,-0.01629648,0.04584868,0.04557911,-0.01518241,0.02638868,0.01901268,0.04410226,-0.02738448,-0.03795743,0.01850675,0.03065207,-0.01639636,-0.00599188,-0.03680808,0.0310441,0.01062757,0.02791452,-0.01422005,0.00032047,-0.04750483,-0.00348595,-0.02402098,0.01342024,-0.02796406,0.00105904,-0.0296465,-0.04082511,0.00040506,-0.01318909,0.03028966,-0.00157199,-0.01634615,0.03397562,0.0218699,0.0236048,-0.0466587,-0.04734039,0.04281688,0.00957171,0.0161497,-0.04009103,-0.00143752,-0.01012473,-0.04275777,0.04884018,0.00225256,0.0126639,-0.00811052,-0.00633739,0.02232898,0.04988389,0.04159642,-0.03363061,0.01985426,-0.00784657,-0.04359888,-0.02127678,-0.04707514,0.01654836,0.03746746,-0.03164715,-0.04239605,0.04727356,0.01918954,0.02235652,-0.04832508,-0.03727204,0.04740249,-0.02836033,0.00262352,0.01926152,-0.00605859,0.02679728,-0.03836364,0.01996063,0.03181039,-0.00855995,0.01484018,-0.01752108,-0.02930087,0.00846892,0.03416214,0.01907188,0.03016556,-0.04913131,0.01978974,-0.04279491,0.01198734,0.03595201,-0.02381536,0.04502896,-0.031191,-0.02095347,0.03333898,0.01602544,0.00892755,0.01073722,-0.04219455,-0.04993534,0.01069037,0.00625152,-0.00934151,0.00820017,0.0423096,0.00038678,-0.03694053,-0.01404137,-0.04603819,0.02514336,0.02886483,0.00068763,0.04924689,0.04615565,-0.00431108,0.01149707,-0.00116517,0.02867071,-0.01459708,-0.03162049,0.03888117,-0.01061311,-0.03240752,0.01772591,-0.03915876,0.00252347,0.04586314,-0.04541828,-0.01651779,0.0051063,0.04464747,-0.03017587,0.0145587,-0.02172903,-0.02667779,-0.03713804,0.04744139,-0.02060181,-0.00843115,0.03063436,0.0315964,0.01411002,0.04158649,-0.04251857,0.0445052,0.0202463,0.0471398,-0.01493059,0.00392326,-0.00420557,0.01172805,0.02628883,0.03302825,-0.01694776,-0.0393196,-0.03795166,0.01138047,-0.00519541,-0.02843294,-0.0164577,0.02127213,-0.04346311,0.02035116,-0.03895139,0.03364413,0.02194347,-0.00493458,0.00301497,-0.00637932,-0.0258683,-0.03483989,0.03446441,0.02700159,-0.01744994],"bias":0},{"weights":[-0.00282675,-0.01694551,-0.03700077,-0.00416998,0.03254728,0.03591727,-0.04328187,0.03309092,0.00069247,-0.05039387,-0.0384669,0.01538349,0.0163968,0.02242071,-0.00747693,0.0374207,-0.00650031,-0.04801485,0.00873295,-0.04014039,-0.01003632,-0.02241442,-0.0156856,0.00515314,-0.00898376,0.0128117,-0.03514064,0.04806511,0.02055728,0.03061513,-0.03366029,0.04533794,0.0146047,-0.03707215,-0.04276294,0.00087649,-0.04076299,-0.0211927,0.0162255,-0.01682389,0.03290026,0.03950893,-0.03076987,-0.02397654,0.02720383,0.04266416,0.03755551,-0.03815112,0.03915218,0.01292739,-0.03400119,0.04324707,-0.03325767,0.00129612,-0.01641027,0.03320518,-0.04292056,-0.00764333,-0.00703386,-0.04558438,-0.00654537,0.00011493,-0.02450128,0.00356292,-0.0147765,-0.03521274,-0.00590982,0.01415816,-0.00460081,0.04671904,-0.044262,0.04273588,0.04118011,0.04942056,0.03879671,0.04575774,-0.04280017,-0.02444183,-0.03493123,0.02034649,0.01838644,0.03637077,0.00183087,-0.01555136,0.04359284,-0.02770208,-0.02856661,0.01481156,-0.03822359,-0.00292626,-0.01465029,-0.03345756,0.02840251,0.04367551,-0.04854486,-0.0061286,-0.03595814,-0.00663033,0.0468631,0.01255165,-0.00702168,0.00115514,-0.02864089,0.04012328,-0.03951369,0.00845393,0.03055315,0.03024624,-0.03230898,-0.00904006,0.02407913,0.01237851,0.046181,0.01770415,-0.00725562,0.04843126,0.04511809,0.01014954,0.04039842,0.00540682,0.04741449,-0.00370333,0.01015347,-0.03466726,-0.01069681,-0.04389703,0.00943622,0.02689318,0.03372084,-0.01504119,-0.01150237,-0.01506036,-0.03892374,0.00622534,-0.04178136,-0.02845534,0.04092964,-0.04226199,0.03235213,0.01443994,-0.04014525,-0.04076922,-0.00707915,0.00513041,-0.03630387,0.02396333,-0.0234832,0.00613235,-0.00254172,-0.03125861,0.04396054,-0.05044301,0.04986608,-0.02470122,0.03375583,0.04803348,-0.0365603,-0.02457582,-0.03433161,0.03496333,0.02966995,0.02292004,-0.04728165,0.03149373,0.00708848,-0.02844846,0.02974031,-0.02865268,0.03662993,0.02671193,0.02677232,0.02760318,-0.00335262,-0.02238698,-0.00112735,0.02794574,0.00494377,0.0469435,0.02142281,0.03638585,-0.04377124,0.0110916,0.01350164,0.02734652,-0.02954534,0.04638612,-0.02840875,-0.04413694,0.00684569,0.03325509,-0.01386326,0.04086261,0.00065581,0.013839,0.00704881,0.03804696],"bias":0},{"weights":[0.01023663,0.02764605,-0.04412761,0.00888458,-0.03244642,0.05002915,0.03842134,0.04367431,-0.04895932,-0.03918478,-0.01728331,-0.01637527,-0.03410012,-0.00820692,0.04052506,0.03362607,-0.02910392,0.0234493,-0.0159777,-0.02713021,-0.01052506,-0.0408238,-0.01822384,0.00229286,-0.02635255,0.02944637,-0.0181534,-0.04744303,0.04107124,0.03674791,-0.04700048,0.01148276,-0.02234832,0.00870456,0.02964362,0.04801912,-0.02388626,-0.00653432,0.00073591,0.0483549,0.01768742,-0.04199887,-0.03323083,-0.04011698,0.01404275,-0.00040102,-0.02135361,0.01358053,-0.02178105,0.03200387,0.02023256,0.0426011,-0.00222715,0.02517124,0.03881408,-0.03040216,0.03620433,0.02806982,0.0368738,0.00167868,-0.03614994,0.03173997,0.01522829,0.01847679,-0.01525521,-0.02154667,0.02327605,0.01322054,-0.01541581,0.03567758,-0.03711948,0.00975318,0.00746274,0.00839013,0.01835431,-0.00695119,0.00284495,-0.03525239,0.0145176,0.01477751,-0.03452457,-0.0365612,-0.02210796,0.0200135,0.04891881,0.04569697,0.0062628,0.02513638,-0.0245669,0.04820749,-0.01422639,0.02245541,-0.0201882,0.03807524,-0.01721711,0.02016525,0.02213377,-0.0086827,0.00850026,-0.00017097,-0.03182924,0.00821571,0.00861285,0.04375246,0.01027743,0.01623466,-0.02478557,0.03370483,0.02092092,-0.03651261,-0.03598381,-0.02041043,0.03521764,-0.0372786,0.04478751,-0.0209934,0.01690933,0.01738106,0.04433769,0.02270056,-0.02137594,0.01611025,0.03243255,-0.01829356,-0.01428968,0.02556591,0.027814,0.04825644,0.01276638,-0.02020995,0.03961012,0.02671995,0.04814884,-0.00994605,0.04101343,0.00008582,-0.04466855,0.02870048,0.04727064,0.03120665,0.01530581,-0.00948633,-0.00904671,0.03575917,0.03151647,0.02677551,0.02606804,0.03190084,0.03006276,-0.04231383,-0.03754471,0.01935629,0.00738929,0.00043868,-0.03575446,0.03864564,0.0330404,-0.01962509,0.01240884,0.0440271,-0.01530452,-0.01453716,0.00011219,0.0503643,0.04528065,0.00447588,-0.03994382,-0.01210682,-0.00442533,0.00706835,-0.02661776,0.04460988,-0.02500198,0.04044957,-0.01844774,0.02892396,-0.05026455,0.04974111,0.04346809,-0.03229628,-0.00314294,-0.04006449,-0.03618188,0.001234,0.00359791,-0.04960001,-0.03891588,0.01403458,0.01415832,0.02652654,-0.0303428,0.04685869,0.00322558,0.00841115,-0.03849419,0.01749256],"bias":0},{"weights":[-0.01199694,-0.05012583,0.00899413,0.01821087,-0.03408884,-0.02840149,-0.02619133,-0.02260768,0.05050502,0.03682566,0.00186357,-0.0470113,-0.03742205,-0.03004217,0.00612909,-0.04399454,0.04700167,-0.00889141,0.00929113,0.01216284,-0.01934403,-0.04194555,0.00239966,0.00952636,-0.02805046,-0.02132351,0.04183081,-0.03459378,-0.03237189,0.0033273,0.03156792,0.04965068,0.00391454,0.02081484,-0.03297585,0.00574384,0.0118925,-0.03118107,0.02387987,-0.04616511,0.00269169,-0.01406058,-0.00297754,-0.01476754,0.02535079,0.01073741,-0.0249721,-0.02435407,0.00596326,-0.02222269,-0.01512951,-0.03734427,-0.00468576,-0.04626338,-0.02740522,-0.03666884,0.00486086,-0.01211139,-0.01952124,0.04781501,0.00462954,-0.04090558,0.02228818,0.04067799,-0.04103039,-0.01291275,-0.03497651,-0.01303751,-0.03692348,0.00392024,0.02401324,0.04713596,0.0268097,0.01379684,0.001134,-0.03405771,-0.04518263,-0.04463097,-0.04144457,0.04555573,-0.0223241,0.04080965,-0.03332002,0.00766371,-0.03034044,-0.01823383,0.04331903,-0.03091702,0.05038326,0.00311472,-0.03200843,-0.0098444,0.00010204,0.04833256,0.04651575,-0.04575487,-0.02733639,-0.00208161,-0.02377389,0.00983846,-0.00843473,-0.02324973,-0.04320159,-0.02952599,0.04335567,0.04655682,-0.00889584,0.04366439,0.04387385,0.02750217,-0.01651884,-0.03495411,-0.04654216,-0.03160355,-0.04066329,0.00202553,0.02351022,0.00080263,-0.01720707,-0.00289978,0.04292235,0.02779899,-0.03225679,0.03325659,0.04220832,-0.04369133,-0.0208989,0.03838469,-0.04901105,0.01836869,0.02158296,-0.04436053,-0.02420511,0.00618767,-0.02586731,0.04064539,0.04502572,-0.02680821,-0.00891044,0.04852604,-0.03929727,0.01813805,-0.04767914,0.00302121,-0.00638844,-0.03614694,0.04150157,0.02957436,0.00377235,0.02509882,0.04349328,-0.03152766,-0.01101685,-0.02350335,-0.02040255,0.04503939,0.04187597,0.00206227,0.04302808,0.0131439,0.04846423,0.01717026,0.02718976,-0.00424237,0.02516983,-0.04889081,0.04716707,-0.02297201,-0.011129,0.0104183,0.02102503,0.02386485,0.00030601,-0.04236594,-0.04984782,-0.0282661,0.02918803,0.04667477,-0.00387712,-0.0233439,0.01998336,-0.02267537,-0.0132853,-0.00403425,0.03617452,-0.04099858,-0.04666864,-0.0347692,-0.02730472,0.00834403,-0.00626481,0.01925414,0.01976717,0.01598398,-0.02263016,-0.0216676],"bias":0},{"weights":[0.03549691,-0.02718317,-0.04986284,-0.03669045,0.04770807,-0.04950527,-0.04800301,-0.04516621,-0.03942816,-0.01934272,0.04889108,-0.0243597,0.04399993,-0.0040226,0.04187867,-0.01763025,0.01163232,0.03776978,0.04099186,0.00983499,-0.00259726,0.04313339,0.00908094,-0.03925138,-0.00031029,0.04203883,0.01297875,-0.02820975,0.03527751,0.00107565,-0.01746651,0.04635469,-0.01378849,-0.0370403,0.0429687,0.01726317,0.0437646,0.0496994,-0.04218183,-0.00158433,0.03081588,-0.01775341,-0.03835992,-0.03063941,0.04126289,0.00743509,-0.03677312,0.00046281,0.01837984,-0.02035637,0.02907559,0.02606119,0.04655066,-0.03411647,0.04520542,0.04752375,-0.03888096,0.03934976,-0.03218521,0.04041501,0.02557751,-0.00415118,-0.02934956,-0.01782602,-0.00435823,0.03752765,-0.03959015,0.04040555,-0.03229141,-0.01043452,-0.01298971,-0.03616366,-0.0161639,-0.00381794,-0.00499373,0.00809302,0.00433211,-0.01710399,-0.01138961,-0.01489291,-0.04983255,-0.02594892,-0.00875748,0.0200582,0.00039375,-0.04279808,-0.01973843,-0.02434009,-0.04685983,-0.01164247,0.02236617,0.00624681,0.0461926,0.03880332,-0.00386927,-0.04523171,-0.00388934,-0.04853933,-0.02291874,-0.04950493,-0.00965527,0.02439488,-0.03300328,0.03043698,0.04450996,0.02110054,0.02312706,-0.04505114,-0.02548474,0.03859146,-0.02211301,0.03767402,-0.04078667,-0.03156242,-0.0021444,-0.00459328,0.00840976,-0.0504805,-0.00069544,-0.02048394,-0.01861404,-0.02861807,0.02662054,0.0431767,-0.00370504,-0.02955104,0.04382246,-0.02185867,-0.01667406,0.04609648,0.03624469,0.00992381,0.00280839,-0.01182196,-0.01409131,-0.03014694,-0.04734713,-0.02015092,0.04801589,0.00148269,0.04815623,-0.01126994,0.01454626,-0.03106245,-0.02491433,-0.04853771,0.00631196,-0.04553606,-0.03914631,-0.04933538,0.0369375,-0.00447766,-0.02288419,-0.01235458,0.01699056,-0.00060084,0.02552214,-0.0095898,-0.02740658,-0.02789154,-0.02716146,0.00944109,-0.0122538,0.04477556,-0.01365342,-0.03550236,-0.02794305,-0.03555441,0.00514746,-0.03208396,0.02311631,0.00459342,0.03356925,0.01730252,0.02280885,-0.04068633,0.01905966,0.04985958,0.00350871,-0.00875439,0.01891256,-0.00206992,-0.01810954,0.03462433,0.03197214,-0.00749554,-0.00231107,0.02952217,-0.01765927,0.03010829,-0.02436997,0.00236803,0.00653061,-0.00603198,0.01085832,0.01399426],"bias":0},{"weights":[0.03348625,-0.02615003,-0.01720007,-0.03861248,-0.01673864,-0.01002507,-0.01679928,-0.02399906,-0.00170818,-0.02387193,0.02305148,0.01701137,0.04746257,0.03122069,0.01324404,-0.02767053,-0.03366799,0.04629927,0.03876212,-0.00631023,-0.03445406,0.03289037,-0.01185607,0.02012849,0.04264693,-0.01320138,-0.00228933,-0.03782139,-0.00022553,-0.02450775,-0.0486138,0.04354148,-0.02784823,0.02855157,0.0003609,0.02698427,-0.01886854,0.03534279,0.03266461,-0.00008786,-0.01246177,0.01581676,0.041637,-0.01744617,-0.01460456,-0.03463738,-0.0410316,-0.01467449,-0.02219138,-0.01056292,-0.03819805,0.03731757,0.01471716,0.04943785,-0.00176558,-0.00959194,0.03170147,-0.04645104,-0.0034691,-0.02889767,-0.00791114,0.03510455,0.04965419,0.00337203,-0.04838541,-0.04045215,0.04336221,0.01723635,0.02475509,-0.02484577,-0.02774233,0.0434035,-0.03675433,0.03325992,-0.0256773,-0.01983708,-0.04700514,-0.03659204,-0.04769493,0.03275615,0.03593067,-0.00332014,-0.01459728,-0.04638552,-0.03738129,-0.02298471,-0.02756817,0.02954932,0.0438812,0.00179822,-0.01292513,0.03611311,0.02155299,0.01412169,-0.00434665,-0.00135855,0.01133588,0.01487591,-0.03054606,0.0294256,-0.0312284,-0.0214027,-0.00015055,-0.02638478,0.03432423,-0.02670484,-0.02747122,0.00998473,-0.00705431,-0.03299298,0.04250415,0.05045601,-0.00250643,0.02209109,-0.0082783,0.00817821,0.00198082,-0.0109273,-0.00814412,0.01197036,0.0136455,-0.00510945,0.0371281,0.00856736,-0.03939209,-0.01182307,0.04686781,0.02177744,-0.04888834,-0.0485173,0.04204348,-0.03321518,-0.04040192,0.0022679,-0.0086865,0.00143717,-0.0352877,-0.00548253,-0.02271583,-0.03438416,-0.03808044,-0.0107711,-0.03791832,-0.02824327,0.00917876,-0.04875691,-0.03217937,0.03754799,-0.02717578,-0.02002735,0.034567,-0.02372582,-0.02686548,-0.04702562,0.03854062,-0.00833415,-0.03581137,-0.00851261,-0.01492345,0.03686274,0.02960302,-0.00771781,0.01478632,-0.01005948,0.00084285,0.02234168,0.02616437,0.01475957,-0.02398572,0.01069198,-0.04457904,-0.03395174,-0.00974905,-0.01880078,-0.04396339,0.03840781,-0.00369981,0.05007724,-0.00329573,-0.00209616,-0.03762588,-0.03197652,-0.0455549,-0.03533358,-0.01647819,0.03839673,0.01149801,0.00468366,-0.01519717,0.0475348,0.02576856,-0.01829542,0.01933183,0.00161104,-0.01415265,0.0052062],"bias":0},{"weights":[-0.03448672,-0.05006197,0.04836757,0.00929875,0.01962558,0.0108018,0.00323409,-0.03384251,-0.04384347,-0.03173796,-0.00341924,-0.02285788,0.01995656,0.0364219,-0.02677281,0.00987554,0.00441263,0.05020763,-0.04923396,-0.01643715,0.03544709,-0.03057881,-0.03361853,0.04748528,0.01795203,0.04750362,-0.03329196,-0.00286417,0.01991549,0.00749401,-0.01290584,0.03480006,-0.01531345,-0.00863113,-0.00109575,0.0491586,-0.01692787,0.01201753,0.04921484,0.03400988,-0.00046638,0.04164036,0.04513834,0.03192609,0.01021262,0.00548634,0.04887087,-0.01905222,0.01552103,0.00244818,0.01018582,0.03048952,-0.02990669,0.01640056,0.01798037,0.00436399,0.04367389,0.01890483,0.04570233,-0.00998321,-0.01937939,0.04853182,-0.02601361,0.02271635,-0.04057788,0.01209264,0.0487809,0.0354237,0.0288263,-0.00753868,-0.05010623,0.02350638,-0.01274496,-0.03658165,-0.00002188,0.04219114,0.03275972,-0.00651798,0.02947967,0.05009746,0.02384365,0.01928393,0.04749857,0.03515238,-0.04196928,-0.02084939,0.0314913,-0.0371511,-0.01354928,-0.03374199,0.04341885,0.0387674,0.04755077,-0.03753878,-0.00812561,-0.03847142,-0.00299944,-0.02785381,-0.04049968,-0.03479244,-0.03957868,0.0215894,0.04863999,-0.04296565,-0.03346605,-0.04738618,0.02307555,0.01293734,-0.03323694,0.01894461,0.01581747,-0.000983,0.01601748,0.00469573,0.03978437,0.01437034,-0.00073238,0.03798653,0.04005307,-0.01569942,0.0219581,-0.04211632,-0.01970351,0.02451192,0.03670341,-0.01974234,0.03732625,0.00632844,0.01428991,0.01353992,0.02595386,0.02914605,-0.02441644,-0.02308414,0.02029369,-0.04401673,-0.00518964,0.03418929,-0.02656242,0.02805183,-0.00729777,-0.03341244,0.04833979,-0.00607497,0.04643004,-0.03825894,0.01709363,-0.00467514,0.02533337,-0.02397921,0.04462262,0.04904956,0.04488414,-0.01478106,-0.00396571,-0.03879444,0.04477724,-0.03506016,-0.0277131,0.02891156,-0.03682534,-0.01400128,-0.04374636,0.02779317,-0.031509,0.02584159,-0.03809888,-0.02340973,0.00038775,0.0253683,-0.03774889,0.01870819,-0.02431842,0.0129976,0.01993579,-0.00684893,-0.03000613,-0.04968682,0.02271023,-0.02480827,0.00725801,0.00853258,-0.02696265,0.01535326,-0.00920133,0.00285805,0.0369418,0.01403344,0.03711993,-0.0473192,0.04108589,-0.0391869,0.03366523,-0.04906842,-0.04947286,0.04308417],"bias":0},{"weights":[-0.01446877,0.0276788,-0.01526722,0.00173906,-0.00909043,-0.04876906,0.05028799,0.00185859,-0.03447666,0.02046975,0.02473196,-0.00700412,-0.00015922,-0.00985638,-0.00474162,0.00549769,0.0075701,-0.03477232,-0.00474828,0.01670222,0.03260509,-0.00454129,-0.01467084,-0.00526945,0.03855521,0.00987604,0.03991584,-0.00626375,0.04291828,-0.03662175,0.02140587,-0.02484448,0.02734933,0.01177076,-0.00462632,0.03520111,-0.00392071,-0.03019641,-0.01206845,-0.03015559,-0.04126611,-0.02047287,0.0310295,0.00889889,-0.03545909,-0.00852404,0.00426801,-0.0123576,0.04711227,-0.0143101,0.02151959,-0.01833007,-0.004055,0.00335242,-0.04070602,0.03175017,-0.00839977,-0.04881529,-0.03129989,0.03624554,0.01818155,-0.04023977,-0.0202964,-0.02608022,0.02804771,-0.00395057,0.03724959,-0.00640172,-0.00021133,0.04139287,0.02558439,0.04806203,-0.00098681,-0.03451066,-0.01779668,-0.02439591,0.04518765,-0.00634735,0.03493149,-0.03027753,0.00914722,-0.02157722,-0.02878248,0.00812307,-0.02772726,0.0122786,-0.00349093,0.02401496,0.01123463,-0.01156754,0.0470308,-0.02366406,-0.01073992,-0.00497779,0.04750354,0.01942654,0.00799731,-0.01915666,0.01254023,0.0202454,-0.00992592,0.02611021,-0.03018273,-0.03136649,-0.0498305,-0.04113973,-0.03117304,0.02784395,0.00215821,0.01210361,0.00076242,0.01577398,-0.00935432,-0.04274251,-0.01585559,0.02638946,0.00544372,-0.00683009,0.01086085,-0.00538212,0.03270792,0.0353428,-0.00536391,0.04384679,0.04971114,-0.02278598,-0.00200507,-0.01142547,-0.04168339,0.04763258,-0.04117744,-0.00221461,0.04501233,0.01050679,-0.04585093,-0.00324866,-0.02831462,0.04212525,-0.02534426,-0.04028642,0.00184863,0.00509562,-0.04932435,0.01104968,0.04414928,0.03967178,-0.0126438,-0.02086458,-0.04183759,-0.03234919,0.03518355,0.0071388,-0.03488528,0.02118354,0.01476268,0.01529424,0.00711467,0.01276811,0.03211186,-0.02802332,-0.01231876,0.0139666,-0.0029124,-0.03937216,0.04208138,-0.02997072,-0.04598855,0.00979519,-0.04113381,-0.02867223,0.02585697,0.00805724,-0.00203486,-0.01218945,-0.03390056,0.00374767,0.04220038,0.04091457,0.01314052,0.05043781,-0.03181055,-0.04966304,-0.00662781,0.02468692,0.00281591,0.04838166,-0.00632822,0.02399768,0.03450569,0.00112807,-0.00073275,-0.03289304,-0.00791788,-0.02523497,0.02235329,-0.0122147],"bias":0},{"weights":[0.01995957,0.01311006,0.04775317,-0.02029235,0.0047915,0.0246836,0.01994736,0.01315859,0.00420194,0.03985291,0.03591954,-0.00231809,0.02573954,-0.04553426,0.02535235,-0.01853869,-0.01966256,0.01936474,0.00206664,0.03390342,0.02447767,-0.01093124,0.03813749,0.03361707,0.03610009,-0.00393218,0.02975339,-0.00589162,0.02456576,-0.04615644,0.00296826,0.00422445,0.05045442,-0.00233385,0.0173166,0.03118724,0.00026119,-0.03050638,0.03466846,-0.00822125,-0.04734256,0.02868201,0.02683207,0.03600921,0.04975873,0.00764696,-0.00089133,-0.03982445,-0.041934,0.04813625,-0.03716229,0.01374956,-0.04702829,-0.04637058,0.02978161,0.04474016,-0.03402571,-0.00540031,0.00619703,-0.04019239,-0.00326894,0.03210704,-0.03007252,-0.01355269,0.02273885,-0.01209037,0.0128579,0.00483697,-0.02942142,-0.00441095,0.03121087,0.02853188,0.03045706,-0.03687585,-0.03284012,0.0366759,0.0408471,-0.01755588,0.0001463,0.01782675,-0.03853247,-0.0227859,-0.0160942,0.01262017,0.04753377,-0.04372432,-0.046208,-0.00280316,0.04326938,-0.02824461,-0.03005583,0.00719932,-0.02447887,0.01277754,0.03277913,-0.00458567,-0.02380026,0.00075545,0.00109077,-0.04928713,-0.03839523,-0.01427889,0.0007347,0.04291051,-0.02144634,0.01747205,-0.04493079,0.02838662,-0.00005692,-0.02835274,-0.04013507,-0.00772051,-0.0240258,0.04049032,-0.0470397,-0.01051941,-0.01744829,0.04158198,-0.03051259,-0.04690737,0.00541777,-0.02801699,0.03099456,0.01445301,-0.00541103,0.0118818,-0.00923575,-0.0252165,0.03568082,-0.03259282,0.04144218,0.02323212,0.00326352,0.03547284,-0.00575025,0.04866258,-0.00078249,-0.00263913,0.02590849,-0.01048014,0.02979665,-0.00196989,-0.01922306,0.02064644,-0.02176432,0.02294924,0.04624561,-0.04938098,-0.01209903,0.03869631,-0.00636368,0.04758801,-0.02115409,-0.03530251,-0.00901705,-0.02981099,0.00630757,0.03822021,0.00146896,0.05033248,0.00620495,0.01036632,-0.04155352,0.00297416,0.03160926,-0.01687577,-0.00482079,-0.04516145,0.00926947,-0.02748107,-0.02726552,-0.0203117,0.00057182,-0.00980838,-0.04718987,-0.04348917,-0.00370417,0.00936935,-0.0008867,-0.01948288,-0.00576998,0.03710433,0.0331849,0.01503685,0.0466778,0.0196473,-0.01053095,0.01945542,-0.04674479,-0.03869296,-0.02423599,0.02066721,-0.00721694,0.01303028,0.0317483,0.01451326],"bias":0},{"weights":[-0.00962031,-0.02473852,0.00788204,0.00941939,0.03222701,0.0235504,0.03940778,0.03496502,0.0151114,-0.03078122,-0.01562994,0.01329952,0.0491182,0.01240756,0.04763076,-0.00384328,-0.01322155,0.02490558,-0.0175913,0.01475527,0.03030874,-0.01024795,-0.04580731,0.04530042,-0.0156129,0.0341746,-0.0469778,-0.00675664,0.00467098,-0.04330245,-0.04623425,-0.02400998,-0.01347048,0.02167914,-0.04627934,-0.04552206,0.04943805,-0.02495035,-0.03665235,0.01574193,0.02664221,0.00926746,-0.04731986,0.02139362,-0.01212655,-0.03636283,0.00281672,0.04207992,0.0401676,0.03314196,0.02091667,0.03241,0.01163074,0.0498752,-0.01952387,-0.02433777,-0.04801541,-0.0289139,0.03011103,0.0038803,0.02930654,-0.01681296,0.02027977,0.0125237,-0.02634677,-0.02130131,0.0127135,0.03076152,-0.01488131,-0.01795721,-0.02697482,-0.02085949,0.03253242,0.02050302,-0.00224992,-0.00137742,0.0150596,-0.0375718,-0.02096672,0.02295094,-0.04375122,-0.02068445,0.00798596,0.02930358,0.03573584,-0.04908662,-0.00123091,-0.01696717,-0.0484448,-0.0213698,-0.02148552,-0.01045217,0.01961627,-0.02058086,0.03225696,0.04974479,0.04526619,0.01444687,0.04651303,-0.03860788,-0.03233028,-0.04093139,-0.04717206,-0.01951633,0.01551103,-0.03905812,-0.02464195,-0.01193477,0.02216961,0.02836371,-0.04090838,-0.00001064,0.00273461,0.01472713,0.02756787,-0.03525033,0.0480254,-0.02368936,-0.02342443,0.0048574,0.01230232,0.02888535,0.03051328,0.01476081,0.0175689,0.00008668,-0.00328348,0.02899133,0.01518642,0.02095463,0.023528,-0.04990707,-0.04431763,0.04822539,0.01459052,0.00762638,0.02202594,0.01997291,0.01066662,0.00968186,-0.02645129,-0.0038748,-0.02114206,-0.01161102,0.03898575,-0.00412419,0.01353727,0.04716452,0.01024375,0.03662687,0.02517731,-0.00658131,-0.0237776,0.03204882,-0.0003485,0.04540667,-0.01863433,0.04027145,-0.04337673,-0.0132723,0.01572212,0.0317885,0.00446629,0.04179473,-0.02126594,-0.00133305,0.01498053,-0.01692651,0.04014835,-0.00341685,0.04748827,-0.00489653,-0.03929087,-0.00744987,-0.00913783,0.0150922,-0.04376079,-0.01399267,0.00535053,0.02439029,0.00204693,-0.03255044,0.02706857,-0.0038114,0.04447608,-0.00777771,0.02800168,0.0368403,-0.02747989,0.02034869,0.00967191,-0.02678843,-0.02329636,-0.0321762,0.01086013,-0.00228911],"bias":0},{"weights":[0.0386139,0.0464913,-0.00775026,0.04530571,0.02020793,-0.02557142,0.01444877,-0.00268207,0.03330739,-0.04564117,-0.00677038,-0.02575929,-0.03651097,0.02945309,0.0130461,0.05000669,-0.0342262,0.01060176,-0.00731312,-0.04518245,-0.04219595,0.03140506,0.01868095,-0.04997758,0.02661197,0.0092918,0.02981924,0.00037654,-0.00926596,-0.03416756,-0.04318406,0.03829795,0.05003452,-0.01950386,-0.03559524,-0.04818972,-0.0004703,-0.01577133,-0.04526465,0.0215961,-0.02013784,-0.04039016,-0.04956324,0.02225381,-0.01435049,-0.02547681,-0.04374296,0.03836309,-0.02838327,-0.02066402,0.00972999,0.03172406,0.026701,0.02414038,-0.01121076,-0.01395142,-0.02914717,0.04534718,-0.01625126,-0.03270415,-0.03769155,-0.02857995,0.02732483,0.02042525,-0.00164852,-0.02351092,0.01863556,-0.04158915,0.01368862,0.02727905,-0.04896303,0.04929014,0.02963652,0.00943434,-0.04170067,0.00313266,-0.0142274,-0.0010921,0.01178638,-0.02447703,0.01375044,0.01602866,-0.00748494,-0.0196122,-0.02789614,-0.02981482,-0.04960035,-0.02491165,0.00401725,-0.02490331,0.00316613,0.00527444,-0.00702879,0.03264149,-0.0392714,-0.01305379,0.00331888,-0.04177326,0.00114225,0.04389971,-0.00333319,-0.04604997,-0.01864116,0.02194047,0.00970629,0.00143716,0.04021567,-0.04255907,-0.03827808,-0.01525717,0.03871884,0.03215023,0.03696423,0.04564803,-0.04165326,0.00566091,-0.02638571,0.04242172,-0.00716238,-0.02510047,-0.02042191,-0.03767429,0.02208028,0.03676603,-0.01465914,0.0323543,-0.01912483,-0.01697832,0.03766252,0.03080841,-0.01772275,0.04627228,-0.01653933,0.00919156,-0.0271475,-0.01122305,-0.03808013,0.05000651,-0.01456812,-0.01843476,0.0138621,0.04810623,-0.01171902,-0.0330675,-0.02464536,-0.03588406,0.01616425,-0.03127576,0.03495836,0.00849892,-0.03153814,-0.03854589,0.01428008,0.01075211,-0.00835531,0.01896276,-0.01384242,-0.02800795,-0.03819724,0.02385675,0.02084511,0.00585128,-0.03182247,0.0027473,0.03225602,-0.03988215,0.00724846,-0.01240708,-0.03863943,-0.0187141,-0.0079652,0.01054283,0.01545797,0.04333557,0.00208936,0.00901856,0.0071942,0.0401918,0.03414323,-0.02446007,0.03659123,-0.05026999,-0.04728219,0.00211553,0.03265381,0.02278111,-0.02674043,-0.04398533,-0.00302817,0.01583859,-0.00628037,-0.00670904,-0.03362913,-0.03387725,0.05012023,-0.0095146],"bias":0},{"weights":[0.01014399,0.04924646,0.02018403,0.01178499,-0.0204866,0.00777069,0.04206061,0.00477776,-0.00206127,0.03113526,0.00137317,-0.01736513,-0.02188179,0.03698481,-0.02232499,0.0230771,-0.00271531,-0.01411453,-0.01794282,0.01765273,0.02139925,-0.03346014,0.040198,-0.02321308,-0.0383409,0.01321253,-0.04289327,0.01583635,0.03792166,0.02001882,0.0038695,-0.0387587,0.03498594,0.03059589,0.04446995,-0.03959114,0.02490325,0.01506135,-0.04118348,-0.02596971,0.02814148,0.04204277,0.01413849,-0.04047394,-0.01781627,0.03619222,-0.0055863,-0.0004073,-0.00540869,0.03270628,0.0330446,0.0083882,-0.0129884,-0.00217682,0.01189945,0.024817,0.04998927,0.04815069,-0.04389304,0.03418643,-0.04813228,-0.03395551,0.03820195,0.01011268,0.05031287,-0.03629393,-0.02674912,0.0186642,-0.04243516,-0.0468353,-0.02819056,-0.01144712,-0.02119329,0.0027351,-0.03408309,-0.03426653,-0.01653396,-0.00352052,0.04478155,-0.0055403,0.02602778,0.02439892,0.00613764,0.03862377,0.01200261,0.01881901,-0.00259946,-0.02022315,0.04573666,-0.04193774,-0.04237489,0.01864304,0.03612617,-0.04769649,-0.02387809,-0.04774683,-0.0169305,0.00694552,-0.00120586,-0.0007332,-0.00123827,-0.00902046,-0.04455499,0.01517671,0.02770633,0.02991825,-0.02482312,-0.03640504,0.01561646,-0.0482866,0.02063023,-0.01397062,-0.01930748,0.0480248,0.02401341,0.00563509,-0.02711441,0.01842197,-0.00501302,0.03434449,-0.04384686,0.02260739,-0.01588363,-0.01903616,-0.01187008,0.00585269,0.00588235,0.02208175,0.01916947,0.0227326,0.02181851,0.01695265,-0.02619462,-0.00699725,0.0180591,0.04096815,0.02672094,-0.01435073,0.01475683,-0.03464967,-0.04496241,0.00167086,-0.00221021,0.00162418,-0.00021205,0.00992957,-0.02265087,-0.02937498,-0.02348024,-0.04167974,-0.00306954,-0.0331707,0.0437107,0.02471807,0.01287637,-0.01007287,0.02225455,0.02404617,-0.02439053,0.01504065,-0.00046395,-0.03806154,0.00144016,0.01687634,0.03401896,-0.03486474,-0.03065749,0.00453712,0.03607336,0.01855759,-0.02522227,-0.00641156,-0.02654095,-0.04578243,0.01828557,-0.04242728,-0.02613701,0.04689096,-0.04629742,-0.03347597,0.01130954,0.00253888,-0.01286689,0.03038586,0.04134311,-0.02624727,-0.019543,-0.03938839,-0.03928367,-0.02870714,0.01018555,0.0289685,-0.0132055,0.01426836,-0.00842468,0.03490496],"bias":0},{"weights":[-0.00544629,0.03854044,-0.03071109,0.0306511,-0.04976679,-0.04530715,-0.00156591,0.03096544,0.04784367,-0.02537039,-0.02529656,-0.01850388,-0.01653221,-0.02625992,0.04239088,-0.03205999,-0.03462905,-0.03103176,-0.01365488,0.02234194,0.02919466,-0.00507876,-0.01563969,0.01346064,0.00129459,0.04673968,0.02962013,0.0321708,-0.03089171,0.01993073,0.04109342,0.01776799,-0.0380529,-0.02596846,-0.02143187,-0.02267397,-0.04309518,-0.04904992,-0.02480322,0.00228065,-0.01082872,-0.01782563,-0.00514185,0.04765986,-0.04541465,-0.00696669,0.04365365,0.00896792,-0.02146351,-0.0411422,-0.03879631,-0.02789586,-0.03369642,0.00240807,-0.02061186,-0.04006864,0.00667608,0.03949767,-0.00030043,0.01911288,-0.00273923,0.01615692,-0.00977395,0.03945588,-0.04897539,0.03824655,-0.01327999,0.00699746,-0.02766113,0.03142029,-0.02630136,-0.03441996,-0.02374768,-0.00358418,0.03265701,0.03115431,-0.03816946,0.01887047,-0.00085634,-0.04814478,0.01304851,-0.04721277,-0.04283007,-0.01590938,-0.04367068,-0.03534496,0.01298889,-0.03692221,0.02366569,-0.02143885,-0.03682548,-0.04403005,0.02263481,-0.03295109,-0.03872419,0.00304031,0.00413048,-0.02966248,0.04608204,0.03877034,-0.00400424,0.01223462,-0.00140269,0.00150302,-0.04954379,-0.04235293,0.02628555,0.033716,-0.04986809,0.00042918,-0.0250756,0.04998957,-0.04418856,0.04403641,-0.0176448,-0.03396296,0.01611139,-0.03993019,-0.02220845,0.04270311,0.02473307,-0.02568687,0.04883977,-0.04784453,0.00953849,0.02999732,-0.04556128,0.04238036,0.0364843,0.02923956,0.0138456,-0.00220848,0.03317235,0.0205369,0.01676135,-0.04554941,0.0144402,-0.02938,0.02669817,-0.00625641,-0.02240854,-0.03649247,-0.03872023,-0.03642073,-0.02200076,0.0352269,-0.01443,-0.0231109,0.03130287,0.01004168,0.0458879,-0.00063486,0.00087561,-0.03806008,0.02899366,0.04207175,-0.03095464,0.02569883,-0.03489626,-0.00652297,-0.02797026,-0.04994174,-0.04968174,0.03143361,0.03407208,-0.00481984,-0.01537357,-0.04147703,-0.0118621,-0.04560997,-0.04609931,0.00238638,0.04497632,-0.03148946,-0.00880149,-0.04869238,0.00625813,0.0400891,0.04857197,-0.04196209,0.03077011,0.02810461,-0.00436288,0.03980173,0.02971882,0.00139732,-0.04282902,0.05003194,0.0493444,0.04362201,-0.02621294,-0.03827737,-0.00352896,0.01598112,0.03016786,0.03843252],"bias":0},{"weights":[0.01323358,0.04186439,-0.00930601,-0.03521169,-0.04408314,-0.03252244,0.03213562,-0.0297465,-0.02876537,0.04736855,0.02546155,0.03396384,0.04850552,0.03505653,0.02404034,0.0480961,0.00835922,-0.0232893,-0.04552651,-0.04199845,0.0205711,-0.0012658,-0.04037856,-0.01460787,-0.05043361,0.02117943,-0.04544088,0.04804273,-0.01759779,0.02376866,0.04425491,-0.04521826,-0.02158182,0.0015862,0.03310276,0.03272481,-0.02627042,-0.01733304,-0.00502459,-0.0012304,-0.03610566,-0.04057087,0.03621139,-0.0173082,-0.01832921,-0.00282635,-0.0162034,-0.03145183,0.01617452,-0.02348707,0.01726883,-0.04763896,-0.04900157,0.04000546,0.02944584,0.0343871,-0.01927786,-0.03241955,-0.04906755,-0.02792417,0.04706119,-0.04110476,-0.0503232,0.04879682,-0.05027748,-0.02040676,-0.02702543,-0.00887487,-0.05030991,-0.03534212,-0.03086866,0.02165201,0.03869123,-0.00411571,0.05004885,0.01445599,-0.04400145,0.03323255,-0.01125127,-0.02463484,0.03172802,-0.01631757,-0.01068732,0.04256737,0.02273085,-0.00348188,0.00775313,0.03061328,0.04963125,0.00019704,0.00040782,-0.00134291,-0.0114266,0.04607985,-0.00113555,0.00375523,-0.04591106,0.04236054,-0.04639454,-0.02774685,-0.04419314,-0.01220866,-0.04535482,0.01128707,-0.01301881,0.04113611,-0.03956751,0.03390006,-0.01884775,0.00523736,-0.04550587,-0.03874786,0.00039183,0.03730441,-0.01294842,0.00832304,-0.02852362,-0.03252286,-0.00035512,0.04511932,0.04938514,0.03247753,0.04524569,0.01302697,0.02641511,-0.01129023,0.00939641,-0.02557386,-0.03876988,0.03242373,0.0382758,0.02468213,0.0048364,0.04352515,-0.02892989,-0.01154713,0.02063315,-0.0464338,0.01753696,0.03850137,-0.03889552,-0.04027682,0.02791631,0.04918679,0.04858233,0.01575265,-0.04763751,0.02260232,0.01494837,0.03096106,0.04408337,-0.01760779,-0.01069402,-0.02021149,0.04335779,-0.02589287,-0.03836091,0.04705939,0.03873361,0.02757251,0.03027338,-0.01366255,0.01097622,-0.03675085,-0.01584624,0.03816102,-0.01238149,-0.01128019,0.03783069,-0.01287411,-0.02282311,0.00568454,0.03291648,-0.01936358,-0.00737535,-0.03133716,-0.02549764,0.05025581,-0.02675746,-0.02221995,-0.02723193,-0.02453777,-0.04719841,-0.03756079,0.02205411,-0.03362337,-0.00850042,0.01606436,0.01936126,-0.04894815,-0.03484591,0.03165065,-0.00313587,0.03181163,-0.00988424,-0.02496042],"bias":0},{"weights":[0.01776374,-0.00255081,-0.00889693,0.00514916,-0.03726428,0.02757893,-0.04726184,0.00400817,0.02410306,-0.00688332,-0.02838517,-0.02559474,0.00289429,-0.02960604,-0.03434094,-0.04867172,0.04919977,-0.00265849,0.03828929,-0.01867219,0.00469749,-0.04526602,-0.02228852,0.0500167,-0.01659038,-0.03924191,0.03230414,0.0070103,-0.02638981,-0.03659812,-0.02440286,-0.04284467,0.01124445,-0.0392297,0.00271752,0.03504447,-0.00052344,0.04826029,0.04123653,-0.00338287,0.00633904,0.0181409,0.0006877,-0.00528305,0.02418372,0.01581973,-0.02444268,0.03011654,0.02549817,0.03151414,-0.01832724,0.04182344,-0.00152986,0.03252058,0.0435183,-0.04136029,0.02736989,0.02201723,-0.00882208,-0.04968921,0.0241633,0.01752004,0.00683332,0.04040911,-0.04791952,-0.04331851,0.03934043,-0.00976865,-0.01149115,0.00728663,0.03523014,0.0254296,0.0250396,-0.03738811,-0.02954324,-0.00018733,0.02734736,0.03954072,0.01522907,0.04142438,-0.04152801,-0.02280833,-0.02789749,-0.03698829,-0.02748001,-0.04641414,0.04785811,-0.03375565,-0.00931841,-0.02501002,-0.00407053,-0.04446213,0.04160094,0.03362271,0.02936605,-0.00735719,-0.04930492,0.00788611,0.00309555,0.0162667,-0.01295553,0.01912099,0.04835242,0.00922572,-0.01843014,-0.01235073,0.00924396,0.0234301,0.04650599,0.03570166,-0.02228499,0.03064377,-0.01399481,0.00048337,0.01083691,-0.01827042,-0.00181134,-0.00281219,-0.00008731,-0.03825604,0.00210169,0.04746873,-0.00016929,-0.0242229,0.03734118,0.00781538,-0.00197371,0.04681192,-0.01876782,0.04938382,0.00887318,-0.04521175,0.00592461,0.04534982,-0.01004491,0.02969041,0.00350132,0.04325053,0.00707033,-0.00707963,-0.04938027,0.01199768,-0.00100442,-0.04132796,0.01218532,-0.00845448,0.01405318,-0.0052824,-0.01837826,-0.04989253,-0.04676495,0.03143325,0.04842421,0.00391396,-0.0030636,0.03957636,0.02034954,-0.0250009,-0.01025698,-0.0297685,-0.00835772,-0.03126111,-0.01677696,-0.04505945,0.00153353,0.03497752,-0.04828639,-0.00536699,0.01944665,0.03365108,-0.02424813,-0.04903886,-0.03174793,-0.04745542,0.00982597,-0.02195116,-0.01815272,-0.01653637,-0.01967901,0.00520508,0.00111023,0.04738869,-0.03735168,-0.04846054,0.05012625,0.03806951,-0.02671104,-0.04797991,-0.04438265,0.03714135,0.04993694,-0.01854274,0.01742989,-0.0387184,0.027426,0.04315178],"bias":0},{"weights":[-0.02786354,0.03145297,0.00930112,-0.02998593,-0.0373714,0.01736975,-0.01152454,-0.02420777,-0.00480127,-0.01621033,0.02195934,-0.043004,-0.04659002,-0.02781138,-0.05003941,0.00836943,0.01788993,-0.0283487,-0.00942657,-0.00662624,0.02049293,0.01129308,0.01825977,0.01722809,0.0003714,0.03255737,0.03402964,-0.00326865,-0.04941966,0.03539909,0.00129865,-0.0106598,0.02567186,0.01155269,0.02962411,-0.00722001,0.04456628,0.03147917,0.04808133,0.01439243,0.04360666,0.04531311,-0.00191561,-0.00437983,-0.00848654,0.02246763,-0.03257885,0.02174982,-0.01586527,0.01484229,0.03774789,-0.03576059,0.02260667,-0.00843311,0.04959181,0.0085796,-0.01114073,-0.01174455,-0.01458783,-0.00284365,0.01614451,-0.00271435,-0.02595523,0.04219868,-0.02091339,-0.01949752,0.03577298,-0.04309207,-0.0325051,-0.02992431,-0.00507789,-0.03862249,-0.04552868,-0.01553895,0.0478434,-0.049226,-0.03338277,-0.03770356,0.03996123,0.04733897,-0.01238933,0.03589874,-0.00376082,-0.04049596,-0.00951608,0.04471054,-0.0392352,0.03447724,0.01302932,-0.00691353,0.02840398,0.03884728,-0.03882402,-0.03475138,0.05036092,-0.04581116,-0.00092548,-0.01622823,0.03041092,0.03031941,0.00593928,0.00764048,-0.03725884,0.02402351,-0.00976039,0.04259678,0.00448678,-0.04930471,-0.04091507,-0.01558838,-0.03378851,-0.04436337,-0.02676777,0.02394905,-0.01163142,0.02564202,0.0010647,-0.00722467,0.04600529,0.04666838,0.01691411,0.04616847,-0.02425631,-0.04675807,0.01134412,0.037324,0.03206218,0.03073196,-0.01830764,0.01933258,-0.02855152,0.01434468,0.01707959,-0.00658298,-0.04783046,0.02907932,-0.04973929,-0.03851499,0.0161844,-0.01339691,-0.03203981,0.00539967,-0.02887929,0.01891338,0.02458448,0.04067812,-0.01904718,-0.0221628,-0.02194348,-0.01978305,-0.03562981,0.01119704,-0.02451224,-0.02244707,0.00234148,-0.01518367,-0.0226644,0.01744929,0.0022568,-0.00621384,-0.04254108,-0.01608909,0.01584946,-0.00139021,0.02446525,-0.04121162,0.04603372,-0.04637263,0.04562159,-0.03331162,0.05013174,0.0262393,-0.01188861,0.04700969,0.03166446,-0.02257933,-0.00573396,0.03828225,0.04520923,-0.01374932,-0.04591021,0.01662605,0.00775726,-0.0147086,0.0063163,0.03470322,0.04962198,0.03519138,0.02793897,-0.04870904,0.00354091,0.00766833,0.04233339,-0.0127713,0.04500439,0.03992716],"bias":0},{"weights":[-0.01392822,-0.01689011,-0.0243022,-0.01251875,-0.00951504,-0.02294689,-0.00314339,-0.00888423,0.03689435,-0.00596075,0.02136578,-0.0192215,0.03770643,0.00253623,0.03493876,-0.04979899,-0.00589984,0.04349224,-0.04811735,0.04190329,0.02542978,0.04065967,-0.00021158,0.02667221,-0.00067403,-0.03034325,0.02397258,0.0420328,-0.03925706,0.04628115,0.00460771,0.03394582,0.00659371,-0.03492214,-0.0151226,-0.0501531,0.01198176,-0.02877423,0.03909114,0.03104164,-0.04318952,-0.03816191,-0.03468589,0.01065653,-0.04742067,-0.04471228,0.03792855,-0.00109343,-0.00158602,-0.01008758,-0.03484605,0.01632304,-0.01013855,0.01249717,-0.00245642,0.02738627,0.03272801,-0.03137649,-0.04725493,0.0453078,-0.02011895,-0.04787532,0.03771945,-0.03773928,-0.0032354,-0.03351522,0.0435847,-0.02133748,-0.02259027,-0.02655382,0.0318836,-0.04647136,-0.01562891,0.04274355,-0.03774615,0.04066958,0.03115388,-0.04418663,0.04185815,0.02072168,0.03596651,-0.00997628,0.01155386,0.04507954,0.02302857,-0.01702592,0.00688946,-0.0273227,0.04993547,0.0280033,-0.01061996,0.02012928,0.00440166,0.04619526,-0.00276848,-0.02369831,0.01702575,0.04361077,0.01104038,-0.02144614,-0.03074537,0.01525982,0.04625641,0.01687234,-0.04534737,-0.02606797,-0.00095396,-0.02348222,-0.01169442,0.00481546,-0.02632573,0.03688693,-0.00859111,0.02653064,-0.01388758,0.02839134,-0.03960779,-0.00422436,0.02887554,0.04086527,-0.02780235,0.01526697,0.01586169,-0.04125377,-0.03484474,0.04556198,0.03067334,-0.02858051,-0.03671435,-0.00087696,0.03784609,0.01159097,-0.02728828,-0.0293016,0.01093191,0.02502223,-0.03546934,-0.02156052,0.04303675,-0.02060119,0.02880328,-0.04932959,0.04927278,0.00841964,0.01507657,0.00526204,-0.0160933,-0.02436029,0.04230646,0.01663396,-0.03474325,-0.02373682,0.03241846,-0.04151752,-0.01278356,-0.04152081,-0.02356915,-0.04583241,-0.00248501,0.01051062,0.04202853,0.00203119,0.02626733,0.02174579,0.04543777,-0.00314816,0.03278909,-0.03471141,0.03715482,0.00157191,-0.01153433,0.02821803,0.03543039,0.02233991,-0.01482372,-0.01682234,0.00385696,-0.00961495,0.02961097,-0.02326567,-0.02626364,-0.03546435,-0.01908485,0.00194221,0.02969152,0.00691387,-0.04996612,-0.00025233,-0.01944515,-0.00775797,0.00148284,0.04798107,-0.02955478,-0.0296936,-0.0079699,-0.01513917],"bias":0},{"weights":[-0.02296923,-0.03148078,-0.01625457,0.03654934,0.03543532,-0.00209592,-0.03405137,0.00926339,0.00164856,0.04387138,-0.01960989,0.0109391,-0.01355193,-0.04305147,-0.04206257,-0.0462232,0.0020959,0.0146548,0.01165649,-0.01495441,-0.00780075,-0.00565734,0.02455784,0.02903368,0.03882153,0.00258331,-0.03911047,-0.04098556,0.0057535,-0.01242473,-0.03918005,-0.01072908,0.00381327,-0.00729058,-0.01901528,0.04053128,-0.01585318,0.02701352,0.00906854,-0.04438951,-0.00416627,-0.01937991,0.00667133,-0.02831805,-0.03189706,0.02929065,0.03958247,0.00321549,0.01344363,-0.02070593,0.00838082,-0.04614229,0.03320499,-0.00957182,-0.03897849,0.01496094,-0.02762298,0.00839327,0.00979479,-0.02909609,0.03360963,-0.05007633,0.02263736,0.00865024,-0.0023283,0.04032594,0.02999178,0.0315478,-0.03370619,0.04147195,-0.04179283,0.0136491,-0.03296098,0.03664682,0.02165085,0.00065466,0.01142381,-0.02742014,-0.03156861,0.05033191,0.01113611,0.05040763,-0.01360888,0.03951063,-0.03860234,0.00383037,0.02237197,-0.04665234,0.02236246,-0.03321645,-0.04347382,-0.01876714,-0.02981531,-0.01807531,-0.02003026,0.0016391,0.00953183,0.00663222,0.01203411,0.03555026,0.01917971,-0.00455898,-0.00183683,0.0117707,0.00037416,-0.01084533,-0.04951599,-0.01987539,0.00418057,-0.04268196,-0.03933999,-0.00191376,-0.02919495,0.02352172,0.03797768,-0.01029845,0.02544782,0.00759024,-0.01118535,0.04468829,-0.0139663,-0.0012921,0.04295363,-0.00425229,0.02449402,-0.01497273,0.01151968,-0.039385,0.0056261,0.03030939,-0.01517641,-0.00663055,0.03341595,0.01670019,0.00098757,0.02141671,0.02879976,-0.00099436,0.02181137,-0.05035014,0.01980792,0.04054396,-0.00624998,0.00445606,-0.02244582,0.01016902,-0.04667484,0.01098376,-0.00789947,-0.01494458,0.02203679,-0.01943838,0.04735602,0.01401336,-0.03329384,0.04096829,0.02247055,0.03800994,-0.01769104,-0.04049461,-0.04425327,-0.02012612,0.02153636,0.02434621,0.01142983,-0.04200226,0.00945859,-0.04504793,-0.01281286,-0.00087587,-0.04361114,0.0065795,-0.0123172,0.00770849,-0.03133872,0.00859409,-0.03109602,0.04459657,0.01496445,-0.00139112,-0.00084969,-0.04225688,0.01733626,-0.03378207,-0.00640436,-0.03924896,-0.03694825,-0.01346755,-0.04012874,0.04181432,-0.02085068,-0.0337179,-0.04428568,-0.00730693,-0.01059898,-0.03956839],"bias":0},{"weights":[-0.04033559,-0.01000408,0.04499382,0.0395764,0.00851119,0.02402694,-0.02781598,0.0016195,-0.02226894,0.01422695,-0.02994545,0.04738911,-0.00485,-0.04395188,-0.042387,0.00911666,-0.03136036,0.02931364,0.02338913,0.02483256,-0.00712416,-0.02746304,-0.01373395,0.01283663,0.0460084,-0.03053941,0.02076395,0.0126901,0.04673003,0.02597498,0.02050285,-0.0334829,-0.01244422,0.01965816,0.00717252,0.01136115,0.0158152,-0.0018,0.02623373,0.0504342,0.04184502,-0.04632799,-0.00531241,-0.01644053,-0.03852511,-0.00504342,0.0066331,0.02076968,-0.04940752,-0.03913545,0.03375798,0.01214632,-0.0472216,0.02329323,0.00493455,0.00734249,0.04407833,0.02999944,0.04448607,-0.02696085,-0.04280056,-0.01815419,0.03980369,-0.03009759,-0.02701176,0.03286267,-0.01988578,0.04911204,0.03327907,-0.02846774,0.00400702,-0.00045905,0.02145516,0.03424026,-0.01220652,-0.0302669,-0.00512486,0.01591199,0.04701305,0.01972889,0.01892485,0.01229925,0.00550146,-0.00184571,0.00949775,-0.03817358,-0.03849114,-0.001518,0.03875695,0.0115161,0.03306304,-0.02325043,-0.01061707,0.00382965,-0.03606296,-0.03133206,0.00301445,-0.01385111,0.02469136,-0.01653191,0.01936722,-0.05015356,0.01497061,0.0286925,0.04265531,0.04385843,0.04627984,-0.01684224,0.04794025,0.03275644,-0.0474677,-0.01553476,0.01821368,-0.00940019,0.03268817,-0.03480706,-0.00765866,0.04049956,0.01624037,-0.02201296,0.04611655,-0.04694417,0.01133787,0.04517555,0.01560988,0.0017359,0.03900292,-0.04182769,0.01002169,0.02379439,-0.00204623,-0.04710671,-0.01864704,0.0470368,0.03341401,-0.00582119,-0.00281327,-0.0070813,0.0432328,0.02452421,0.04666573,0.038553,0.00314283,0.04832295,-0.01571274,-0.01894573,-0.04742883,-0.03730099,-0.02350837,0.04844472,0.00812721,-0.02307305,0.0292358,-0.02072104,-0.01449439,0.0358417,0.02795669,0.0071299,-0.03759821,0.00902606,0.01312651,-0.01158427,-0.01704153,0.01322299,-0.01303759,-0.02474412,-0.03288563,-0.01058553,-0.04474673,0.04295445,0.03270563,-0.00712936,0.0321867,-0.00322098,-0.03807512,-0.04714586,0.04513066,-0.01797579,0.0040903,-0.01367082,-0.01110233,-0.04492238,-0.0162671,-0.00258752,-0.04121068,0.0166253,-0.00746625,0.04860215,0.03973993,0.01064773,0.01858722,-0.00883664,-0.02089038,-0.04283296,0.01859848,0.0170324],"bias":0},{"weights":[0.04992468,-0.01887271,-0.02466054,0.04577114,0.03525201,0.04898907,0.00044567,0.0040704,-0.01471223,-0.03268135,0.01287744,0.01660787,-0.00285823,-0.04388798,0.04805124,0.00806445,0.02552367,0.02163011,0.03745982,-0.027401,0.02917821,-0.03972367,-0.03082445,0.01432967,0.04910159,-0.01961666,-0.04104823,-0.01364601,0.04148955,0.00563974,-0.04844474,0.03589424,-0.00420723,-0.03812282,-0.00992451,-0.01345517,-0.03182687,0.00539977,-0.02647556,-0.00188427,-0.0209235,0.00350309,0.00719571,0.0478536,0.02260222,0.04254573,0.01054623,-0.028639,0.03394301,-0.01460049,0.02377345,-0.0065015,0.03580691,-0.01607629,0.04445604,0.02408534,0.01989433,-0.04595366,-0.02135546,-0.02202121,-0.00879409,0.00728471,0.02336858,0.02201668,-0.05049793,0.02941865,0.04062122,-0.04594056,-0.01036137,-0.04315863,0.01747104,-0.00236275,0.045499,-0.02007863,0.01667024,-0.01881191,-0.03554608,0.03476747,-0.01441299,0.03410452,-0.01948241,-0.01546062,-0.01546176,-0.02974614,-0.01881172,-0.02775818,-0.02259949,0.01390448,0.00052119,0.0456698,0.01250127,-0.03953802,-0.00556057,-0.04467416,0.02631109,-0.00711374,-0.04382441,-0.01940336,-0.0072325,-0.03654854,-0.00270672,-0.03483901,0.02805368,-0.02075434,0.04514364,-0.00246833,0.04311184,0.02781329,-0.02639927,0.01043287,0.04383143,-0.04178273,0.03399866,0.01195195,0.0121737,-0.0496784,0.02536784,0.04747972,0.04416296,0.01087044,0.01295762,0.02607215,0.00345787,0.04655909,-0.00907062,0.01967788,0.04793822,0.01547516,0.00557692,0.03635187,0.00751188,0.03754698,0.00684249,0.02753074,0.01478188,0.02016609,-0.0192566,-0.02883866,-0.00341936,0.03231778,-0.04423127,0.02022529,0.02674848,-0.00762747,-0.03622756,-0.04084434,0.03747152,0.0235592,0.0369561,-0.0050365,0.03644563,0.02902687,0.00556336,0.01500872,-0.01319492,0.03460643,-0.02836916,-0.03946924,-0.01550813,-0.04104052,0.0150251,-0.01627489,0.01589791,0.00194963,0.00589034,-0.02067462,0.00691757,-0.03899125,0.01278352,0.01048333,0.00048356,0.02589259,-0.0330722,-0.0217442,-0.03368195,0.02172255,-0.04766903,0.0133572,-0.02557665,0.0480621,0.03014454,-0.00498209,-0.04681847,0.03333413,-0.02872252,0.03225247,-0.03291536,0.02049483,0.00310704,-0.03511385,-0.0035398,0.0385993,0.02321848,-0.03160752,-0.02741134,0.04031839],"bias":0},{"weights":[-0.02964477,-0.04723175,-0.02654243,-0.02912023,0.00384758,-0.04877385,-0.0088847,-0.00812983,-0.00336988,-0.00872159,0.04753654,-0.01762197,0.00367559,0.00549408,-0.03155489,0.0357664,0.04396723,-0.00868441,-0.04560104,-0.03020002,0.00662401,-0.01596626,0.00646466,0.0501092,0.04116682,-0.01887577,-0.00860145,-0.03545803,0.03559471,0.00727381,-0.0436607,0.01027269,-0.03935068,0.04742513,0.0063791,0.00979323,-0.02208305,0.04904286,0.02434463,0.04017219,-0.00851482,-0.03544014,0.04832325,-0.01349232,-0.01339567,0.04403138,-0.00197401,-0.03792803,-0.01135052,-0.03578523,-0.026047,0.04403395,0.02053349,-0.00101953,0.00212616,0.04949647,0.0058043,-0.01203345,-0.00861672,0.03772161,0.01869001,0.01263842,-0.02306664,0.01255462,0.02659747,-0.0347764,0.01039031,0.01732028,0.04946635,-0.02925624,0.00481699,-0.00249922,0.0447945,0.01643487,0.00691009,0.04183953,-0.03325858,0.04662919,0.03729478,-0.03762819,0.04378372,0.01262533,0.00552135,-0.04990382,-0.01612805,-0.00644039,0.00451513,0.02743794,-0.04298191,0.02125382,0.01629478,-0.0031729,-0.02340007,0.04235554,-0.00070783,0.00288815,-0.03166034,-0.00909919,-0.02581906,-0.04470853,0.010141,0.02581264,0.02616769,-0.00283922,0.04945159,0.01921353,0.01242719,0.02728161,0.00772092,0.01973848,0.00639093,-0.03527266,-0.01920702,-0.03235357,0.01057908,0.04757099,0.02636109,-0.0389014,-0.0199719,0.03970516,-0.00432165,-0.00491857,-0.00171962,-0.01331831,0.0273817,0.02237666,0.03830306,0.04623781,-0.04059119,-0.02744717,0.04863403,0.00507563,-0.00351413,0.00811061,-0.02373681,0.00117246,0.0466384,-0.04284572,0.00490073,-0.01595891,0.03520987,0.02252667,0.03462034,-0.04968179,-0.0471801,-0.0381065,-0.03340398,-0.00355706,0.01033165,0.044849,0.03887875,0.04052834,0.04794876,0.04958925,-0.00997441,0.03763498,0.03018823,-0.04858605,0.00642551,0.01743265,0.03458101,-0.03172806,-0.0463031,-0.00371716,-0.04246459,-0.00244984,0.03995284,0.04804854,0.01299847,-0.02027735,-0.03349449,0.02571732,-0.02404863,0.04164235,0.04721103,-0.02144617,0.00492598,0.02337906,-0.02344013,-0.03993285,-0.0248531,0.0157445,-0.00750122,-0.03006515,0.03575729,-0.01304421,0.01081232,0.01608157,0.00052643,-0.03867652,-0.02748176,-0.02906219,0.0330138,-0.04843809,-0.02595491,-0.03200371],"bias":0},{"weights":[-0.02887486,-0.00560676,-0.00958366,-0.00104227,-0.03373785,0.03596616,-0.01308526,0.00230893,0.01155699,-0.02492809,-0.00247222,-0.03061377,-0.0014755,-0.00543212,0.01353679,-0.04266469,-0.04291902,-0.00340832,0.04823541,-0.02908485,-0.01880255,-0.01805449,-0.00771663,0.03649939,-0.05017553,0.04577543,-0.02186555,0.02361064,-0.04223397,0.0116797,-0.03535258,-0.00264622,0.03547736,0.00808198,0.04091405,-0.00949668,-0.04162131,-0.03644841,0.02503234,-0.03662734,-0.01283526,0.00410302,0.01918859,-0.01407514,-0.01486403,0.0122206,-0.01181104,-0.02926867,-0.01678125,0.04807667,-0.03122718,-0.03745796,0.02623892,-0.02411861,-0.00109156,0.00200179,-0.03511652,-0.01041011,0.03341732,-0.03280348,0.02569271,0.03781644,-0.00117068,0.03791467,-0.04158621,-0.01533205,-0.01034176,-0.0064393,0.01951282,-0.0356889,-0.03773569,-0.04644989,0.04137311,0.04114729,-0.04493208,0.01244891,-0.00458804,0.03136247,-0.0214708,-0.03387837,0.02411725,-0.02248581,-0.02399204,-0.02621788,0.03245477,-0.02442836,-0.00369869,-0.01768813,0.04967471,0.03434798,0.03656708,0.02542723,0.01650316,0.00329516,-0.02483896,0.03836223,0.00328594,0.04371384,-0.0074005,-0.00360463,-0.04511242,0.00465955,0.04771075,-0.02213395,-0.01996666,0.01929449,0.0195082,-0.04379971,-0.04157924,-0.03003284,0.03576533,0.0129958,-0.0205397,-0.01626281,-0.01820287,0.02454549,0.00869249,0.04343324,0.02913351,0.01258449,0.03708772,0.00724318,0.00225841,0.03506442,0.02299017,-0.01117344,-0.0079472,-0.02117243,-0.00600347,0.02173463,-0.00778977,0.011671,0.03749685,0.02047674,-0.01229373,0.03471726,0.04083399,0.0423982,-0.0437914,-0.03381052,-0.01175961,-0.04445986,-0.0195857,0.0196567,-0.01829931,-0.00696656,0.02496133,-0.00487903,0.0341303,-0.00460837,0.04356811,-0.04524386,-0.02349337,-0.02516692,-0.04215738,-0.03905921,0.0390122,-0.02905988,-0.00739429,-0.0345164,0.0416223,0.00655371,0.0126558,0.01797075,-0.04441164,0.03845741,-0.03235207,0.00677158,-0.03258158,-0.04092608,0.04943516,0.01614473,-0.03115967,0.02207371,0.0463779,0.01457034,-0.03913047,0.00621451,-0.01816327,-0.03015656,0.01839941,-0.0468204,0.04879196,0.01200417,0.01569276,0.02760244,-0.0400628,-0.02792458,0.03366288,-0.02000394,0.0172782,0.03386065,-0.04603884,-0.03556046,-0.01126705,0.02173327],"bias":0},{"weights":[0.04620873,-0.03752732,-0.04238029,0.03274088,0.0086467,-0.01024359,-0.0482549,-0.04741312,-0.04535037,0.02346023,0.02337053,-0.04820436,-0.0188452,-0.01647928,0.02613365,0.04972264,0.00837884,0.0442867,0.00866815,-0.03122887,-0.00969231,-0.00623609,-0.033671,0.00407469,0.00066766,0.03251488,0.02878345,-0.01017139,-0.01598659,0.00326849,0.02656829,0.02778572,0.00580186,0.04999297,-0.04062725,-0.03103331,0.04619393,0.04187083,0.04572785,-0.00224382,0.04245885,0.00719704,0.03912816,0.04723862,-0.04780956,-0.02173541,-0.04424737,-0.01849009,-0.02726738,-0.00788525,-0.01306451,-0.03705153,0.02665351,-0.01612295,-0.02992784,0.02320996,-0.00316388,-0.00899975,0.04616687,-0.0379685,-0.0083705,0.00037249,-0.01104856,-0.04035345,-0.01599953,0.0482,0.02821577,-0.04539666,0.00752476,0.00102881,-0.04324752,0.00345203,-0.04356714,0.00976252,-0.02142976,-0.02186054,0.01292867,-0.02217594,0.02973021,0.01421804,0.002663,-0.00571364,0.03747901,0.01545231,-0.04171702,-0.03755746,0.00071423,0.04622638,0.02384275,0.03576343,-0.03102817,0.01446682,0.00689097,0.04276089,-0.01422173,-0.02666736,-0.04876836,0.02040026,-0.04384545,0.00877847,0.0082697,-0.00818447,-0.03099597,-0.01547081,0.04224716,0.0030064,-0.01125178,-0.03112551,0.03777029,0.04577525,-0.03821528,-0.02242746,-0.03266249,-0.02298785,-0.04927624,0.03239433,-0.0157314,-0.00039787,0.02632204,0.04858061,0.04335152,0.013713,-0.00858217,0.0042755,-0.00299674,0.03540715,-0.04975221,0.02185445,0.04434884,0.02875675,0.04580716,0.00642804,0.04806707,0.00671976,-0.02643705,-0.00667638,0.044544,-0.00549114,-0.0381805,0.00488363,-0.00459326,0.04973566,-0.01044591,-0.02964694,0.03772877,-0.01760076,0.03098392,0.03064157,0.02909054,-0.05030489,0.04103111,-0.00985103,0.04238544,0.02144566,0.00471732,0.01622003,0.0376778,0.02230564,0.02532047,0.00740965,-0.02250384,-0.04839996,0.00215805,-0.04110694,0.00587801,-0.03212026,0.00031692,0.03267967,0.04190043,0.03696379,-0.02705273,-0.04055245,0.04354664,0.02387543,-0.00251966,0.04056908,-0.03928666,-0.04880906,-0.00343696,-0.00251536,0.01757691,-0.03686576,0.00656631,-0.01227632,0.04104603,-0.01204069,-0.0038163,-0.00606761,0.04645489,0.03467187,-0.01000616,-0.04992875,0.02725772,-0.00579796,-0.03394368,-0.01580491],"bias":0},{"weights":[0.02853215,0.00071889,-0.05012273,-0.00596994,-0.00633519,0.04629022,-0.02800628,-0.04789711,-0.04119471,-0.04092154,0.03628135,-0.02186038,-0.02452055,-0.00107823,0.04882354,0.0140856,-0.00458454,-0.03299878,0.0081016,0.01681294,-0.00546412,-0.03533001,0.03722882,0.00217074,-0.04349358,-0.0350091,-0.03143241,-0.03389795,-0.00373979,-0.03578666,-0.04497594,0.01928163,0.00099999,0.0476523,0.0307662,0.03373627,0.02252346,-0.035366,0.02074352,0.02683493,-0.01554095,0.02116108,0.01684843,0.03594078,-0.02118056,-0.03279805,0.03004139,-0.0484978,0.00478712,-0.0175348,-0.01729617,-0.0128566,0.02173695,-0.02697583,-0.00809127,0.01920498,0.00428772,-0.04635553,0.00739421,0.00668473,-0.04286449,-0.00770248,-0.02376957,0.04894266,0.0488176,0.03814704,0.03914074,0.04583992,-0.02544288,-0.00053583,-0.03683682,-0.04363288,0.00431206,-0.02839067,-0.03886175,0.04951509,-0.00346228,-0.01715542,-0.05004835,0.02766883,0.02585262,-0.04417749,0.00129654,-0.02075321,-0.03109613,0.03869323,-0.03738881,0.01463329,0.03747013,0.00854353,0.00665523,-0.04655671,-0.03143315,-0.0067752,0.01529372,0.01049722,0.03429178,0.00262027,-0.04331892,-0.01403523,-0.02816469,-0.03032574,-0.02385848,0.00484454,-0.04584164,-0.00975536,0.04012851,-0.03345316,-0.01615708,-0.04644719,-0.03105634,0.03142127,0.00833622,0.04749479,0.00039993,-0.03345752,-0.00230945,0.00904085,-0.03971523,0.00610234,-0.00244984,0.0264612,-0.04777595,0.01370954,-0.0291787,0.02807698,0.02414126,0.00346462,0.03812228,-0.0048504,0.03438394,-0.00508729,-0.02878203,0.00889143,-0.0168212,-0.00485084,-0.01714523,0.01378204,0.02814435,0.04168573,-0.03720637,0.03840455,-0.00874869,0.03966299,-0.02163329,-0.00690059,-0.03850245,0.02789319,0.01843356,0.00465784,-0.01953584,-0.04534337,-0.03134847,-0.02851574,0.02141691,-0.03577875,0.03070901,-0.01658201,-0.01242062,-0.01339846,0.03898979,-0.01701827,-0.03179988,-0.05002966,-0.02189583,-0.00120159,0.03917318,0.00055902,0.01104094,0.02084238,0.04707403,0.00778997,-0.04329095,0.01862294,-0.01437388,0.04378279,0.04867268,0.03603422,0.03047234,0.04439191,-0.00729601,0.02637345,0.03979372,-0.02964375,0.02246421,0.03752805,-0.03008302,-0.00141055,0.04904111,0.0003912,-0.04534755,-0.0319578,0.00195088,-0.01647477,-0.00194545,0.03646655],"bias":0},{"weights":[0.01360702,0.01338925,0.01271116,0.00594584,0.00768511,0.02412724,-0.01929218,0.02194984,0.00174394,-0.04410631,0.00561668,-0.02018487,0.01521669,-0.02005488,0.02268892,-0.00293101,-0.01335104,0.0238146,-0.01456708,-0.02296281,-0.03208426,0.01935757,-0.04996391,-0.04217774,-0.00671442,0.04132471,-0.04654377,0.03506661,0.03066058,0.00574525,0.00138849,-0.02502686,-0.00380516,-0.04626097,0.03124827,-0.03007943,0.0458136,-0.01949471,-0.03991443,0.04786222,0.02480098,0.03429394,0.00479692,0.02032296,0.00897641,-0.0212333,-0.03201522,-0.04473548,0.03991912,-0.04401205,-0.03719739,0.03414132,0.0202099,0.00370572,0.0401092,-0.01471088,-0.00449161,-0.04836181,0.01321862,0.02721971,-0.0077601,-0.0204223,0.02850061,0.0464681,0.0236015,0.04434843,0.02940823,0.00156158,-0.00481705,-0.03444548,-0.03807308,0.01063144,-0.0213727,-0.01649033,-0.03062025,0.02429563,-0.03914478,0.04847897,-0.02369459,0.01187252,-0.01409929,0.00536635,0.00216115,0.01674478,0.00578001,0.016558,-0.04368172,0.02339173,-0.01715069,-0.02942296,0.02869248,0.0003246,0.03565457,-0.04966352,-0.03392627,0.03137114,-0.01157748,0.00765241,-0.03104935,-0.04825432,-0.03997666,0.04302465,-0.04972957,0.00654577,0.02582546,0.00707383,-0.02172589,-0.00409197,-0.02283725,-0.0337577,-0.00057229,0.02541788,-0.01016878,0.02415892,-0.04228995,0.00042423,0.00654636,-0.02592813,0.03862143,0.00210375,-0.01721259,-0.01103693,-0.04120208,-0.04946788,-0.01100341,0.02828595,-0.01672056,-0.01570031,-0.00310062,-0.02191029,0.04632073,-0.00091222,-0.02578774,-0.0220869,0.01221674,0.00886014,-0.03937166,0.05040405,-0.04496826,-0.02083316,0.02239898,0.01354363,0.03627973,0.03560006,0.04796643,-0.009122,-0.02643501,-0.0409677,0.04628945,-0.02429932,-0.04008213,-0.0312983,-0.04230903,0.00164613,-0.00780773,0.01398772,-0.02903486,0.0071201,-0.00348216,0.03311812,-0.00675298,-0.03055042,0.0241609,0.01154186,0.05004307,0.00222009,0.02403114,-0.02199722,-0.03810487,-0.02737501,-0.02716512,-0.00041087,0.04306691,-0.04322578,0.03846759,-0.03788266,0.02139928,-0.04397525,-0.02359288,0.03392465,0.03633644,0.01145979,-0.01429758,0.03816069,0.00448401,0.01558692,0.03467919,0.03477176,0.03069433,-0.0093628,0.03716406,-0.02336785,0.04140799,-0.03795734,0.03193464,-0.01194619],"bias":0},{"weights":[-0.00230271,-0.00023223,0.00840808,0.0105691,0.02063823,0.00006595,0.00525357,0.04590324,0.04935549,-0.04154713,0.04430866,0.02988224,-0.03702698,0.0087891,-0.01762573,0.00956605,0.04132095,-0.03242089,-0.02983435,0.01616812,0.04870639,0.0426598,0.00931012,-0.00497178,0.01608185,0.02821102,0.04924001,-0.0440646,0.02402604,-0.02028698,0.04381448,-0.01393777,0.04936773,-0.00949761,-0.03995754,-0.00087193,0.02812151,0.0024881,-0.04160652,0.03352577,-0.02731974,-0.04539047,-0.03233489,0.01307251,0.03662884,-0.041107,-0.04908927,-0.00935608,0.02498787,0.046539,-0.03613284,-0.0471992,-0.02529371,-0.02924862,0.01554548,-0.01850287,-0.02299385,-0.01963996,0.04682964,-0.01156655,-0.00705343,-0.03762261,-0.00775955,0.007446,0.04070452,-0.0251296,-0.0304748,-0.00714626,0.00727698,-0.01649609,-0.02976347,0.02449902,0.0041636,0.01011216,-0.00497943,-0.01444339,0.02737359,0.03250299,-0.01369197,0.019519,0.04475079,-0.01060153,-0.01336667,0.00401026,0.01742803,-0.01851879,0.02622326,0.03779693,-0.01727564,0.00013633,-0.03518487,-0.02682701,-0.03758282,-0.04487728,0.04427249,-0.0171913,-0.00975796,0.02982448,-0.03437267,-0.0231514,0.04200119,-0.00652186,-0.03946102,-0.01427163,0.04735771,-0.01391617,-0.02224004,0.02493275,0.01329286,-0.04403664,0.01533837,0.03804573,-0.02171626,-0.00000467,0.00907329,-0.03901263,0.0106496,0.04587885,-0.02074555,0.03527128,0.04725605,-0.00178473,-0.00408302,0.02574076,-0.05007403,-0.00994501,-0.00826782,-0.00463688,0.04418992,-0.00218592,-0.02981166,-0.04811812,0.0399243,-0.00021264,0.02528642,0.04699122,0.02506274,0.03744477,-0.01414774,-0.02138735,-0.03700456,0.01738786,0.04836045,-0.0425059,-0.04739499,-0.04132082,-0.01425627,0.02015908,-0.02730904,0.005252,0.0357413,0.04775278,0.00729039,0.01112427,0.02604149,0.02088234,-0.00764951,-0.00741393,0.01086103,0.04875621,-0.01576481,-0.04457979,-0.03292419,-0.03266118,0.00848867,-0.00720298,-0.00262718,0.00809644,0.01604336,0.04864999,0.0096566,0.00498194,0.01099841,-0.02690354,-0.03424063,0.03171443,0.01145479,0.01865649,-0.02280961,0.01125553,0.01986201,0.00753658,-0.04822264,-0.00223742,-0.04910266,-0.04806383,-0.04791688,0.02369538,0.01730325,0.02157883,0.00978343,0.00563568,-0.0034718,-0.01547562,0.02213618,0.00200346],"bias":0},{"weights":[-0.0108127,0.04252152,0.03179804,-0.00858684,-0.0353752,0.01758528,0.0370932,-0.00171719,0.04795039,0.02354655,0.04675219,0.01214521,-0.04642032,-0.0390071,-0.04668454,0.00572593,0.00890466,-0.03544212,-0.04537114,0.01231769,0.03108259,0.03228057,-0.02320903,-0.04928325,0.02813181,-0.02133831,0.00449316,0.03096672,0.04636711,-0.0302641,-0.04612012,0.0382832,0.01015552,-0.04965289,0.02859238,-0.02284709,-0.03930306,0.0267991,0.03980028,-0.01639167,-0.02068198,-0.01451037,-0.01279672,0.00472221,-0.04379196,0.05050601,-0.03106129,0.02239119,-0.00731435,-0.01708528,-0.01108548,0.03873068,0.02186296,-0.04507311,-0.0098319,-0.01435199,0.02904416,-0.04128833,-0.00830399,0.03431542,0.04281996,-0.00920443,0.03081714,0.02366694,-0.04990632,0.00609062,0.03111879,0.01418424,0.00174826,-0.00215018,0.03727027,-0.02673485,0.04311567,-0.04071222,-0.02803885,0.00809968,0.02210898,-0.01437268,-0.02556684,-0.01799646,0.03919381,-0.02917131,-0.00660447,0.04151879,-0.03170584,-0.03837248,0.0467482,-0.0480281,-0.0395828,0.03479567,-0.02555999,-0.04502881,0.02820488,0.03477729,-0.01455712,-0.0464192,-0.00521223,0.00983705,0.0027775,-0.03078637,0.02797812,-0.04119799,0.01622468,-0.00028148,-0.01727001,-0.02209722,0.00570703,0.01782538,0.00165237,0.0260704,0.00113034,-0.02238515,-0.01528672,-0.02173755,0.0369315,-0.00872097,0.00277315,0.03070497,-0.01816774,-0.05029107,0.03221776,0.00773138,0.02635839,-0.01201474,0.03743637,0.01564265,-0.01876648,0.04904595,-0.02511382,-0.03362631,-0.02914148,0.01950432,0.0499273,0.03063794,-0.0008274,-0.0256908,0.03791054,-0.0239973,-0.01321375,0.01573988,-0.03845837,-0.00885726,-0.00584401,-0.04789453,0.00157192,0.02312204,-0.01271023,0.00345792,-0.03796679,-0.0280741,0.00004982,0.01993894,0.01894811,0.04176979,-0.00209009,-0.02575606,0.03539753,0.02122789,-0.04774809,0.04045414,0.02669559,-0.01296516,-0.01956968,-0.0281711,-0.03316852,0.03508109,0.01110154,0.01496678,0.00162232,-0.03235035,0.04197103,0.02176891,-0.02077093,-0.01705285,0.01295685,0.01330684,-0.01994005,0.02867351,-0.02566753,0.03270792,0.04911494,0.03917908,-0.01052726,0.05043033,-0.00640963,-0.02019053,-0.0261746,0.01782711,-0.01910632,0.01882271,-0.04087193,0.03166923,0.00719224,0.02337224,-0.01718886,0.02640961],"bias":0},{"weights":[-0.04398666,0.01368105,0.00634341,-0.00816533,-0.02729836,0.03990771,0.03057299,0.01120573,0.00228991,0.00513102,0.02514615,0.02889967,-0.0454822,0.02425734,0.04226102,0.04514349,0.01271041,-0.03883683,-0.01508381,0.00474352,0.02655205,0.00601253,-0.02468509,-0.03887707,0.02985642,0.04252032,-0.02067077,-0.00627141,-0.02726502,0.01265013,-0.03473761,-0.0032267,-0.04044544,-0.01837959,-0.01809585,-0.03283129,-0.05034294,0.04541862,0.02752133,0.00504381,-0.00237061,0.01163418,-0.00631454,-0.01063413,-0.02732738,-0.0231936,0.02788356,-0.04899626,0.01776547,0.00854335,-0.01813079,-0.00529858,-0.02585499,0.01778172,-0.0403519,0.0398109,-0.032284,0.01245536,0.02005782,0.00250511,-0.04488201,0.00965551,-0.03839462,0.02087104,0.00395484,0.03747633,0.00361393,-0.02447785,0.02084595,0.02793223,-0.00554365,0.04844107,0.01371769,-0.02290201,-0.03840319,0.03415164,-0.02335464,-0.03667729,0.04711499,0.00222315,0.01258748,0.04404165,0.01739131,0.00570399,0.04812969,0.02960817,0.03128184,0.02997378,-0.04074552,0.01315389,0.00130393,0.02528836,0.03816665,-0.02859177,0.04827834,-0.00403569,0.01221412,0.00543504,-0.03277241,-0.04632036,0.03007466,0.00454868,-0.01389049,-0.02304236,-0.01433188,0.03887492,0.00940257,0.0485281,0.0479577,0.03762412,-0.03813743,-0.0459963,0.03174028,0.00925945,0.04324957,-0.00348956,-0.03019293,-0.000116,-0.00238533,0.00476351,-0.04051812,-0.00923665,0.02153989,-0.0259049,-0.01991988,0.04965629,-0.04689388,0.00293721,-0.02348678,0.04721058,0.02981271,0.04941663,0.04920809,-0.0097536,-0.01838097,0.01349053,0.02214167,0.04170668,-0.02005009,-0.00201161,0.03704055,-0.00190093,0.00233731,-0.03428986,-0.00119723,0.01830422,-0.02492867,0.04985821,-0.0154309,0.01477492,0.02127466,-0.04423923,0.04540713,0.02458453,-0.03690181,0.02880304,-0.04798636,-0.03506713,0.01198167,0.02833661,0.00277229,0.00840749,0.01830471,-0.027739,-0.01406236,-0.01705812,-0.01730506,-0.00823486,-0.00652526,0.0048112,-0.04416754,0.03639314,0.04385676,-0.04647973,-0.01834793,0.01371033,-0.01553511,0.01722503,0.01449764,0.01359864,0.04133081,0.00762878,-0.00820104,0.04153651,0.01084564,0.00865026,0.01341611,0.04654739,0.04840819,0.01748451,-0.00214944,-0.0465338,0.0298592,-0.00789402,-0.03673625,0.04160827],"bias":0},{"weights":[-0.01675784,-0.04822621,0.01878566,-0.03342884,-0.03906705,-0.00930171,0.04425213,0.03574176,-0.00002429,-0.03713377,-0.00012858,0.04131251,-0.00673101,0.00488175,0.04762168,-0.03403538,0.01391109,0.0104064,0.02693041,0.00222575,0.02174802,0.02267895,-0.00952658,0.00222179,-0.01854475,0.0040301,0.04950309,-0.00961829,0.02188772,-0.03207972,-0.02852939,-0.02615246,-0.00792857,-0.01150006,-0.02967214,0.01288795,-0.00284759,-0.04623017,0.05024462,-0.00163778,-0.03528357,0.02019563,0.01645129,0.00984796,-0.03053494,-0.0023965,-0.04844069,0.03604234,-0.03355857,-0.00506962,0.02377886,0.00097407,-0.00338504,0.04844629,-0.02781775,0.01420405,0.03255058,-0.03735841,0.00476842,0.02608802,0.00801561,0.00867674,0.0223702,0.02094358,0.02225789,0.01961198,-0.04402366,-0.0121543,0.03463428,0.04563076,0.02113024,-0.0321276,-0.01326302,-0.00694003,0.02564259,0.01258384,-0.04717406,-0.0338588,0.01362032,-0.02511886,0.01287537,-0.03412881,-0.00128873,0.01520211,-0.00188306,0.01319332,-0.04565138,-0.00325156,-0.02540203,0.03903474,-0.01338252,-0.00042349,0.03377201,-0.03317583,-0.04102541,0.03797291,-0.01755369,-0.01817604,0.04518799,0.00263313,-0.02297364,-0.01656381,0.0281547,-0.04968048,0.01474263,0.00236792,0.03243315,0.01425058,0.01057734,0.02538198,-0.03070828,-0.02755292,-0.0376914,-0.02055712,-0.00522602,-0.00177766,-0.02467904,0.01487442,0.02347584,0.02855534,-0.01322512,0.03961693,-0.04332117,-0.00279721,-0.03945207,0.03519297,0.03148474,-0.03880199,-0.01528388,0.04648377,-0.01932577,-0.04361883,0.00470245,0.04397429,-0.01905833,0.01130724,-0.02505293,-0.0455262,-0.00737293,0.00617468,-0.0302475,-0.04440149,-0.03808236,-0.04241979,0.03278129,-0.03980624,0.04816697,-0.04544865,0.00057887,-0.01096854,0.00159588,0.04840944,0.00204188,-0.03500714,-0.02691652,0.03734617,-0.04812454,0.03391775,0.03808843,0.02088298,-0.01691439,-0.03832255,-0.04792776,-0.00760369,-0.03730928,-0.03282566,-0.01814417,0.02677031,0.03102617,0.00145843,-0.01959796,-0.00155213,0.04695781,0.03645475,0.01315872,0.03089223,-0.03281417,-0.04524175,-0.01298545,0.02757654,-0.04204838,0.02493035,0.04816407,-0.0128388,0.01912683,0.03794688,-0.0171743,0.00212256,0.0457757,-0.01905754,0.03406832,0.00514906,-0.01209715,-0.04492096,-0.03350579,0.03147843],"bias":0},{"weights":[0.04853637,0.03559747,-0.0165082,0.00895434,-0.00026315,-0.01629889,0.03553607,-0.01197944,-0.01194489,0.02699544,-0.01510947,0.00101051,0.02816831,-0.0185666,-0.01442441,0.02407943,-0.02262177,-0.02838052,0.02254746,0.00260467,-0.04465348,-0.00969928,-0.04673693,-0.0374101,-0.04107858,0.00249159,-0.03492272,-0.04157254,-0.02926534,0.01836644,0.01554998,0.04115835,0.00984679,0.04217219,-0.04134001,-0.03817942,0.04682829,0.04690593,0.03598254,-0.05033133,-0.0201858,0.02826846,0.04451021,0.05001365,-0.02861657,-0.02249207,0.02211471,-0.01241028,-0.02598611,-0.01723802,-0.02509003,0.01966872,0.00711231,-0.03527892,-0.0336063,0.03199926,0.0074112,0.03487733,0.04148927,0.03886103,-0.01860205,0.0246513,0.02255042,0.03196926,-0.03324093,-0.0007294,0.03382536,-0.01948661,-0.0224372,0.03843536,0.04497575,-0.00570919,-0.01503527,-0.03667597,-0.01689136,-0.04766087,0.01814243,0.04174226,-0.02154015,0.02756679,-0.04815643,-0.02866224,0.04952413,0.0140654,0.01726364,0.03921542,0.03957453,-0.00025915,0.01775315,0.01917678,0.02818386,-0.0475604,-0.03879434,0.00735524,-0.02579555,0.04969304,-0.03437077,0.02218358,-0.02894654,0.02444565,0.02539672,-0.04742182,-0.01814839,0.02064384,-0.04286474,0.02289596,0.02055754,0.00847881,-0.01749189,0.03401684,-0.04819751,0.04464441,0.01974478,0.0259644,0.01289219,0.04579683,-0.0370366,0.01881474,-0.04640693,0.01079859,-0.00840496,-0.00023923,-0.01395799,0.00421045,0.00390202,-0.02959882,-0.04541748,-0.01504441,0.00240261,-0.01170928,0.04639877,0.03457585,0.0230811,0.00135019,-0.01711525,-0.02395052,-0.03627225,-0.0343627,0.01280413,-0.00948231,-0.00432177,-0.00587349,0.04181082,-0.02472854,0.00970401,0.03257225,0.03195025,-0.02206724,0.04065074,0.02960764,0.05030933,-0.03999634,-0.00623844,-0.03805741,0.0171227,-0.02334635,0.02373489,-0.02598192,-0.02477682,0.03692285,0.01406328,0.04706824,-0.02282388,-0.00171287,0.04687512,-0.02289844,-0.03694909,-0.03829131,-0.01909748,-0.03486882,0.00708643,-0.04973839,-0.04284467,0.00583257,-0.00140801,-0.03658,-0.00738573,0.01475519,0.037991,0.03166612,0.02057957,0.02548996,0.0371342,-0.04920278,-0.00822324,-0.02407008,0.02011619,-0.04197911,0.00272695,-0.03201053,-0.01533918,-0.03712839,-0.01105778,0.02684264,0.04752821,-0.02543032],"bias":0},{"weights":[0.01579286,-0.01511754,0.02046737,0.04904122,0.01855087,0.03554137,-0.03352647,-0.02178871,0.02463638,-0.03860235,0.04615156,0.04687487,-0.02185371,0.00490194,-0.00639191,0.00431115,0.01648204,-0.04763525,-0.03840627,-0.03880212,-0.04989768,0.0224682,0.04524079,0.02243217,-0.00858082,0.00029527,0.00955065,-0.03312279,-0.01984465,0.01189266,-0.04848776,0.00108672,0.04332151,-0.02200452,-0.01669453,-0.0059873,-0.02398601,0.01973538,0.00005221,0.0185738,0.02640336,0.00690847,0.03017557,0.01385379,0.00178678,0.00832987,-0.01834293,0.03900353,-0.04900345,-0.01496468,-0.04363466,0.02197352,0.0377909,0.04320451,-0.0114847,0.04269229,0.04990751,-0.01556304,0.02098169,0.04191591,0.00396267,0.0454777,0.04568035,0.03745395,-0.00714821,-0.05029714,0.03855367,0.02891772,-0.02499569,-0.02085659,-0.01918512,0.04605132,-0.02213991,-0.01573697,-0.03290446,-0.00455107,0.04557423,0.02434829,-0.00021609,0.04463976,-0.00949612,0.02887002,0.02368231,-0.02053757,-0.02761972,-0.00240518,0.01434517,0.01787571,-0.0312901,-0.01541743,0.02245804,-0.04098267,0.03318231,0.01410413,0.03550787,0.00859621,-0.02516594,0.04118499,0.03772398,0.00148943,-0.04677415,-0.00153349,0.00186591,0.04242364,-0.04544403,-0.02126815,-0.04241489,0.04618078,-0.02987551,0.00653014,-0.02089939,0.02688223,-0.01450923,-0.02475797,-0.00448865,-0.01989308,0.02953766,0.03952241,0.03241761,-0.01383252,-0.0437547,-0.02356347,-0.02345486,0.00851134,-0.04523256,0.0007694,0.04431924,-0.0463076,-0.02873682,-0.03131065,0.01440167,0.017621,-0.00336277,0.03456247,0.00095057,-0.01922185,-0.01103543,0.04247655,-0.03489791,-0.04143647,0.00601185,0.04824685,0.01596881,-0.01339553,0.02008665,0.02358472,0.01386619,0.00338876,0.0021001,-0.00610349,-0.04608068,-0.03435567,-0.03363618,-0.03235368,-0.00937215,0.03069074,0.02521611,-0.02599915,0.04831837,0.00729345,0.03088499,0.01719791,0.00914073,-0.04453586,-0.03282865,0.04471996,-0.01043126,0.01935284,0.01663599,-0.0244903,-0.03783219,0.03837722,0.02069917,-0.03033517,-0.0048114,-0.01612128,0.01986041,-0.03661448,0.00756357,0.00812299,-0.0418782,-0.02805971,-0.00161157,-0.00944611,-0.01562926,0.0058468,-0.00083284,-0.02780011,-0.04530964,0.02536831,0.03844574,0.01092003,0.02512428,0.04607178,-0.02942091,-0.00650871],"bias":0},{"weights":[0.04758392,0.03961505,0.0068017,0.02775196,-0.00919571,0.03460375,0.00159038,0.00717892,0.03765515,-0.02700532,0.03940281,0.04734988,0.01955522,-0.04176102,0.0026926,0.01966254,0.03952093,0.03984163,0.03477265,0.00064486,-0.0229424,0.03910316,0.00320989,0.0436506,0.03229504,-0.00511352,0.04737402,-0.0215326,0.03186587,0.01158175,0.03576207,-0.01361235,-0.04210096,-0.02379325,-0.01646921,-0.00232634,0.01930042,-0.01617002,-0.03247523,0.03473807,0.03365862,-0.00147597,0.0403506,-0.02468447,-0.04208774,0.01187642,-0.04419514,0.01239334,0.01224451,0.00471783,0.04288598,0.00792715,-0.01663536,0.03243363,0.01502617,0.01437672,-0.00178162,-0.00173796,-0.02272067,-0.03310875,-0.0190983,0.0174953,0.01481551,-0.00218125,-0.0416104,-0.0055909,-0.00173525,-0.04474579,-0.01673387,0.00764388,0.03737295,0.00099721,-0.0290197,-0.03568273,0.02505983,0.04518214,0.01015297,-0.04060874,-0.02121434,-0.04115582,-0.01941065,0.0059978,0.02855425,-0.0364466,-0.02367341,0.00424634,0.04773341,0.03478339,0.00183494,0.00519673,0.04464662,0.03237563,0.03572734,0.00452909,0.00322541,0.04843619,-0.01020655,-0.00406407,-0.00780079,0.0332626,0.04952267,0.00579759,-0.0451469,0.05021491,-0.02022507,-0.0370902,-0.02486605,-0.01409451,0.00053027,0.03254983,-0.00193614,0.00634792,0.02148611,-0.02997388,0.01912159,0.02848462,-0.01711349,-0.00721361,-0.04618201,0.048474,0.03952613,-0.0136386,-0.03496327,-0.00141132,-0.03212125,0.00757525,-0.0212639,-0.03663819,-0.01245778,0.04896894,0.04809421,-0.00999443,-0.00482135,0.01419833,-0.03323853,0.0092764,-0.00211198,0.04070355,-0.00946953,-0.00834335,0.04896091,0.03388491,0.02335518,0.03471848,-0.01551631,-0.01548024,-0.00601133,-0.03111848,0.04371554,-0.02829744,-0.0230196,-0.03937102,-0.01647539,-0.0258313,0.01560759,-0.01749447,0.02964285,0.04879494,0.04040227,0.01062423,-0.02147002,0.02687026,-0.039527,-0.04383626,0.04984955,0.01896684,-0.01455488,-0.03129272,-0.04328164,0.04466094,-0.00032981,-0.03313907,-0.04328693,0.04050875,0.02332033,0.02298365,-0.02972358,-0.03568108,-0.03811652,-0.04786667,0.03409865,0.00989666,-0.01301539,0.00796548,0.04129604,-0.00999101,0.03141436,-0.03712791,-0.02361332,0.03098642,-0.05014308,0.03645256,0.00228587,0.02066058,-0.01641429,-0.02833662],"bias":0},{"weights":[-0.027785,0.00222201,0.00051769,-0.02846539,-0.00760634,-0.00565822,-0.02737311,0.03068958,0.03276541,-0.00011454,-0.03226312,0.0235936,0.01249497,0.03431151,-0.03248213,0.01131721,0.03076278,0.01642834,0.04745705,-0.01904849,0.02971005,-0.00788915,-0.03187747,0.0234332,0.04678637,-0.03562345,0.00936604,0.04202625,0.03142641,-0.00188981,0.0104923,-0.00250571,-0.01959631,0.03971362,0.03754723,-0.0193554,-0.04711903,-0.00400956,-0.04196119,-0.03869582,-0.00015838,-0.04940896,0.00787883,0.00053625,0.04211847,-0.0010384,-0.03303159,0.04422863,0.04033483,-0.03712317,0.00653544,0.03880222,0.0253289,-0.01371539,-0.0469035,-0.03801685,-0.04274495,0.00490351,0.04835745,0.02785411,0.02212691,-0.04257065,0.0406945,0.03350089,-0.0272698,0.04605376,0.0448279,-0.01894488,0.03203095,0.04045495,-0.0025566,-0.00943692,0.00883955,0.00046723,-0.03306588,-0.00673176,-0.04202635,-0.0461467,0.0050449,-0.02033441,0.01770214,0.0348832,-0.03728081,0.03799481,-0.00757749,0.00016803,0.0429077,-0.0224773,0.00168814,-0.00613983,-0.00338332,0.02708533,0.03034453,-0.00161963,0.02172046,0.00710018,0.01050568,-0.03920085,-0.00870797,0.04980201,-0.00952203,-0.00776139,0.0144253,-0.03042118,0.02516508,-0.00833647,0.04781549,-0.03607368,0.04874357,-0.04875333,-0.03687521,0.04045662,0.00507632,-0.04801381,0.00244099,0.01328559,-0.0310318,-0.01577273,0.03700785,-0.01560893,-0.00556173,0.03341492,0.04705403,0.03222491,-0.00507089,-0.00543289,-0.03418857,0.02511163,-0.01291926,-0.04885585,-0.04110801,0.00623424,-0.01299299,-0.0459754,-0.01233131,-0.02315954,-0.00948236,0.03103716,0.02793212,-0.02184215,0.01295379,0.02678342,-0.01905408,-0.03038042,0.04221323,-0.04122051,0.02146298,-0.04599528,0.01867728,-0.04534448,0.02597912,-0.0319923,0.03047268,-0.0182456,0.01835172,-0.00136023,-0.03113563,0.02036443,0.0227163,-0.0246503,0.0399659,0.04291357,-0.03994322,-0.02790018,-0.01971931,-0.00844769,0.02437137,0.00569851,0.0319367,0.0477963,0.03001845,-0.02639865,-0.04209585,0.0355696,-0.0421212,0.00396231,-0.00824755,0.03432002,-0.01538306,0.04489436,-0.02804343,-0.0201012,-0.03386002,0.00461219,0.04429334,-0.04271755,-0.00145563,0.00819386,-0.03249675,0.02531902,-0.04032344,0.01588799,-0.04590199,-0.04566594,-0.04516302,-0.02576135],"bias":0},{"weights":[-0.0165915,0.04099194,0.04147064,-0.03990908,0.01244427,0.01905075,-0.03052088,0.03479992,-0.02821969,-0.03315962,-0.00432907,-0.04241156,0.03568411,-0.04173346,-0.02102878,0.02538231,-0.02618353,-0.04300203,-0.04673366,-0.00511232,-0.00696588,0.00041856,0.04340106,0.04967517,-0.03833474,0.03062973,0.02603089,0.00421257,-0.04621641,-0.04521958,0.03422467,-0.04436706,0.00185245,-0.03039168,0.02998944,0.02679647,-0.00520118,-0.03202791,-0.03061317,-0.03348927,0.02299451,0.00578255,0.01577685,-0.04350256,0.03422367,-0.00372364,-0.01921069,-0.01067786,-0.02900705,0.00840688,0.00653857,-0.00938145,-0.00754163,-0.02413361,-0.03276598,0.01851276,-0.02237951,0.01857864,0.03429585,0.04255104,-0.04823595,-0.02502766,0.04532594,-0.03992889,0.01413894,-0.03555393,-0.02384962,0.04546027,0.0213406,0.03648863,-0.01980813,0.01558797,-0.04630161,-0.01151178,-0.03016547,-0.00245616,-0.0335251,0.03309582,-0.04396864,-0.00458048,0.01242453,-0.04122246,0.02633511,0.01566493,0.03469276,-0.03358251,-0.03277053,-0.04149231,0.0400953,0.00452563,0.03817301,0.03136061,-0.00951708,0.01318094,0.01091548,-0.04221031,-0.02548359,0.00127685,-0.00176174,-0.01006031,-0.03501607,0.04906228,0.00077025,-0.04344814,-0.03925978,-0.001978,0.0081683,0.0270942,0.03223572,0.02358435,-0.00968521,-0.01278699,-0.04057831,-0.02779684,0.01880566,0.00851581,-0.03860026,0.00548477,-0.03838746,-0.00221464,-0.0483669,-0.02405036,0.0428895,0.01381436,0.01897385,0.03580222,-0.01716458,-0.00840796,-0.01743586,-0.0395824,0.02548395,-0.04580536,-0.04736376,0.00023009,-0.02998001,-0.00653691,0.03339909,-0.04871267,-0.00640248,-0.0344937,-0.04568073,0.03089897,0.04377865,-0.00720669,0.00690655,-0.04988024,0.01021262,-0.01322482,-0.0083383,0.02414313,0.00715017,-0.02596555,-0.02001065,0.00802385,-0.04682554,-0.01189581,-0.03330195,-0.02909245,0.00023031,-0.0039169,0.00467028,-0.04248941,-0.04734842,0.02010725,-0.01830688,-0.02648964,0.03711889,-0.01438154,-0.00995953,-0.005049,0.03840557,0.03580994,-0.00642029,0.04649945,0.00778025,-0.01719253,0.00683029,-0.03316736,0.03539099,0.02698222,-0.0045928,0.03826456,0.021822,-0.00347634,-0.00256919,-0.02784433,-0.04183024,0.03288732,0.02426287,0.01225751,-0.04470371,-0.01249288,0.01338818,0.03425751,0.03261358,-0.00176084],"bias":0},{"weights":[-0.04041789,0.03841591,0.02306201,0.04052915,0.00530556,-0.00409557,0.00916963,0.00850964,-0.0326671,0.0249182,0.02633316,-0.00267203,-0.00027493,0.04459627,-0.01361291,0.03176768,-0.03333328,0.01135903,0.02166119,0.0172894,-0.01175767,0.01946301,-0.01387103,0.01605457,0.0246265,-0.00849064,-0.03775753,0.01972679,0.04966912,0.00918478,0.03347246,0.03364325,0.01453178,0.05010847,0.02441969,0.03117007,0.01626409,-0.02779861,-0.04284177,-0.01705728,-0.02499014,-0.00570296,-0.0072773,-0.02860324,0.01399313,-0.00724094,-0.02709711,-0.02897707,-0.01979382,0.01244265,-0.00194155,-0.01459333,-0.03916291,0.01965306,-0.03957439,0.0322721,0.0447824,0.01380607,-0.02885195,-0.01202825,0.03655439,-0.02703214,-0.00975968,-0.01283383,0.02827268,-0.00907821,0.02632372,-0.03860136,0.01025993,-0.02103265,0.00357627,-0.04304345,0.02331807,-0.02687147,0.04114403,-0.02922967,-0.03371331,-0.00923824,-0.04890859,0.03361688,-0.02085819,-0.02509865,-0.02446908,-0.00948236,-0.00458789,-0.02084799,-0.02505445,0.01547157,-0.04410797,-0.03544385,-0.04637571,-0.03912032,-0.02412507,0.04999197,-0.00431574,-0.04244609,-0.01231778,0.02273324,0.04042695,0.00423037,0.01262788,-0.00624553,0.03602127,0.0473966,0.00513382,-0.02363705,-0.02498012,0.04543672,0.02290568,-0.005398,-0.00057091,0.03959589,-0.01752381,-0.04225657,0.02799362,-0.00127812,0.04886236,0.01350069,0.01285631,-0.01188623,-0.03383985,-0.02094473,0.049033,0.01369486,-0.01781588,0.01004221,0.03486968,-0.01368881,0.0475706,0.03648107,-0.02315604,0.00803131,0.02189471,0.01775931,0.03555857,0.03834558,0.03597164,0.00702975,-0.0347529,-0.04807431,-0.04203273,-0.03034805,0.04631825,-0.04261504,0.03451328,-0.03111945,-0.05039363,0.02414738,-0.01585272,0.04468968,0.02395481,0.04691574,-0.01573099,0.04720338,0.03152244,-0.00398787,0.0481177,-0.00048765,0.04107095,0.04342417,0.04928776,0.05020961,-0.03573796,0.03121546,0.01668094,0.0404027,0.01006063,0.04694957,0.02357898,0.02589546,-0.0140565,0.04042157,-0.00412867,0.01691969,0.00702642,-0.00655016,0.01979208,0.03569791,-0.02406308,-0.0477259,0.04092485,-0.0047936,0.01737355,-0.01140968,0.02898305,0.04572828,0.03557831,-0.02317916,-0.00988739,0.03352795,-0.02630923,-0.02098581,0.01324259,-0.04130684,-0.04577452,0.03714185],"bias":0},{"weights":[0.04456316,-0.02978682,0.00228301,0.045406,-0.02185719,0.04628617,-0.0123485,-0.02228207,0.04009578,0.0199995,-0.00283874,-0.03711827,-0.01805142,0.00149953,-0.02471539,0.01364747,0.0072724,-0.03828446,-0.0052577,0.00241036,-0.04352214,-0.00392601,-0.03318174,-0.00444408,-0.01762123,-0.02823689,0.03841211,-0.04202125,0.02171948,-0.01817425,-0.03032484,-0.03879803,-0.04213867,-0.00760837,0.0498512,0.0110479,-0.02965378,0.00007046,0.01158759,0.01379419,0.00594439,0.00482438,-0.02794077,0.04935413,-0.04330538,0.0419088,-0.03743559,0.04252387,-0.04880518,-0.02070659,0.0414602,0.03633909,-0.03992842,0.02205083,0.00519456,0.0090351,-0.02775314,-0.00487588,0.00331097,-0.02268862,0.02462239,0.04221036,-0.00429044,-0.02447203,-0.04414065,-0.04678002,-0.00542047,-0.03374563,0.00235234,0.03924406,-0.03719665,-0.04546014,0.0133861,0.01272812,0.0493475,0.02648958,0.0418068,0.00208693,-0.00983914,-0.00467756,0.0403008,0.00528572,0.01940542,0.00354943,0.00623386,0.04979243,-0.01457461,0.04195982,-0.04988624,0.01486972,0.03160746,0.01756928,-0.0447727,0.01179383,-0.02041701,0.04218411,0.01431873,0.04600939,-0.00655171,0.0360906,-0.01317901,0.02339115,-0.02573612,0.03852768,0.020753,0.03425049,-0.00623104,-0.02770945,0.03373263,0.02553804,-0.02497102,0.00755714,0.04467796,-0.03174456,0.01135086,-0.01808139,-0.04620889,0.04240099,0.0464808,0.0013102,0.00775252,-0.02885109,-0.04034139,-0.0179684,-0.03833523,-0.02918449,-0.03875681,-0.02317922,-0.01651733,-0.02950206,-0.01275704,0.0498675,-0.01450815,-0.04646491,-0.039109,-0.00279314,0.02425243,-0.04693673,0.0491675,0.02910016,-0.03603569,-0.00915338,-0.04154556,-0.01916255,0.00913724,-0.0004971,-0.01039139,0.01009735,-0.00074699,-0.01403185,-0.00777874,-0.04452186,-0.03628211,0.01841444,0.03510767,0.03811412,0.02517688,0.0489808,-0.04645695,0.03233804,-0.01237738,-0.03592617,0.03413568,0.01968382,-0.04206967,-0.04193281,-0.01783017,0.02188042,0.04158788,0.03152429,-0.04509684,0.02353683,-0.01518129,-0.01464731,0.02454184,-0.01116153,0.04516271,-0.01170348,0.00310723,0.03380535,0.01049791,-0.02266879,-0.01910993,-0.00164676,-0.00543234,-0.00328869,-0.04940066,-0.02845122,0.01994365,-0.02671895,0.0040493,-0.04894197,0.02481058,-0.00893098,-0.00955143,-0.04449539],"bias":0},{"weights":[0.03707969,-0.04431344,-0.02508847,0.00726014,0.02651883,-0.03090219,0.04431012,0.03443672,0.00239598,0.01021522,0.01645212,-0.04743101,0.02029953,-0.01320474,-0.00587659,-0.02968921,0.03609429,0.04354221,-0.02373541,0.04731796,-0.04923873,0.02631865,-0.01799679,-0.00709539,-0.0031187,0.00964833,-0.00757855,-0.04471716,-0.02213469,0.00376244,-0.01894344,-0.04954397,-0.03914782,0.02116437,-0.00978361,0.02445254,0.00811286,-0.0234326,-0.03426979,0.04066911,-0.02798354,0.01138135,-0.04328188,-0.02604685,-0.00972588,0.02686546,0.04810823,0.00845312,0.00789528,0.00359811,-0.04465219,0.00206182,-0.04596968,0.0222511,-0.00769616,0.03918671,-0.02559098,0.04656021,0.00450647,0.03568398,-0.02680386,0.02790253,-0.03622796,-0.03400007,0.01115866,0.00340931,0.02843276,0.03295819,-0.04048822,-0.00268238,-0.03597842,-0.00072706,0.00830998,0.03041781,0.01509675,0.00479285,0.03571237,-0.00752821,0.00287536,0.03632617,-0.04531284,-0.00956422,-0.00156292,-0.02747085,-0.01347414,0.01269857,0.02176812,0.00854104,0.02739684,-0.04297751,0.0262866,-0.01592707,0.02329667,-0.02614008,-0.00896065,0.04313628,-0.03018667,0.03552599,-0.04454661,-0.02509565,-0.02160133,0.04035717,0.04756804,-0.02066667,0.01144898,0.01562673,0.02682711,0.02661249,0.04966218,-0.03280523,0.03446164,-0.0426828,0.0164295,0.01572793,-0.00190582,0.02864818,-0.04253176,-0.02337773,0.04601027,0.04602338,-0.02378564,0.04373981,0.02222558,-0.02137452,0.01348304,0.04041469,0.01789659,-0.02105951,0.00720889,-0.01501054,-0.0353551,0.00590459,-0.02664421,-0.04533685,-0.04676086,-0.04558518,0.04379388,-0.04606514,0.01014401,-0.02262715,0.02062757,0.03390699,-0.05008767,-0.01046355,0.03152312,0.00410865,-0.012168,0.04130852,0.01135961,-0.03635113,-0.0274199,-0.00020355,-0.01332059,-0.01455154,-0.04790594,-0.00617513,0.00268245,-0.00531531,-0.02122196,0.02592551,0.01709254,0.0111496,-0.04437514,-0.03994639,0.01809606,0.03601656,-0.01557643,-0.0230006,-0.0106779,0.01377304,-0.01837512,0.02101669,0.04298111,-0.01528977,0.01127653,0.01063869,0.02285596,0.00642981,-0.04036827,-0.03591433,0.02674074,0.04972173,-0.03379444,0.02377815,0.01632134,0.0434548,-0.03630443,-0.0420779,0.04312579,0.02897302,-0.0457718,0.04907893,-0.03604411,-0.03960874,0.02692786,-0.04699963],"bias":0},{"weights":[0.00275892,0.01753134,-0.04322088,0.01239524,0.03712335,-0.01282447,-0.04902877,-0.04544411,-0.02466217,0.04989596,-0.04631512,0.02877514,-0.00376409,-0.0320864,-0.01158438,-0.02478297,-0.05025454,-0.04763893,0.02795281,-0.03740991,0.00775241,-0.01760162,0.01433705,-0.00570104,-0.03652664,0.03379427,-0.045184,0.04907953,-0.03437587,-0.01359301,-0.00219632,0.04283828,-0.00274308,-0.03424378,0.00384197,-0.03420187,-0.03535484,0.04644268,-0.02035856,-0.00922584,0.01965604,0.04264687,0.04172909,0.04211357,0.04943093,-0.013985,-0.01117098,-0.02499422,0.01720018,-0.0137839,0.04497124,0.00861341,-0.01320108,-0.05046196,-0.02340197,-0.00436978,0.04879583,0.02004893,-0.0218755,0.00433992,0.00939746,-0.00238933,-0.00989038,-0.01254579,0.01124279,0.0119118,0.01331622,